student_id,0,1,2,3,4,5,6,7,8,9,10,11,12,13,14,15
0088dc183f73c83f763e,-0.06708047,0.036566254,-0.12996478,-0.040186282,0.10273224,-0.1911743,-0.16162479,-0.059433192,0.056757342,0.06909236,-0.06524887,-0.12112609,0.017342638,-0.0056336713,0.12368285,0.024535751
00cbf05221bb479e66c3,-0.03471298,0.0019067148,-0.09535922,-0.07205856,0.06729333,-0.1556168,-0.12452243,-0.024940765,0.09201417,0.035870083,-0.029996863,-0.08662745,-0.017800499,0.029314475,0.08986004,0.060495958
00df647ee4bf7173642f,-0.0007531616,-0.032859083,-0.060587782,-0.10533428,0.031925537,-0.12079324,-0.087614596,0.0094874315,0.12758623,0.0019072918,0.0052981027,-0.051978134,-0.052822065,0.064264216,0.056227002,0.09678841
0107f72b66cbd1a0926d,0.029539173,-0.0593263,-0.03392809,-0.13417715,0.0053081135,-0.09803077,-0.062070567,0.03426208,0.15402259,-0.026385203,0.030896101,-0.026743557,-0.078790046,0.0902209,0.031090485,0.12270176
011d454f199c123d44ad,0.06914145,-0.095955096,0.0030488982,-0.17369483,-0.031652562,-0.06420146,-0.024772702,0.069444016,0.19026749,-0.064907044,0.067518644,0.009007561,-0.1137564,0.12585586,-0.0036484506,0.15962063
01558eef77a8d39b7103,0.10063049,-0.121911205,0.029830208,-0.20354216,-0.0576411,-0.0416418,0.0016132079,0.093948685,0.21731727,-0.09365976,0.09341869,0.03437967,-0.13959716,0.15137485,-0.028753797,0.18612354
016226278e6a69e10aa4,0.13346696,-0.15386692,0.061511192,-0.23558085,-0.09047509,-0.012110131,0.033223223,0.124924265,0.24871454,-0.12618661,0.12468386,0.0653718,-0.1709212,0.18323179,-0.059050065,0.21790767
01a691413dc5897db83f,0.16638292,-0.18799262,0.09630959,-0.26773462,-0.12538281,0.02342093,0.070329726,0.15914445,0.28373888,-0.15965036,0.15965967,0.099582754,-0.20564722,0.21797012,-0.0925614,0.25397915
01d8aa21ef476b66c573,0.19716495,-0.21748169,0.12556829,-0.2970632,-0.15532179,0.050529588,0.10028176,0.18768792,0.3138588,-0.18955407,0.18911175,0.12831353,-0.23552139,0.247439,-0.12101139,0.28377423
01qkq6w2v62cimidb3b7,0.24395493,-0.25241676,0.1615704,-0.34389064,-0.19031858,0.07702794,0.13310899,0.21883215,0.34796792,-0.23120968,0.22204852,0.16155493,-0.26581994,0.2797337,-0.15358976,0.31734934
02068067a434adb6556a,0.26108843,-0.28164613,0.19024698,-0.35839662,-0.22073066,0.114233255,0.16836035,0.25127003,0.37993163,-0.2534944,0.2544419,0.19213109,-0.30122188,0.3126972,-0.18390578,0.35055223
0258f681a9e1756dfc76,0.3006334,-0.3120145,0.22170481,-0.39746884,-0.25163704,0.13824125,0.19757178,0.27964884,0.409897,-0.2897225,0.28414816,0.2214074,-0.32904577,0.34195206,-0.21253838,0.38049603
03754dce5ec7731fb3e2,0.3304341,-0.340129,0.24943756,-0.42603394,-0.27995625,0.1634244,0.22525355,0.30619946,0.4382465,-0.31813323,0.31123182,0.24866101,-0.35728505,0.36936846,-0.23876947,0.40902233
037a76bc8e6bf5fe1fc0,0.3625697,-0.37565115,0.28532004,-0.4565494,-0.31604353,0.20145354,0.26490533,0.34238076,0.47540206,-0.3516078,0.34848297,0.28447104,-0.39450932,0.4064889,-0.27465063,0.4464655
03aa0b20dd4af1888eef,0.40725297,-0.4077502,0.31770515,-0.50188506,-0.34878108,0.22235903,0.2923154,0.3707665,0.5052569,-0.39124116,0.3774415,0.31445938,-0.42127332,0.43559274,-0.30318052,0.4765046
03b463f52c0fff35433b,0.4330334,-0.4385776,0.3488118,-0.52517843,-0.37963283,0.2572701,0.3279523,0.40262124,0.5387136,-0.41870353,0.41058356,0.34606832,-0.45583248,0.46875653,-0.3349297,0.51012987
03e0c9bff3a9557480d9,0.46561798,-0.46956652,0.38047644,-0.5566015,-0.4117607,0.2874425,0.36059976,0.4332716,0.57051766,-0.45107707,0.44202122,0.376723,-0.4874045,0.50003654,-0.36489955,0.5425658
04f2689b4ea16d8d7d9a,0.50500435,-0.5021548,0.41426256,-0.5959905,-0.44607142,0.3158473,0.39291182,0.46474776,0.6028621,-0.4882946,0.47402716,0.40845856,-0.51798207,0.53195906,-0.39560536,0.57594216
0557b1363a5092b5811f,0.53283554,-0.53483295,0.4466171,-0.6208283,-0.4782897,0.35102528,0.42997557,0.4978466,0.63780767,-0.5176428,0.5086399,0.44178343,-0.5536984,0.56659573,-0.42914274,0.61031836
0559e9cf806dab4cc20d,0.56810373,-0.56719,0.47944808,-0.6550189,-0.5112845,0.38080642,0.46317944,0.52921134,0.6705066,-0.5518617,0.54090226,0.47359893,-0.5855141,0.59894145,-0.4605027,0.6432758
056ab41140f68c15db14,0.60260767,-0.59717923,0.5097044,-0.68869936,-0.5421117,0.40661478,0.49270353,0.55784106,0.70050293,-0.5845691,0.57015526,0.50278044,-0.61443686,0.62844473,-0.4890145,0.6733904
058c03d945c4ae0978a0,0.63734514,-0.62774175,0.54080564,-0.7225838,-0.5730424,0.4336516,0.5234537,0.5870228,0.7314346,-0.6175211,0.60012645,0.53264594,-0.6442995,0.6587252,-0.51846194,0.70449084
05e1c3ce1728da7e37e0,0.674088,-0.66456574,0.5783899,-0.75779516,-0.6105746,0.470934,0.5635872,0.6239584,0.76939183,-0.65463513,0.638273,0.5696185,-0.6817403,0.6965416,-0.55494106,0.7431846
05e6d9723ab3cde0841d,0.70331854,-0.69304514,0.6069745,-0.7850212,-0.63972837,0.49838692,0.593472,0.6521469,0.79904073,-0.68346214,0.6672104,0.59793025,-0.71141833,0.72589713,-0.5829133,0.7727216
061db2c91f94c612f2d4,0.73645574,-0.72248733,0.63687676,-0.81719244,-0.6696307,0.5246604,0.62324065,0.6802365,0.8290205,-0.7150176,0.6960786,0.6268878,-0.7405683,0.75508934,-0.61119366,0.8029459
06309f4c8785254f4c13,0.7716291,-0.7558319,0.67052895,-0.8508855,-0.7036433,0.5561358,0.65808403,0.7132921,0.8631738,-0.7494854,0.7299055,0.65991336,-0.7738473,0.78907657,-0.6439503,0.8371781
06aff3e28c5db152f506,0.80757904,-0.7872821,0.70237297,-0.88625896,-0.73578006,0.5833265,0.68925506,0.74328375,0.89466417,-0.78364915,0.76052547,0.69061893,-0.8040868,0.8200997,-0.6740729,0.8689922
071685b292483b04e836,0.83919704,-0.8152992,0.7303998,-0.9166621,-0.76452464,0.607468,0.7169868,0.76987755,0.92287326,-0.8137182,0.78756464,0.71786183,-0.83131397,0.84761864,-0.70114344,0.8968114
074d7f43de7264306775,0.8745003,-0.8510393,0.76724464,-0.9498827,-0.8010648,0.6447609,0.7567796,0.8062894,0.9603746,-0.8497043,0.82533836,0.7541103,-0.8688381,0.885235,-0.7367794,0.93529814
077d5c82c9ee5019220f,0.908987,-0.8823649,0.7983717,-0.9835498,-0.8327422,0.6720041,0.7875635,0.836383,0.99180174,-0.8825337,0.8557215,0.7848261,-0.8992008,0.9164535,-0.766859,0.96680367
07e3362d20ff4337671b,0.94395816,-0.9144043,0.8309989,-1.017505,-0.86583835,0.70174074,0.8207309,0.8677825,1.0245948,-0.91660964,0.8879034,0.8163106,-0.9310628,0.9485321,-0.79791737,0.99996156
091554ffa26fc9b17c36,0.9757721,-0.9435552,0.8605301,-1.047708,-0.8960673,0.72872335,0.8508157,0.8959981,1.0545077,-0.9475994,0.91685975,0.8452296,-0.9604019,0.9779574,-0.82639205,1.0299702
09400a9b50b6c96c5510,1.0116377,-0.9764199,0.8939582,-1.0831345,-0.929503,0.758756,0.88435555,0.9278125,1.0877535,-0.98216856,0.94925106,0.87752086,-0.9925943,1.0105666,-0.8579761,1.0639178
098b2c66cbc1ed736e14,1.0458037,-1.0089637,0.9268764,-1.1155251,-0.9630059,0.7897371,0.91844416,0.9601108,1.1211257,-1.0159698,0.9823058,0.9099174,-1.0255181,1.0440781,-0.8898685,1.0976237
0999173c045ee29a0b44,1.077717,-1.0399185,0.9586238,-1.1448898,-0.9946415,0.82065785,0.9524562,0.9911619,1.1536738,-1.047933,1.0146048,0.9411935,-1.0578221,1.0765414,-0.9210794,1.1302365
09dfa3f18e48917f0242,1.1153986,-1.0733842,0.9922794,-1.1821667,-1.029315,0.8495463,0.98526543,1.0234597,1.1868273,-1.0839667,1.0470201,0.9735977,-1.0893376,1.1094731,-0.95315045,1.1637474
09e4bfadd7e012c37c7c,1.1469774,-1.1037997,1.0233647,-1.2116692,-1.0602219,0.8795859,1.0183775,1.0535603,1.2189007,-1.115275,1.078441,1.004338,-1.1210921,1.1409374,-0.9834371,1.1959774
0a7f1a73361654329281,1.1805959,-1.1347376,1.054643,-1.2441701,-1.091923,0.9076899,1.049915,1.0835421,1.2502477,-1.1479406,1.1088725,1.0348134,-1.1516899,1.1719817,-1.0134611,1.2276565
0a8736f6520cea837d94,1.2166436,-1.1676731,1.0880045,-1.279002,-1.1262281,0.93769443,1.0834036,1.1158015,1.2833183,-1.1831584,1.1416637,1.0671444,-1.183704,1.2051255,-1.0454742,1.2612199
0b02f701b1179f9f74f9,1.2493668,-1.1985188,1.1190971,-1.3113844,-1.1569792,0.9661392,1.1149235,1.1454827,1.3150994,-1.2145953,1.1718502,1.0976921,-1.2148073,1.2358263,-1.0750134,1.2934802
0b16d35f1f39a063708a,1.2876974,-1.2321568,1.1529983,-1.3488485,-1.1931168,0.9954137,1.1480712,1.1783742,1.3484001,-1.2516098,1.2047755,1.1302735,-1.2460369,1.2689077,-1.1077197,1.3268919
0b28c0a454678b75eefb,1.314528,-1.2608935,1.182685,-1.3720759,-1.2206993,1.0267692,1.1819656,1.207337,1.3799626,-1.2792815,1.2358274,1.1602043,-1.278992,1.3005116,-1.1369982,1.3587198
0b307ee95b41e222f204,1.3497419,-1.2927946,1.2144927,-1.4070297,-1.2537794,1.0544887,1.2130591,1.23777,1.4116583,-1.3131446,1.2663859,1.1911821,-1.3093898,1.3315655,-1.1673555,1.3907706
0b828e1ae026c57b34dd,1.3819183,-1.3238237,1.2463875,-1.4368149,-1.2854296,1.0853316,1.2469623,1.268829,1.4442525,-1.345348,1.2986904,1.222568,-1.3419806,1.364264,-1.1982672,1.4238424
0b8bea274b24847526b7,1.4168389,-1.3559514,1.2786212,-1.4707454,-1.3184087,1.1139843,1.2793926,1.3000174,1.4766943,-1.379093,1.3301767,1.2539762,-1.3729969,1.3961976,-1.2295702,1.4563121
0bb8692f43a372e8d967,1.4550369,-1.3902025,1.3129739,-1.5087078,-1.354495,1.1438447,1.3133198,1.3333803,1.5109442,-1.4159182,1.3636582,1.2874343,-1.4049022,1.4295404,-1.262826,1.4907656
0c57caf5358d30408034,1.48348,-1.419122,1.3430483,-1.5341238,-1.3828014,1.1744248,1.3462604,1.3621966,1.5419265,-1.4448156,1.394233,1.317042,-1.4373667,1.4610249,-1.2915666,1.522535
0c670262b3941d307600,1.5241134,-1.4546509,1.3785312,-1.5757242,-1.4204537,1.2034905,1.3791221,1.3958441,1.5758739,-1.4834188,1.4272232,1.3506603,-1.4689432,1.4945147,-1.3249271,1.5572392
0c81ca27b7d931b6ff6e,1.5525256,-1.4833071,1.4078203,-1.6011138,-1.448774,1.2331885,1.4116915,1.4245996,1.6069568,-1.5120379,1.4576094,1.3801588,-1.5003848,1.5252151,-1.3538493,1.5882884
0d260d8fac2289c8ed9e,1.5888484,-1.5166255,1.4412411,-1.6373085,-1.4836931,1.2629132,1.4443892,1.4568514,1.6401343,-1.5473226,1.4899912,1.4126242,-1.5324341,1.5580115,-1.385476,1.6222366
0d4a3518a188f6888380,1.6186899,-1.5457484,1.4710578,-1.6642237,-1.5126402,1.2917881,1.4768547,1.4857441,1.6711,-1.5771118,1.5202773,1.442172,-1.5632467,1.5887514,-1.4150084,1.6530647
0dapvs3h4h3h1ahmt2o8,1.6613891,-1.5817814,1.5067326,-1.7084997,-1.5520544,1.3193611,1.5079111,1.5192102,1.7045997,-1.6174345,1.5527256,1.4753734,-1.5931543,1.6217228,-1.4491464,1.6868247
0df40593e76a840fd64b,1.6914339,-1.6119803,1.537939,-1.7352028,-1.5820407,1.3512549,1.5429664,1.5503455,1.7372513,-1.6475828,1.5851836,1.5065387,-1.6263621,1.654434,-1.4792651,1.7199054
0e062d9fa22dc8e3bca2,1.722559,-1.6417034,1.5660911,-1.7676646,-1.611983,1.3751858,1.570146,1.5771666,1.7663139,-1.6773567,1.6116037,1.5352378,-1.6538707,1.68119,-1.5068027,1.7487983
0e804947f4cdc2721046,1.753985,-1.6723857,1.5984755,-1.7953097,-1.6430354,1.4078171,1.605784,1.6087383,1.7995356,-1.7094724,1.6452688,1.5668135,-1.6880114,1.7154233,-1.5379089,1.7828331
0eb6eec8b4bee8ab6a44,1.7870846,-1.7039249,1.6308607,-1.8263578,-1.6749723,1.4383876,1.6397308,1.6399574,1.8323004,-1.7422442,1.6776836,1.5984064,-1.720486,1.7481842,-1.5690986,1.8161445
0ef8b2c9e039eaace596,1.8222593,-1.7370917,1.6639762,-1.8613052,-1.7091599,1.4682971,1.6726348,1.6719472,1.8654932,-1.7766683,1.7099863,1.6307621,-1.7526836,1.780791,-1.6007477,1.8499084
0f160cd19890b97092b9,1.854752,-1.767417,1.6943433,-1.8926923,-1.7405131,1.4958632,1.703188,1.7010711,1.8961468,-1.8083525,1.7394576,1.6604977,-1.7823563,1.8108157,-1.6301724,1.8806869
0f8bd9e33125347965a1,1.8907729,-1.8011678,1.729104,-1.9268504,-1.7748954,1.5279669,1.7390262,1.7346766,1.9307486,-1.8435305,1.7738413,1.6938255,-1.8159006,1.8454841,-1.6635498,1.9158449
0fc996fff93c00ca5ced,1.9266069,-1.8336718,1.7612125,-1.9622343,-1.8098574,1.5559593,1.7700201,1.7662394,1.9627851,-1.8784988,1.8051567,1.7250564,-1.8460293,1.8769861,-1.6949626,1.9478035
0gfiioqi5g8djhh1wzol,1.965971,-1.86761,1.7945132,-2.0037847,-1.8468692,1.5815811,1.7983125,1.7973665,1.9939933,-1.9156183,1.8347318,1.755902,-1.8739779,1.907189,-1.7270057,1.9791857
0i1e50rz4mkhee97xvpo,1.9992139,-1.9011229,1.8289102,-2.03464,-1.8801544,1.6162708,1.8361586,1.830949,2.029861,-1.9494475,1.8706737,1.7906456,-1.9103241,1.9429064,-1.7598392,2.0161
0lgtv09uoh3ova8sjbze,2.0327682,-1.9322622,1.860028,-2.066899,-1.9133095,1.6447852,1.867308,1.8614008,2.0612748,-1.982557,1.901498,1.8211117,-1.9406891,1.9740833,-1.7900504,2.0475693
0m2kzubx9r60wyrsjj7j,2.0694816,-1.9660467,1.8936422,-2.1032832,-1.9490973,1.6745679,1.9000376,1.8938631,2.0947666,-2.018111,1.933801,1.8537261,-1.9720209,2.0066223,-1.8227129,2.0811195
0m8o7nuv982vnv3328qw,2.096916,-1.9950333,1.9230868,-2.12879,-1.9755539,1.7038962,1.932781,1.921718,2.1255682,-2.0455985,1.9634978,1.8834732,-2.0042357,2.036907,-1.8507881,2.1127915
0maggb1hf886m5u6p2vr,2.1375477,-2.0303676,1.9587444,-2.168267,-2.0148892,1.734506,1.9660692,1.9563341,2.1600735,-2.0847852,1.9976764,1.9169102,-2.035581,2.0716138,-1.8856883,2.147121
0qamadarf6xhm9pm2jta,2.164034,-2.057467,1.9867218,-2.1922665,-2.0401356,1.7620611,1.997724,1.9831543,2.189528,-2.111422,2.0261345,1.9449565,-2.0658119,2.1003337,-1.9127748,2.1771464
0sgnvj4zfg3xjjb9fl6h,2.200465,-2.091734,2.0207675,-2.2287152,-2.0764542,1.793148,2.03055,2.0161247,2.2234406,-2.1470723,2.0592422,1.9780391,-2.0988693,2.1339533,-1.9449415,2.211687
0txd5enpfmbrth46w74b,2.2329311,-2.1227138,2.0518665,-2.259396,-2.108148,1.8219695,2.0629435,2.046468,2.2555006,-2.1790419,2.0902882,2.008712,-2.1294937,2.165198,-1.9757991,2.2435186
0z4mockl76xn8mhdaehw,2.2640603,-2.1529636,2.082119,-2.2898977,-2.1395025,1.851208,2.0937023,2.0757544,2.2862802,-2.210477,2.120783,2.0390205,-2.1610954,2.1957028,-2.0041401,2.2752526
1096bd470d3ddff1ec1c,2.2899678,-2.181393,2.1110117,-2.312157,-2.1643834,1.8805258,2.1280558,2.1034706,2.3171883,-2.2368357,2.1506548,2.0686483,-2.1932604,2.2264252,-2.0325184,2.3065782
10de703c06bf9d873d68,2.3231144,-2.2122777,2.1427517,-2.3431683,-2.1964443,1.9099581,2.1609452,2.13414,2.3493366,-2.2696164,2.1822886,2.0991113,-2.2244468,2.2581067,-2.063247,2.338855
10qi28ikwz4c4v22b06i,2.363926,-2.2493865,2.1788406,-2.3865738,-2.2360203,1.93954,2.19274,2.1688464,2.3841574,-2.3083332,2.2155478,2.1336367,-2.2554297,2.2911973,-2.098646,2.3737502
10xnkvdetxarrkdhx4i9,2.3968384,-2.2803814,2.2103035,-2.4170804,-2.2694154,1.9706923,2.2257028,2.1997094,2.4169254,-2.3414547,2.2480009,2.1650333,-2.2879186,2.3236961,-2.128984,2.4066653
117ee98c7f916c88ddbb,2.424388,-2.3089986,2.2397342,-2.4420152,-2.2958097,1.999521,2.2586987,2.2277014,2.4471707,-2.3692188,2.2776616,2.1940327,-2.319753,2.354105,-2.156532,2.4379542
119b36a5797d5ce69625,2.4567332,-2.3401163,2.27072,-2.473452,-2.3272789,2.0275295,2.2902799,2.2573233,2.4784806,-2.4011402,2.307843,2.2244697,-2.3497274,2.3843322,-2.1870072,2.469289
11dae4659d30031a10dd,2.4937494,-2.374785,2.3056188,-2.5095632,-2.3633275,2.0589771,2.324757,2.291252,2.5130978,-2.4371223,2.3419158,2.257866,-2.382726,2.4185586,-2.220646,2.5042303
1202c731c612353ceef0,2.5269742,-2.4057183,2.337108,-2.5404015,-2.3962827,2.0893211,2.357069,2.3220124,2.5452316,-2.4702604,2.3739173,2.2886312,-2.414529,2.4507964,-2.2509835,2.5365522
1224ceafb61456a033d0,2.5571034,-2.435816,2.3673942,-2.569217,-2.4257717,2.1181564,2.3890345,2.3507028,2.5762506,-2.5005555,2.404125,2.3187466,-2.445889,2.4811268,-2.2800167,2.568227
12s3yomv0kltozc1qxc4,2.5997074,-2.4743993,2.4051394,-2.6139784,-2.468762,2.1508405,2.422756,2.387734,2.6132653,-2.5415628,2.4400811,2.355238,-2.4792378,2.516611,-2.3167293,2.6053178
1329b6cf41debecda787,2.623883,-2.500845,2.4314392,-2.6369638,-2.4917266,2.175959,2.452016,2.4119482,2.640465,-2.5656943,2.4653683,2.3817222,-2.5078216,2.5428455,-2.3417037,2.6332986
132c90d4a027a4477ad0,2.654456,-2.5299811,2.4616923,-2.6629646,-2.521564,2.2059386,2.4854398,2.4415207,2.6720436,-2.596928,2.4973705,2.4113812,-2.539879,2.5752344,-2.3710904,2.6650267
1367d35cf39783effa7a,2.6868312,-2.5612476,2.4932806,-2.6940868,-2.5532932,2.2357197,2.5176191,2.4716442,2.7038498,-2.629074,2.5286734,2.4421895,-2.5717618,2.6068068,-2.4011083,2.6975136
139429592a9c23c08b71,2.7226198,-2.5954332,2.5272317,-2.7294428,-2.5885048,2.2663074,2.55144,2.504692,2.737989,-2.6640296,2.5618255,2.4752831,-2.6038196,2.6397724,-2.4343593,2.731673
1397545fbe9882e5cd42,2.7593606,-2.6302495,2.5619488,-2.7659652,-2.6249318,2.2982345,2.5855787,2.5384033,2.772783,-2.699815,2.5958807,2.5091305,-2.6370118,2.6736038,-2.467809,2.7667267
13de1d3a55477a0c0329,2.7891538,-2.6593065,2.5915453,-2.7935123,-2.6535816,2.3260841,2.6166298,2.5662842,2.8026853,-2.729711,2.6252303,2.5378354,-2.6672535,2.703463,-2.4962368,2.7972095
13f8b8305f6c25c21921,2.8217323,-2.690609,2.6225102,-2.8250778,-2.6866138,2.3554595,2.6481464,2.5966046,2.8347387,-2.7622762,2.6564138,2.5688372,-2.698396,2.734519,-2.5265336,2.8291805
13nq2h723zixyhir01lf,2.8649578,-2.7286937,2.6604404,-2.8695252,-2.7292624,2.3874152,2.6821823,2.6345704,2.8720906,-2.8030987,2.6925035,2.6044948,-2.7299855,2.7698746,-2.5649374,2.8655949
148o63s7q5aitfxmmtrg,2.8979347,-2.7612426,2.6921914,-2.901358,-2.7626903,2.4175131,2.7150288,2.6650257,2.9047585,-2.836507,2.7241435,2.636704,-2.761837,2.8011773,-2.5960987,2.8982399
151cd83784ab9007e8d8,2.930954,-2.7936025,2.7253838,-2.9330876,-2.7942662,2.448561,2.7496567,2.6972454,2.9381478,-2.868192,2.7569625,2.6685658,-2.7944827,2.8342335,-2.627457,2.9323766
152a0c17daaaa4e65e14,2.9573472,-2.8216896,2.7536237,-2.9568272,-2.820286,2.4771829,2.7805264,2.7229614,2.9670517,-2.8959196,2.7856758,2.696879,-2.8273444,2.8642704,-2.6529713,2.96289
1552f58e2818ce7fa863,2.9912312,-2.8538735,2.7858665,-2.9896786,-2.853613,2.5065968,2.812999,2.7544963,2.9998035,-2.9291754,2.817606,2.7282295,-2.8582382,2.89598,-2.6846783,2.9955788
15ab118362ecbbd03b52,3.0241165,-2.8860161,2.8172328,-3.0224125,-2.8869812,2.5358772,2.8443294,2.7845726,3.031889,-2.9619217,2.8481224,2.7596312,-2.8891437,2.9263945,-2.7155187,3.0275154
1629f353a742f6a73251,3.0568073,-2.917699,2.84942,-3.053384,-2.9186354,2.5662038,2.8773303,2.8151312,3.0641394,-2.994283,2.8801665,2.7907524,-2.921539,2.9585676,-2.746005,3.0605123
166cb02ac436c9d3662f,3.0898771,-2.949031,2.8817804,-3.0834744,-2.950341,2.59756,2.9110878,2.8463426,3.096775,-3.0268848,2.9130402,2.8217816,-2.9541264,2.9913998,-2.7767832,3.0935528
16c505069c1e5c2bece5,3.1175277,-2.977621,2.9099295,-3.1105375,-2.978157,2.6240354,2.940389,2.8727524,3.1256282,-3.0553017,2.9409797,2.8499937,-2.9844196,3.0199232,-2.803401,3.123401
16d68f70cf5e52d0b34a,3.1571648,-3.0147789,2.9466782,-3.1501334,-3.0174873,2.6566186,2.9758267,2.9089878,3.1623816,-3.093431,2.9765332,2.885409,-3.0174606,3.0551069,-2.8399131,3.1597092
170a695a2717bcd9b74b,3.1910162,-3.046529,2.978558,-3.1818092,-3.0514607,2.6873503,3.008292,2.9400969,3.1952665,-3.1272163,3.0088952,2.9168313,-3.0493498,3.0873022,-2.8711288,3.1922574
17656005bd4086137ab7,3.2198331,-3.0766516,3.0084999,-3.2104778,-3.0796044,2.7154224,3.03932,2.9678338,3.2252784,-3.1561856,3.038044,2.9463751,-3.0806878,3.1167755,-2.8990626,3.223622
17dda5f588bed077c742,3.2529569,-3.108601,3.040397,-3.2419796,-3.11265,2.745512,3.07198,2.9989836,3.25798,-3.1891546,3.070158,2.9777493,-3.1125586,3.1487958,-2.9301305,3.256321
17e429460d5fda251953,3.2875311,-3.14177,3.0736973,-3.2754881,-3.146585,2.7766268,3.1053574,3.031046,3.2914631,-3.222959,3.1029868,3.0100448,-3.1448538,3.1814406,-2.9622784,3.290003
17f2d0e73044110cdea5,3.3195095,-3.1728628,3.1047585,-3.306091,-3.1783445,2.805849,3.1368032,3.0608191,3.323016,-3.255004,3.1339948,3.0404034,-3.1765006,3.2126806,-2.9921362,3.3219755
18654732ca312afc173f,3.351916,-3.2046878,3.136406,-3.337408,-3.210723,2.8358314,3.169167,3.091179,3.355289,-3.2874243,3.1655676,3.0717106,-3.208399,3.2440825,-3.0227041,3.3545423
1883af270e36a7580332,3.384523,-3.2367413,3.1682913,-3.3691134,-3.2428582,2.865329,3.2014892,3.1217854,3.387534,-3.3196623,3.1969008,3.1028297,-3.239849,3.2754087,-3.0536506,3.387061
18cdd44af62c6935e7a0,3.4188697,-3.2696965,3.201444,-3.4022968,-3.2765563,2.8963788,3.2345634,3.1537063,3.420814,-3.353297,3.2297187,3.1348445,-3.2724347,3.3081715,-3.0854347,3.4206653
1974349ec27d7d67bf08,3.4541447,-3.3041258,3.2355683,-3.4370556,-3.3117988,2.9282353,3.2687232,3.1865423,3.455297,-3.3881118,3.26344,3.1683805,-3.3056781,3.3415565,-3.1184645,3.455419
19793e7e55b68c8dd776,3.4886968,-3.3373349,3.2685912,-3.4704247,-3.3465137,2.9593253,3.3019474,3.2188492,3.4891622,-3.4223537,3.2964694,3.2008202,-3.338229,3.3744862,-3.1507726,3.4891217
19buea1jycypffshcw38,3.5316129,-3.3757443,3.3068173,-3.5132225,-3.3893108,2.993061,3.3373854,3.2569945,3.5277326,-3.4635322,3.333839,3.2374642,-3.3708189,3.410574,-3.190392,3.5262508
19fb3075dd2798538c9d,3.5534773,-3.400743,3.3313518,-3.5326657,-3.4109762,3.0181885,3.365625,3.2792318,3.5531287,-3.4867964,3.358701,3.2626653,-3.4007154,3.436708,-3.2122023,3.553191
19rc4zj7sw4ms0996992,3.598807,-3.4413478,3.3721008,-3.5782552,-3.4564955,3.0551069,3.4028761,3.3199866,3.594219,-3.5300467,3.3987653,3.3013332,-3.4364486,3.4758368,-3.253166,3.5930126
1afepx549ssnar1m9acp,3.6311293,-3.4722311,3.403105,-3.6087475,-3.4877675,3.0832508,3.4344082,3.349797,3.6255279,-3.5620878,3.4293401,3.331162,-3.4661617,3.505956,-3.284211,3.6241963
1b0baf552d2cd47ee10b,3.650897,-3.4964213,3.4272323,-3.626464,-3.507131,3.1089008,3.4630857,3.3708546,3.6499972,-3.583759,3.454312,3.3560421,-3.4978862,3.5319943,-3.3034759,3.6517034
1b25734414fcc7466153,3.6937084,-3.5352728,3.4659672,-3.6686566,-3.5502896,3.1442137,3.50028,3.409702,3.6894207,-3.624982,3.492696,3.3935492,-3.5319164,3.5691016,-3.342918,3.6896598
1b36a3223f9dd94a211f,3.7251415,-3.56715,3.497116,-3.700246,-3.5825553,3.1739316,3.532079,3.4397323,3.7216017,-3.6565917,3.5235248,3.4249072,-3.563715,3.5997894,-3.3731015,3.7220592
1bd9bb053a3ac1bba507,3.753736,-3.596642,3.5267467,-3.7266493,-3.6095097,3.2018697,3.563148,3.466879,3.7509816,-3.6852667,3.552693,3.4534185,-3.5950599,3.6294997,-3.4005592,3.752815
1c2aef3af32f6323a31d,3.7853706,-3.6276932,3.5577862,-3.7566752,-3.6409118,3.2316313,3.5947075,3.496643,3.7825222,-3.7169788,3.5840154,3.4837744,-3.627307,3.6609075,-3.4300094,3.784883
1ca19e51244cdd3f09ff,3.8234286,-3.6645002,3.5941281,-3.7949622,-3.6794205,3.2652595,3.630485,3.5322127,3.819343,-3.7541423,3.6198218,3.519471,-3.6615207,3.696005,-3.4657142,3.8215277
1cfe33c5b178a0c2367f,3.8563886,-3.6960309,3.6255927,-3.825948,-3.7120335,3.2949963,3.6624947,3.562781,3.8517814,-3.7868085,3.6513486,3.5502887,-3.6923828,3.727193,-3.4970672,3.8535247
1d50eac067378042684b,3.889204,-3.727965,3.6576755,-3.8569274,-3.7439375,3.3253093,3.6946857,3.59345,3.8839474,-3.8190687,3.6832356,3.5810797,-3.7248387,3.759367,-3.5274358,3.8861623
1d7229e0f5f825007870,3.9238498,-3.7622256,3.6914287,-3.8914638,-3.7787998,3.3564947,3.7284794,3.6259406,3.9181507,-3.8534179,3.7163556,3.6142116,-3.7575603,3.7920253,-3.560555,3.9204967
1e25b47eaef62694a236,3.954919,-3.792855,3.7220993,-3.9206295,-3.8094985,3.3863075,3.759915,3.6552944,3.949393,-3.8845189,3.7474124,3.6442838,-3.7897544,3.8231533,-3.5894694,3.9522138
1eekhswi2ckx4uw0j1c9,3.9997947,-3.83287,3.762132,-3.965052,-3.8541617,3.4221644,3.7966518,3.6949759,3.9899755,-3.9273717,3.7864928,3.6823654,-3.8236792,3.8611448,-3.6313343,3.9909964
1f4oscu6io8xlog2157e,4.0345893,-3.8671355,3.795764,-3.9991767,-3.890032,3.4539435,3.8313756,3.7283819,4.024822,-3.9622436,3.820555,3.7161396,-3.8568394,3.8942938,-3.6643257,4.0255523
1f56b6bda24efafcf3a4,4.057663,-3.8934631,3.8220077,-4.020581,-3.9118865,3.4803627,3.8602118,3.7514715,4.050699,-3.986135,3.8466487,3.7419677,-3.8884284,3.9214306,-3.6863286,4.053988
1f67cb2e7affbb00b6c8,4.0905695,-3.9255192,3.853806,-4.0522966,-3.9446547,3.510242,3.892011,3.7820814,4.083014,-4.018853,3.8783078,3.773048,-3.9200895,3.9528644,-3.7173474,4.0863786
1fa4f2361b8a03040292,4.1308117,-3.9630957,3.8913915,-4.091404,-3.9845915,3.5450916,3.9284635,3.818932,4.1212187,-4.057754,3.9155295,3.8092132,-3.9546561,3.9894195,-3.754994,4.1237764
1fc5b87acdfc2a8b580c,4.1558795,-3.9903502,3.9181402,-4.1151643,-4.009646,3.571434,3.9573102,3.8436742,4.1483064,-4.083986,3.942546,3.8360686,-3.9856024,4.0167875,-3.778979,4.1524487
1feef8b4129f5bf21e67,4.1910615,-4.024476,3.9519613,-4.1493783,-4.044848,3.6031256,3.991139,3.87658,4.1828094,-4.118609,3.976135,3.869181,-4.018374,4.049895,-3.812317,4.186708
1hrtipd0awjpggdje5e2,4.241784,-4.0676346,3.9955328,-4.199049,-4.09515,3.6414573,4.02975,3.921294,4.227568,-4.16626,4.019013,3.9097672,-4.052787,4.0914254,-3.8596349,4.228108
1hues7esy9erdsses6m0,4.2702518,-4.096541,4.0240145,-4.2252736,-4.1236877,3.6705327,4.059578,3.9481487,4.257226,-4.1952424,4.048684,3.939002,-4.0843263,4.121208,-3.8864124,4.2583604
1kvfwfp2hr5hjxjxzjqd,4.309822,-4.1356153,4.0627623,-4.2655244,-4.1631985,3.705181,4.0983233,3.9856007,4.2957673,-4.233959,4.08594,3.9760666,-4.1198454,4.1570663,-3.9244614,4.2969804
1mp9yiw6rkrr3846047g,4.3421574,-4.1678576,4.0942354,-4.2960396,-4.1965404,3.7365553,4.1310883,4.016263,4.3287687,-4.266626,4.1183724,4.0083613,-4.15297,4.1893883,-3.9549208,4.3298416
1n42senfkcjopw1zh39l,4.3743467,-4.1986475,4.1255713,-4.326445,-4.2278776,3.7665112,4.162037,4.0457253,4.360194,-4.298629,4.149507,4.0380154,-4.1849337,4.220437,-3.9847028,4.3615837
1nebcwra7a0fduy8c1fa,4.409472,-4.233387,4.159804,-4.3605194,-4.2629337,3.798669,4.196472,4.0789375,4.39503,-4.3329535,4.1834717,4.0714717,-4.2183614,4.254378,-4.017907,4.396482
1nyzl7s790ta4c8r1l9g,4.4370265,-4.26066,4.186688,-4.3869843,-4.2904406,3.82394,4.224341,4.104886,4.4228983,-4.361039,4.2104163,4.0983663,-4.2457147,4.280548,-4.044979,4.424345
1otvyki9oso9bg6ob16u,4.4766407,-4.300195,4.225777,-4.4266024,-4.33008,3.860104,4.262854,4.142795,4.46183,-4.3996305,4.248819,4.1358767,-4.2835703,4.3188267,-4.082112,4.463729
1t6e0wa99fijxi3ssnzk,4.5039797,-4.3281784,4.2531447,-4.4534097,-4.3579774,3.8870313,4.2913604,4.1685367,4.490453,-4.4275374,4.2761087,4.163836,-4.312347,4.3456078,-4.1090527,4.4924297
1vb2vsoy23nr0monflhx,4.546045,-4.3668528,4.2922726,-4.4922495,-4.3990426,3.9244075,4.3293576,4.2064323,4.5302334,-4.468213,4.315693,4.2011523,-4.349559,4.384753,-4.147616,4.531442
2007f4965d2aa6064a25,4.5680637,-4.3930635,4.3176255,-4.5142617,-4.42078,3.9487722,4.3575096,4.229492,4.5549927,-4.491266,4.3406053,4.226551,-4.3795915,4.4100184,-4.168815,4.5589447
204a7d6db340a3c18ca7,4.598437,-4.4238253,4.347957,-4.5427437,-4.451216,3.978218,4.3888807,4.2584763,4.5858,-4.5220757,4.3711667,4.2564774,-4.4123926,4.440786,-4.1970153,4.5902987
204fdbe885269686a392,4.6335897,-4.457966,4.381953,-4.576641,-4.485992,4.010279,4.422671,4.291447,4.6203117,-4.5564456,4.405044,4.2893815,-4.445619,4.474312,-4.230104,4.6247134
20f97b68982d1b2f5c73,4.6667995,-4.4907646,4.41449,-4.608744,-4.518914,4.04107,4.455061,4.3227334,4.653174,-4.589406,4.437565,4.320988,-4.478554,4.506584,-4.2612944,4.65795
211ed39c57c6e6cdefbf,4.703213,-4.526143,4.4493117,-4.643893,-4.555538,4.0736914,4.490233,4.3566813,4.689041,-4.6251755,4.472121,4.355303,-4.5116034,4.5403934,-4.2963486,4.6931267
2150588a5903d9a77b79,4.7365203,-4.5588365,4.4819474,-4.676777,-4.588693,4.1045656,4.522252,4.3881125,4.7219777,-4.658126,4.5047054,4.3867846,-4.544288,4.572642,-4.327663,4.7264233
217c87d59a4372c4f3fc,4.76796,-4.58995,4.5127892,-4.705868,-4.6196356,4.1346726,4.553617,4.417417,4.7533607,-4.689467,4.5357714,4.417075,-4.576744,4.6037164,-4.3569174,4.758043
219jkfkejubvu4dvuv13,4.815882,-4.631779,4.554738,-4.752218,-4.6678057,4.1727777,4.5924516,4.4602633,4.797613,-4.735244,4.578021,4.4572577,-4.611118,4.644162,-4.403103,4.79895
21e23771e52cb5291b19,4.843184,-4.661945,4.5842023,-4.7788553,-4.69493,4.201417,4.6240654,4.4874525,4.826538,-4.762932,4.6070275,4.486497,-4.6441603,4.673622,-4.42834,4.829942
21fc5674d24be8e9da89,4.8697357,-4.6911483,4.6123514,-4.8045993,-4.721582,4.2288103,4.6536636,4.513373,4.8546424,-4.7903996,4.6348267,4.5147552,-4.676097,4.701819,-4.453828,4.859642
222d5ee50487a2b8601b,4.9066734,-4.726708,4.647543,-4.840268,-4.7585726,4.2619057,4.6888833,4.547681,4.8908257,-4.8265543,4.6698184,4.549232,-4.709386,4.73601,-4.4891763,4.8951135
22ae866c664a147f9971,4.9385424,-4.758234,4.6791606,-4.8709874,-4.7902827,4.2925663,4.720352,4.577907,4.922645,-4.8585467,4.701929,4.5798016,-4.743005,4.767794,-4.5184035,4.92768
22fey6dqzcrm0jbtfnmm,4.984614,-4.800023,4.720721,-4.9173913,-4.8377347,4.3311934,4.759628,4.6196866,4.966459,-4.9029694,4.743359,4.620655,-4.777862,4.8074822,-4.5633507,4.9687004
22wb5ostye8edvfar59p,5.0182114,-4.832161,4.7527685,-4.9477487,-4.8702726,4.361518,4.792016,4.6507883,4.999263,-4.9359703,4.775798,4.651509,-4.8098693,4.8395104,-4.5947194,5.001229
23dd64a1d2e4965198bf,5.0394287,-4.8575363,4.777425,-4.967824,-4.890536,4.3860326,4.818693,4.6726737,5.0226855,-4.9582233,4.800078,4.6756625,-4.841365,4.8649006,-4.61381,5.027743
23f1f5d3d90e2890a423,5.0799866,-4.8955884,4.8154206,-5.0076323,-4.931443,4.4215527,4.855977,4.7100945,5.062005,-4.997488,4.8378873,4.712539,-4.875491,4.901576,-4.6527476,5.065666
24524df0ca55659c384e,5.1108365,-4.9276247,4.8465924,-5.037317,-4.962179,4.45131,4.8879128,4.7395754,5.0932593,-5.0286455,4.8689795,4.743449,-4.9087524,4.9323754,-4.681995,5.0979533
24ca7714d40e2fe53821,5.143842,-4.9597616,4.8786373,-5.0688543,-4.99499,4.482061,4.919591,4.770802,5.1259174,-5.0613413,4.901375,4.7744265,-4.941511,4.964625,-4.712659,5.1306057
25019b8f1c3ac537894b,5.181167,-4.995603,4.9140267,-5.104912,-5.032937,4.515724,4.955339,4.8053975,5.162729,-5.0981035,4.9367914,4.809536,-4.9749537,4.999024,-4.7485743,5.1663723
25c8e1ae2335e8c3e5b3,5.214271,-5.027987,4.946227,-5.1363463,-5.0648484,4.5459642,4.986609,4.836337,5.1951685,-5.130213,4.968809,4.840139,-5.0068903,5.031043,-4.779777,5.1989694
264320c6b92b92795ba0,5.253865,-5.0662546,4.9840097,-5.175189,-5.105221,4.58164,5.0244493,4.8732557,5.2340226,-5.1690917,5.006566,4.8774257,-5.042568,5.0677443,-4.817618,5.237104
27cc9165eef05eb1733f,5.2799034,-5.0942216,5.0114517,-5.20011,-5.13072,4.608355,5.052373,4.898713,5.261008,-5.1958923,5.033966,4.904087,-5.07433,5.095559,-4.8415833,5.2658687
2826ec26211d83efd2c6,5.320732,-5.133621,5.0504055,-5.240976,-5.1718307,4.64412,5.0908556,4.9365892,5.300831,-5.235426,5.072127,4.94196,-5.1090093,5.1323614,-4.881463,5.3048797
2842c82981077b78b3cd,5.3556027,-5.165307,5.0824323,-5.2717648,-5.2051983,4.6753697,5.1219344,4.968246,5.3344064,-5.2689204,5.1049976,4.9725266,-5.1402993,5.1650867,-4.913742,5.3368397
28719a42e0cbf4991b7f,5.3855324,-5.197093,5.1130805,-5.3015847,-5.236646,4.705021,5.1541405,4.997819,5.365429,-5.2999854,5.136015,5.003812,-5.174209,5.195642,-4.9419436,5.3690376
28bc8af257c48eac3bf1,5.417,-5.228949,5.1444993,-5.331913,-5.2674837,4.73483,5.185305,5.0273137,5.3968034,-5.3312926,5.166925,5.034054,-5.2065806,5.226542,-4.971768,5.401108
28d90a892cc66338f962,5.452988,-5.263595,5.178762,-5.366502,-5.3036504,4.767415,5.2195377,5.0608444,5.432323,-5.366604,5.201261,5.0677,-5.2393928,5.260128,-5.006326,5.4357657
28tmrs0kyrrh1odyvf21,5.496303,-5.3025627,5.2177715,-5.408595,-5.3467727,4.802897,5.256091,5.0999584,5.4730964,-5.408213,5.240224,5.104876,-5.272685,5.297617,-5.0485845,5.474294
29172d2e39ca0d890848,5.5242624,-5.3331413,5.2476983,-5.4359107,-5.3754115,4.8329744,5.2882824,5.1274476,5.5028386,-5.43698,5.270117,5.1351004,-5.306611,5.327495,-5.0742455,5.5056467
2933a3227c7ce7fe21eb,5.5577054,-5.36612,5.280068,-5.467269,-5.407728,4.8629756,5.3201175,5.1589932,5.5355515,-5.4694114,5.3021693,5.1660233,-5.3389063,5.3596044,-5.105919,5.538428
2959d8017312337a2ba6,5.5909367,-5.39776,5.311699,-5.4991255,-5.4422407,4.894948,5.3521295,5.1901426,5.5690775,-5.503093,5.3353906,5.1980996,-5.3712997,5.3916326,-5.137101,5.5710597
29acddb87cfe062d73f5,5.6267333,-5.433873,5.3470488,-5.533159,-5.4762535,4.927035,5.386551,5.223788,5.6038904,-5.5373683,5.3695307,5.231214,-5.4059706,5.426122,-5.170942,5.6065345
2a003b122e9500e465c4,5.6599107,-5.467405,5.3800983,-5.566026,-5.510147,4.958995,5.420208,5.255487,5.6374917,-5.570704,5.4027495,5.2640896,-5.4397936,5.458455,-5.2024302,5.640482
2a515047aa9d085849a2,5.6927543,-5.4997025,5.41187,-5.5974464,-5.543042,4.989166,5.452052,5.2864785,5.6700273,-5.6032424,5.4346385,5.2952433,-5.4718447,5.489863,-5.2335763,5.672775
2a6394114c31a10dc92b,5.7278666,-5.53421,5.4460855,-5.630999,-5.577328,5.021558,5.4856906,5.319089,5.704641,-5.637468,5.468412,5.3280334,-5.5053115,5.5233884,-5.2670026,5.7073793
2a6ap0t2rsvoogmydj3a,5.7699585,-5.5717525,5.4835486,-5.6713176,-5.6199074,5.056807,5.520817,5.3573337,5.744869,-5.678339,5.5069633,5.3644648,-5.5385475,5.5604324,-5.3081193,5.744895
2af634997fba501740c2,5.796079,-5.6005855,5.511723,-5.696823,-5.646549,5.084763,5.551617,5.3832903,5.772284,-5.7056274,5.534981,5.3930216,-5.571295,5.588201,-5.3315234,5.7742567
2b3492096a4d12bb86cd,5.8363338,-5.639036,5.5496287,-5.734755,-5.6859,5.1203322,5.587602,5.420101,5.8114405,-5.7437234,5.5723877,5.428919,-5.606083,5.6261997,-5.3705077,5.8121657
2b54ed4af8281eb82f58,5.8628902,-5.666468,5.5768366,-5.760254,-5.712333,5.1467676,5.615859,5.4460073,5.8385324,-5.7710114,5.599912,5.455755,-5.6366534,5.652983,-5.394667,5.840359
2b935bfe06ef02369807,5.8945355,-5.699049,5.6086073,-5.791008,-5.743821,5.1768374,5.647846,5.476311,5.87027,-5.802589,5.631337,5.4868445,-5.6698103,5.6841974,-5.424596,5.872927
2b9ef4e3749f713870b0,5.931918,-5.734215,5.643622,-5.8261805,-5.780686,5.2099776,5.6821733,5.5109215,5.90669,-5.838583,5.6665816,5.520602,-5.7026596,5.7187777,-5.4602184,5.90802
2c27d4de6ae130e7e242,5.9672756,-5.769362,5.6779413,-5.8605676,-5.8163934,5.2428594,5.716547,5.5437675,5.941932,-5.8735566,5.700796,5.5547385,-5.7363048,5.752301,-5.494508,5.943007
2c3b89432513b2035664,5.9989057,-5.8012886,5.70957,-5.8913727,-5.848077,5.272906,5.7483187,5.574388,5.973633,-5.9052243,5.7324524,5.5852814,-5.7694283,5.783573,-5.5238523,5.9753475
2c6339f7c23a64d02081,6.036813,-5.839082,5.7459097,-5.9275126,-5.886009,5.307381,5.784613,5.6099257,6.011103,-5.9420543,5.768778,5.6214676,-5.8044906,5.819658,-5.5606155,6.0122995
2c7d02c44b47e3d24d52,6.0669975,-5.8687115,5.7759886,-5.956906,-5.915899,5.336096,5.8143983,5.6385875,6.041221,-5.9723277,5.7988515,5.6499844,-5.8358765,5.848977,-5.5884438,6.042868
2ccfa5f79c8b61e465d4,6.106526,-5.905554,5.812924,-5.99498,-5.955699,5.371386,5.850949,5.674943,6.0799522,-6.0105567,5.836111,5.685968,-5.8695383,5.8849044,-5.62657,6.0798416
2d526c27123e59103e29,6.1387205,-5.937351,5.844519,-6.02585,-5.9881296,5.4023395,5.882469,5.7052827,6.1122155,-6.0428114,5.8681164,5.71696,-5.9022837,5.9164987,-5.656668,6.1120677
2d9a38c93e37bc475cb6,6.1660905,-5.9663053,5.872294,-6.051411,-6.014544,5.4283557,5.9099116,5.7318406,6.1393943,-6.0703545,5.8955913,5.743848,-5.9338303,5.94459,-5.6818237,6.140812
2db6dd71f1d07300382c,6.206883,-6.006471,5.911728,-6.0918193,-6.0554748,5.4649887,5.9495215,5.7699456,6.179797,-6.1097426,5.9344254,5.782368,-5.9695687,5.9819016,-5.721887,6.1805906
2ddkknvpbz2j9wlvybtj,6.246861,-6.042417,5.9478774,-6.130595,-6.0962386,5.4996777,5.9837775,5.805912,6.218679,-6.1487393,5.971432,5.8175697,-6.001784,6.0175214,-5.7612386,6.216847
2e2c00240c341a4265e3,6.2761455,-6.074835,5.9792633,-6.159715,-6.12509,5.528767,6.016766,5.8351026,6.248681,-6.177891,6.001311,5.847959,-6.0352187,6.047545,-5.788726,6.2490754
2e3e7cbe0e69add8d31a,6.3062906,-6.1037335,6.007739,-6.1863227,-6.154803,5.557129,6.044961,5.863609,6.278279,-6.2080636,6.031161,5.8761687,-6.066799,6.0774946,-5.815628,6.2781644
2e40c1b07d32d3b80862,6.3406153,-6.13731,6.041038,-6.2190604,-6.1882043,5.588581,6.0770164,5.8956757,6.311982,-6.241406,6.0643935,5.9077907,-6.099766,6.110424,-5.848039,6.311784
2e54b1c7bff5847c82a8,6.371078,-6.167923,6.071045,-6.248036,-6.2189965,5.6177735,6.1074576,5.924711,6.342514,-6.2721205,6.094658,5.937608,-6.13178,6.140432,-5.876493,6.342535
2ea821273e01ec758583,6.4102607,-6.2039604,6.1069884,-6.2848587,-6.2579017,5.6520095,6.142509,5.9603844,6.3804917,-6.3098273,6.13108,5.972511,-6.1645813,6.1757746,-5.9142346,6.378521
2ecb7fb5ff8899614c12,6.4435716,-6.2381926,6.140463,-6.3174133,-6.2911506,5.683758,6.176149,5.9923687,6.4140253,-6.342746,6.164228,6.005095,-6.198718,6.2085404,-5.945803,6.4126854
2egpenarap9h0a2k0bc5,6.484305,-6.275758,6.1779885,-6.358133,-6.3333817,5.7194285,6.212829,6.029814,6.454037,-6.382861,6.2025924,6.0421243,-6.231978,6.2446847,-5.9863067,6.4506435
2f3c37735e817244e646,6.5146585,-6.308577,6.209493,-6.3863916,-6.36257,5.7491,6.2452674,6.059592,6.4846478,-6.412562,6.2331905,6.072764,-6.2663894,6.2759533,-6.0139236,6.482827
2f3ef424b925a9881b81,6.547577,-6.3399825,6.2405057,-6.417708,-6.3961697,5.7791533,6.276887,6.089916,6.517158,-6.4454603,6.264356,6.1038375,-6.296861,6.3062844,-6.0457335,6.514319
2fe9648ea28753c73c2c,6.580493,-6.3727837,6.273536,-6.4498353,-6.4280334,5.8106546,6.308018,6.1212935,6.5501175,-6.4773464,6.297616,6.1344614,-6.3301373,6.339314,-6.0763884,6.5477242
2h9c9tdsnoz1hyzo5frt,6.6196203,-6.4084625,6.3091545,-6.4886637,-6.4689727,5.8448462,6.34306,6.157093,6.588293,-6.516243,6.3341246,6.1700664,-6.362707,6.373727,-6.115082,6.583724
2jvnsh0veb6qnn3uv6i8,6.660597,-6.4489884,6.3486595,-6.5278945,-6.5091476,5.881793,6.381501,6.1951184,6.628776,-6.5550776,6.372792,6.2078147,-6.3995113,6.4122343,-6.155113,6.6234856
2krjeqjgjqfuumdo3ibt,6.691274,-6.478213,6.37713,-6.554731,-6.538601,5.909346,6.40932,6.2234187,6.658329,-6.5852213,6.401993,6.2357764,-6.429611,6.4415174,-6.183215,6.6525526
2svwdpmdpjsdzafekntw,6.721827,-6.509405,6.408195,-6.5852256,-6.5695276,5.9387093,6.4406843,6.2530975,6.689015,-6.6159797,6.432691,6.2656875,-6.461825,6.4718075,-6.2117767,6.6839767
2ui63dibc4r8oo0p9agh,6.7597823,-6.5460486,6.44413,-6.621008,-6.607231,5.973071,6.47633,6.288508,6.726295,-6.6527953,6.4692287,6.301136,-6.496723,6.507271,-6.24765,6.720411
2uxkhe454qk8jvk0ufvp,6.8014374,-6.587469,6.484428,-6.6635385,-6.651316,6.011798,6.5183244,6.327554,6.768759,-6.693681,6.5090804,6.3421106,-6.5329704,6.545335,-6.290101,6.7616425
2xk6toebmkxdw8f2bypd,6.8143225,-6.603491,6.5001645,-6.672455,-6.6608114,6.0269194,6.533329,6.341784,6.7814407,-6.707673,6.524629,6.355702,-6.558924,6.563296,-6.2975564,6.777728
2xsbkm76x36qvddrl2yo,6.8599014,-6.646454,6.542651,-6.718563,-6.707546,6.0667853,6.5743995,6.383148,6.826722,-6.7512217,6.566813,6.3969245,-6.594233,6.603584,-6.344529,6.8207192
2zfdinkl7qrn0o62tlp4,6.8976607,-6.6815777,6.5779963,-6.7550488,-6.746179,6.10137,6.6095867,6.417764,6.863711,-6.7885056,6.6030164,6.4318705,-6.628117,6.6381435,-6.380369,6.856167
301f57984e5d2969c938,6.9195,-6.7066436,6.6018457,-6.7738476,-6.7658887,6.123637,6.633952,6.4405746,6.88565,-6.8106256,6.6264296,6.4545326,-6.6585045,6.663021,-6.398124,6.8807693
306627b1ecbdf4e3aa34,6.9539742,-6.739305,6.6343274,-6.806198,-6.8004727,6.155323,6.666036,6.4726257,6.919612,-6.8445334,6.6597266,6.4864373,-6.6907034,6.695536,-6.4306016,6.9136243
3094825929f936abb792,6.987634,-6.77423,6.667956,-6.8393307,-6.8339715,6.1862497,6.7001276,6.5049787,6.953132,-6.8775463,6.6923027,6.5193095,-6.7242002,6.7277336,-6.463209,6.9479165
311abc37a94ae8afe41a,7.0184503,-6.805007,6.6985335,-6.8685455,-6.864231,6.2158732,6.729585,6.534331,6.9837737,-6.907994,6.72321,6.5484905,-6.7567863,6.758581,-6.4915066,6.978864
31741464205aa8cdb4f5,7.0562053,-6.840944,6.734373,-6.9055414,-6.9027004,6.250154,6.7656226,6.569279,7.021133,-6.944953,6.759202,6.583706,-6.789954,6.7930827,-6.5282693,7.0150323
3267b84814316e2fa25e,7.0909452,-6.8742943,6.767135,-6.93795,-6.937155,6.281588,6.7978697,6.6016216,7.0552793,-6.9787726,6.7922516,6.6156445,-6.822201,6.8257895,-6.56132,7.0481443
329622100fe091a4c48c,7.119433,-6.903427,6.7955575,-6.9644113,-6.964758,6.3087363,6.825544,6.6291885,7.08347,-7.0070496,6.8208413,6.643014,-6.8535705,6.8546195,-6.587143,7.0770364
32n93dfesjggabieb85t,7.165895,-6.9459667,6.8376403,-7.0110464,-7.0127096,6.348368,6.8668833,6.6704173,7.129037,-7.0512733,6.8624754,6.684431,-6.8873606,6.894053,-6.635528,7.1197095
3313c40ea45a87f9d2e7,7.1892343,-6.972551,6.86362,-7.032266,-7.0347557,6.373402,6.8932858,6.695121,7.1529045,-7.075616,6.8887844,6.709258,-6.920376,6.9210334,-6.654012,7.146108
33184c1cba6a37cdbda2,7.220831,-7.0032325,6.89372,-7.061102,-7.065289,6.40224,6.9224176,6.7246017,7.1838217,-7.106137,6.91892,6.738136,-6.9510612,6.9514036,-6.6836753,7.176399
33b73273ab8e1a11fcda,7.2554054,-7.037046,6.926834,-7.094467,-7.100342,6.4336877,6.9558578,6.7571616,7.217925,-7.140306,6.9520698,6.770968,-6.9837794,6.983709,-6.7168145,7.2101088
33c123d08dc07edb50f9,7.2879615,-7.069662,6.9588957,-7.1258063,-7.1326747,6.4641776,6.987596,6.7880764,7.2502975,-7.172385,6.984031,6.8020287,-7.016266,7.015214,-6.747607,7.2426276
33ddb1517601db520cd6,7.324447,-7.104659,6.9934325,-7.1609964,-7.1696744,6.4974575,7.0222807,6.821894,7.286262,-7.208045,7.0188437,6.8362823,-7.0494123,7.048874,-6.782797,7.2776513
34aaaa47df8c4aa4d926,7.3596954,-7.139137,7.0274744,-7.1946635,-7.2041316,6.5296125,7.0548706,6.855151,7.321217,-7.241956,7.053215,6.8685617,-7.0823526,7.082639,-6.8163214,7.3120265
34qcy2qj5lij7g82hpvw,7.399349,-7.1749215,7.0631194,-7.2336373,-7.2448726,6.5640817,7.087831,6.891298,7.360008,-7.280205,7.0898113,6.9029307,-7.114724,7.1182394,-6.8562307,7.348171
3531c5f9d520759ba697,7.4221234,-7.201884,7.0889153,-7.253855,-7.266185,6.588291,7.116061,6.914726,7.3830194,-7.3039565,7.1143885,6.928436,-7.1467433,7.1436,-6.8746576,7.3742976
3555053023c67d592439,7.462385,-7.240667,7.127059,-7.293611,-7.307054,6.6241293,7.154289,6.9519753,7.422773,-7.3427563,7.152256,6.9658155,-7.181086,7.1800046,-6.914459,7.4129753
3565d61f3efec69e611c,7.492442,-7.271165,7.1568832,-7.321845,-7.3364787,6.652652,7.1835394,6.9809256,7.452609,-7.3726144,7.182194,6.9946356,-7.213012,7.209857,-6.9421973,7.4431863
359f25d9131a0699405b,7.5264807,-7.303734,7.189193,-7.353671,-7.37003,6.6836996,7.214778,7.012699,7.4860663,-7.405526,7.2148843,7.0256066,-7.244941,7.2422743,-6.974256,7.475685
35e028ec34bfdb7a6d26,7.5585384,-7.3349924,7.2201095,-7.384399,-7.402406,6.7136106,7.2458572,7.042883,7.5178757,-7.4372735,7.246069,7.056108,-7.2761045,7.272697,-7.004786,7.507075
35wcdp4s13xmtyq5f7os,7.6028085,-7.3771615,7.261645,-7.429352,-7.447651,6.7523932,7.2861967,7.083462,7.561421,-7.4794564,7.287333,7.0963817,-7.3120813,7.3120327,-7.0494657,7.5492353
360820d6620d17d1b48b,7.6320734,-7.407055,7.291314,-7.4561453,-7.4768066,6.7818246,7.3168907,7.112097,7.5911255,-7.509111,7.3175726,7.1256485,-7.3447003,7.342224,-7.075431,7.579127
3672e2896ad7d8f2404e,7.658668,-7.433767,7.317068,-7.4793973,-7.50154,6.805987,7.3412595,7.137586,7.6168222,-7.5351543,7.3431697,7.1500053,-7.373562,7.368715,-7.099405,7.60507
367c27a001837dabb2e9,7.6952057,-7.469192,7.351802,-7.514623,-7.5379586,6.8386717,7.3752394,7.1716895,7.652581,-7.5704827,7.3778915,7.18365,-7.406866,7.4026713,-7.1345425,7.6402426
36ebf305b7206112f676,7.7263455,-7.5002646,7.3827286,-7.544656,-7.5693674,6.8687773,7.406516,7.2014523,7.684049,-7.601471,7.4089274,7.2138457,-7.438371,7.433078,-7.16403,7.671466
374ff25490a1f0aba47f,7.7635374,-7.5363326,7.4179378,-7.5803933,-7.6071877,6.9026184,7.4419475,7.236271,7.72067,-7.63791,7.4446864,7.249069,-7.4727774,7.4676676,-7.1995697,7.707348
37905cfdcd105683aaf4,7.7996716,-7.5731826,7.453218,-7.615127,-7.642314,6.935017,7.476077,7.2702923,7.75621,-7.6722274,7.478835,7.2825923,-7.5066934,7.502165,-7.234977,7.743173
37ae91c472189108a737,7.8311186,-7.603278,7.4833736,-7.64475,-7.673866,6.9642553,7.506118,7.3001685,7.787257,-7.703585,7.5096965,7.3121176,-7.537781,7.5321074,-7.263876,7.7735286
37f3b3d773c5c073bc9a,7.8657207,-7.6375513,7.517248,-7.678773,-7.708918,6.9967923,7.539889,7.3327713,7.821774,-7.737632,7.5436325,7.345294,-7.571119,7.5650234,-7.297062,7.807942
38357be0ab369a9ae942,7.8938823,-7.6655746,7.5446286,-7.704099,-7.7357864,7.022859,7.5660667,7.3597164,7.8493476,-7.765234,7.571011,7.3712263,-7.600775,7.5929832,-7.3228498,7.835394
388090578f22a3c33738,7.928172,-7.699638,7.577935,-7.7374387,-7.770237,7.054332,7.5993176,7.3921304,7.8833094,-7.7987914,7.6040936,7.4037685,-7.633484,7.6253653,-7.3558927,7.869244
390d1fc3b78420815190,7.9635873,-7.7325644,7.6107993,-7.770635,-7.805868,7.086675,7.631774,7.4249725,7.9182196,-7.8332405,7.6381435,7.4361615,-7.6652904,7.6583505,-7.389352,7.9023857
3919286d3d8c4f4d339c,8.0051365,-7.7742076,7.651146,-7.812457,-7.8476195,7.1234694,7.6715665,7.4639463,7.9591866,-7.8727093,7.6772475,7.474822,-7.701901,7.696444,-7.4306955,7.9434166
3a9d955e2ef47191a742,8.029439,-7.7985497,7.6754665,-7.834184,-7.8715863,7.148054,7.695876,7.4875083,7.9835734,-7.897941,7.702316,7.4988365,-7.730319,7.721605,-7.4521112,7.9678597
3ab864e1e692786fefd2,8.065445,-7.8332605,7.7090735,-7.867812,-7.9071174,7.179511,7.7288156,7.5213203,8.018478,-7.932417,7.7359433,7.531555,-7.7630825,7.7550774,-7.486421,8.001869
3ac65fbc295f5fbd2ff7,8.092706,-7.8611217,7.7365413,-7.893153,-7.93354,7.206059,7.7556252,7.547555,8.045713,-7.9596024,7.763273,7.557827,-7.7930174,7.7825356,-7.5115356,8.029453
3b3b2319b0995f149ecc,8.12812,-7.89563,7.7706537,-7.927349,-7.969009,7.238738,7.789204,7.5808544,8.080893,-7.993945,7.797573,7.5908,-7.8260155,7.816003,-7.545501,8.063901
3b6f3bb370f3107e257d,8.160259,-7.927582,7.8016367,-7.9578733,-8.001055,7.2679434,7.819909,7.6113005,8.112273,-8.025616,7.8283763,7.621231,-7.857816,7.8466306,-7.575885,8.095394
3ba42ec5350aacb0750a,8.198266,-7.96407,7.8380585,-7.994747,-8.039313,7.303286,7.8559017,7.646818,8.150293,-8.062197,7.865336,7.65642,-7.8919396,7.8822036,-7.6124825,8.132009
3bf7b3c9aa7d93ecb603,8.230219,-7.9961877,7.869489,-8.025922,-8.071183,7.332624,7.887005,7.677281,8.181916,-8.0935,7.8962274,7.686704,-7.923257,7.91274,-7.6432476,8.163907
3c1b9222136b752563f6,8.263209,-8.028599,7.900717,-8.056519,-8.103855,7.362271,7.9178786,7.7084317,8.213892,-8.125902,7.927633,7.7176476,-7.955569,7.944004,-7.6741066,8.195648
3c37e3ad275dcdd39e2c,8.297727,-8.062216,7.933932,-8.089304,-8.1381,7.3943276,7.9503016,7.7408338,8.248156,-8.1592245,7.9610925,7.7495937,-7.9881735,7.976893,-7.7069335,8.229076
3c71b62d597098c4cd18,8.331182,-8.095569,7.966107,-8.121501,-8.171714,7.4245734,7.982365,7.77255,8.281047,-8.191896,7.9928966,7.781298,-8.02025,8.008533,-7.739305,8.261942
3c89c7f1db26ae691db8,8.367344,-8.12918,8.000128,-8.156821,-8.208127,7.4573283,8.015504,7.806188,8.316604,-8.226857,8.027681,7.813834,-8.052097,8.041712,-7.773895,8.295985
3cic5ziycjx4ik4ll0v1,8.408495,-8.168369,8.039118,-8.200158,-8.251712,7.494894,8.0535965,7.844054,8.357666,-8.266183,8.066658,7.8520155,-8.086679,8.07884,-7.8159056,8.336125
3d63ba961a5f3a60616a,8.43036,-8.193832,8.062481,-8.216187,-8.270324,7.5162897,8.077481,7.8666077,8.379064,-8.288852,8.089193,7.874737,-8.117058,8.103381,-7.8332496,8.359293
3dba043eb6065ad3a343,8.460181,-8.223085,8.091311,-8.243741,-8.299676,7.5442276,8.105568,7.894976,8.408471,-8.318273,8.118353,7.90262,-8.147396,8.132523,-7.8609,8.388233
3dglsy7ee3ytfq1lpwlv,8.504265,-8.261643,8.130467,-8.289404,-8.346128,7.581897,8.143197,7.934442,8.45123,-8.359891,8.158964,7.940618,-8.17927,8.170062,-7.90525,8.428276
3e4e608ace87fe97bdb5,8.531018,-8.292467,8.159606,-8.312553,-8.370898,7.6094055,8.173082,7.961712,8.478845,-8.386955,8.186906,7.9688635,-8.21319,8.199221,-7.9291306,8.457425
3f34e3108d1108dab0fd,8.562499,-8.323977,8.190166,-8.342186,-8.402058,7.638409,8.203493,7.9915733,8.509563,-8.417905,8.217076,7.9988904,-8.245052,8.229376,-7.9587655,8.488308
3f55d44d7572d52b2987,8.601284,-8.36087,8.226239,-8.380016,-8.441462,7.6725006,8.239687,8.027422,8.547335,-8.455057,8.253124,8.034533,-8.278288,8.26429,-7.996649,8.525121
3f81bf9625e47ca1963f,8.630881,-8.390671,8.255681,-8.407468,-8.470078,7.700821,8.267603,8.055946,8.576962,-8.483999,8.282684,8.062092,-8.309293,8.29402,-8.024051,8.554415
3fee5c27236cbb682727,8.663518,-8.422957,8.287008,-8.43795,-8.502298,7.730516,8.29857,8.08705,8.609071,-8.515761,8.313997,8.092583,-8.341021,8.325219,-8.054964,8.586077
3ff069e95a9047dbfa8b,8.697916,-8.4566,8.319885,-8.471124,-8.536997,7.7620926,8.331374,8.119315,8.642914,-8.549171,8.346972,8.125104,-8.373451,8.3575115,-8.088,8.619569
3iz4t53ooerb6sruxf3n,8.74415,-8.498069,8.360791,-8.518852,-8.584902,7.800363,8.370135,8.160781,8.686847,-8.591895,8.3882265,8.164718,-8.407633,8.396601,-8.13453,8.661736
3lbe8ny12qw7qwcyihpn,8.77239,-8.527169,8.389743,-8.545721,-8.613266,7.8285594,8.399485,8.188259,8.715695,-8.620653,8.417192,8.192869,-8.438307,8.425119,-8.16091,8.690697
3m4gx52iq3mwqdycm8mm,8.811849,-8.565533,8.427877,-8.586382,-8.654857,7.8658714,8.438211,8.225192,8.755478,-8.658934,8.455762,8.230893,-8.473619,8.461625,-8.200228,8.7298155
3p34idi1traz2k8j0ulk,8.83931,-8.59284,8.453609,-8.608998,-8.679818,7.889436,8.462053,8.251644,8.781474,-8.685312,8.481045,8.25494,-8.502319,8.488831,-8.224673,8.755402
3qvqfnzdg358mord1cku,8.872594,-8.626307,8.487044,-8.642375,-8.713794,7.921776,8.495419,8.283486,8.815179,-8.71834,8.514618,8.287435,-8.535513,8.520989,-8.25666,8.789164
3w0b2b1gz9i1nhmtab7s,8.903363,-8.656859,8.515993,-8.669988,-8.743827,7.949768,8.523928,8.312642,8.845413,-8.748359,8.543985,8.316284,-8.565816,8.550629,-8.285748,8.818781
3ywgcurp27qp1fydp27z,8.938022,-8.690854,8.549404,-8.704394,-8.778757,7.980685,8.556698,8.345375,8.879219,-8.781351,8.576239,8.348108,-8.597859,8.582797,-8.31964,8.8526
40eb36011ced9a882ea9,8.962417,-8.717462,8.575131,-8.723432,-8.800792,8.005635,8.582959,8.369953,8.903902,-8.80708,8.602398,8.373214,-8.629118,8.609471,-8.339587,8.877571
40rkj6cwy12hdupgq4w2,9.004882,-8.756667,8.61364,-8.767547,-8.844958,8.041561,8.619898,8.40857,8.944806,-8.846216,8.64063,8.410317,-8.661792,8.646352,-8.382662,8.917472
41126caf1874c098d357,9.028841,-8.783579,8.639601,-8.786648,-8.866597,8.066615,8.646252,8.433029,8.969424,-8.871415,8.666215,8.435263,-8.693377,8.672958,-8.40299,8.942566
4130weedl0x9hc7qe5a4,9.067912,-8.81873,8.674027,-8.827211,-8.907648,8.099679,8.678374,8.468608,9.007126,-8.907201,8.701233,8.468723,-8.723366,8.707085,-8.4429455,8.978662
413cbf664ac3ba8307ea,9.096514,-8.849438,8.70429,-8.851044,-8.934515,8.128916,8.709975,8.496967,9.036129,-8.937309,8.731533,8.498362,-8.757873,8.737286,-8.4671545,9.007867
4156dc6090d72c95c23b,9.125977,-8.879192,8.7330885,-8.8782835,-8.963211,8.156234,8.738104,8.5252695,9.06519,-8.966134,8.760012,8.526089,-8.788076,8.7660675,-8.494927,9.036822
418f4730434eaced55a2,9.158817,-8.911725,8.7647705,-8.90949,-8.996073,8.18658,8.769445,8.556503,9.09757,-8.998242,8.791768,8.557144,-8.820242,8.79751,-8.526082,9.06892
41abb1b9df74d29b7732,9.19388,-8.946185,8.798421,-8.943277,-9.03119,8.218488,8.802868,8.589594,9.132132,-9.032094,8.82528,8.589875,-8.852907,8.830369,-8.55985,9.103002
41e9ff991a4a21f423a8,9.234802,-8.985476,8.837201,-8.985029,-9.073502,8.2550955,8.841613,8.627621,9.1724205,-9.07098,8.863952,8.627813,-8.887679,8.867253,-8.600347,9.142791
41f718ae2aed1d6c2573,9.264664,-9.014294,8.864749,-9.011063,-9.1024475,8.281682,8.868533,8.655825,9.20094,-9.100321,8.891952,8.655191,-8.91765,8.895892,-8.627545,9.17051
424de2c5e2c1f5652cdc,9.298497,-9.048648,8.898888,-9.045266,-9.136794,8.3142605,8.902219,8.68813,9.235318,-9.133196,8.925653,8.687744,-8.950447,8.928469,-8.660678,9.204991
42dd5f9cd9e2c3ac9ed7,9.326066,-9.07683,8.925911,-9.069925,-9.163141,8.339894,8.927908,8.71495,9.26244,-9.160107,8.9523325,8.713359,-8.980104,8.9562,-8.686261,9.231931
42e83553ca9d77ab4aee,9.362427,-9.111749,8.960139,-9.104169,-9.199745,8.372964,8.962289,8.749129,9.298159,-9.195515,8.987143,8.747247,-9.013588,8.990208,-8.720694,9.266539
430420fb41fe0a889868,9.392921,-9.142163,8.990239,-9.133746,-9.230138,8.401747,8.991768,8.778152,9.328506,-9.225276,9.016884,8.775982,-9.043787,9.019591,-8.749962,9.296755
432fd26823e230070734,9.428176,-9.176599,9.023788,-9.167244,-9.265263,8.434009,9.024581,8.811391,9.363287,-9.259041,9.050684,8.808556,-9.0768,9.052895,-8.7835865,9.330659
4388d48ebff4cf866ecd,9.45802,-9.206911,9.052934,-9.195045,-9.294894,8.461638,9.053351,8.840218,9.392583,-9.288692,9.0795965,8.837171,-9.107858,9.082179,-8.81164,9.360133
43d34a076620e32fedfa,9.494043,-9.241788,9.087051,-9.230004,-9.331151,8.494089,9.086993,8.873998,9.427906,-9.323129,9.113738,8.870377,-9.140514,9.115594,-8.846384,9.394825
43d98a750c726bb39d11,9.529053,-9.276735,9.120999,-9.264317,-9.366441,8.52607,9.120861,8.907121,9.462411,-9.3569765,9.1472435,8.903574,-9.173521,9.148373,-8.880349,9.42944
43vri1lqbgiiwbkaskqd,9.566233,-9.311284,9.154266,-9.302559,-9.40512,8.55759,9.152364,8.941118,9.497798,-9.391083,9.180263,8.936213,-9.204131,9.181155,-8.917719,9.464338
446d2ad0ca2908ffa4f9,9.592069,-9.339583,9.18197,-9.323127,-9.42878,8.584314,9.180632,8.967431,9.524548,-9.418521,9.2080765,8.962706,-9.236348,9.209415,-8.939901,9.490738
4474f24ef69e01e2c001,9.624425,-9.371056,9.212841,-9.353811,-9.460999,8.613956,9.210572,8.998046,9.556338,-9.449715,9.239027,8.99234,-9.267199,9.240279,-8.970667,9.521766
4478eae73fb84cedb102,9.660194,-9.405702,9.246628,-9.38843,-9.497276,8.646372,9.244302,9.031617,9.591394,-9.484221,9.273038,9.025709,-9.299984,9.273478,-9.00505,9.556233
44c7cf3881ae07f7fb3e,9.691446,-9.437862,9.277679,-9.417959,-9.528224,8.67571,9.275141,9.061844,9.622457,-9.515055,9.303608,9.055999,-9.33223,9.304043,-9.034785,9.58754
44c7cf3881ae07f7fb3eD,9.721395,-9.46748,9.306788,-9.445869,-9.557968,8.704016,9.303561,9.090535,9.652175,-9.544548,9.33291,9.084107,-9.362535,9.333406,-9.062902,9.616609
44x159fl0pw2uucriuga,9.765978,-9.50773,9.345934,-9.495237,-9.606056,8.74103,9.3408,9.130943,9.694555,-9.584396,9.372063,9.122853,-9.395535,9.370684,-9.109318,9.658734
451b0095938a3c54efc4,9.789844,-9.534983,9.372303,-9.51188,-9.626578,8.766226,9.368326,9.155212,9.719355,-9.610357,9.397957,9.14802,-9.426948,9.397655,-9.128876,9.683227
453d43b3f6bdf467e672,9.826462,-9.570796,9.407543,-9.549196,-9.664293,8.799768,9.403286,9.189635,9.7554865,-9.645149,9.432993,9.1825075,-9.46024,9.431395,-9.164886,9.719439
454c91e8f96c1dc4e994,9.857803,-9.601624,9.43768,-9.576889,-9.694821,8.829223,9.432626,9.219773,9.786697,-9.676147,9.463788,9.211414,-9.49187,9.462488,-9.193664,9.7490635
45b6cc87a7e957f83027,9.88634,-9.631047,9.465745,-9.603322,-9.722827,8.855636,9.460072,9.247406,9.814683,-9.704312,9.49117,9.2387085,-9.521883,9.4906435,-9.220716,9.77738
460fa4961434cf281423,9.925348,-9.667958,9.502567,-9.643271,-9.763404,8.891168,9.496739,9.283595,9.853123,-9.741363,9.5283785,9.274877,-9.555367,9.525963,-9.258974,9.815282
46a60ed041c8ebf98061,9.955312,-9.698514,9.531199,-9.669857,-9.79222,8.917801,9.524807,9.312457,9.882063,-9.77051,9.556298,9.302747,-9.586046,9.555055,-9.287175,9.8440485
46a7a18ca160c829a15f,9.988279,-9.730419,9.562761,-9.701959,-9.825504,8.948621,9.555257,9.343597,9.914803,-9.801972,9.588086,9.332897,-9.617059,9.586486,-9.318883,9.87583
46e2d5243b6eef040f97,10.022653,-9.76548,9.596636,-9.735125,-9.86009,8.980555,9.589388,9.376599,9.94888,-9.8358,9.6216545,9.366461,-9.651117,9.61937,-9.351807,9.910327
4738a118c8b8fa271fd6,10.056223,-9.798447,9.62838,-9.766604,-9.893468,9.0107,9.620503,9.408395,9.981546,-9.868108,9.653275,9.3973875,-9.683066,9.65116,-9.3837185,9.942419
47b08a7751ab609be9e5,10.086567,-9.829106,9.658303,-9.794708,-9.923511,9.039731,9.649966,9.437782,10.012034,-9.898093,9.683308,9.426296,-9.714257,9.681218,-9.412381,9.97218
47eeab842793b09300c3,10.119848,-9.86178,9.68984,-9.826897,-9.956953,9.069683,9.680771,9.469239,10.044335,-9.929967,9.71459,9.457094,-9.745798,9.712466,-9.444381,10.00437
47vclaej1xmb0rc8kgka,10.159691,-9.89787,9.724428,-9.870369,-9.999658,9.102218,9.712956,9.505522,10.081697,-9.965029,9.748758,9.490988,-9.776151,9.746478,-9.485471,10.041814
4884f3bdc068ef01e042,10.185738,-9.927173,9.753897,-9.889698,-10.022917,9.131541,9.744329,9.532023,10.110066,-9.994054,9.778748,9.5192585,-9.809631,9.775632,-9.507454,10.0687685
488934d01a504bc212b4,10.22168,-9.962231,9.78747,-9.925144,-10.059811,9.163129,9.777848,9.565778,10.144508,-10.02846,9.811994,9.55312,-9.842642,9.808611,-9.542246,10.103731
488fc49e8fccd665c3e2,10.253314,-9.993114,9.818077,-9.955593,-10.090823,9.19225,9.806284,9.595934,10.175973,-10.058123,9.842267,9.580725,-9.8722925,9.839139,-9.572798,10.1339655
48a71a6a5a15e31084e3,10.2846985,-10.026457,9.849624,-9.985451,-10.122206,9.221865,9.838216,9.62645,10.207166,-10.089319,9.8728695,9.612363,-9.905526,9.869858,-9.603046,10.1661825
48a96425072cefa0dc69,10.32,-10.060506,9.882993,-10.0186405,-10.157922,9.254696,9.871678,9.659828,10.242143,-10.123924,9.907361,9.645422,-9.938583,9.903447,-9.636377,10.1998825
48ad93c227abfa9542aa,10.349915,-10.090318,9.912026,-10.046373,-10.187568,9.282469,9.900286,9.688608,10.271584,-10.153232,9.935953,9.673559,-9.968853,9.932518,-9.664632,10.228833
498121d2486259ef1b3a,10.386101,-10.125381,9.945963,-10.081596,-10.223903,9.314574,9.933088,9.722574,10.306811,-10.187108,9.969684,9.706139,-10.001345,9.966051,-9.6996765,10.26342
49a91a4dce6838ffcbcd,10.417726,-10.157894,9.976986,-10.113339,-10.256308,9.34357,9.964123,9.753079,10.337881,-10.217804,9.999971,9.73719,-10.032849,9.996032,-9.730783,10.295721
49b95110a8c59f6b6c58,10.44822,-10.188194,10.00671,-10.141251,-10.286363,9.372882,9.993095,9.7823715,10.368458,-10.247673,10.02987,9.765541,-10.063825,10.026234,-9.759453,10.324908
49ef48443e09f8be12f6,10.481209,-10.221021,10.038605,-10.172731,-10.319545,9.403374,10.02488,9.813796,10.400911,-10.27997,10.061594,9.796933,-10.095815,10.0577545,-9.79098,10.35727
4a0890c15c26984c191f,10.519287,-10.257352,10.073755,-10.209892,-10.35809,9.436459,10.058844,9.849443,10.43763,-10.315518,10.096731,9.830836,-10.129143,10.092701,-9.827721,10.393225
4a6e1cf1e4e9d8f54717,10.545254,-10.285253,10.100687,-10.233195,-10.383586,9.462857,10.086068,9.875249,10.464174,-10.342396,10.123266,9.857429,-10.15937,10.11973,-9.852114,10.419726
4a7f53c0a376edadf38a,10.5809355,-10.319763,10.134308,-10.267841,-10.419374,9.494876,10.118756,9.908803,10.49911,-10.375906,10.15675,9.889654,-10.191525,10.152877,-9.886674,10.453884
4aa8ff74dc576b7adbcd,10.612897,-10.352499,10.165715,-10.298233,-10.451694,9.525052,10.150296,9.939681,10.530819,-10.407608,10.187984,9.921033,-10.224295,10.184047,-9.917177,10.485759
4acutl013itvh9va99p7,10.653103,-10.389722,10.201406,-10.342513,-10.495112,9.558952,10.184733,9.976616,10.568879,-10.4433975,10.223462,9.957134,-10.256378,10.218569,-9.958453,10.524938
4atjmlccken75lck9ffp,10.681874,-10.418893,10.229991,-10.368803,-10.523189,9.586006,10.212644,10.004903,10.597644,-10.472224,10.252243,9.984044,-10.286183,10.24729,-9.985191,10.553017
4bceaffe5e429ed3333b,10.711103,-10.4502,10.260095,-10.39284,-10.5505495,9.614942,10.243267,10.03337,10.6271925,-10.502212,10.281341,10.013158,-10.319025,10.277486,-10.011897,10.581675
4bq1kdgygbtif8w80s5y,10.748899,-10.484689,10.292764,-10.433546,-10.59108,9.646057,10.273651,10.068418,10.662547,-10.535681,10.314168,10.045583,-10.349667,10.31054,-10.050247,10.617345
4c26df96293b4a52bc03,10.779336,-10.51771,10.32567,-10.45951,-10.619727,9.677742,10.307991,10.098196,10.694365,-10.567711,10.346535,10.077304,-10.383784,10.341968,-10.07789,10.648535
4c79be630ae9d3db6aaf,10.8120775,-10.550243,10.357209,-10.489256,-10.651953,9.708493,10.339078,10.129551,10.727078,-10.5995865,10.378446,10.107653,-10.415789,10.374,-10.108818,10.67979
4c90f16c0fcd85d3de25,10.844516,-10.581536,10.387784,-10.520759,-10.684651,9.737823,10.368663,10.160269,10.75872,-10.630298,10.40871,10.136927,-10.446022,10.404462,-10.140131,10.710729
4ca5c8ea55be09213d14,10.875843,-10.614706,10.419233,-10.551079,-10.71631,9.767412,10.399857,10.19089,10.789935,-10.661171,10.439321,10.168097,-10.4789295,10.435341,-10.170532,10.742783
4cb96f0d9108066442a8,10.907201,-10.645968,10.449487,-10.580586,-10.74788,9.796774,10.429989,10.220992,10.820905,-10.691923,10.469542,10.197915,-10.510162,10.465745,-10.200402,10.773245
4cc0dc56eecea1d928d1,10.942025,-10.680374,10.482681,-10.615064,-10.783175,9.828057,10.462694,10.254047,10.854784,-10.725067,10.502361,10.230446,-10.542762,10.498055,-10.234322,10.807373
4dfdfa5e1a04c832b9b4,10.973717,-10.712314,10.51357,-10.644971,-10.815048,9.857864,10.493427,10.284463,10.886264,-10.756054,10.532921,10.260717,-10.574244,10.528905,-10.264697,10.838486
4e4bb1f26e34ca0a13dc,11.004582,-10.743552,10.543922,-10.67381,-10.845941,9.887476,10.523224,10.314385,10.917306,-10.786398,10.563298,10.29003,-10.605662,10.559563,-10.294078,10.868619
4e508744a9816cc4586a,11.037703,-10.776471,10.575732,-10.705585,-10.879289,9.917978,10.554648,10.345992,10.949913,-10.818287,10.594866,10.321106,-10.637551,10.591126,-10.325997,10.90088
4e693829528e3e7de62a,11.076563,-10.81441,10.61217,-10.744494,-10.91885,9.952133,10.590785,10.382449,10.987504,-10.854517,10.6310425,10.357135,-10.671964,10.626306,-10.36422,10.938992
4e768251c78b687fa993,11.110348,-10.847558,10.644124,-10.777596,-10.953589,9.982741,10.62204,10.414702,11.020358,-10.8870125,10.662986,10.388801,-10.704372,10.658288,-10.396545,10.971718
4edfd2e1b7c5c5d1d384,11.140117,-10.8776045,10.673206,-10.804952,-10.983345,10.011083,10.6511965,10.443432,11.049959,-10.916696,10.691846,10.417326,-10.734753,10.687732,-10.424747,11.000659
4erna0vkk9gu5umle1se,11.173981,-10.910182,10.702435,-10.842229,-11.019491,10.037351,10.678058,10.475188,11.080681,-10.945604,10.719317,10.446625,-10.763109,10.717129,-10.460186,11.03395
4ewf46mylf75olvvihqj,11.206676,-10.9430685,10.735992,-10.873867,-11.052666,10.0710745,10.712461,10.507095,11.114752,-10.979091,10.754413,10.479707,-10.796868,10.749463,-10.491036,11.067162
4fl8e5s0nf65bm2m34f0,11.243088,-10.978551,10.768257,-10.910375,-11.089844,10.100195,10.742447,10.541138,11.148134,-11.011313,10.784638,10.511246,-10.829099,10.782167,-10.527339,11.101469
4glo109mkgy7azntyttp,11.276291,-11.012005,10.801381,-10.942153,-11.12325,10.132462,10.775577,10.573098,11.181893,-11.043979,10.817985,10.543357,-10.861916,10.814504,-10.559097,11.13445
4i0t5tq7o78lvc1zglgr,11.306147,-11.041873,10.830948,-10.9701805,-11.153186,10.161462,10.804818,10.602129,11.211942,-11.073787,10.847671,10.571762,-10.892422,10.844255,-10.587403,11.163587
4nun1ah7qw10q705a2aq,11.339063,-11.07448,10.861779,-11.002307,-11.187062,10.191065,10.836037,10.63356,11.243881,-11.105571,10.878555,10.603389,-10.923988,10.874887,-10.619429,11.19593
4oqxw56hzk4fk8aqh3e0,11.371072,-11.108442,10.894441,-11.032043,-11.218699,10.22303,10.86807,10.664746,11.276947,-11.136715,10.910544,10.634433,-10.957487,10.907538,-10.650503,11.228015
4v5xbvn3yhmvs97477pc,11.404928,-11.141771,10.927643,-11.064709,-11.252492,10.254069,10.901273,10.696997,11.310007,-11.170013,10.943386,10.666577,-10.989899,10.939237,-10.682475,11.261185
4vnvytgnlmv4jbfw9h3t,11.439098,-11.174747,10.958135,-11.099053,-11.288491,10.283367,10.930925,10.72924,11.342351,-11.201253,10.97337,10.697705,-11.020703,10.970774,-10.716428,11.294066
4x441h9y6wzknmtdw7q4,11.46862,-11.205746,10.987817,-11.126263,-11.317533,10.312144,10.960154,10.758337,11.372392,-11.230655,11.002919,10.726213,-11.052055,11.000639,-10.7445545,11.323418
4xh67ezjc331pg9q3kfv,11.504048,-11.240356,11.020705,-11.162176,-11.353986,10.34287,10.991343,10.791934,11.406309,-11.262999,11.034789,10.757983,-11.084383,11.033331,-10.779798,11.357689
4y1vvkscejq34042oag4,11.536831,-11.274157,11.054151,-11.192998,-11.386738,10.375284,11.025695,10.823534,11.439705,-11.296092,11.068099,10.791038,-11.117813,11.06541,-10.81104,11.390811
4ycyhj8tyx2b17fcx29j,11.566939,-11.304329,11.0832615,-11.219529,-11.416522,10.404249,11.054989,10.852529,11.46966,-11.32644,11.0975,10.819494,-11.148725,11.095741,-10.838861,11.419198
504278569f7c6dff25e3,11.595978,-11.335933,11.114619,-11.244527,-11.444368,10.435023,11.086886,10.881292,11.500664,-11.356674,11.128375,10.849081,-11.181397,11.126394,-10.8659115,11.448372
50673b01fd2b0c765572,11.633046,-11.372001,11.1489105,-11.281567,-11.482112,10.466947,11.119958,10.916185,11.5360365,-11.39079,11.162041,10.882584,-11.214446,11.160215,-10.902222,11.484296
50fec4ca4283ad18c000,11.666306,-11.405752,11.181722,-11.314653,-11.516016,10.498238,11.152533,10.948224,11.569242,-11.4227705,11.1943035,10.914757,-11.246881,11.191865,-10.935002,11.517869
510a90cd169e2eb042ab,11.697216,-11.435731,11.211087,-11.342837,-11.547029,10.527547,11.181556,10.977919,11.600032,-11.4532175,11.2243395,10.942995,-11.277178,11.222356,-10.963878,11.546618
522837ace4fd8dd743f2,11.727321,-11.466296,11.240325,-11.373077,-11.577874,10.555831,11.209793,11.007307,11.630248,-11.481648,11.253319,10.971218,-11.306691,11.251717,-10.99375,11.576907
52a24e35d5356ab34a2e,11.759311,-11.499718,11.272201,-11.402222,-11.609944,10.586499,11.242235,11.038157,11.661871,-11.513969,11.28418,11.003128,-11.340441,11.283493,-11.024132,11.60831
52d965ebf3ec0518bc0f,11.79154,-11.532613,11.304103,-11.433216,-11.642437,10.617305,11.273851,11.069303,11.694219,-11.545309,11.315572,11.034109,-11.372662,11.314917,-11.055463,11.640279
52f1bca9ac9c792e4457,11.82562,-11.56675,11.336842,-11.466831,-11.677044,10.648372,11.305729,11.101956,11.727731,-11.577441,11.34773,11.06591,-11.405067,11.347176,-11.088913,11.673877
52f4899e918b57df28da,11.856152,-11.5979,11.36675,-11.495763,-11.708309,10.677742,11.335967,11.131622,11.758157,-11.607901,11.377505,11.0958805,-11.436554,11.377436,-11.118137,11.703957
533bc4c6716035e694ac,11.890058,-11.631486,11.398998,-11.528969,-11.742787,10.708613,11.367737,11.164009,11.791317,-11.640097,11.409465,11.127514,-11.468789,11.40938,-11.151129,11.73701
539911ee11c1b2aaeb88,11.924694,-11.665969,11.43177,-11.5633955,-11.778285,10.739444,11.400042,11.197015,11.824722,-11.67279,11.441524,11.160228,-11.501379,11.441653,-11.185093,11.771316
53d51965c40a54cff1a0,11.955792,-11.697995,11.462614,-11.593092,-11.809914,10.769585,11.430834,11.227318,11.856093,-11.703441,11.472043,11.190475,-11.533299,11.472518,-11.215217,11.8021345
54342435561e775ce97f,11.988756,-11.731232,11.494584,-11.6247,-11.84341,10.800646,11.462514,11.2590685,11.88889,-11.735374,11.50383,11.221852,-11.565767,11.50453,-11.24703,11.834408
545eb6c8154273344669,12.023796,-11.765344,11.526698,-11.660192,-11.879424,10.830673,11.493365,11.292364,11.922046,-11.767487,11.535203,11.253589,-11.5976715,11.536636,-11.281675,11.86855
5479f88afb95288d6392,12.0564165,-11.798782,11.559178,-11.6920595,-11.912652,10.862182,11.526052,11.3238735,11.954888,-11.799379,11.567319,11.285755,-11.63033,11.568211,-11.313514,11.901486
54826f4abf592713d585,12.089641,-11.832059,11.591418,-11.72401,-11.946422,10.893325,11.55808,11.355733,11.987881,-11.831592,11.599321,11.31729,-11.662526,11.600234,-11.345604,11.934017
54f91ccb08cbece520da,12.120516,-11.863774,11.6221,-11.753078,-11.977623,10.923354,11.588473,11.385898,12.01916,-11.862112,11.629834,11.347,-11.694264,11.631125,-11.3752775,11.964274
552365f82674884bcaaa,12.1532545,-11.896963,11.653313,-11.785162,-12.011031,10.952843,11.619359,11.417305,12.050872,-11.893188,11.659999,11.3780365,-11.726131,11.662182,-11.407463,11.996613
553l2g7kpifbvn82knxk,12.194732,-11.935275,11.687245,-11.832864,-12.056497,10.983475,11.651348,11.456279,12.087135,-11.927795,11.693661,11.415257,-11.760186,11.69565,-11.450725,12.038201
55a47a152d359522e38d,12.219539,-11.963185,11.717529,-11.849737,-12.078639,11.015112,11.682726,11.481181,12.116879,-11.956987,11.72409,11.440778,-11.790231,11.726046,-11.471808,12.061873
57709f904b1cc9ec60b1,12.255005,-11.997881,11.749392,-11.886852,-12.115801,11.044627,11.7132845,11.514872,12.149713,-11.9888115,11.754769,11.473221,-11.822601,11.757912,-11.50754,12.096874
57c33a6126c456c5ada8,12.283519,-12.028512,11.77998,-11.9113035,-12.143532,11.075264,11.7444,11.542992,12.180336,-12.018841,11.784999,11.501672,-11.854061,11.788445,-11.53422,12.124727
57f84519c468df122d69,12.317437,-12.062481,11.81178,-11.945613,-12.179031,11.10551,11.776323,11.575596,12.213076,-12.051056,11.816709,11.534497,-11.886184,11.8200245,-11.567548,12.158966
580e98185da72b5f34cd,12.349792,-12.0946045,11.843731,-11.976155,-12.211623,11.137298,11.807906,11.60679,12.245855,-12.082794,11.848679,11.564991,-11.918521,11.851995,-11.5985155,12.189964
58n0dsxyyqnriomw67id,12.390714,-12.1333,11.877658,-12.022442,-12.255959,11.167443,11.839642,11.645464,12.281525,-12.117119,11.881637,11.601755,-11.953044,11.885769,-11.641116,12.231171
58widcj6smafuwyqxw2m,12.417611,-12.163071,11.9068985,-12.046599,-12.282399,11.196127,11.869234,11.672269,12.310302,-12.144823,11.909438,11.629297,-11.983306,11.914511,-11.667339,12.258644
5914db0d4427b322e8af,12.445132,-12.192622,11.937115,-12.068873,-12.3090105,11.227246,11.900216,11.699364,12.340685,-12.174924,11.939754,11.656624,-12.014206,11.945281,-11.692046,12.284634
5963ba5cd9d242a00e22,12.481576,-12.228635,11.970471,-12.10614,-12.346608,11.257915,11.932595,11.733876,12.374788,-12.208059,11.971905,11.690369,-12.047467,11.978055,-11.728429,12.320743
59bybxqvhton27u0jtfm,12.516576,-12.262365,12.000481,-12.143588,-12.384569,11.286576,11.961096,11.767803,12.406978,-12.23919,12.001874,11.722011,-12.079535,12.009906,-11.764008,12.355172
5a44a7c59729d41d596a,12.543818,-12.292501,12.032954,-12.165016,-12.40974,11.3196535,11.995069,11.794592,12.43851,-12.269912,12.034149,11.750765,-12.110968,12.04054,-11.788371,12.382094
5a8cce5abee961fc77f3,12.58164,-12.329857,12.0683975,-12.204058,-12.448775,11.352776,12.029462,11.830645,12.474834,-12.304509,12.06906,11.786245,-12.145626,12.074776,-11.826106,12.420122
5abcc9d4fb5e764b2f6f,12.609737,-12.35932,12.096753,-12.229699,-12.477386,11.381174,12.058157,11.85831,12.50371,-12.33313,12.096896,11.813726,-12.175737,12.104106,-11.852989,12.447339
5ada57d72f07c3803d33,12.6428795,-12.392537,12.128832,-12.261668,-12.511065,11.412167,12.09007,11.8901,12.5364685,-12.365163,12.128579,11.845181,-12.207883,12.135946,-11.885092,12.479784
5b5ef66e547d63806a56,12.676104,-12.425768,12.160857,-12.295321,-12.545169,11.442872,12.121379,11.922256,12.56924,-12.396258,12.160091,11.876712,-12.239713,12.167342,-11.918251,12.513277
5bdad002590327215ae0,12.708718,-12.45931,12.192058,-12.327334,-12.578952,11.472494,12.15271,11.953661,12.600753,-12.427743,12.190206,11.908432,-12.272222,12.198555,-11.950262,12.545619
5be7405ad4ae9d9a2853,12.742064,-12.492709,12.224602,-12.358822,-12.612622,11.504383,12.184662,11.985827,12.634343,-12.460158,12.222748,11.939489,-12.304736,12.231377,-11.982196,12.577678
5c33bb784bb99763ed74,12.772808,-12.524767,12.255061,-12.389361,-12.6446,11.534233,12.215259,12.016012,12.66526,-12.490071,12.25256,11.970129,-12.336514,12.261764,-12.012721,12.608926
5c83f4ed6601ddf1a6fa,12.805673,-12.557876,12.286919,-12.421089,-12.67817,11.564995,12.246867,12.0476675,12.697777,-12.521965,12.283969,12.001272,-12.368639,12.29361,-12.04457,12.6410055
5cda8273b348fbda9f29,12.83887,-12.591588,12.319155,-12.454231,-12.712392,11.596225,12.278903,12.0798855,12.730871,-12.553665,12.316043,12.033353,-12.401113,12.3254175,-12.077325,12.674404
5d16326e4577a67d94c6,12.875961,-12.62853,12.353813,-12.490853,-12.750104,11.628295,12.312614,12.11496,12.766049,-12.588015,12.349599,12.067748,-12.435259,12.359597,-12.113973,12.710916
5d2379fb72082166dee3,12.903824,-12.657687,12.381887,-12.517849,-12.779138,11.656522,12.340808,12.1427145,12.79472,-12.615872,12.377017,12.095312,-12.465283,12.388299,-12.1412,12.738525
5d580a610c7f8114eb5c,12.940268,-12.693234,12.415658,-12.554488,-12.816701,11.688216,12.374326,12.177288,12.829238,-12.650022,12.410562,12.12973,-12.498849,12.421248,-12.1768265,12.774539
5d89810b20079366fcc2,12.968925,-12.724113,12.4457245,-12.581352,-12.8458395,11.718389,12.404292,12.205757,12.85967,-12.67895,12.439714,12.158037,-12.529902,12.451684,-12.204913,12.80306
5dmn9cwdf4l1snqfjw1p,13.00898,-12.762507,12.478411,-12.62542,-12.889193,11.747795,12.434288,12.244273,12.894482,-12.712567,12.47135,12.193335,-12.564962,12.486417,-12.246258,12.842773
5e12a0421c20717035cb,13.03443,-12.79052,12.508889,-12.645927,-12.9133835,11.779373,12.466876,12.269225,12.924268,-12.741777,12.501812,12.220705,-12.594201,12.514953,-12.269261,12.868004
5e29473eb1e80fde79a0,13.070987,-12.827002,12.542791,-12.682712,-12.951012,11.811063,12.499593,12.304194,12.9591055,-12.775223,12.534836,12.254603,-12.628274,12.548723,-12.30572,12.904195
5e89fad73b2ada2a30bf,13.099829,-12.85746,12.572671,-12.710658,-12.980697,11.841,12.52998,12.332769,12.989227,-12.804364,12.564156,12.283803,-12.659231,12.578267,-12.334012,12.933347
5ez4c53h3kdamnlvkpna,13.139485,-12.895086,12.606042,-12.752838,-13.023334,11.872304,12.561772,12.370714,13.024978,-12.839144,12.59776,12.319486,-12.69402,12.613304,-12.373775,12.972343
5f55600069b483f999f5,13.166197,-12.924251,12.637109,-12.775127,-13.048309,11.903545,12.593453,12.396866,13.055293,-12.868069,12.627622,12.346347,-12.723794,12.642687,-12.398818,12.998364
5f7b406b2bbf9789735f,13.20166,-12.96111,12.671628,-12.811141,-13.085043,11.935928,12.627725,12.430934,13.089989,-12.901387,12.661025,12.381387,-12.758473,12.675715,-12.434291,13.034749
5f8d87412f69e3d9fb13,13.229034,-12.989416,12.69929,-12.837203,-13.113612,11.9640045,12.655907,12.458157,13.118215,-12.929408,12.688394,12.408465,-12.787628,12.704378,-12.460841,13.061635
5faa3d19e595ab735fda,13.263894,-13.0242815,12.732387,-12.872036,-13.149412,11.995567,12.688335,12.491727,13.1521635,-12.962106,12.721066,12.4414215,-12.820804,12.737086,-12.495239,13.096321
5fbaf8a0f524358778bb,13.298571,-13.058551,12.765429,-12.906017,-13.184948,12.027408,12.721139,12.52489,13.186068,-12.995153,12.753891,12.4742155,-12.853673,12.769763,-12.52901,13.130334
5gs9643ghg39gpkgi3e5,13.33705,-13.096484,12.798061,-12.94827,-13.22687,12.057959,12.751503,12.56242,13.220843,-13.028161,12.785762,12.509265,-12.889413,12.804272,-12.5690365,13.1689415
5jxldd3plo4x6oq140l5,13.368261,-13.128352,12.828671,-12.978499,-13.258758,12.087401,12.782635,12.592714,13.251796,-13.058627,12.815825,12.5399475,-12.92059,12.834412,-12.599499,13.200096
5kqtdcvyt7rgqdoextw8,13.40388,-13.163641,12.862259,-13.013556,-13.295169,12.119116,12.815645,12.626645,13.286342,-13.092376,12.849434,12.573147,-12.953364,12.867526,-12.633953,13.235207
5l1b1ma70rilf7mojch5,13.434382,-13.1966095,12.893791,-13.042958,-13.326513,12.150326,12.846921,12.657023,13.318002,-13.1226425,12.879562,12.603447,-12.986356,12.899431,-12.6644335,13.265843
5m6lgwi0mkqs8ilg3qqs,13.458647,-13.223473,12.922409,-13.063738,-13.350542,12.180168,12.8769865,12.681091,13.34601,-13.149879,12.907098,12.629168,-13.0145645,12.927303,-12.687121,13.289754
5mrih4nj5agvu67vao4m,13.501443,-13.264094,12.95765,-13.11068,-13.39604,12.211455,12.910344,12.721596,13.38304,-13.185591,12.941796,12.668352,-13.051449,12.962018,-12.731374,13.333197
5qfsd40k8fv54hc102p2,13.533495,-13.297134,12.989981,-13.14066,-13.428725,12.243475,12.942388,12.7527485,13.41609,-13.21776,12.9737,12.698702,-13.083721,12.994931,-12.762006,13.364012
5rxl72n8rmnxwrxcss0q,13.563183,-13.327822,13.019998,-13.16922,-13.459178,12.273022,12.973009,12.781964,13.446356,-13.247409,13.003413,12.72835,-13.11426,13.0246725,-12.791011,13.393899
5slhcx7pnjhcmlbfffu6,13.6004505,-13.365459,13.05368,-13.208449,-13.498265,12.304164,13.004832,12.817963,13.481124,-13.280675,13.035625,12.762582,-13.149353,13.058731,-12.82901,13.431091
5zczdtyecu2w495j80xv,13.629123,-13.3958025,13.084744,-13.23347,-13.527113,12.336113,13.03709,12.845937,13.512447,-13.311363,13.066558,12.791537,-13.180129,13.089882,-12.855786,13.458771
6002b9ec0f4ad0b281cf,13.6592455,-13.427139,13.116679,-13.262355,-13.557012,12.3671255,13.069188,12.875033,13.543966,-13.341314,13.097323,12.821542,-13.2105465,13.119643,-12.885127,13.489367
60c3549c706fe13322ce,13.687685,-13.457091,13.145933,-13.289579,-13.58672,12.396831,13.099099,12.903348,13.573796,-13.370403,13.126208,12.85006,-13.240984,13.149492,-12.912865,13.517566
6106e5232ac32bc22d1d,13.718926,-13.490068,13.177649,-13.320913,-13.619044,12.428176,13.130516,12.934386,13.606357,-13.400472,13.157583,12.881057,-13.27282,13.180798,-12.944295,13.549911
61de1e21015e07aacbe8,13.753148,-13.523695,13.210348,-13.353948,-13.65329,12.459126,13.162505,12.966784,13.639494,-13.432737,13.189382,12.912691,-13.305126,13.212483,-12.977681,13.582857
62156eada978f707f5d2,13.785269,-13.557314,13.241692,-13.386335,-13.687459,12.48953,13.194237,12.998217,13.671096,-13.464188,13.219603,12.94478,-13.337991,13.244261,-13.009628,13.6153
6273f50d9a0b4e6d971c,13.815889,-13.589285,13.273116,-13.416079,-13.719025,12.521011,13.225634,13.028462,13.703195,-13.494539,13.250707,12.974988,-13.369566,13.275533,-13.039773,13.646041
628bztd9ybuth5efk7nw,13.8596945,-13.6301985,13.309131,-13.461992,-13.764987,12.553743,13.259957,13.070035,13.741923,-13.532591,13.288315,13.014169,-13.406752,13.312215,-13.082962,13.689254
62a877b83219f7974fd0,13.879506,-13.655034,13.335912,-13.479126,-13.785176,12.582439,13.2882805,13.0907545,13.767162,-13.5562525,13.31206,13.037148,-13.43377,13.338377,-13.102868,13.709745
62olkigg7ntlaf6fzytl,13.924855,-13.697438,13.372683,-13.527413,-13.832385,12.614297,13.322556,13.132919,13.805465,-13.594109,13.347979,13.077273,-13.471737,13.374769,-13.148837,13.754395
6314d7cbc465e29f357c,13.948036,-13.72408,13.401601,-13.54688,-13.855758,12.645528,13.353106,13.15684,13.834207,-13.621614,13.376478,13.102184,-13.500044,13.403903,-13.17018,13.777247
63aded37545ab92d41d4,13.9781475,-13.755827,13.432928,-13.576354,-13.88636,12.676555,13.384175,13.186544,13.865967,-13.650943,13.406863,13.131956,-13.531059,13.434294,-13.200484,13.807986
63c38a00d97e62c31e08,14.012166,-13.789714,13.465166,-13.609892,-13.921791,12.707646,13.416418,13.219284,13.899044,-13.683722,13.439207,13.164528,-13.563635,13.466534,-13.233394,13.841448
63eef37311aaac915a45,14.043673,-13.82256,13.496755,-13.641284,-13.953966,12.738446,13.44747,13.250247,13.931021,-13.713812,13.46931,13.195009,-13.595687,13.49785,-13.265362,13.873198
63ff3dff3eb31d62ab3e,14.076305,-13.856249,13.528669,-13.673821,-13.988152,12.769308,13.479537,13.281984,13.963392,-13.745514,13.500647,13.227212,-13.628322,13.529519,-13.297472,13.905959
6486c0664d217470d126,14.111654,-13.890541,13.560885,-13.7089,-14.024916,12.799774,13.5117855,13.315499,13.996218,-13.779017,13.5326,13.260529,-13.661153,13.5618,-13.331731,13.940313
6496d6268092ef8e7e9d,14.14559,-13.926176,13.594664,-13.743269,-14.05956,12.832309,13.54375,13.348903,14.0308485,-13.810292,13.564924,13.29255,-13.694851,13.595204,-13.36654,13.97475
64d1d58d40bca568347c,14.173656,-13.955928,13.623671,-13.770593,-14.089287,12.861653,13.574084,13.376806,14.060134,-13.839256,13.593413,13.321617,-13.725173,13.624304,-13.394009,14.003014
64d65eddd629b80922f1,14.203723,-13.987518,13.654722,-13.799972,-14.120456,12.892641,13.605258,13.406527,14.091642,-13.869247,13.623816,13.35148,-13.756305,13.655144,-13.42378,14.033278
6569uz69or21mbcejw25,14.246702,-14.028859,13.6912155,-13.845119,-14.165295,12.92558,13.63947,13.447549,14.129725,-13.906463,13.660179,13.390237,-13.794109,13.692061,-13.467019,14.076018
6604efc6fd93e070f40a,14.268886,-14.0544,13.718828,-13.864406,-14.18784,12.9550705,13.66917,13.469992,14.1569195,-13.932167,13.686728,13.414912,-13.8210125,13.718779,-13.488332,14.098519
663aff87732c52f0e342,14.304437,-14.089397,13.752419,-13.899187,-14.223763,12.987026,13.701757,13.50394,14.19132,-13.96555,13.719613,13.44746,-13.854296,13.752084,-13.523051,14.13286
66d7c0bdb21b7d5bd83d,14.3358,-14.122516,13.784523,-13.930641,-14.256015,13.018724,13.733413,13.5351095,14.224113,-13.995614,13.750905,13.4785385,-13.886403,13.783486,-13.554863,14.165256
66f99grd556eyxjqk7pz,14.379567,-14.163686,13.820321,-13.977179,-14.302455,13.050984,13.767238,13.576238,14.261657,-14.033065,13.78709,13.518307,-13.92445,13.819433,-13.599062,14.208357
67456512891f96cc0fc3,14.4021635,-14.190169,13.848409,-13.996996,-14.325561,13.080074,13.797103,13.599233,14.288737,-14.059637,13.813076,13.542814,-13.9516535,13.847377,-13.6203,14.231008
67f8d47cfb7b7b3d2095,14.433658,-14.222336,13.880008,-14.027587,-14.357959,13.111537,13.828875,13.630136,14.321037,-14.090576,13.844641,13.573736,-13.9832115,13.87878,-13.651323,14.262588
6837091518a3524730fb,14.46512,-14.254272,13.911476,-14.058566,-14.389828,13.142273,13.860202,13.660765,14.352965,-14.120852,13.875447,13.604226,-14.014209,13.909188,-13.682522,14.294256
687ndz7mxhpv3gg91ie2,14.504684,-14.294393,13.946442,-14.100561,-14.432128,13.174489,13.893435,13.699014,14.389089,-14.156234,13.909185,13.641179,-14.051836,13.945152,-13.722899,14.333586
68c45e933c2dc939e7c9,14.530779,-14.321852,13.975594,-14.124118,-14.45852,13.204537,13.924182,13.724607,14.418077,-14.18434,13.937897,13.668297,-14.07983,13.973175,-13.74752,14.359581
6923e581d76689cb57a1,14.564855,-14.356601,14.008379,-14.158137,-14.49366,13.2355585,13.956001,13.757455,14.45133,-14.21651,13.969467,13.700408,-14.112835,14.005663,-13.781433,14.393117
6964a3d507ac1ecf9e52,14.596822,-14.389728,14.040056,-14.190387,-14.527013,13.26689,13.987361,13.789271,14.483941,-14.247221,14.0007715,13.731718,-14.1455,14.037331,-13.813668,14.425446
69a4b3d15a5bf0d0e43e,14.623995,-14.419592,14.069858,-14.216952,-14.555537,13.297209,14.017955,13.816537,14.513803,-14.275273,14.029265,13.760149,-14.175237,14.066734,-13.840978,14.453551
69ae85efb03510241445,14.658569,-14.453883,14.102699,-14.250909,-14.591082,13.3288145,14.050713,13.849728,14.5473385,-14.308452,14.062054,13.793013,-14.208064,14.0993805,-13.874498,14.48753
6a62f52203bda35656be,14.693349,-14.489149,14.135988,-14.28608,-14.6269455,13.3607235,14.082742,13.883703,14.58146,-14.34091,14.094555,13.82572,-14.241799,14.13273,-13.909431,14.522158
6ab4994b59925a6d1bba,14.725551,-14.521752,14.16799,-14.317169,-14.65991,13.3923235,14.11496,13.914888,14.614016,-14.372714,14.126109,13.856787,-14.273712,14.164464,-13.940664,14.553703
6abeead45fd57abadaff,14.752104,-14.551413,14.19666,-14.344188,-14.688521,13.421005,14.144515,13.941689,14.642616,-14.399626,14.15313,13.885238,-14.303386,14.192529,-13.968109,14.581636
6ae7d356ba998218af82,14.785393,-14.585098,14.229009,-14.376953,-14.7226515,13.452166,14.176629,13.973772,14.675383,-14.431466,14.184912,13.917342,-14.3355665,14.224374,-14.001009,14.614866
6b0cc09c9daf2966d1a7,14.819975,-14.619513,14.262127,-14.411227,-14.758281,13.484323,14.209105,14.007353,14.709417,-14.46451,14.217882,13.949828,-14.368722,14.257583,-14.034786,14.6487875
6b22922bfe081d68c7a6,14.850682,-14.652069,14.293819,-14.441878,-14.789961,13.5154505,14.24067,14.03748,14.741318,-14.494366,14.248245,13.98054,-14.400387,14.288179,-14.06584,14.680107
6b9ee688551136da2eb9,14.881921,-14.684518,14.324905,-14.473125,-14.822416,13.545347,14.271446,14.067894,14.7725725,-14.524534,14.277911,14.010979,-14.431774,14.318815,-14.097227,14.711302
6c14ce386a9cda72549c,14.913818,-14.7172985,14.356451,-14.504637,-14.855751,13.5766535,14.303487,14.099345,14.804968,-14.555828,14.309442,14.042636,-14.4640465,14.350356,-14.128729,14.743335
6cbcdec2dffbcf09a91a,14.944653,-14.749298,14.3880005,-14.535004,-14.887436,13.607513,14.334509,14.129413,14.836718,-14.585986,14.339767,14.0724945,-14.494983,14.381188,-14.159368,14.774074
6cxj0lsinp9d7215gtpe,14.988493,-14.790512,14.425389,-14.579369,-14.931866,13.641427,14.369288,14.170226,14.875421,-14.624573,14.377472,14.110897,-14.532921,14.418236,-14.202309,14.815767
6d22912e7e93a96a8690,15.007963,-14.814817,14.451048,-14.598098,-14.953542,13.669482,14.3977165,14.19164,14.900868,-14.647878,14.401385,14.134766,-14.5590105,14.444067,-14.222351,14.837487
6d35a9a33338a84dd077,15.043664,-14.850622,14.485228,-14.633846,-14.989805,13.701943,14.430638,14.225958,14.935522,-14.681096,14.434615,14.168193,-14.592809,14.477675,-14.2579975,14.8728895
6d90c2fd38f2ea52ffd8,15.071503,-14.880544,14.514654,-14.661423,-15.01949,13.731895,14.461017,14.254019,14.965454,-14.709654,14.463424,14.197035,-14.622923,14.507076,-14.285782,14.901336
6dx4zt62b8m37krb5l3n,15.114291,-14.920532,14.551421,-14.704288,-15.062096,13.764812,14.494799,14.293452,15.003062,-14.7472315,14.500185,14.233992,-14.659521,14.542739,-14.327498,14.941707
6e7d56f652020f046204,15.139345,-14.948652,14.57988,-14.72871,-15.088757,13.794055,14.524946,14.319091,15.031377,-14.773974,14.5270405,14.261314,-14.688012,14.570956,-14.352718,14.968126
6e8118d5ad3c7093b869,15.170248,-14.980676,14.611445,-14.758938,-15.120828,13.825408,14.556826,14.349432,15.063423,-14.804606,14.558034,14.291992,-14.719264,14.602096,-14.383245,14.999209
6efd2d79656d1b056f72,15.201891,-15.013582,14.643157,-14.790464,-15.153915,13.856734,14.588457,14.380774,15.095854,-14.835653,14.589073,14.32296,-14.751403,14.633975,-14.4147625,15.030876
6efd353d32bd3d908b23,15.231053,-15.044671,14.67364,-14.81979,-15.184456,13.887161,14.619222,14.409941,15.126656,-14.864544,14.618608,14.352684,-14.782055,14.663849,-14.444395,15.061049
6fa0b38bfd05105503a1,15.2630205,-15.077734,14.705732,-14.851638,-15.217438,13.918471,14.650828,14.441176,15.159197,-14.895248,14.649714,14.38385,-14.814034,14.695232,-14.476535,15.093121
6fc66606e74242398444,15.294899,-15.11036,14.737444,-14.883035,-15.250207,13.949293,14.682343,14.472152,15.191226,-14.926214,14.680569,14.414732,-14.845533,14.726454,-14.508122,15.124841
6fe309a58b787e7010eb,15.32959,-15.144668,14.770549,-14.917234,-15.285399,13.980688,14.7147045,14.505092,15.224564,-14.958939,14.713128,14.447417,-14.878102,14.758514,-14.542073,15.158825
6fefd33cf297f69bcae3,15.362091,-15.177754,14.802669,-14.948988,-15.319324,14.012744,14.747555,14.537355,15.257766,-14.991429,14.74604,14.479326,-14.910058,14.791141,-14.573317,15.191652
6g7c63m95z8acd3vx5ct,15.397087,-15.213222,14.836256,-14.984378,-15.35553,14.044909,14.779808,14.570965,15.291967,-15.024056,14.778665,14.51231,-14.943917,14.824202,-14.608657,15.225933
6iag08nt7se7f2hkgzx4,15.42993,-15.245931,14.867947,-15.016805,-15.38879,14.074731,14.810865,14.60191,15.323296,-15.055383,14.808779,14.543394,-14.97549,14.854652,-14.640994,15.257583
6ixkthdoadcwip3r1sy2,15.460208,-15.277774,14.898715,-15.046361,-15.420538,14.105472,14.842644,14.632278,15.354892,-15.085756,14.839874,14.574242,-15.006426,14.88569,-14.670849,15.288936
6o68qswzkvrrtbiz6bzr,15.498131,-15.3156185,14.934716,-15.085292,-15.45946,14.139723,14.876012,14.66834,15.391302,-15.120928,14.87381,14.608205,-15.0426235,14.921559,-14.708864,15.3246765
6qp85ufr2o1zg8k0cvtb,15.519146,-15.340335,14.960051,-15.105907,-15.481969,14.165947,14.903417,14.690718,15.41664,-15.143644,14.897875,14.632874,-15.068322,14.945582,-14.730916,15.348336
6tq9irjllweqmqe4u7sf,15.555206,-15.37511,14.994133,-15.14093,-15.518225,14.198355,14.936571,14.724593,15.450848,-15.177617,14.931969,14.666344,-15.101,14.978496,-14.765773,15.383279
700915d303cc358e662a,15.5757475,-15.401469,15.020242,-15.162868,-15.542477,14.227237,14.964983,14.748394,15.478036,-15.20108,14.956205,14.691404,-15.129672,15.0058155,-14.788509,15.406753
701a989d65a59c18845b,15.610479,-15.435888,15.053923,-15.196346,-15.577194,14.259399,14.997845,14.78123,15.511934,-15.234094,14.989279,14.7238455,-15.162033,15.038421,-14.822212,15.44063
7086b49d3d6c2cf79c1a,15.640734,-15.46773,15.084472,-15.227181,-15.609215,14.289351,15.0287075,14.8112755,15.542839,-15.263896,15.018768,14.754336,-15.193542,15.068612,-14.852778,15.471206
70exfe4k4e5vvm5sqspq,15.682833,-15.506646,15.121526,-15.267912,-15.6500225,14.322233,15.063136,14.849167,15.579628,-15.302221,15.05569,14.79035,-15.228493,15.104201,-14.892175,15.510008
70ym0xeqaqmx14dv6myx,15.709132,-15.535711,15.1505575,-15.294609,-15.678719,14.352476,15.093206,14.876757,15.609166,-15.329158,15.083935,14.818873,-15.257875,15.133318,-14.919928,15.538577
71ca74e191e71b0219b5,15.735381,-15.565422,15.180014,-15.321014,-15.707092,14.383263,15.123583,14.904119,15.6397505,-15.356317,15.111937,14.846736,-15.288389,15.162697,-14.94704,15.56588
71d0a8156e59c4dcedfd,15.764181,-15.596035,15.210002,-15.350067,-15.737581,14.413315,15.154027,14.933156,15.67018,-15.385115,15.141039,14.876125,-15.318892,15.192494,-14.9763565,15.595449
71f6622e7caa6ed92506,15.8004875,-15.631315,15.244354,-15.384942,-15.773305,14.445193,15.187093,14.966617,15.704464,-15.418929,15.174716,14.909307,-15.351501,15.224852,-15.011142,15.630197
7207088b2ef28ff6b669,15.828982,-15.661849,15.273982,-15.414019,-15.804266,14.475326,15.217678,14.995946,15.734783,-15.448144,15.203796,14.938815,-15.382365,15.255318,-15.04008,15.659554
728a4a393899c37a5429,15.859258,-15.693462,15.305077,-15.443981,-15.835442,14.505893,15.248738,15.025676,15.7660475,-15.477736,15.233874,14.968989,-15.413058,15.285576,-15.070662,15.69035
72b4334deffff31dea8b,15.891266,-15.726674,15.337908,-15.475978,-15.867925,14.537872,15.280535,15.056854,15.799098,-15.508172,15.265257,14.99996,-15.444909,15.316832,-15.1031065,15.722593
72d383f55803c5a81bd6,15.924365,-15.759927,15.369951,-15.50809,-15.902408,14.569194,15.313479,15.089177,15.831795,-15.541006,15.298196,15.032635,-15.476744,15.348845,-15.134685,15.755834
72fbfd24cdff0454a0e2,15.954201,-15.791631,15.400948,-15.538515,-15.933889,14.600323,15.344122,15.11907,15.863473,-15.570507,15.327397,15.061972,-15.508726,15.379947,-15.165313,15.785335
7380885aaba482170588,15.984966,-15.823233,15.431866,-15.5689535,-15.965728,14.630452,15.374993,15.149093,15.894669,-15.600665,15.357516,15.09211,-15.539493,15.410156,-15.195854,15.815905
73ae359d8e93d41ae4ff,16.016327,-15.855223,15.463216,-15.599989,-15.997649,14.660461,15.406063,15.179299,15.925862,-15.631036,15.387793,15.122646,-15.570187,15.440285,-15.22699,15.8471365
74137c4db75be61c10fa,16.05405,-15.892354,15.498867,-15.635909,-16.036049,14.695193,15.441498,15.215489,15.962359,-15.667736,15.424487,15.158101,-15.605067,15.476646,-15.26265,15.884017
744e7141564ed216b812,16.079105,-15.9195385,15.526126,-15.662074,-16.06237,14.721767,15.468664,15.240557,15.989383,-15.692394,15.449211,15.183782,-15.632528,15.501937,-15.28918,15.909569
749fec50db4020e9bfcc,16.110144,-15.952767,15.55855,-15.693565,-16.095438,14.75487,15.501263,15.27214,16.022842,-15.723249,15.48087,15.21523,-15.665603,15.534621,-15.320898,15.941423
74e22a3421e605061ef1,16.141539,-15.985106,15.590368,-15.724632,-16.127745,14.785975,15.532632,15.302893,16.05495,-15.753701,15.511858,15.2458725,-15.696803,15.5655775,-15.352367,15.972969
74g1r714u01v7nb4vn8w,16.17724,-16.019405,15.624347,-15.758925,-16.16243,14.817592,15.564895,15.335595,16.088179,-15.786813,15.545497,15.278557,-15.728207,15.597232,-15.386999,16.007427
75097aa30e9373a612c7,16.208107,-16.05196,15.6562605,-15.789361,-16.194496,14.849355,15.596959,15.3660965,16.121012,-15.817202,15.576172,15.309036,-15.760091,15.62846,-15.417535,16.038315
7509bbe0d23fe15928ba,16.232656,-16.080309,15.683517,-15.815802,-16.22298,14.878152,15.626164,15.3933525,16.149473,-15.843745,15.602417,15.336615,-15.790373,15.657537,-15.443935,16.064884
7535fe5ae754da62a534,16.263159,-16.111826,15.714751,-15.846075,-16.253983,14.908282,15.656929,15.422908,16.180515,-15.873239,15.632369,15.366591,-15.820613,15.687228,-15.474646,16.095602
758a52e21fd5c23cd7ed,16.299133,-16.147182,15.748985,-15.880623,-16.290451,14.941182,15.690957,15.457008,16.215214,-15.908031,15.666962,15.40035,-15.853806,15.720962,-15.508584,16.130472
75a72c46b8271a57fba6,16.326485,-16.17658,15.7783375,-15.908572,-16.318949,14.970171,15.720043,15.484432,16.244495,-15.93497,15.6943655,15.428243,-15.883184,15.749099,-15.5373535,16.158512
75c2677c8d156032e303,16.364147,-16.21367,15.814616,-15.94512,-16.356585,15.005388,15.75502,15.520109,16.281116,-15.970781,15.730141,15.462767,-15.918065,15.785061,-15.573781,16.194828
75dcc10ba89fd0c25d50,16.389105,-16.241806,15.842013,-15.971034,-16.384714,15.033563,15.784075,15.546855,16.309597,-15.996997,15.756984,15.490417,-15.947304,15.812521,-15.5999565,16.221573
75e30b71e38030454877,16.422277,-16.27504,15.874517,-16.00363,-16.418259,15.064653,15.815944,15.578447,16.342083,-16.029007,15.788544,15.521751,-15.97891,15.844165,-15.632286,16.253803
76366e9c264169b2bae1,16.45127,-16.305883,15.905113,-16.032581,-16.448536,15.095342,15.846816,15.607558,16.373194,-16.057625,15.818181,15.551381,-16.009424,15.873764,-15.661967,16.283783
766836b5f30556e81da4,16.48159,-16.337408,15.935949,-16.063084,-16.480244,15.12553,15.877461,15.637578,16.404352,-16.087572,15.847994,15.581191,-16.040337,15.904264,-15.692464,16.314003
767e222eeb367b2b010f,16.511711,-16.368973,15.967194,-16.09316,-16.51165,15.15656,15.908722,15.667681,16.435865,-16.117285,15.878432,15.611449,-16.071198,15.934868,-15.7230835,16.344925
768c216e172762b85899,16.54342,-16.40179,15.999096,-16.124784,-16.544806,15.188176,15.940855,15.6989975,16.468464,-16.148645,15.909666,15.6427,-16.10347,15.96666,-15.754522,16.37647
7694d71417c2f5202940,16.57516,-16.434351,16.031162,-16.156147,-16.577265,15.219399,15.972425,15.72982,16.500778,-16.179441,15.940748,15.673442,-16.134842,15.997701,-15.7860775,16.407938
76a2f2705490042bb8cb,16.605639,-16.465525,16.061895,-16.186146,-16.60859,15.249268,16.003199,15.759352,16.531597,-16.209295,15.970812,15.703463,-16.165054,16.027273,-15.816249,16.438261
76fe2c19fa84d58b584b,16.63779,-16.498913,16.094744,-16.218292,-16.641685,15.281521,16.035572,15.791045,16.564734,-16.24066,16.002539,15.73492,-16.197393,16.059443,-15.848571,16.47056
7742559d8e833fbcd326,16.666185,-16.529305,16.12428,-16.247025,-16.672434,15.311308,16.06612,15.82023,16.59521,-16.26958,16.031748,15.764428,-16.228037,16.089127,-15.877404,16.49982
781f69b185122bfaddca,16.695936,-16.560545,16.155077,-16.27691,-16.703644,15.341842,16.096857,15.850015,16.626389,-16.299032,16.061531,15.794113,-16.258774,16.119518,-15.907657,16.530033
78e6c80ea8dc73ec747d,16.729778,-16.593933,16.187794,-16.309631,-16.737503,15.372967,16.129128,15.881808,16.659092,-16.33164,16.093687,15.82592,-16.290516,16.15097,-15.940033,16.562433
78uyv6k6u49krocgtkzu,16.767317,-16.629166,16.223614,-16.345537,-16.772821,15.405615,16.161594,15.915136,16.692802,-16.366196,16.128109,15.858482,-16.322113,16.18372,-15.975903,16.5973
792e3326f0d9f68389d9,16.79143,-16.658197,16.2513,-16.371174,-16.801369,15.435661,16.19215,15.942831,16.723175,-16.392105,16.155153,15.886912,-16.353104,16.213017,-16.002314,16.62479
798ff22d126a0f8034ff,16.821928,-16.690273,16.28283,-16.401539,-16.833345,15.467001,16.224045,15.973245,16.755182,-16.422327,16.18609,15.917858,-16.38444,16.2438,-16.033031,16.656052
79cvflltnemb9zpg6pgl,16.859394,-16.725195,16.31802,-16.436817,-16.868757,15.498956,16.256578,16.006287,16.788452,-16.457087,16.220362,15.950595,-16.415707,16.276308,-16.068369,16.690529
79ea7a2f63285f2fe26b,16.88411,-16.753992,16.345997,-16.462774,-16.896759,15.528529,16.286516,16.033669,16.818464,-16.48284,16.247307,15.978534,-16.445976,16.3046,-16.094944,16.718042
79fdbcf16db75f75383a,16.915415,-16.786255,16.377878,-16.493826,-16.92948,15.56,16.318354,16.064682,16.850496,-16.513905,16.27857,16.009478,-16.47742,16.336205,-16.12628,16.749542
7a600fb7e3750998e7ae,16.944202,-16.817833,16.408167,-16.523714,-16.96104,15.590718,16.34956,16.094784,16.882336,-16.543198,16.308163,16.039557,-16.509491,16.366882,-16.156073,16.779305
7ab9a2516b2dba99c36c,16.975916,-16.849802,16.439667,-16.554895,-16.993296,15.621288,16.380621,16.125366,16.913986,-16.574028,16.338787,16.069792,-16.54044,16.397623,-16.18715,16.810247
7ae6jy1vw15ppmnq6sba,17.013212,-16.884949,16.474949,-16.590687,-17.029387,15.653906,16.413399,16.158964,16.947577,-16.60918,16.373198,16.102554,-16.572481,16.4311,-16.222553,16.844679
7b1d65c8c7637c14d9f2,17.037037,-16.913654,16.502674,-16.616043,-17.056921,15.683516,16.443548,16.186085,16.97764,-16.634336,16.399887,16.130674,-16.602901,16.45928,-16.24888,16.872103
7bb37669654dedc7e397,17.069635,-16.945965,16.534885,-16.647453,-17.089205,15.714188,16.474798,16.216694,17.009497,-16.665442,16.431108,16.161253,-16.633444,16.489674,-16.280558,16.90361
7bfbef4127aeec4b344e,17.1013,-16.978397,16.567081,-16.678722,-17.121235,15.745421,16.50631,16.247263,17.041643,-16.696028,16.462082,16.191874,-16.664623,16.520414,-16.31211,16.934952
7c039dde693a18f3a834,17.128824,-17.008884,16.59673,-16.707386,-17.152,15.775885,16.537273,16.276743,17.07248,-16.724682,16.491173,16.221504,-16.69584,16.550928,-16.341099,16.964369
7c1d8516e6c2ab2d3030,17.159351,-17.040613,16.62797,-16.73781,-17.183805,15.806683,16.568512,16.307041,17.104136,-16.754826,16.521605,16.251776,-16.726929,16.581562,-16.371754,16.995075
7c27b1482db039a6eee9,17.189932,-17.07232,16.659397,-16.768085,-17.215473,15.837309,16.599808,16.337297,17.135612,-16.785048,16.552164,16.282204,-16.757866,16.611973,-16.402542,17.025879
7c2qxvccum7f93e8ohgt,17.22675,-17.105864,16.694412,-16.802221,-17.248774,15.868927,16.63079,16.368782,17.167654,-16.81821,16.585447,16.313034,-16.787308,16.642878,-16.437126,17.059254
7c30aec52f13bebe07a6,17.252443,-17.137188,16.723164,-16.83033,-17.280537,15.900389,16.663584,16.399189,17.200336,-16.84665,16.61446,16.344048,-16.821207,16.674656,-16.465088,17.088736
7c3fa9ed66d940d49692,17.28298,-17.168123,16.754225,-16.860142,-17.311441,15.930214,16.694172,16.428627,17.230816,-16.876505,16.644505,16.373833,-16.850962,16.704185,-16.495462,17.118998
7d882daa0b4d418d1d0c,17.312992,-17.199032,16.78526,-16.889805,-17.341753,15.960444,16.72469,16.457722,17.261606,-16.90556,16.674015,16.403156,-16.880768,16.733679,-16.525713,17.149126
7ddzwidmh4uwbopvlast,17.34661,-17.231037,16.817944,-16.921738,-17.374321,15.990462,16.755167,16.488485,17.292253,-16.937664,16.705616,16.43339,-16.91038,16.764149,-16.558086,17.180601
7ec5fc60b1ce755e0e17,17.37597,-17.264505,16.849243,-16.952751,-17.4076,16.023829,16.788805,16.520388,17.326977,-16.967758,16.736706,16.465424,-16.944998,16.796978,-16.588638,17.212284
7eeq2weegodhsqj7bxc2,17.408886,-17.296295,16.881866,-16.984068,-17.439442,16.053923,16.819172,16.550613,17.357637,-16.999033,16.767914,16.49534,-16.97446,16.826984,-16.620754,17.24345
7f1c076b22be73eef99b,17.435232,-17.326889,16.91062,-17.012499,-17.470383,16.084534,16.8504,16.580296,17.389408,-17.02702,16.79635,16.524942,-17.00674,16.857792,-16.648994,17.272404
7f58862bfed16feedfd6,17.46493,-17.35851,16.941587,-17.042759,-17.50208,16.115582,16.881653,16.610617,17.421186,-17.056776,16.826405,16.555023,-17.038248,16.888794,-16.679419,17.302834
7f91b4ad141d21887b79,17.496845,-17.391193,16.974144,-17.07431,-17.53451,16.147308,16.913628,16.64159,17.453592,-17.087795,16.857727,16.585993,-17.069717,16.920155,-16.711298,17.334595
7ffc1d4e5026fc5195ea,17.52747,-17.422113,17.00501,-17.104004,-17.565481,16.17688,16.944242,16.67114,17.483932,-17.117825,16.887897,16.61594,-17.0994,16.949467,-16.741388,17.365026
7iulsxm22wz4v82hgb2g,17.563862,-17.455057,17.039387,-17.137081,-17.598694,16.207706,16.975138,16.702335,17.514935,-17.151163,16.921099,16.646793,-17.128223,16.980076,-16.77512,17.3981
7kqvekz6iho08947fhk9,17.592655,-17.487482,17.070034,-17.168207,-17.631378,16.23952,17.007215,16.73347,17.548258,-17.180979,16.950718,16.677364,-17.162216,17.012348,-16.805632,17.427952
7n0vh1m7hm3g0v8ggv7v,17.619915,-17.516453,17.099888,-17.195042,-17.659233,16.268646,17.036406,16.760685,17.577408,-17.207611,16.978657,16.705149,-17.190186,17.040033,-16.834457,17.456587
7r0ywonplo8up7m35eav,17.654697,-17.55041,17.133183,-17.228846,-17.69403,16.300724,17.06872,16.793093,17.610674,-17.240894,17.011408,16.736977,-17.222452,17.072435,-16.867498,17.489185
7rzwry01x1n79a7rw5va,17.683023,-17.581907,17.1637,-17.258137,-17.725693,16.331898,17.100798,16.823591,17.642246,-17.270555,17.041594,16.767796,-17.25418,17.103977,-16.897322,17.520182
7ssihtyt72rzukfci0o1,17.716705,-17.615238,17.196806,-17.29086,-17.759516,16.363554,17.132978,16.855541,17.674944,-17.303217,17.073856,16.799398,-17.286276,17.135965,-16.929972,17.552282
800d0095388d11344b78,17.741278,-17.645082,17.22532,-17.31788,-17.78848,16.394272,17.163774,16.88419,17.706896,-17.32899,17.101322,16.828072,-17.318092,17.16541,-16.957596,17.580627
80423084979315c20dbf,17.7725,-17.677475,17.257,-17.349316,-17.821312,16.425531,17.195591,16.915455,17.73911,-17.360167,17.132256,16.858936,-17.350136,17.19711,-16.98887,17.611803
8068144149e4ba65ef38,17.80302,-17.709091,17.28863,-17.379396,-17.852722,16.456432,17.226826,16.945496,17.770542,-17.390097,17.162828,16.889166,-17.380615,17.227474,-17.019714,17.64273
80xvovy2zizaj5kr0va5,17.83424,-17.73973,17.319948,-17.40986,-17.883451,16.485874,17.256134,16.974491,17.800241,-17.419998,17.19227,16.917723,-17.409702,17.25676,-17.050766,17.672108
81931021ce711e124d0b,17.865566,-17.773426,17.352234,-17.441137,-17.917253,16.518751,17.290218,17.007172,17.834461,-17.451696,17.224829,16.950718,-17.443287,17.289543,-17.082087,17.705402
81c441973fd4e024d60a,17.89697,-17.805954,17.384472,-17.47304,-17.949608,16.550152,17.321476,17.038055,17.866568,-17.482445,17.255503,16.980986,-17.474836,17.320965,-17.113794,17.736492
