student_id,0,1,2,3,4,5,6,7,8,9,10,11,12,13,14,15
0088dc183f73c83f763e,1.3235482,-0.4498733,2.894493,0.039030045,-1.6856273,-0.04354678,-1.214772,0.022745311,-3.044624,-0.12285027,-3.3822753,2.5180056,0.16417384,-4.135743,0.07240297,0.13182929
00cbf05221bb479e66c3,1.0813477,-0.5458863,4.9203258,0.0812195,-1.0033576,0.051650487,-1.2478893,0.01337319,-1.800391,0.019520521,-2.6424859,3.199403,0.17625004,-7.1628127,-0.07599366,0.13787054
00df647ee4bf7173642f,0.4419113,-0.37860608,4.161013,0.08189002,-0.49984154,0.083644144,-0.87245464,-0.03854049,-0.6658018,0.25870568,-3.285965,12.493884,0.0100286305,-16.858358,-0.30146268,-0.03964425
0107f72b66cbd1a0926d,-0.5266996,0.05868029,4.839068,0.057840604,2.0436902,0.12071911,-0.3611312,-0.05399848,-2.1189039,-0.19805431,-2.4509268,-1.0310751,0.19271968,1.7128948,0.14306362,0.18442181
011d454f199c123d44ad,-0.17226927,0.0667621,4.4449716,0.025589105,2.7266693,0.12422313,-0.37475252,-0.07881236,-0.60671896,0.012810022,-1.4080483,2.9957364,0.13913131,-5.4492416,-0.05057432,0.11066889
01558eef77a8d39b7103,-0.08867056,-0.036463022,5.4631553,-0.06455817,3.3333158,0.12835348,-0.47231355,-0.055498343,-0.92358965,-0.113639854,-0.6676761,-0.06394483,0.14442562,0.08230707,0.101249196,0.13487938
016226278e6a69e10aa4,1.2001581,-0.65437925,3.5590396,0.07434755,-1.0201242,0.08782027,-1.2896047,-0.030852055,1.0036348,0.10691105,0.033007383,4.840447,0.06711698,-7.598848,-0.14124368,0.031522334
01a691413dc5897db83f,1.3381947,-0.41717982,3.5325034,0.11222584,-2.587478,-0.007153573,-1.2427788,0.068439506,2.742455,0.43035063,-0.3639326,14.844699,-0.09067107,-19.071505,-0.4448141,-0.13508776
01d8aa21ef476b66c573,-0.34707603,0.23631309,5.745953,0.124278136,2.222966,0.18566164,-0.3886726,0.04136724,-2.4099774,-0.15726621,-2.4918225,1.0337778,0.1712709,-1.3808312,0.12832475,0.15444441
01qkq6w2v62cimidb3b7,-2.6988335,0.43301964,-4.81814,-0.05444501,-2.5924518,-0.23554619,2.4228816,-0.28359976,4.536988,-0.027069459,4.390832,-1.7733324,0.096302286,1.6190238,-0.026251666,0.08409082
02068067a434adb6556a,-0.8949615,-0.21982425,1.449929,0.07776224,0.16100371,0.062259123,-0.13902755,-0.055490367,18.760405,0.95040333,10.316258,5.6517124,-0.12165326,-15.963542,-0.98730296,-0.16555765
0258f681a9e1756dfc76,1.649464,-0.7539862,3.9374874,0.12854002,-3.1568558,-0.06495966,-1.4167995,0.061231073,2.389027,0.38072783,-0.49865636,13.747165,-0.07251059,-17.528198,-0.39608398,-0.11443187
03754dce5ec7731fb3e2,-0.45318827,0.12893274,5.926797,-0.03300242,3.4217067,0.13137868,-0.30957466,-0.0320543,-1.8228164,-0.1714359,-1.5226672,0.50987434,0.13861753,0.23585589,0.15652682,0.12785275
037a76bc8e6bf5fe1fc0,-0.7663795,-0.09180194,1.4370439,0.032287702,0.569099,0.025999317,-0.17335561,-0.061249238,-13.346157,-0.17423703,-18.26486,2.4152443,0.35817814,-1.6217879,0.18229918,0.39343747
03aa0b20dd4af1888eef,1.4168218,-0.379912,2.7258222,0.107112564,-1.9097465,-0.053559415,-1.1535759,0.017741088,-1.1160872,-0.024339609,-2.0493739,3.747689,0.12521124,-5.0433183,-0.005145967,0.10242104
03b463f52c0fff35433b,-0.692959,0.35602614,5.5220184,0.07101685,2.8978033,0.19190152,-0.112953775,0.06289646,-4.7807755,-0.21026582,-4.4430776,-3.2710273,0.34212112,2.380207,0.18502374,0.3653402
03e0c9bff3a9557480d9,1.0565345,-0.33719015,2.038388,-0.0019281078,-2.5426693,-0.12621969,-0.96866035,0.041914176,-0.80311024,-0.21384409,-1.240572,0.4222761,0.13845208,0.83022493,0.14987046,0.12099132
04f2689b4ea16d8d7d9a,-2.1292763,0.33185592,-4.3132443,-0.007883422,-2.8170345,-0.20941564,1.9883808,-0.27942216,3.3792217,0.5192843,-0.066597745,16.739107,-0.12270061,-21.803617,-0.5315984,-0.17150682
0557b1363a5092b5811f,-0.38714254,-0.3059273,3.97117,0.09422336,0.6029171,0.12111795,-0.44595346,-0.055891156,2.7230675,0.42848358,-0.47050348,14.93527,-0.09092819,-19.074854,-0.44397864,-0.13540126
0559e9cf806dab4cc20d,1.1447352,-0.6112704,4.3783793,0.09689399,-2.359443,0.020541463,-1.2372053,0.072630584,-0.8054398,0.06859815,-2.4408383,6.807177,0.08431543,-8.563034,-0.09284422,0.05931123
056ab41140f68c15db14,1.3341632,-0.6091626,3.9112163,0.019590765,-2.2564223,-0.017191064,-1.3236576,0.03123624,0.30187654,-0.015130808,-0.38243014,2.9238095,0.1047574,-2.9337423,0.017361712,0.099591054
058c03d945c4ae0978a0,0.1715826,0.011467807,4.4334893,-0.027774781,2.0385194,0.059548885,-0.636504,-0.050432988,-4.845395,-0.14960665,-5.89656,0.86244285,0.20096415,1.7874274,0.15451677,0.2297621
05e1c3ce1728da7e37e0,-0.81382495,0.29968777,-1.8456615,-0.087343894,-1.5676036,-0.18364723,0.70724946,-0.085128814,1.9343036,0.08939624,0.8048251,2.7656434,0.08819021,-5.6417093,-0.14452809,0.046110377
05e6d9723ab3cde0841d,0.9815601,-0.6630969,3.5141673,0.13193429,-3.1367278,0.001960389,-1.1002005,0.04013779,3.991682,0.61919117,0.30980635,18.759632,-0.1565757,-24.967705,-0.62916756,-0.21118817
061db2c91f94c612f2d4,-0.9328824,0.23234427,4.719842,0.07572962,2.4296703,0.15806746,-0.02668169,-0.02435792,-5.858314,-0.14170384,-6.9897165,1.693043,0.18414877,1.5656378,0.16613597,0.21614502
06309f4c8785254f4c13,0.043065857,0.06444938,2.199566,-0.030381035,0.59733534,0.03288307,-0.51823115,0.007064955,-0.919693,0.07690525,-3.8530025,0.30191183,0.20116228,-3.254051,-0.07283556,0.20365094
06aff3e28c5db152f506,-0.29216447,-0.0028682624,5.7659144,0.0140116215,2.7424307,0.14979462,-0.45527992,-0.030731156,-0.27720165,-0.13868755,-0.23466185,0.58695346,0.11829249,0.3578267,0.11771402,0.110096425
071685b292483b04e836,-0.37463558,0.23437522,3.8524861,-0.04521063,2.2098157,0.076149255,-0.22839794,0.0043607964,-5.415444,-0.18094474,-7.1448812,0.76277554,0.22782119,0.48589143,0.15831083,0.23939294
074d7f43de7264306775,0.9357742,-0.397778,3.359745,0.07541067,-2.1471887,-0.040585708,-0.964609,0.023435447,0.9030494,0.084489934,-0.14165458,5.012665,0.059522625,-7.034358,-0.11420085,0.027575973
077d5c82c9ee5019220f,-0.06976964,0.08501562,5.0095406,-0.019905034,1.9004699,0.072034195,-0.5366145,0.0004105971,-4.9110956,-0.26821342,-4.3408103,-2.1232984,0.29817167,0.98002815,0.22279689,0.29212764
07e3362d20ff4337671b,-0.65562284,0.23129389,5.62335,0.010791236,3.3920841,0.18708639,-0.22148469,0.006252618,-6.596633,-0.25449187,-6.909353,0.0074460804,0.24317889,1.1410415,0.23576087,0.24707712
091554ffa26fc9b17c36,-0.031721305,0.21906184,3.2148209,-0.11125394,2.000541,0.009089099,-0.41855302,0.006742292,-9.787645,-0.29904553,-11.505185,-0.023838906,0.3215036,2.5393136,0.26444322,0.3486594
09400a9b50b6c96c5510,-0.44703192,0.19276871,5.576093,0.10069739,2.3682601,0.17987339,-0.28680804,0.014441495,-2.1769497,-0.102772705,-2.2672691,0.90311694,0.1681044,-0.5665226,0.10852143,0.17267753
098b2c66cbc1ed736e14,-0.28614336,0.1496609,4.344712,0.05782646,1.6259738,0.134349,-0.36564174,0.041211303,-3.8125327,-0.15674861,-4.204086,-0.94003993,0.23822503,1.9449092,0.14581035,0.25931185
0999173c045ee29a0b44,-0.7875795,0.15141901,6.365564,0.110107034,2.5474026,0.19351487,-0.2528841,0.015458267,-2.4853518,-0.06479863,-4.2777867,0.46582666,0.22869013,-2.723115,0.03271323,0.21776518
09dfa3f18e48917f0242,1.6361686,-0.5797243,3.8526702,0.11692738,-3.1802802,-0.18140773,-1.3027169,-0.041655537,2.0071259,0.32245958,0.652155,10.573778,-0.032221936,-14.822756,-0.32432505,-0.06793095
09e4bfadd7e012c37c7c,-0.6060188,0.22482651,4.4794803,0.029085765,2.1678143,0.13333926,-0.16591947,0.04450632,-3.8442364,-0.09552337,-5.6683216,-0.105944194,0.25861308,-0.9602679,0.07271135,0.26697445
0a7f1a73361654329281,-0.6156793,0.101978004,4.5085096,0.0063610743,2.3423672,0.107748576,-0.22064447,-0.029446164,-0.21694683,-0.08864272,0.10351348,-1.4658885,0.17655778,-0.265231,0.055768535,0.15524936
0a8736f6520cea837d94,0.933094,-0.21021713,3.9475532,-0.065102674,-0.26068646,-0.054685038,-0.9527108,0.062173802,-0.7083397,0.1474135,-1.8853188,6.58809,0.11472251,-10.150178,-0.15427881,0.09577061
0b02f701b1179f9f74f9,1.6976382,-0.6765734,3.6100025,0.049352404,-3.1189785,-0.063522756,-1.446897,0.044153735,1.0246271,-0.0372436,1.2706839,-1.4357114,0.15935469,-0.67950726,0.0017378479,0.13452342
0b16d35f1f39a063708a,1.891542,-0.6484197,3.0702858,0.07072099,-2.70165,-0.10117503,-1.4590563,-0.056500718,-0.054460526,0.23668721,-2.3848531,10.891583,0.023797063,-14.569835,-0.26448745,-0.014627367
0b28c0a454678b75eefb,-0.2500658,0.037398435,1.3427464,-0.027793666,0.46676916,-0.00053199584,-0.369735,-0.05151114,-10.055706,-0.18196534,-13.125837,0.017188907,0.36544073,-0.1457569,0.17475349,0.39778325
0b307ee95b41e222f204,-0.31855342,0.18984136,4.821687,0.028679341,2.2562354,0.11764559,-0.3031236,0.028770767,-3.846069,-0.14217679,-3.6327999,-0.91015446,0.24756415,0.48310247,0.1427706,0.2590971
0b828e1ae026c57b34dd,-0.54568905,0.2788589,2.9049835,0.0057815835,0.9434278,0.04434326,-0.15231574,0.033894558,-4.8225427,-0.23492463,-5.801298,0.42643937,0.21186522,1.7619117,0.19513185,0.21988742
0b8bea274b24847526b7,-0.071045004,0.055775363,1.3786571,-0.037050832,0.3748289,-0.013047021,-0.40499964,-0.031500645,-5.092659,-0.19663572,-5.7161317,-0.8991134,0.2957354,-0.55834043,0.1568218,0.29273096
0bb8692f43a372e8d967,-0.23938689,-0.100801535,5.8220634,0.035249054,2.6702983,0.19016075,-0.55659515,-0.031075185,-6.7686777,-0.3686234,-6.971151,0.4377285,0.21738562,0.9074363,0.30000007,0.19049409
0c57caf5358d30408034,-1.0916445,-0.0815739,2.4864767,0.12685388,0.7316072,0.10936107,-0.026572531,-0.04068918,0.9011524,-0.04690476,0.5030476,-0.2568744,0.13716272,-1.430655,-0.0075560063,0.102834694
0c670262b3941d307600,-0.091283716,0.020713571,5.356514,0.050505135,2.8015487,0.1839097,-0.45751095,-0.060818702,1.0098323,-0.051347367,1.4836031,-2.0734828,0.17060667,-0.062280178,0.016000539,0.14843662
0c81ca27b7d931b6ff6e,0.70020944,-0.44475645,2.8908327,0.052883085,-2.3925493,-0.060372837,-0.8601404,0.021154603,-1.5376551,-0.0032643974,-1.6708435,2.154888,0.15598871,-6.6066833,-0.070493214,0.103011355
0d260d8fac2289c8ed9e,1.8918308,-0.6854549,3.2846134,0.04992637,-4.727508,-0.1835516,-1.3650789,0.06445057,0.70041966,-0.027566783,0.41986167,0.91708577,0.12475465,-1.9386076,0.006562501,0.10691212
0d4a3518a188f6888380,-0.5568503,-0.04248495,1.4443682,0.007838878,0.49028033,0.019947415,-0.26538318,-0.048843417,-12.414229,-0.14510062,-17.373117,1.5640635,0.38363263,-2.299103,0.14884734,0.41598517
0dapvs3h4h3h1ahmt2o8,2.2590325,-0.2716163,1.8277117,0.09201698,-5.2492657,0.1098015,-1.7911282,0.095188834,1.6936506,-0.08254183,1.1499597,0.19374774,0.09893963,1.1078726,0.047479805,0.095878124
0df40593e76a840fd64b,1.4188918,-0.5454745,4.1269345,0.16618164,-3.0158873,-0.08042797,-1.2465085,0.0036291843,2.5204813,0.41313902,-0.23154134,14.176421,-0.08092226,-18.55377,-0.42666668,-0.12518828
0e062d9fa22dc8e3bca2,-0.36887148,0.1362826,5.3089294,0.009253169,3.0458596,0.100851096,-0.38542914,-0.09880569,-7.1657815,-0.25013977,-8.1019745,0.7026444,0.23552358,1.7965522,0.23228696,0.25075755
0e804947f4cdc2721046,-0.3495771,0.223783,3.7062416,0.068033494,1.3448477,0.08822332,-0.27354056,0.040147886,-2.6569824,-0.15840214,-2.2938523,-0.9407337,0.23105048,-0.29972312,0.13310726,0.22315247
0eb6eec8b4bee8ab6a44,0.05599807,-0.16198276,2.172653,0.01518359,-0.5670722,0.025054982,-0.58066046,0.042971153,0.17908406,-0.06472184,-0.371646,1.1205667,0.12410902,-1.838225,0.026529739,0.0988163
0ef8b2c9e039eaace596,0.9302823,-0.31674936,2.0917149,-0.011633602,-2.6431854,-0.15314892,-0.84845024,0.045129657,-1.4648892,-0.16857882,-1.0166289,0.33337784,0.13753812,0.14458402,0.15291072,0.12468085
0f160cd19890b97092b9,-0.48182112,0.105779804,5.1321588,0.0041011292,2.519784,0.10979601,-0.26627913,-0.05445499,-2.4498637,-0.11987304,-2.2179031,-1.9169958,0.22432216,1.6752627,0.11048999,0.23316571
0f8bd9e33125347965a1,1.1295508,-0.3906052,4.2663164,0.11169704,-2.5005083,-0.08926574,-1.1573089,0.1266186,0.24604781,-0.030125976,-0.6821101,2.5650256,0.103360645,-3.4279056,-0.010285601,0.0747641
0fc996fff93c00ca5ced,1.0973107,-0.45587954,4.890187,0.07891307,-1.2225161,-0.050366066,-1.0806026,-0.047038134,4.0224004,0.60496145,0.7153034,17.920532,-0.14896701,-24.135923,-0.6103335,-0.20126837
0gfiioqi5g8djhh1wzol,-1.3622338,0.21905315,-3.5299017,0.0685257,-2.989092,-0.17124967,1.3774397,-0.21606132,0.9551883,-0.10989973,1.4306512,-1.4267617,0.13555382,0.988243,0.07486591,0.118174404
0i1e50rz4mkhee97xvpo,0.36564842,0.09610935,-1.2783179,0.03612979,-4.2702837,-0.10186515,0.030589988,0.016696226,3.284985,-0.03899251,2.7737877,-1.4325504,0.10476528,1.9315329,-0.01221019,0.09762499
0lgtv09uoh3ova8sjbze,-0.2649532,0.2536358,-1.8741088,-0.005596711,-4.291746,-0.13147283,0.5002745,-0.09639803,4.387774,-0.03362269,3.997521,-0.7117796,0.081223644,1.2640592,-0.013750434,0.07388842
0m2kzubx9r60wyrsjj7j,-1.0233229,0.23638436,-2.7419097,0.0009312813,-3.4172018,-0.17555365,1.0843022,-0.12871335,3.5191793,-0.05070226,3.6370018,-1.9191021,0.111435905,1.4885558,0.0016164184,0.096299045
0m8o7nuv982vnv3328qw,-1.8457713,0.29099232,-4.092214,-0.012539705,-2.9844174,-0.22109406,1.7585068,-0.2194743,1.4590346,-0.081691064,0.4904715,1.0228788,0.08778023,1.1084449,0.049193095,0.09114887
0maggb1hf886m5u6p2vr,-0.34572768,0.13274157,-1.725175,-0.007129767,-3.8400536,0.003046008,0.49365392,-0.032685414,4.0858207,-0.037620567,4.056503,-1.8309596,0.102904476,1.557138,-0.013771965,0.08941231
0qamadarf6xhm9pm2jta,-0.9123874,0.15773195,-2.9761612,0.014192234,-3.4728,-0.14120612,1.0396496,-0.120651975,2.050591,-0.08386007,2.0755844,-0.84098834,0.11223476,1.0578976,0.04582344,0.100705646
0sgnvj4zfg3xjjb9fl6h,-1.0366747,0.10540904,-2.5760818,0.028090475,-3.7601798,0.0223567,0.9715505,-0.14765544,1.8582194,-0.080865145,1.2046133,0.59597105,0.09054995,0.9752981,0.04730378,0.08946669
0txd5enpfmbrth46w74b,-1.7667358,0.30103663,-3.5109706,-0.035939004,-3.2925832,-0.106726974,1.6573955,-0.20064738,4.69738,-0.025835821,4.2081156,-0.6647539,0.076517336,1.3235354,-0.022996098,0.07028413
0z4mockl76xn8mhdaehw,-1.2679558,0.26113442,-3.5156577,-0.0054153376,-3.3370757,-0.24368095,1.3149455,-0.17508197,4.0697403,-0.03784668,4.129525,-2.0914345,0.10732566,1.615086,-0.014570326,0.09232892
1096bd470d3ddff1ec1c,1.2968036,-0.5276046,1.3268929,0.07777681,-2.97703,-0.07696293,-1.1759973,0.066603504,0.43590015,-0.01645695,0.09029758,2.1851628,0.11336948,-2.3326879,0.02560728,0.11159777
10de703c06bf9d873d68,-0.99614745,0.41692817,5.485836,0.07501727,3.0982192,0.18907727,0.08353981,0.013420915,-3.7089283,-0.12649825,-4.011841,2.4293299,0.19577654,-4.1284814,0.089766026,0.1736145
10qi28ikwz4c4v22b06i,-2.110024,0.28142697,-4.3859797,0.02056113,-2.9377744,-0.16101976,1.9526484,-0.215439,-0.35396573,-0.14313032,-0.086750865,0.2127051,0.12560219,0.33479503,0.12181022,0.114191316
10xnkvdetxarrkdhx4i9,-0.9692749,0.113102615,-2.8228889,0.0070162336,-3.749179,-0.15229626,0.9431995,-0.1435618,2.9441175,-0.049433656,2.1112301,-0.07878353,0.08728444,1.503044,0.006101981,0.08651975
117ee98c7f916c88ddbb,1.6728683,-0.75489444,2.9605277,0.08353381,-3.3741977,-0.013632935,-1.4618427,0.04176692,-0.21794271,-0.040228862,-1.3209666,3.727021,0.0965419,-3.3626678,0.027768664,0.08475542
119b36a5797d5ce69625,-0.13559335,-0.05311401,5.490173,-0.00022308732,2.6869302,0.12766337,-0.51333773,-0.083835736,-2.1477687,-0.21949147,-1.6814543,-1.9476,0.19707032,0.86605394,0.15145658,0.16214679
11dae4659d30031a10dd,-0.5087936,0.11837704,5.3248706,0.007294336,3.230619,0.1808584,-0.26507044,-0.030384427,-0.22639708,-0.055172324,-0.84088165,2.6675599,0.10899173,-2.4251337,0.048875198,0.100250974
1202c731c612353ceef0,1.0341109,-0.40647513,2.0689976,0.0831122,-2.5753098,-0.08693501,-0.8393421,-0.051296733,-1.2653561,0.1373059,-2.4044428,6.6707754,0.11483934,-11.265535,-0.1754374,0.0765108
1224ceafb61456a033d0,1.2661927,-0.5887936,2.9386747,0.058520574,-2.8850105,-0.04868253,-1.2056146,0.075001255,-2.8942342,-0.098280765,-3.3901095,0.4513175,0.23654999,-3.450973,0.049627002,0.21166329
12s3yomv0kltozc1qxc4,-2.8432534,0.41466376,-5.073124,-0.018957436,-2.8248556,-0.20069684,2.56855,-0.3292029,0.50562763,-0.09476081,-0.4112801,0.6724739,0.10453438,1.3404967,0.06261337,0.10689416
1329b6cf41debecda787,-0.7149727,0.29662538,6.256895,0.04332194,3.4909263,0.13437438,-0.15618923,-0.101459354,-3.908791,-0.07655275,-4.6406326,1.3550111,0.16361064,1.2603164,0.11755459,0.19850929
132c90d4a027a4477ad0,1.1504691,-0.2803247,3.2876484,0.032600936,-3.0101166,-0.27348796,-0.93217486,0.049739905,-1.8127407,-0.13195896,-1.9537618,-0.2589913,0.19555166,-1.3559762,0.08104614,0.16793562
1367d35cf39783effa7a,0.5560163,-0.18038757,-0.9500179,0.044167373,-2.6395645,-0.012741382,-0.6508843,0.063687555,1.0567508,0.037475653,1.2802377,1.1482283,0.13675213,-2.2677083,-0.0050849766,0.14576644
139429592a9c23c08b71,-0.6552725,0.34387547,3.586433,-0.0111980615,2.1783981,0.07612448,-0.094212696,0.03199161,0.06834257,-0.028913375,-0.26778847,-1.3491702,0.17855258,-1.1603093,0.008580536,0.16018885
1397545fbe9882e5cd42,-0.2519644,0.11089277,5.849776,0.046502136,3.0279293,0.16356695,-0.40966433,-0.05067476,-0.8664769,-0.07191838,-1.0660033,1.5813357,0.14648314,-1.874329,0.069891214,0.14170535
13de1d3a55477a0c0329,-0.8297784,0.24008287,5.689286,0.071361236,3.1496956,0.20363264,-0.068305865,-0.009216187,-0.68154144,-0.13205981,-0.40326396,-0.12559819,0.14036202,-0.1665571,0.10394241,0.12052919
13f8b8305f6c25c21921,0.5143503,-0.09155244,2.869518,0.03945174,-0.34423903,0.032112036,-0.7717061,0.0075480184,3.0334082,0.47125563,-0.25930932,15.757781,-0.105700746,-20.347588,-0.48504645,-0.15218401
13nq2h723zixyhir01lf,-2.3478508,0.4158407,-4.294146,0.019338543,-3.0186987,-0.14282471,2.1944437,-0.3258756,0.33072764,-0.14009675,0.69991285,-1.3383331,0.14474632,1.0480639,0.09605471,0.12504847
148o63s7q5aitfxmmtrg,0.9259555,-0.09158251,0.063982785,0.0796549,-4.353474,-0.052839037,-0.5286896,0.02568996,0.3599424,-0.11414822,-0.18897508,1.0726458,0.10144184,0.68725306,0.089167364,0.10058116
151cd83784ab9007e8d8,0.9102527,-0.4315513,2.4883108,0.11306726,-1.7054672,0.0055773333,-0.889328,-0.07653684,1.0268034,0.20742315,-0.017046511,8.584963,0.0027430654,-11.77379,-0.21740197,-0.030700024
152a0c17daaaa4e65e14,-0.27096406,0.12938137,5.097792,-0.022895597,2.89577,0.11949574,-0.3536447,-0.06991233,-1.0560399,-0.086378574,-0.4814033,-0.78429234,0.21095161,-0.5359649,0.08921895,0.21592836
1552f58e2818ce7fa863,1.3931049,-0.41898972,2.5287595,0.024656603,-2.2063937,-0.084542535,-1.1679986,0.0025524963,1.1217669,0.017264415,0.38726196,1.6055111,0.11051073,-3.8419416,-0.070190035,0.07271636
15ab118362ecbbd03b52,-0.3657788,0.21732171,5.432917,-0.026218006,3.0589836,0.07037975,-0.30423513,-0.0647046,-5.2989955,-0.21715568,-5.9879007,0.117676176,0.22771962,1.7152561,0.19575863,0.2416024
1629f353a742f6a73251,0.045801423,-0.030018019,4.3504457,-0.0050635464,1.9454448,0.078559294,-0.5634225,-0.050115336,-3.4255111,-0.13228576,-3.2870183,-1.2609105,0.22313121,1.6167608,0.13496828,0.23771681
166cb02ac436c9d3662f,2.0392125,-0.7237657,4.5918875,0.12017425,-3.6136997,-0.16707373,-1.5250874,-0.026247183,4.1470957,0.602396,1.8302877,16.346712,-0.13518837,-23.198517,-0.595295,-0.18397284
16c505069c1e5c2bece5,-0.26674742,-0.06131104,1.6239493,0.022884047,0.26120368,0.035557635,-0.3858336,-0.050789427,-7.272538,-0.17098208,-8.77286,2.0187252,0.19847625,1.8622973,0.1913543,0.23367266
16d68f70cf5e52d0b34a,1.3268328,-0.69529027,1.7861277,0.085600354,-2.1640995,0.017337086,-1.2323754,-0.08391349,-0.12627181,-0.04606511,-0.7216863,1.7077726,0.12444455,-3.0787244,0.0012255162,0.093695536
170a695a2717bcd9b74b,1.2796742,-0.43436676,3.050891,0.018302772,-1.7601678,-0.10322339,-1.1047845,-0.010794868,-3.2817428,-0.009273723,-4.6420894,6.7820654,0.123257704,-9.416078,-0.04450453,0.08306672
17656005bd4086137ab7,0.9475923,-0.3426549,1.5813849,-0.0036824197,-1.4124044,0.014246791,-0.9829095,0.02618871,-2.141201,-0.104232065,-1.8672909,-0.16199039,0.22736737,-1.3354088,0.09920529,0.22798571
17dda5f588bed077c742,-0.4631319,0.14334358,4.984183,0.0049241334,2.2808945,0.12447952,-0.30880442,0.0012649697,-0.82700473,-0.08465303,-0.11984923,1.3206515,0.11302105,-2.060879,0.07707179,0.09693376
17e429460d5fda251953,0.5183055,-0.18472694,3.7761655,-0.0015365536,0.41253582,0.05640261,-0.75610304,0.010846728,2.3017645,0.3307524,-0.23196694,11.82181,-0.044819355,-15.475462,-0.3520713,-0.08656216
17f2d0e73044110cdea5,-0.3482927,0.4806983,3.1437094,-0.07650854,1.3971939,-0.027356654,-0.21801297,0.10957168,-2.33212,-0.15196751,-1.8761638,-2.2423363,0.24631783,0.21548083,0.109261535,0.22950177
18654732ca312afc173f,-0.6085033,-0.06922746,4.1007156,0.0363209,1.592253,0.118249536,-0.31137463,-0.02909299,-3.8117926,-0.102836356,-3.7088392,-0.18346828,0.2455368,-0.4273568,0.11975096,0.2624135
1883af270e36a7580332,-0.15238334,0.050606154,5.088549,0.14277734,0.9904191,0.1813216,-0.53272754,0.058993537,-3.676651,-0.21645306,-3.8255484,1.2498664,0.18265103,-1.3236808,0.1731727,0.16007708
18cdd44af62c6935e7a0,0.80364925,-0.5191684,2.8079803,0.09225089,-2.8891466,-0.042318266,-0.9593007,0.033013985,-0.5368786,-0.05790807,-1.1857468,2.3510926,0.12883542,-2.56551,0.044852734,0.11784142
1974349ec27d7d67bf08,0.34606415,-0.22094381,2.4683335,-0.028958272,0.29032755,0.02872753,-0.68267757,-0.0489343,-0.70887303,-0.031316992,-2.0089643,3.8729017,0.12222919,-3.971308,0.01802082,0.11219527
19793e7e55b68c8dd776,1.3574135,-0.2992037,3.0633879,-0.009243237,-2.6749094,-0.1061423,-1.2062389,0.16061953,-2.8823998,-0.22053652,-2.903832,-1.4084148,0.22054057,1.6097655,0.16873863,0.2126212
19buea1jycypffshcw38,-0.39903858,0.16996269,-2.0374615,0.027272817,-3.9643073,-0.0783812,0.5837272,-0.06708518,2.1115189,-0.06600889,1.5302318,-0.5380584,0.104918346,1.5626162,0.023927145,0.10068216
19fb3075dd2798538c9d,-0.6465702,0.18961339,6.154626,0.08447525,3.1810544,0.20626049,-0.22097068,-0.055228624,-6.2708583,-0.15823586,-8.29428,-1.0613778,0.32814872,1.1033484,0.13750696,0.3604918
19rc4zj7sw4ms0996992,-1.6791608,0.3945317,-3.8264403,-0.012007042,-3.3993826,-0.19599311,1.6480894,-0.16697998,2.3982213,-0.057363436,1.836273,-0.8292087,0.10804057,1.0738581,0.012465537,0.09715213
1afepx549ssnar1m9acp,-0.95679206,0.19968681,-2.6338286,0.043207217,-3.7666187,-0.07656679,1.007799,-0.17375574,4.418149,0.011695638,4.5090356,-2.552678,0.1092969,0.817869,-0.058818575,0.08826783
1b0baf552d2cd47ee10b,-0.72990847,-0.089046516,2.805254,0.10071614,0.6938389,0.109776676,-0.1980854,-0.034425665,-4.9836526,-0.081710905,-7.2495737,2.114175,0.18453883,-1.0207756,0.09994003,0.2020006
1b25734414fcc7466153,1.2689729,-0.36698082,3.0113628,0.09687266,-2.023064,-0.060634624,-1.1408942,-0.0040478585,-1.6641848,0.04437067,-2.9377022,7.0413504,0.07956147,-9.33705,-0.082664765,0.043423474
1b36a3223f9dd94a211f,1.3443788,-0.5431162,2.0134175,0.095609136,-3.4162161,-0.08182139,-1.1832584,0.07724792,-3.9500172,-0.15390033,-3.763741,0.6811426,0.2305732,-2.2838376,0.1294033,0.21853827
1bd9bb053a3ac1bba507,-0.2616269,0.3171559,2.9187849,-0.017786656,1.2826997,0.025750106,-0.24220227,0.04377987,-9.7157755,-0.36288643,-11.198609,1.8779742,0.23003481,1.7868154,0.3139114,0.22912392
1c2aef3af32f6323a31d,-0.68621033,0.1328907,3.833696,0.09365834,1.403684,0.13110548,-0.1984464,-0.036570188,-6.3471847,-0.38753173,-6.157194,-0.12473313,0.22513217,0.7166851,0.30894744,0.1894157
1ca19e51244cdd3f09ff,-0.67390525,0.13872269,5.4510627,0.06287952,2.811149,0.16608284,-0.20226412,-0.066326335,-4.002922,-0.113222755,-4.9884725,0.68210244,0.19632323,1.7979505,0.12698586,0.23029804
1cfe33c5b178a0c2367f,-0.55455077,0.13608603,4.7070665,-0.021045493,2.8190036,0.10454828,-0.24659085,-0.07828211,-3.4872947,-0.18615417,-3.4006152,-1.7878172,0.25535485,1.2070886,0.1500407,0.25464725
1d50eac067378042684b,1.3624233,-0.7737748,3.1945298,0.06630873,-2.8004818,-0.014940999,-1.3844527,-0.003339157,-0.6157539,-0.06601528,-2.2924771,3.887817,0.101461664,-3.7923963,0.01756687,0.072815746
1d7229e0f5f825007870,-0.3807909,0.04384998,5.1543865,0.059404083,2.0304081,0.16325657,-0.39019513,0.010005434,-2.7282186,-0.12833379,-3.579005,-1.4374261,0.23213439,0.7372573,0.097503655,0.23310027
1e25b47eaef62694a236,-0.21598288,0.13075757,3.4585948,0.13640955,0.2701884,0.092738196,-0.34018394,0.04117075,-6.7559867,-0.24802555,-6.5272365,-1.0213301,0.29927003,0.57570356,0.22973126,0.30348414
1eekhswi2ckx4uw0j1c9,-0.35287488,0.08653266,-1.8280054,0.061263353,-3.9735806,-0.08244953,0.4882118,-0.11078733,1.9861072,-0.069103956,1.7436411,-1.3232403,0.11936704,1.6219673,0.02534312,0.10961821
1f4oscu6io8xlog2157e,-2.460816,0.38631684,-4.462552,-0.0075515932,-3.0474813,-0.15975559,2.2994232,-0.2966167,0.5387259,-0.10060618,-0.46874437,1.4826217,0.091605276,0.94800186,0.073591955,0.09658734
1f56b6bda24efafcf3a4,1.2825527,-0.6302475,1.5045007,0.012612189,-2.5149865,-0.01204265,-1.2955385,0.008857829,-2.1189487,-0.09081626,-2.1112788,-0.3832463,0.22701314,-1.76424,0.06407877,0.21387164
1f67cb2e7affbb00b6c8,0.8747075,-0.49969375,4.3723574,0.1365134,-1.702798,0.0044457694,-1.0427178,0.043888144,1.003111,0.17763804,-1.0267085,9.17839,0.003942758,-11.057969,-0.19525488,-0.026380956
1fa4f2361b8a03040292,-0.1706421,0.03798545,5.263973,0.07227251,3.1217804,0.17957394,-0.39682984,-0.11269184,0.0067213774,-0.08199048,-0.39089075,0.7300558,0.12876058,-1.4448854,0.041052222,0.10216381
1fc5b87acdfc2a8b580c,-0.6454337,0.25786367,4.2899694,0.14016624,1.6053883,0.18164346,-0.19248798,0.0005749913,-6.2471642,-0.22717078,-6.086366,-0.94525844,0.30353266,0.05583335,0.20691188,0.30720788
1feef8b4129f5bf21e67,-0.3337749,-0.020172793,4.4303217,0.009463211,1.7706958,0.10919905,-0.43640456,-0.04228767,-6.5811563,-0.28550893,-7.443834,-0.29747057,0.26464304,2.102027,0.23791979,0.2731977
1hrtipd0awjpggdje5e2,-1.3249327,0.15860799,-3.3167007,0.020658439,-3.3183277,-0.16509323,1.2768825,-0.17798816,1.7381519,-0.092018835,2.0788805,-1.4864657,0.12673497,1.1150341,0.053120967,0.11050488
1hues7esy9erdsses6m0,1.0186417,-0.093811,-0.1285872,0.011573779,-4.5159073,0.0012753676,-0.78719205,0.113837585,4.030938,-0.03730557,4.28305,-2.747779,0.118338436,1.7978388,-0.018025745,0.099906005
1kvfwfp2hr5hjxjxzjqd,1.895739,-0.27383947,1.180882,0.1412972,-4.945334,0.12096447,-1.5564048,0.06264942,0.7788299,-0.10781621,0.87632483,-0.7582378,0.12628642,1.028189,0.07445547,0.11447922
1mp9yiw6rkrr3846047g,-1.4539292,0.2859922,-3.3600307,-0.030365836,-3.1764083,-0.20411362,1.4044555,-0.15599556,2.2784755,-0.07405626,1.6791418,-0.7646768,0.11179207,1.0717546,0.023002498,0.09967325
1n42senfkcjopw1zh39l,-0.37902704,0.034997094,-1.8650644,0.031508803,-4.0400085,-0.010527021,0.39628226,-0.1602721,6.868791,0.026800845,6.5411363,-2.6395025,0.08116654,2.1643033,-0.09460804,0.068563655
1nebcwra7a0fduy8c1fa,-1.6748137,0.27571893,-3.8397343,-0.024483763,-3.117553,-0.1754946,1.6177095,-0.18939865,4.1762853,-0.033266302,4.49703,-3.0914342,0.12203614,1.9167315,-0.024348984,0.10211267
1nyzl7s790ta4c8r1l9g,-1.7193495,0.23485415,-3.7456527,-0.0197541,-3.2220986,-0.20260023,1.6053324,-0.2260968,2.385162,-0.082137935,1.9778224,0.7254677,0.08317474,0.5714567,0.050699163,0.07948281
1otvyki9oso9bg6ob16u,-0.9451817,0.1254752,-2.7162595,0.09093391,-3.3233998,-0.112987064,1.0489036,-0.17001149,3.1663024,-0.05764206,3.4904017,-2.4090962,0.12370204,1.5796183,0.007862732,0.10539819
1t6e0wa99fijxi3ssnzk,-3.2621238,0.44942862,-5.7548485,-0.03901925,-2.497784,-0.22781484,2.9136658,-0.3403585,-0.42376056,-0.12146944,-1.2501452,1.4152908,0.104622945,0.8601596,0.0982959,0.1077381
1vb2vsoy23nr0monflhx,-2.1778975,0.33798024,-4.8136864,0.010389857,-2.72709,-0.19547169,2.0732727,-0.21007669,2.44319,-0.06766261,1.862189,0.06397319,0.09189941,1.1685176,0.029285828,0.08877887
2007f4965d2aa6064a25,-0.53993154,-0.19149785,5.6934133,0.10052689,2.640793,0.19980995,-0.38722143,-0.1595062,-1.1162205,-0.1466761,-0.8884469,-0.23860171,0.153296,-0.21988659,0.11156987,0.13097213
204a7d6db340a3c18ca7,-0.51580393,-0.013580593,4.371382,-0.03313094,1.9498912,0.09062011,-0.3372952,0.0007263608,-12.1585655,-0.18052222,-16.315033,1.0181154,0.38059297,-0.547205,0.18029971,0.4203835
204fdbe885269686a392,0.34542927,-0.27020866,2.0808036,0.027714511,-0.51789045,0.047605444,-0.70789975,0.0024116612,-2.0067523,-0.10258546,-2.1329372,1.0784441,0.18917342,-1.948649,0.09271404,0.18317798
20f97b68982d1b2f5c73,0.7149318,-0.4996055,5.2907214,0.054627918,-0.24347436,0.110923275,-1.0952518,-0.009063847,1.6349223,0.2528377,0.08771241,9.626378,-0.01380037,-12.747695,-0.25933367,-0.04560842
211ed39c57c6e6cdefbf,0.031288687,0.16447707,3.0100224,-0.08156567,1.462599,0.021769322,-0.4251017,0.059348047,-1.1827815,-0.049551137,-1.2031405,0.9332449,0.17129184,-3.426029,0.0121647585,0.14461572
2150588a5903d9a77b79,2.0110595,-0.89359015,3.604723,0.10479829,-4.227431,-0.026933942,-1.6088504,0.008492728,1.0802008,-0.023432344,1.318508,-0.4228401,0.14011906,-0.9651434,0.0111973435,0.1265486
217c87d59a4372c4f3fc,0.43785217,-0.42284197,4.0679274,0.15805963,-0.92188925,0.13352211,-0.85020036,-0.015859762,-0.026700139,0.10968304,-0.93160266,5.1513524,0.103856295,-8.1592045,-0.12520273,0.080728784
219jkfkejubvu4dvuv13,-2.1622567,0.22000842,-4.6826563,0.022606622,-2.711134,-0.15508239,1.9810312,-0.22687685,1.9313892,-0.08212397,1.595188,-0.111698866,0.101428725,1.0369608,0.046243496,0.095392704
21e23771e52cb5291b19,1.0854723,-0.50087523,1.1745591,0.09123525,-3.6219783,-0.13002303,-0.79119253,-0.026899546,-0.4129978,0.11006998,-3.5897975,10.048019,0.03204165,-10.986585,-0.15213798,-0.0018589646
21fc5674d24be8e9da89,0.017719574,0.14768703,1.5141238,-0.06864385,0.6364772,-0.028164353,-0.43619612,-0.044006843,-5.9155345,-0.3346224,-5.1963196,-5.2946835,0.42954433,2.9035,0.25402114,0.43566555
222d5ee50487a2b8601b,-0.18338002,0.19762225,4.257125,-0.02862227,1.8796626,0.08248344,-0.36744413,0.05601912,-4.1660056,-0.20193079,-4.1390514,0.33042285,0.23674439,-1.3005614,0.16923761,0.22313975
22ae866c664a147f9971,-1.1523294,0.1619228,4.898986,0.12879333,2.1352887,0.17266968,0.046716545,-0.028733108,-6.0532756,-0.17642905,-7.0610495,-1.0399328,0.29794216,2.7966607,0.16977043,0.33991185
22fey6dqzcrm0jbtfnmm,0.5861645,0.22107866,-0.4689553,0.015586975,-4.4724345,-0.16193533,-0.17405017,-0.025479794,-1.0211506,-0.19464372,-1.2764035,-0.09504172,0.1459383,1.0139014,0.13947566,0.12936093
22wb5ostye8edvfar59p,-1.2798183,0.12455871,-3.4256454,0.013431089,-3.2292655,-0.19305317,1.2533052,-0.23392223,3.7090912,-0.04500188,3.4865994,-1.1614819,0.09661106,1.401247,-0.0023042858,0.08670691
23dd64a1d2e4965198bf,-0.6224701,0.055327952,2.079184,0.080517195,0.5135906,0.07553444,-0.21117279,0.0045103147,-3.0125585,-0.16264385,-2.8993528,0.43405408,0.20825966,-1.2050711,0.14201878,0.19822572
23f1f5d3d90e2890a423,1.4336835,-0.53674483,2.5417757,0.012383279,-2.51832,-0.07411927,-1.2582839,0.031611837,0.072485805,0.023136744,-0.53993136,3.0055013,0.1242907,-4.3264165,-0.025933633,0.11482421
24524df0ca55659c384e,0.27520132,-0.34143606,1.1683877,0.009710133,-1.9391474,-0.033974625,-0.54285717,-0.0440793,-4.812561,-0.22257665,-4.9717174,2.4763799,0.17577147,-3.3727462,0.15855987,0.13832691
24ca7714d40e2fe53821,1.0976833,-0.53470916,3.8038182,0.107255444,-2.8230603,-0.021286711,-1.095616,0.048246145,-0.28159827,-0.060058553,0.14694285,-1.4207588,0.1967997,-0.5564804,0.04228361,0.18603595
25019b8f1c3ac537894b,-0.38935056,0.13340738,4.714756,-0.004447383,2.4008849,0.097567104,-0.28545168,-0.01500511,-4.713666,-0.20483778,-4.8699884,-0.9063319,0.27036,0.8765229,0.1787271,0.2791167
25c8e1ae2335e8c3e5b3,1.7330943,-0.53202814,3.6944122,0.12779236,-3.8930304,-0.12135235,-1.3241003,0.12416901,-0.8956205,0.010874927,-3.6677892,7.8256674,0.06235194,-7.6513376,-0.05318255,0.03437615
264320c6b92b92795ba0,0.7245321,-0.33275872,0.5847131,0.07909627,-3.6995406,-0.08650486,-0.4711469,0.03486942,-0.78120357,-0.07686757,-2.0308113,3.918955,0.09570739,-3.2206197,0.05252059,0.07879449
27cc9165eef05eb1733f,0.115429774,0.15828176,1.698734,-0.03456329,0.45238686,0.02143965,-0.49622273,0.026636422,-0.6514111,-0.06733898,-0.069795966,-1.9934173,0.1730165,1.4635504,0.0675398,0.17357202
2826ec26211d83efd2c6,-0.14070764,-0.09456674,5.7181664,0.0072736046,2.7995174,0.15054269,-0.53698,-0.08273035,0.34057185,-0.084731966,0.4064903,-0.74702734,0.14429903,-0.5545289,0.04040444,0.11537577
2842c82981077b78b3cd,1.1520725,-0.41750932,3.9486532,0.058769867,-0.092486516,0.037842102,-1.085645,-0.05005809,1.8643938,0.31091025,-1.1443617,12.795534,-0.05118542,-15.632784,-0.3320074,-0.090271205
28719a42e0cbf4991b7f,-0.79113173,0.15431346,5.8665833,0.08637454,2.712149,0.18854599,-0.12095779,-0.029956665,-3.4040256,-0.1356787,-3.3218472,-1.4491808,0.27884385,-1.5699946,0.08234022,0.26115465
28bc8af257c48eac3bf1,-0.14288846,0.05557094,3.5937293,-0.0057212473,1.2675142,0.08537259,-0.47327992,-0.033900138,-1.3423843,-0.112417616,-2.3745027,-1.6914103,0.20249172,-0.0921987,0.06069084,0.18135023
28d90a892cc66338f962,1.0095096,-0.44054708,1.9504889,7.941913e-05,-1.9570532,-0.064345196,-1.0162264,-0.018538758,-0.28410357,-0.03493035,-0.47608766,0.6850452,0.16832633,-2.1275303,0.023850799,0.15891817
28tmrs0kyrrh1odyvf21,-0.95607066,0.14414299,-2.5653923,0.055540066,-3.4226384,-0.08520007,0.9861717,-0.16476719,2.4585676,-0.04162419,1.917234,-1.3859863,0.11912538,0.10447478,-0.0047170073,0.09588577
29172d2e39ca0d890848,0.013058488,0.1613832,3.6854205,-0.009641556,1.8955616,0.026884332,-0.43727174,-0.053032666,-5.7892156,-0.15385671,-7.1418257,0.04692638,0.25639397,2.603658,0.15567063,0.29966608
2933a3227c7ce7fe21eb,1.2566241,-0.5549548,3.6780043,0.09041033,-1.8753628,0.04856046,-1.2926944,0.041471895,0.34712112,0.0013314784,-0.32979152,-0.6556827,0.16795464,-1.2701106,-0.011228383,0.15980168
2959d8017312337a2ba6,1.2485124,-0.4171212,2.5602577,0.026434861,-2.8703082,-0.105922066,-1.0375094,-0.01738149,1.138597,0.25749955,-0.20642188,8.339148,0.047873378,-12.207034,-0.25145197,0.027435236
29acddb87cfe062d73f5,1.4405159,-0.67964166,2.0128548,0.053093128,-3.6560836,-0.077816024,-1.1975118,0.06345226,-2.0470288,-0.15185359,-2.8200264,1.824856,0.15015148,-1.9819593,0.10036766,0.122047424
2a003b122e9500e465c4,1.7659351,-0.5859545,2.8169308,0.094143644,-4.9948044,-0.20463517,-1.2172687,0.09242732,-1.4562193,-0.10165452,-1.4527097,0.54094887,0.17835142,-1.4622692,0.0856539,0.16783097
2a515047aa9d085849a2,0.8217281,-0.45655578,4.1558213,0.13322869,-1.1355635,0.08234092,-1.1221281,-0.000106826934,-3.0920515,-0.10668017,-3.9418793,3.0294988,0.18299158,-4.1411057,0.07331411,0.16466497
2a6394114c31a10dc92b,0.7828945,-0.37993667,1.9046512,0.028029501,-0.8662231,0.03525186,-0.9427722,-0.021169266,-0.08553243,0.035526298,-1.7013625,6.4570327,0.05136369,-6.952768,-0.059703156,0.026408426
2a6ap0t2rsvoogmydj3a,-0.7304111,0.036472715,-2.4066563,0.03974145,-3.701293,-0.06686425,0.69538224,-0.14389233,4.3333917,-0.003521651,4.4201427,-2.8104622,0.11468593,1.2551919,-0.04612245,0.09392094
2af634997fba501740c2,-0.6960996,0.0933854,5.4072027,0.06415391,3.0842617,0.15817502,-0.22880162,-0.09410101,-1.4722556,-0.015743721,-1.4238338,2.0371404,0.1749149,-4.1935344,0.015733529,0.16790457
2b3492096a4d12bb86cd,-0.9007834,0.09895751,-2.1227663,-0.00038204683,-2.5179403,-0.11993489,0.8549678,-0.12241477,1.3238616,0.047960885,0.93162984,2.3725433,0.11100044,-2.9511876,-0.022687249,0.11656308
2b54ed4af8281eb82f58,1.6497762,-0.6527581,3.5420797,0.14191838,-3.5678906,-0.025820289,-1.407176,0.055685516,0.6586683,-0.04090208,0.50209814,0.40001884,0.13154246,-1.4417568,0.017510176,0.11300158
2b935bfe06ef02369807,-0.9216642,0.15168284,5.3626323,0.11612958,2.1205213,0.17699577,-0.07063874,-0.007557201,0.38022277,-0.012264907,-0.07756388,-0.72486955,0.14750655,-0.8427764,0.006693423,0.1366887
2b9ef4e3749f713870b0,0.43710646,-0.40149155,2.5645816,0.052865803,-0.8385223,0.0034128074,-0.79422086,-0.025335006,0.5412232,0.15261555,0.1267806,4.92122,0.098096006,-8.4731455,-0.15073277,0.08033773
2c27d4de6ae130e7e242,0.49760312,-0.070276715,3.3573499,0.08371969,-0.25901532,0.0339894,-0.6616953,-0.0028199286,-1.5728108,0.21552448,-4.6401386,12.936597,0.02091426,-16.914398,-0.27429485,-0.033664286
2c3b89432513b2035664,-0.21617961,-0.078906335,2.9510367,-0.0146754375,1.0654705,0.06240199,-0.42845282,-0.022759324,-4.812156,-0.15379262,-5.0845127,0.19167155,0.21051982,1.3388081,0.16747807,0.23137492
2c6339f7c23a64d02081,-0.26494217,0.25979525,5.375254,0.019874353,2.4962132,0.11446821,-0.41455096,0.033688292,-4.15936,-0.19853382,-3.3673406,-4.089447,0.3975535,0.6473258,0.15840691,0.40926465
2c7d02c44b47e3d24d52,-0.0753565,0.16473128,2.8144724,0.083107844,0.35903987,0.09233961,-0.4032383,0.0942801,-5.634987,-0.20930226,-6.1546326,0.06021273,0.23253234,1.6258491,0.1988644,0.24861434
2ccfa5f79c8b61e465d4,1.212212,-0.46980006,4.300885,0.0239727,-0.75247246,-0.02746164,-1.2504016,-0.031984027,-2.104328,-0.0019405931,-3.0153923,5.67852,0.10708883,-7.788606,-0.034685157,0.07472194
2d526c27123e59103e29,0.84882545,-0.17117247,3.2597027,0.051933788,-0.08685907,0.028210508,-0.9396654,-0.014630674,1.9812789,0.25242803,-0.494194,10.069048,-0.0066141635,-12.178115,-0.25708547,-0.030492485
2d9a38c93e37bc475cb6,-1.2865103,-0.07260107,2.7382448,0.06475727,1.2449235,0.09196819,0.049348757,-0.046285342,0.83115,0.0072863847,0.41281745,-1.6306216,0.1942211,-1.3655534,-0.036125895,0.17773509
2db6dd71f1d07300382c,-0.62477493,0.10735725,5.4282336,0.057420835,3.1200445,0.21787843,-0.2396684,-0.03735328,-1.1782725,-0.039109692,-2.1924894,0.21935743,0.14711626,-0.66434383,0.04202718,0.14495018
2ddkknvpbz2j9wlvybtj,1.1761215,-0.055840537,0.3155074,0.06817156,-4.5170407,-0.10039107,-0.69099706,0.042922895,0.5967624,-0.10092411,-0.352353,1.4218822,0.09202978,0.9134485,0.073893525,0.0962284
2e2c00240c341a4265e3,-0.44606376,0.012334245,5.911985,0.026541963,3.3269088,0.14907598,-0.33257627,-0.14598492,-1.0102024,-0.072700396,-0.64390653,-1.4793322,0.16866404,1.4246942,0.07510627,0.17248583
2e3e7cbe0e69add8d31a,0.45607412,-0.002239932,1.0079777,-0.04864075,-0.40726343,-0.028684314,-0.68784535,0.009884321,-6.763011,-0.15783973,-8.711934,0.94008577,0.24962905,0.20231265,0.15821624,0.27108246
2e40c1b07d32d3b80862,1.6717101,-0.69925404,4.1144657,0.058713436,-2.1765633,0.009227517,-1.4762218,0.056576762,1.7278788,0.10526394,1.3669015,2.8686717,0.079056986,-6.186851,-0.14207602,0.041148722
2e54b1c7bff5847c82a8,0.026434736,-0.24883354,2.2459931,0.056526847,-0.33784762,0.06928702,-0.6058733,-0.061512344,-1.8539977,-0.012376547,-3.0458832,3.1148236,0.19990323,-4.723977,0.0061567873,0.19798654
2ea821273e01ec758583,0.11386076,-0.088995494,6.137278,0.05085002,2.5375237,0.15398331,-0.678792,-0.06087964,-2.4498875,-0.058469016,-3.0136883,2.501793,0.183816,-4.9500294,0.017033875,0.1572695
2ecb7fb5ff8899614c12,-0.8920376,0.3795781,5.8754926,0.039599545,4.0158625,0.24254648,0.055450473,0.014486479,-0.7704671,0.046766933,-1.6589302,5.068688,0.10660853,-6.9942794,-0.059768926,0.08771241
2egpenarap9h0a2k0bc5,-1.3875297,0.3669207,-3.2140532,-0.0430787,-3.5947409,-0.24921891,1.4067503,-0.1910892,3.6320424,0.0090782195,2.720909,-1.9279342,0.11885238,-0.004379973,-0.06087768,0.09509363
2f3c37735e817244e646,-0.035538025,-0.012081407,4.6410623,-0.09446909,2.5658066,0.06336966,-0.53093815,-0.04394536,-1.0303955,-0.07452652,-1.9730517,-0.9714014,0.18405002,-0.8144619,0.0450729,0.16750188
2f3ef424b925a9881b81,1.4487476,-0.24525803,1.5454232,0.014163313,-3.9840045,-0.27004698,-0.91445196,0.14724073,-3.790405,-0.19713333,-3.7019987,-1.1382211,0.2905485,-0.57914174,0.15457465,0.28618383
2fe9648ea28753c73c2c,1.6201283,-0.5536171,3.3758087,0.01612148,-2.3789656,-0.033996306,-1.4533237,0.09632825,0.20392746,-0.03190253,-0.71603966,2.5972483,0.10309793,-3.419174,-0.007804692,0.074879855
2h9c9tdsnoz1hyzo5frt,-2.320874,0.3910542,-4.500331,0.007193991,-2.9888837,-0.20210809,2.142939,-0.28119504,0.6808241,-0.10046742,0.29440767,-0.12716398,0.11630384,1.2058674,0.06721131,0.11114225
2jvnsh0veb6qnn3uv6i8,1.224409,-0.14765005,0.52395844,0.110656776,-3.8981802,-0.03922833,-0.8653946,0.028780013,-2.0742307,-0.19147952,-2.3057394,0.5689965,0.14403844,0.74280006,0.15728255,0.1337056
2krjeqjgjqfuumdo3ibt,-0.7044048,0.12559433,-2.2247593,0.019026166,-3.5855503,-0.10451853,0.8096309,-0.14256395,2.976933,-0.06885151,2.4380841,0.785734,0.07481885,0.63706887,0.034988757,0.07253565
2svwdpmdpjsdzafekntw,-1.1920056,0.17962189,-2.8642979,0.04248731,-3.5972896,-0.12751228,1.2543327,-0.19323029,3.7222722,-0.04863078,3.2840958,-0.20781992,0.081333525,1.0662233,0.006321773,0.07572889
2ui63dibc4r8oo0p9agh,-0.2891369,0.18311061,-1.5010672,0.010243987,-3.6905699,-0.10557169,0.43660063,-0.046318434,2.178562,-0.06413976,2.1454773,-1.4975394,0.120282,1.2352672,0.023531139,0.106530204
2uxkhe454qk8jvk0ufvp,-0.62249124,0.102779746,-1.6891376,0.056317125,-3.0033362,-0.16873646,0.6601728,-0.2305274,-3.0270665,-0.22000536,-4.33404,1.1078676,0.15354633,1.250484,0.1621177,0.14662679
2xk6toebmkxdw8f2bypd,-0.7318451,-0.08522872,3.0765738,0.028320108,1.1071879,0.066444114,-0.20578153,-0.019578457,-9.581664,-0.21644157,-11.979418,-0.3540677,0.356987,-0.39656726,0.19850987,0.3746543
2xsbkm76x36qvddrl2yo,-2.4226563,0.28045177,-4.705797,-0.002677498,-2.7459848,-0.17995489,2.1597204,-0.2277552,0.86669934,-0.09854757,0.32491738,0.41514125,0.10539483,1.0382674,0.067335375,0.10298976
2zfdinkl7qrn0o62tlp4,-1.7131917,0.24162692,-3.5786567,-0.013165785,-3.280157,-0.10542856,1.539442,-0.14543937,0.6477995,-0.089735515,-0.023770928,-0.7346906,0.13664412,1.8634603,0.049234528,0.13732293
301f57984e5d2969c938,0.07067623,-0.13755746,4.4637384,-0.0058434065,1.6985122,0.10092767,-0.6139574,-0.06951546,-0.767519,-0.09948229,-0.52646935,-2.0329173,0.21021792,-0.020171285,0.058172714,0.19109105
306627b1ecbdf4e3aa34,1.6913661,-0.557918,3.209359,0.04984963,-3.6868062,-0.15433063,-1.2146151,-0.029033957,-1.2628042,-0.09743587,-1.3339977,-1.2905005,0.23216073,-0.4537309,0.061142795,0.22503564
3094825929f936abb792,1.5151409,-0.69311714,1.0986013,0.041841637,-3.298287,-0.019525625,-1.3339514,-0.00054405193,-8.412094,-0.40143877,-8.488423,-0.2949276,0.311566,-0.49695295,0.3139801,0.27778193
311abc37a94ae8afe41a,-0.8953802,-0.08550812,4.7699122,0.07416582,2.0130162,0.16083649,-0.18221812,-0.06335435,-3.8271458,-0.16325091,-3.8193898,0.106086254,0.20131429,0.49194363,0.1603396,0.20638087
31741464205aa8cdb4f5,-0.36781922,0.018051151,5.9470353,0.028007811,3.116577,0.14823388,-0.372632,-0.115426525,-4.1843266,-0.1654513,-4.4420724,-0.7656612,0.24570258,1.3343464,0.15473582,0.26219794
3267b84814316e2fa25e,-0.6124342,0.3761629,5.139551,0.04303246,3.1198545,0.12667117,-0.08373611,-0.025025522,-0.5481532,-0.06574055,-0.24691777,-0.8383302,0.17510368,0.4012982,0.067806005,0.18028641
329622100fe091a4c48c,0.14542884,-0.35866776,3.4673872,0.09662363,-0.7329898,0.0549175,-0.6324946,-0.023834608,-1.555334,0.24838114,-3.9195378,11.860934,0.05116524,-17.03357,-0.29158065,0.0028643832
32n93dfesjggabieb85t,1.4383036,-0.17928135,0.65588063,0.10399052,-4.7949953,0.05032576,-1.1039505,0.079076745,-0.57452613,-0.14305663,-0.562646,-0.21612643,0.13537018,0.88051045,0.111970186,0.12429213
3313c40ea45a87f9d2e7,-0.39788023,0.1206663,5.366514,-0.013754042,2.772765,0.13158442,-0.3425509,-0.011570014,-5.1801987,-0.27558517,-5.9204235,1.2350138,0.17572667,1.0603315,0.22980946,0.16588047
33184c1cba6a37cdbda2,1.4273458,-0.6619526,3.8287659,0.09256684,-2.7156029,-0.024891984,-1.3000108,0.0067351437,-0.23032758,0.009038821,-3.3064961,7.755839,0.05124431,-6.735353,-0.046094473,0.02845252
33b73273ab8e1a11fcda,-0.46347827,0.25406033,2.5170462,-0.003991723,0.95758146,0.04467615,-0.24956414,0.102510676,-2.082986,-0.017763305,-3.5950162,-0.32594538,0.20568688,-1.2661875,0.023699395,0.21102136
33c123d08dc07edb50f9,0.24193834,-0.106229395,3.985243,0.031226842,0.26778263,0.071189106,-0.71298957,0.040446047,-6.273234,-0.20452671,-7.6846175,1.4338627,0.20550603,0.2121943,0.19179124,0.21085551
33ddb1517601db520cd6,-0.5409981,-0.11187991,4.5335793,0.07259555,1.5325794,0.10525368,-0.3723944,-0.08175556,-4.8435535,-0.1708288,-5.219637,-1.0032046,0.28475574,1.1711524,0.15747245,0.3066832
34aaaa47df8c4aa4d926,1.8082057,-0.67600095,3.861528,0.030889567,-2.901592,-0.07608714,-1.4906112,0.00884665,-1.5204769,0.006655529,-2.9900694,6.813928,0.06951953,-8.109553,-0.048667073,0.033932067
34qcy2qj5lij7g82hpvw,-0.9482991,0.1505482,-2.819727,-0.019467989,-3.5382698,-0.058255605,0.8916635,-0.12000493,4.1010356,-0.03763845,4.089559,-1.8598647,0.10322033,1.5530741,-0.013830887,0.08946848
3531c5f9d520759ba697,-0.29219407,0.16589844,3.0559113,0.048157167,0.9892963,0.096957065,-0.30723438,0.00060816685,-2.409546,-0.1578476,-1.6003727,-0.8625107,0.2095695,-0.03560687,0.1519902,0.2053278
3555053023c67d592439,-0.107418366,-0.00032322042,5.7854867,-0.034918405,2.590391,0.09400586,-0.50059175,-0.041600943,-0.4258533,-0.020411424,-0.84356993,-1.3610721,0.19092344,-0.7899688,0.011065617,0.18304299
3565d61f3efec69e611c,-0.4654041,0.14869182,4.624466,-0.009074657,2.7222288,0.13409661,-0.28094527,-0.038817197,-6.4233303,-0.23782843,-6.495042,-0.32872427,0.25037956,1.399654,0.22877601,0.2602083
359f25d9131a0699405b,2.4083798,-0.986156,3.6986945,0.05624969,-4.9694967,-0.16492404,-1.8264331,0.08671367,0.7554923,-0.05415077,0.6635011,-0.46500272,0.14030075,-1.0245703,0.012950122,0.11263155
35e028ec34bfdb7a6d26,1.4087284,-0.60440093,3.1649404,0.09385536,-3.4598355,-0.051433608,-1.1984442,0.010924222,-0.6235145,-0.096257605,-0.41602418,-0.01776424,0.15792707,-0.8041504,0.07767228,0.14385696
35wcdp4s13xmtyq5f7os,-2.708257,0.38028857,-5.0109353,-0.013207719,-2.6687455,-0.19996929,2.4591813,-0.30908883,0.0048884153,-0.117416166,-0.31799734,0.20693177,0.11947395,0.9847354,0.08910012,0.114472315
360820d6620d17d1b48b,-0.3589918,0.082893245,6.452102,0.047078054,3.509404,0.14188015,-0.44659525,-0.06532571,-1.0456504,-0.109239206,-1.7569463,2.7768555,0.10910892,-2.1264188,0.08677307,0.09309039
3672e2896ad7d8f2404e,-0.577088,0.016184852,3.0680044,0.049962517,1.2192217,0.07374336,-0.21346366,-0.024651973,-2.5717382,-0.087133184,-3.2066221,-1.2760489,0.2369113,-0.10954711,0.07330095,0.23988008
367c27a001837dabb2e9,2.0299788,-0.58664435,4.2608595,0.073594,-3.8495977,-0.23976605,-1.4445086,0.052416295,-1.0561777,-0.13623555,-0.82755363,-0.8079414,0.17092176,-0.33974746,0.09220492,0.144499
36ebf305b7206112f676,-0.9389217,0.1772978,3.6828048,0.15253781,1.6873796,0.14994708,0.018392177,-0.04975934,-1.050548,-0.006848097,-0.60075086,-0.2798243,0.16768599,0.7442401,0.06389483,0.200068
374ff25490a1f0aba47f,1.2845901,-0.46914586,3.288771,0.04878554,-2.07346,-0.017100237,-1.240453,0.10576838,-3.34596,-0.1319926,-3.3683047,0.40953174,0.20671007,-0.4216656,0.13337445,0.21234462
37905cfdcd105683aaf4,-0.60420847,0.12985235,3.9973059,0.061174285,2.3671057,0.1556228,-0.20472428,-0.06547346,-2.644333,-0.20387557,-1.8905452,-1.6062846,0.23086932,0.83659637,0.17670347,0.22510001
37ae91c472189108a737,-0.14923337,0.073077895,4.042735,-0.030410286,2.1939054,0.115987346,-0.40017506,-0.014015439,-6.9736624,-0.28361416,-6.8317575,-1.4138584,0.30640298,1.3348393,0.25095564,0.30977198
37f3b3d773c5c073bc9a,-0.46499994,0.06747915,6.113771,0.026690153,3.1631444,0.15165292,-0.35718003,-0.07385776,-2.6164665,-0.15058464,-3.1259947,-1.3365936,0.21083836,2.2236865,0.1171837,0.2185965
38357be0ab369a9ae942,-0.15486753,-0.15380278,5.0196886,0.043344658,1.4929829,0.15623927,-0.56308585,-0.012372971,-2.6769762,-0.22293647,-2.292835,0.21964644,0.15928435,0.28661487,0.19164866,0.14075206
388090578f22a3c33738,-0.55938125,-0.01576633,4.7596674,0.07494351,1.6595151,0.15593594,-0.34032696,0.0097365575,-3.391765,-0.14451905,-3.8425214,0.27169845,0.17922683,1.3691905,0.14109635,0.19175027
390d1fc3b78420815190,1.2719185,-0.4843823,4.300292,0.08826002,-1.8421097,0.006623193,-1.2234206,0.0024732028,-2.7381933,-0.06717948,-2.7745206,0.73486817,0.23029979,-2.4283981,0.06792788,0.23463392
3919286d3d8c4f4d339c,0.9403412,-0.5111568,1.747263,0.12527719,-2.310896,-0.010628355,-0.83322746,-0.06851578,-0.6125858,-0.04226237,-1.4629271,4.152451,0.08399776,-4.2614517,0.021106848,0.06361997
3a9d955e2ef47191a742,1.1274921,-0.3329849,1.5325092,0.0045488984,-3.5993528,-0.15291923,-0.9465608,0.1766692,-2.1699371,-0.056530997,-1.8376719,-0.20977925,0.21273421,-0.46516263,0.085376,0.23104742
3ab864e1e692786fefd2,2.0733953,-0.59488827,2.641304,0.06388543,-4.7528305,-0.23111014,-1.4729265,0.05210081,-0.6512023,-0.021966986,-0.8552827,-1.3975644,0.22645634,-2.580731,-0.015588611,0.2021875
3ac65fbc295f5fbd2ff7,-0.98929536,-0.109028004,1.4527502,0.031015823,0.5787738,0.031029897,-0.102165714,-0.01543811,-0.77275825,0.05240459,-3.3493574,0.4779313,0.23281859,-4.3999887,-0.080798745,0.2249133
3b3b2319b0995f149ecc,1.3168436,-0.53029203,4.454246,0.13153216,-2.9036186,-0.027300715,-1.1700608,0.054169256,0.74967664,0.056628823,-0.12986526,2.9513137,0.11125716,-5.446303,-0.093538895,0.08077227
3b6f3bb370f3107e257d,-0.24161777,-0.048478335,3.5703695,0.04687913,0.4703965,0.06858388,-0.51224756,0.049827933,-11.241986,-0.18319352,-15.20746,0.99663097,0.3633155,-1.1958524,0.17438555,0.390647
3ba42ec5350aacb0750a,0.550332,-0.13949788,2.321724,-0.00245958,-0.011061773,-0.013001071,-0.7825153,-0.042981483,-0.8202365,0.078588456,-2.2270322,7.2074885,0.06621245,-9.318148,-0.10675256,0.03502643
3bf7b3c9aa7d93ecb603,0.8655939,-0.54578173,5.6274652,0.08821213,-0.59037113,0.052185725,-1.183541,-0.05542802,0.61989856,0.05324473,-0.7504752,5.1985393,0.06885517,-5.9133434,-0.066335246,0.051138517
3c1b9222136b752563f6,-0.105263606,0.16504352,1.8949138,-0.013375273,0.56073093,0.0036700596,-0.32872748,-0.0002468486,-7.383636,-0.21727322,-9.581258,0.88445175,0.2629614,0.4395514,0.18924645,0.2761078
3c37e3ad275dcdd39e2c,-0.91282594,0.4523237,6.542909,0.10770526,3.769946,0.26915032,0.039541826,0.014844572,0.25475025,-0.017851949,-0.500974,2.4399595,0.11224746,-3.3592613,-0.008432478,0.0912579
3c71b62d597098c4cd18,-0.52728546,0.0496621,5.860206,0.05650557,3.0342133,0.20526345,-0.33084643,-0.06745946,-1.6227736,-0.005048007,-3.4424357,0.003651619,0.20598172,-1.7786739,0.004150972,0.2107862
3c89c7f1db26ae691db8,0.55728376,-0.11257781,4.333937,0.0018753962,1.2709255,-0.00036646155,-0.7668521,-0.11038496,2.0468278,0.31275237,0.009429455,11.145309,-0.033458896,-14.644308,-0.3191544,-0.06735098
3cic5ziycjx4ik4ll0v1,-2.9328377,0.3905792,-5.353755,-0.0064564496,-2.4670079,-0.18853934,2.586155,-0.3168972,-0.51292294,-0.12171332,-0.9861856,-0.11062919,0.13420957,1.3713074,0.089553215,0.13116813
3d63ba961a5f3a60616a,-0.008583016,0.039613925,3.6216543,-5.6003984e-05,0.9780317,0.06645521,-0.52031404,-0.009041135,-3.3239028,-0.1718204,-3.1517866,0.18063903,0.19839783,-0.12213875,0.16031648,0.19524787
3dba043eb6065ad3a343,-0.06849598,-0.4073857,0.24879587,0.059758108,-1.4285069,0.02645439,-0.631327,-0.009374278,1.7908973,0.19969705,1.5808833,3.6290433,0.106367104,-8.025374,-0.1972409,0.08804444
3dglsy7ee3ytfq1lpwlv,-1.1843339,0.19128063,-2.8759375,-0.0071041575,-3.2009947,-0.16820168,1.1975671,-0.22631018,1.677242,-0.08676196,1.5286082,-0.6083117,0.112563364,1.1454219,0.049690183,0.103526115
3e4e608ace87fe97bdb5,-0.6209427,-0.0034232242,5.1882324,0.031605743,2.4900105,0.16191511,-0.27117896,-0.056467175,-1.4518887,-0.1437514,-0.88822544,-0.02555385,0.152431,0.2353168,0.14016336,0.14699419
3f34e3108d1108dab0fd,-0.60750544,0.005235335,4.1628447,0.03377791,1.9135306,0.12570204,-0.27756822,-0.04007742,-8.962572,-0.17715049,-11.888915,0.5265976,0.32093635,1.5533602,0.16974969,0.36606777
3f55d44d7572d52b2987,-0.07726262,-0.07370942,4.9035883,0.019307613,2.000298,0.095542975,-0.5778978,-0.06934041,-7.9170084,-0.2521014,-8.568202,-0.90309787,0.30936527,2.4111178,0.2370138,0.33626652
3f81bf9625e47ca1963f,-0.13145657,-0.03260167,5.230625,0.024228834,2.035569,0.13283248,-0.48277032,-0.020682335,-0.8583285,-0.09461011,-0.9202673,1.0670779,0.14298584,-1.2774717,0.083591826,0.13317592
3fee5c27236cbb682727,-0.5215436,0.017303983,2.8691394,0.065832056,0.8975439,0.093477145,-0.21646413,0.022587363,-0.2853932,-0.10836198,-0.24620183,0.008400619,0.13769476,-0.61615765,0.07340134,0.11414957
3ff069e95a9047dbfa8b,-0.72195786,0.04344024,4.9502296,0.057447944,2.814782,0.1692808,-0.22934942,-0.07951776,-2.9801407,-0.14611864,-3.1123662,0.91326976,0.20799732,-1.7779021,0.12510063,0.19814804
3iz4t53ooerb6sruxf3n,-2.772299,0.44719237,-5.5054016,0.010666341,-2.6871805,-0.2717511,2.5505679,-0.36571303,-1.1662961,-0.15096658,-1.263885,0.8123056,0.12495063,0.45351693,0.13258593,0.11900601
3lbe8ny12qw7qwcyihpn,-1.810541,0.29392296,-3.8583395,0.027371483,-3.2150948,-0.14965844,1.710207,-0.2111484,2.7934067,-0.06693177,2.5085974,-0.36853588,0.0952711,1.0642642,0.027385125,0.0879085
3m4gx52iq3mwqdycm8mm,1.0761127,0.10971722,0.2876051,0.115841284,-4.371867,-0.17358579,-0.60743296,-0.03373563,-1.3221899,-0.16848136,-1.8440893,0.7372886,0.13115661,0.919361,0.1320112,0.12467615
3p34idi1traz2k8j0ulk,2.7306013,-0.42093086,2.672431,0.19058278,-4.871371,0.010389739,-1.9947088,0.09638139,1.8256137,-0.08880843,1.7604005,-0.46745917,0.108957045,0.9520023,0.05326949,0.09923982
3qvqfnzdg358mord1cku,1.6784796,-0.20721345,1.0730193,0.14938372,-4.362042,-0.037421413,-1.1554633,0.057450593,-0.12822604,-0.11000119,-0.807686,-0.5434834,0.14401264,1.6987356,0.070137635,0.14330634
3w0b2b1gz9i1nhmtab7s,-1.5704592,0.24945073,-3.3664436,0.021130502,-3.1606266,-0.16762519,1.5213046,-0.21047892,0.7802446,-0.15390445,0.7609178,-1.2684096,0.14220427,1.326961,0.09022368,0.121155724
3ywgcurp27qp1fydp27z,-1.7325323,0.3430525,-3.8071308,-0.048830062,-3.3949728,-0.20137852,1.6731436,-0.16356964,-0.034864545,-0.15421873,0.28109312,-1.0959517,0.14634366,0.9724924,0.10918187,0.12660465
40eb36011ced9a882ea9,-0.27822432,0.08480812,5.0377016,-0.029209083,2.3349156,0.11223914,-0.44795424,-0.008574838,-4.9406567,-0.26195383,-4.7407684,-0.1594274,0.21245877,0.8303321,0.23054509,0.20213531
40rkj6cwy12hdupgq4w2,-0.5708972,0.10218117,-2.3665109,0.09670808,-3.746121,-0.050438564,0.7100899,-0.05794417,-0.8517043,-0.11923408,-2.1035893,1.8586832,0.10157654,1.1121866,0.09619629,0.1104065
41126caf1874c098d357,-0.10531413,-0.029910473,4.7285943,0.021021402,1.721359,0.13169022,-0.55965537,-0.0082899,-0.8800668,-0.1511388,-0.27106825,-0.6970092,0.14733952,0.46128938,0.12720497,0.12962143
4130weedl0x9hc7qe5a4,-1.9474177,0.39128175,-3.8046336,-0.057200644,-3.1726463,-0.090095736,1.8745292,-0.18463783,3.505821,-0.05030944,3.71672,-2.24046,0.11675756,1.5788245,-0.00022909045,0.099948995
413cbf664ac3ba8307ea,-0.11283191,0.23438196,5.387283,-0.047062907,2.3310015,0.09795316,-0.50411856,0.08581185,-4.427813,-0.29055768,-4.231794,0.10496497,0.19129366,0.5849626,0.24054322,0.16842104
4156dc6090d72c95c23b,-0.9313301,0.106068105,4.6749535,0.12740722,2.0694642,0.20472006,-0.078691125,-0.0113739995,-3.3621063,-0.12647463,-4.0289664,0.6819964,0.18164395,-0.37102115,0.12948988,0.18520616
418f4730434eaced55a2,-0.47779697,-0.30780387,2.375052,0.14105351,-0.3987678,0.11383822,-0.34610257,-0.0430255,-9.380795,-0.27469957,-10.238373,-1.4527146,0.35978043,2.1271741,0.255596,0.386639
41abb1b9df74d29b7732,-0.82019997,0.36460567,5.4403987,0.099140406,2.4627707,0.19089241,-0.12787381,0.08811173,-1.2750498,-0.14986795,-0.7974016,-1.095995,0.15697546,0.9661407,0.12316727,0.14086297
41e9ff991a4a21f423a8,-0.35643718,0.10078106,4.838037,-0.029243067,3.2097678,0.10086991,-0.333273,-0.11380836,-1.9815638,-0.16963102,-1.8821415,0.7144683,0.13673876,0.35401645,0.15463908,0.12864855
41f718ae2aed1d6c2573,1.1891302,-0.35297728,0.7890353,-0.07303065,-1.7434152,-0.08003086,-1.1330659,0.08004543,0.8384182,0.06794949,-1.5589081,-1.3368698,0.21650764,-2.174816,-0.09979631,0.21085408
424de2c5e2c1f5652cdc,1.8408318,-0.58860815,2.765123,0.108971134,-3.7921247,-0.056107733,-1.3927009,0.0626086,-0.99653804,-0.0620377,-0.98244107,2.064663,0.13158742,-2.860424,0.054033775,0.119415745
42dd5f9cd9e2c3ac9ed7,1.2300379,-0.7494651,2.2545643,0.053102624,-2.6107802,0.037338782,-1.3446653,-0.00385718,0.40723845,-0.06981973,0.25982666,-0.13966425,0.13645077,-1.1610644,0.024964718,0.106839865
42e83553ca9d77ab4aee,-0.37359637,0.0786562,5.7255397,0.03489489,2.405726,0.12998673,-0.38233355,-0.024452817,-3.9610593,-0.1639728,-3.7835715,-0.109261654,0.23839812,-0.61830235,0.15415762,0.23845145
430420fb41fe0a889868,-1.040269,0.33981538,6.098773,0.111210465,3.0706618,0.1936438,0.06151691,-0.038518403,-0.009705663,-0.026115272,-0.43496832,2.20519,0.11651548,-2.0628583,0.035809882,0.1168488
432fd26823e230070734,1.6399906,-0.8438451,2.6536596,0.1103062,-3.489791,-0.082615376,-1.3104905,-0.03600035,1.779002,0.18225926,0.53158605,6.6759667,0.03579597,-8.989192,-0.18293361,0.015521648
4388d48ebff4cf866ecd,0.33164805,-0.088991195,-1.1071608,-0.07945651,-4.052162,-0.26084924,-0.2107737,0.015320551,1.8396567,0.008333504,1.5843734,-2.2717047,0.17325407,0.71088415,-0.03136438,0.17189474
43d34a076620e32fedfa,0.7092287,-0.3761196,2.361467,-0.007115328,-0.5983122,0.030089233,-0.9240222,-0.016036976,-1.5471362,-0.08289603,-1.4055595,2.076968,0.12562235,-3.6823707,0.044264205,0.09400691
43d98a750c726bb39d11,-0.2965603,0.2846234,3.8179092,-0.07393646,2.494854,0.05217578,-0.25572625,0.011138434,-2.734066,-0.1405956,-2.4321961,-0.88337797,0.19385317,0.99117655,0.13450454,0.19476989
43vri1lqbgiiwbkaskqd,1.553121,-0.24893172,0.88046163,0.113400765,-4.6535797,-0.015784388,-1.1190295,0.054534726,1.2867298,-0.09386263,0.55482,1.145546,0.088756435,0.7767982,0.06515678,0.089804985
446d2ad0ca2908ffa4f9,-0.850756,0.23887676,3.268011,0.05932971,1.6887779,0.12154588,0.038501844,0.015405774,-5.0655284,-0.0786698,-7.702499,2.217945,0.19074315,-1.772507,0.09061086,0.20219736
4474f24ef69e01e2c001,-0.3298711,0.045493312,-0.48656726,-0.005584943,-1.2780008,-0.0625513,0.07836557,-0.10087112,2.1469269,0.05964577,1.4998337,0.6403007,0.11503514,-3.8529134,-0.12162661,0.07107066
4478eae73fb84cedb102,1.4553804,-0.7332694,3.0266433,0.09121661,-2.2543004,-0.012702991,-1.3127302,-0.05545277,2.037379,0.13524103,0.94407153,4.119326,0.06818136,-7.0264297,-0.16973872,0.033516593
44c7cf3881ae07f7fb3e,1.6385381,-0.49812275,2.8296745,0.08209698,-4.062556,-0.12783314,-1.2662382,0.15847929,-2.7148676,-0.16191395,-2.4421887,0.780812,0.17808586,-1.3985382,0.13782017,0.1624999
44c7cf3881ae07f7fb3eD,-0.4670659,-0.055613916,0.9280961,0.029500501,-0.22749484,0.012999984,-0.24869365,-0.010435696,10.65906,0.43826908,5.55735,-3.7795873,0.17024256,6.591627,-0.45810285,0.29098126
44x159fl0pw2uucriuga,1.5740614,-0.15891445,1.3177775,0.06883208,-4.6828866,-0.008606498,-1.2471349,0.055831272,1.3571526,-0.072948575,0.2862509,0.42579174,0.097663395,1.5976454,0.035144445,0.10098972
451b0095938a3c54efc4,1.2925898,-0.36949039,-0.41750467,0.010056316,-2.7404792,-0.027432706,-1.1404697,0.057611126,-0.7403476,-0.10097169,-0.49196252,0.77518255,0.1384368,-0.7654197,0.09979681,0.13277936
453d43b3f6bdf467e672,-0.47712353,0.10779175,6.119003,0.048258882,3.3155124,0.14510374,-0.35406163,-0.12184085,-1.3452564,-0.15037674,-0.8485994,0.5591955,0.13223436,-0.3328429,0.13652013,0.11878697
454c91e8f96c1dc4e994,1.2155138,-0.6250715,3.746671,0.083103225,-2.1076074,0.0032363436,-1.2557341,0.008372241,0.92403233,0.09114551,-0.0031044483,4.3796563,0.088208206,-6.1837,-0.09670326,0.07259035
45b6cc87a7e957f83027,-0.73159313,-0.11938552,2.7776825,0.043551214,0.98686016,0.08924315,-0.237785,-0.04358459,-4.9131594,-0.2032135,-4.6394877,-0.58970356,0.23263314,1.0941042,0.19975637,0.239974
460fa4961434cf281423,0.037381805,0.120949954,5.2847714,-0.042773563,2.7766757,0.0791502,-0.54369575,-0.04701343,-0.6993847,-0.055799443,-0.61393523,-0.72479355,0.19106244,-0.3502374,0.048114583,0.19125503
46a60ed041c8ebf98061,0.257112,-0.043717977,4.6868715,0.11315507,0.38241032,0.1249875,-0.7372036,0.0490291,-5.378525,-0.1416417,-6.617645,-0.006583512,0.25580153,-0.19450396,0.14203233,0.27032903
46a7a18ca160c829a15f,1.3038212,-0.4977599,3.313429,0.110247515,-3.3533168,-0.047560263,-1.177561,0.08680233,1.0233232,0.19099815,-0.341947,7.687713,0.03984272,-10.407659,-0.19355343,0.017528564
46e2d5243b6eef040f97,-0.17327331,0.03149279,5.8080688,0.048461933,2.3492255,0.1575251,-0.5637916,-0.017520493,-1.4590575,-0.04836607,-2.1807623,-1.3877034,0.21670103,1.1248175,0.048428673,0.23725332
4738a118c8b8fa271fd6,-0.60952145,0.18316825,4.541983,-0.06605832,3.5806067,0.12982245,-0.09924489,-0.06816521,-3.5385635,-0.18780735,-3.102355,-0.37127638,0.23134774,-0.649374,0.16678812,0.22212474
47b08a7751ab609be9e5,0.12124836,0.025488274,5.974705,0.08948091,0.9782971,0.11812855,-0.70902014,0.08104539,0.6734267,0.017594587,-0.54634565,-1.170521,0.1699962,-1.2932911,-0.03591752,0.15772821
47eeab842793b09300c3,1.0655006,-0.28565675,0.6193159,0.01186848,-2.483558,-0.04764832,-0.9169244,0.052216206,-4.3406014,-0.24061602,-4.2521462,-0.015011936,0.21775648,-1.640001,0.15888089,0.17593451
47vclaej1xmb0rc8kgka,-0.31485686,0.04368745,-1.7416934,-0.013096209,-4.1303344,0.015246072,0.34120733,-0.033957254,3.0143852,-0.06388346,3.0040555,-1.1169891,0.104872465,1.1878645,0.020886093,0.09290794
4884f3bdc068ef01e042,0.78858125,-0.30894485,2.249852,0.0005548368,-1.3774313,-0.017631615,-0.8748542,0.03319987,-0.7582685,0.065244436,-1.8310544,6.9528804,0.052710228,-9.001006,-0.09503648,0.018192112
488934d01a504bc212b4,-0.4744164,-0.030340105,5.935861,0.04039832,2.6280315,0.12484204,-0.37807718,-0.0821929,-2.5979376,-0.099842824,-3.5475814,-1.7054956,0.27330065,-0.47893044,0.058685347,0.27046537
488fc49e8fccd665c3e2,1.6664795,-0.57652295,3.1644096,0.0881473,-2.2189388,-0.07515768,-1.3228561,-0.027395764,1.6483878,0.30370393,-1.2560481,12.464907,-0.038827904,-15.44562,-0.32411754,-0.076813705
48a71a6a5a15e31084e3,-0.46680227,0.047718234,5.313181,0.005587194,2.684962,0.16644336,-0.31627977,-0.022004858,0.2975349,-0.061140344,0.46198422,-1.1564332,0.14799938,0.020694433,0.039164085,0.13118173
48a96425072cefa0dc69,1.7605337,-0.50887454,2.83401,0.07703873,-4.6767187,-0.23594098,-1.211818,0.091438554,-0.8851236,-0.06436781,-0.7743951,-2.3971066,0.23670194,1.1891425,0.048348326,0.24701641
48ad93c227abfa9542aa,0.44525146,-0.03397088,2.0353184,-0.006204322,-0.6716741,0.0050183088,-0.714595,0.07003166,-2.7045023,-0.030982798,-2.6839333,2.0598667,0.21268766,-4.994279,0.021945626,0.20286377
498121d2486259ef1b3a,2.081164,-0.61886,3.724846,0.102928706,-4.253762,-0.19460757,-1.5427465,0.050748013,0.19894403,0.006458923,-0.5667632,2.4636374,0.12000045,-4.4100394,-0.04603165,0.09025481
49a91a4dce6838ffcbcd,1.4144267,-0.6331563,2.9158351,0.08047148,-3.443418,-0.075300425,-1.1599395,0.03528339,-1.2416002,-0.13119061,-1.6317191,2.091203,0.117216095,-1.4517574,0.10914954,0.10141775
49b95110a8c59f6b6c58,1.7146114,-0.82834613,2.858947,0.09572512,-4.058311,-0.032550406,-1.5264372,0.0811364,-0.7612203,0.10342513,-2.6875393,8.119863,0.052162103,-11.065537,-0.16278006,0.0024265647
49ef48443e09f8be12f6,-0.07682145,0.20481128,4.485654,0.02739778,1.3688859,0.100332916,-0.5112733,0.089587435,-1.7247102,-0.072490424,-2.2076228,-1.3027288,0.21737051,0.7841682,0.0610476,0.22773215
4a0890c15c26984c191f,0.97452164,-0.2095174,2.1291084,-0.00048827144,-0.48253474,-0.04096205,-0.89934397,-0.0116947405,-1.47279,-0.078502454,-1.8122228,3.3841016,0.10447898,-3.9573088,0.051479768,0.08032871
4a6e1cf1e4e9d8f54717,-0.5386753,-0.072314925,4.0715,0.06705596,1.0755635,0.107824765,-0.42596355,0.011698057,-9.775822,-0.27901205,-11.192288,1.2252235,0.26302487,2.097653,0.26980165,0.28728712
4a7f53c0a376edadf38a,1.4424644,-0.5064178,2.6677628,0.07190415,-1.7187147,0.008465001,-1.3030663,-0.038432784,1.1269759,0.14186725,0.23731141,3.5460362,0.110822044,-8.159359,-0.19452758,0.06626018
4aa8ff74dc576b7adbcd,0.035074998,-0.107661314,1.801647,-0.018198617,-0.058927238,0.029447058,-0.56305516,0.009101733,-4.5700784,-0.23971877,-4.353462,1.6419703,0.17362303,-2.300034,0.18057962,0.13824606
4acutl013itvh9va99p7,-3.3863409,0.476239,-6.1943307,-0.10306935,-2.1670027,-0.2855591,2.9751308,-0.29530528,-0.10376538,-0.14844562,-1.0124679,1.1588689,0.110267654,0.98590404,0.10455498,0.10725103
4atjmlccken75lck9ffp,-1.6742415,0.2543867,-3.6707854,-0.008450533,-3.0417976,-0.25692984,1.6142384,-0.20564245,3.1277359,-0.08535647,2.6301816,-2.2324536,0.12946494,1.5581725,0.00413841,0.10474577
4bceaffe5e429ed3333b,-0.6658082,0.1884991,5.3877716,0.04197235,2.1687038,0.14527269,-0.2341296,0.06654278,-1.3565121,0.01046598,-3.4687734,0.056007028,0.19657429,-1.9866308,-0.008268744,0.20067076
4bq1kdgygbtif8w80s5y,-0.68211913,0.15116325,-2.3015594,0.028385356,-3.9062927,-0.095296144,0.79410124,-0.14734791,5.072823,-0.013862299,4.732116,-1.6017262,0.086717226,1.6935619,-0.041536033,0.07685098
4c26df96293b4a52bc03,-0.18475433,0.105665445,4.575158,-0.019703818,2.7190297,0.123189464,-0.37521943,-0.048726488,-2.3079262,-0.15234426,-2.2189488,-0.8796023,0.22642665,-0.7872182,0.107719675,0.20733741
4c79be630ae9d3db6aaf,1.2934687,-0.52620846,4.2662554,0.059767623,-1.5154915,-0.035946727,-1.2098072,-0.044605892,-1.3283156,0.024406008,-3.1059523,5.7844944,0.1180942,-7.451827,-0.06086611,0.091824524
4c90f16c0fcd85d3de25,1.0213665,-0.45157287,3.2586172,0.06397116,-0.90123284,-0.031595096,-1.045153,-0.06439158,-1.4494325,0.118436255,-3.7617238,9.51068,0.052358672,-12.796764,-0.1838293,-0.0010053515
4ca5c8ea55be09213d14,-0.48533344,0.061500996,5.081706,-0.034805983,2.7691102,0.13002361,-0.31249443,-0.031341124,-1.3460196,-0.12580651,-1.4474375,-0.59093475,0.1833558,-0.93408465,0.081511155,0.15695095
4cb96f0d9108066442a8,-0.28769824,-0.048776742,4.083253,-0.0016866958,1.5147688,0.10942735,-0.45007104,-0.018646691,-4.36071,-0.21510872,-5.2644176,-0.99808073,0.25859353,0.09309899,0.15970351,0.24669665
4cc0dc56eecea1d928d1,1.0646362,-0.43061674,3.341156,0.07169242,-2.4340653,-0.028826952,-1.0114815,0.04602719,-1.658007,-0.097368136,-1.5771995,0.76896495,0.18279941,-1.574623,0.093377724,0.1788171
4dfdfa5e1a04c832b9b4,0.64791936,-0.13019994,2.9330237,0.018932655,-0.6703308,0.025100535,-0.86594254,0.046288677,-3.8294554,-0.15609998,-5.4284744,4.755755,0.14765461,-4.92234,0.09297945,0.113959156
4e4bb1f26e34ca0a13dc,-1.0227327,-0.09591688,2.5680475,0.13217112,0.6907833,0.11332085,-0.077409625,-0.038410787,-1.2311591,-0.07900348,-1.1723998,-1.0931314,0.21120247,-0.25911808,0.05950539,0.20752008
4e508744a9816cc4586a,-0.4159164,0.008415093,1.6252524,-0.0025224425,0.51244384,0.025976136,-0.29869118,-0.043959796,-3.3292387,-0.019265227,-6.2273035,0.9788152,0.23582791,-2.4106221,0.017927121,0.2498123
4e693829528e3e7de62a,-0.2749256,0.2929281,5.0291467,0.06742686,2.2128372,0.13015938,-0.3680701,0.05471458,1.0805182,0.37013918,-2.28019,15.227449,-0.066538945,-19.54886,-0.40820014,-0.12055897
4e768251c78b687fa993,1.2217579,-0.3784418,1.6356341,0.058461174,-2.0247521,-0.018799376,-1.0467527,0.01557201,-1.4258142,-0.02562339,-1.7204192,2.55711,0.15234923,-4.843397,-0.0031674802,0.12850721
4edfd2e1b7c5c5d1d384,0.37860984,0.1687942,2.153677,-0.098642915,0.3511772,-0.04926047,-0.6076651,0.116340205,-2.477424,0.016048659,-5.5484867,-0.04147923,0.25180373,-1.6953084,-0.020929039,0.27270514
4erna0vkk9gu5umle1se,-2.798567,0.3883539,-5.387495,0.008945189,-2.5587354,-0.24082778,2.574355,-0.3353269,0.49504697,-0.10920743,-0.16773915,1.1648332,0.098070286,0.7504638,0.083412744,0.098615736
4ewf46mylf75olvvihqj,-1.4209509,0.17839889,-2.836746,-0.029280934,-3.5474002,-0.12053475,1.2969991,-0.1246468,3.689746,-0.042694863,3.6617963,-2.4735577,0.12008056,1.4545971,-0.015797347,0.09947047
4fl8e5s0nf65bm2m34f0,-2.2576687,0.37979114,-4.3136063,0.0157709,-3.099414,-0.13561991,2.098163,-0.25675362,0.9915868,-0.09856972,0.8382567,-0.53235143,0.11951987,1.1604463,0.06380999,0.11087965
4glo109mkgy7azntyttp,1.3452969,-0.08035505,0.47395867,0.08785305,-4.9942527,-0.02519763,-1.042689,0.02014147,0.27260587,-0.111191645,0.038684964,-0.21332496,0.12294716,1.1170293,0.07989968,0.11604134
4i0t5tq7o78lvc1zglgr,-0.86951995,0.25521886,-2.7284744,0.045330625,-3.5897496,-0.11101856,1.0200773,-0.09661859,5.002709,-0.006789565,4.3826756,-1.4995673,0.085073985,1.95689,-0.050500628,0.07851998
4nun1ah7qw10q705a2aq,-2.837265,0.40574035,-5.429474,-0.0119385915,-2.6242142,-0.28630406,2.5837796,-0.29769447,1.6161994,-0.09420869,1.5739027,-0.48804823,0.1120527,0.9515192,0.058622442,0.101847425
4oqxw56hzk4fk8aqh3e0,-0.83039904,0.12674265,-2.06844,-0.042658504,-4.076632,-0.043924075,0.7720428,-0.12859018,3.104347,-0.066970676,2.9877293,-1.0137024,0.10295774,1.2213255,0.020318657,0.0911765
4v5xbvn3yhmvs97477pc,-1.6329967,0.20821843,-3.6530485,0.0068619624,-3.221262,-0.26856145,1.5654179,-0.2182564,1.5680922,-0.09762537,1.7139909,-0.6776533,0.115884386,0.85931003,0.06331579,0.10348319
4vnvytgnlmv4jbfw9h3t,-2.4839904,0.33269057,-4.6236725,-0.028666012,-2.868393,-0.1576236,2.2216744,-0.24545333,1.0283492,-0.08568359,0.14587665,0.51889616,0.100778595,1.3519881,0.051362753,0.102302164
4x441h9y6wzknmtdw7q4,-2.1564162,0.32241327,-4.2931986,-0.003986667,-3.0042593,-0.13249208,2.0132751,-0.24814424,1.5518035,-0.09101919,1.1920741,0.19353722,0.10123538,0.9089254,0.058200914,0.096180215
4xh67ezjc331pg9q3kfv,-0.52624494,0.10712801,-2.4396327,0.04523237,-3.6711087,-0.05506624,0.61608773,-0.070790745,1.9216082,-0.08525226,2.0951233,-1.3298323,0.12163982,1.1961281,0.04535926,0.10752155
4y1vvkscejq34042oag4,-1.312159,0.23031315,-2.9052315,0.050769556,-3.402383,-0.11951484,1.2917843,-0.15489197,2.4134724,-0.06266357,2.24572,-1.6015068,0.118781395,1.7122684,0.015950192,0.10774984
4ycyhj8tyx2b17fcx29j,-1.9910396,0.24493389,-4.296648,-0.003326406,-3.0406654,-0.1846751,1.852268,-0.21640776,3.4338272,-0.057955988,3.1438437,-0.5104154,0.09030566,1.0960597,0.014170693,0.08199169
504278569f7c6dff25e3,-0.97414577,-0.012396294,4.5552163,0.05103631,2.1988974,0.15183201,-0.111913174,-0.047255095,-9.709383,-0.26459947,-11.02261,0.7913892,0.27955213,1.9423232,0.260664,0.30584922
50673b01fd2b0c765572,2.087206,-0.9674974,4.745255,0.0950017,-3.1564515,-0.02576474,-1.7684413,-0.041582614,0.49880376,-0.0054009855,-0.26054,1.9616866,0.11905073,-3.5615575,-0.03397865,0.09061507
50fec4ca4283ad18c000,-0.13566041,-0.010086402,5.1226535,-0.045967374,2.7703674,0.07633084,-0.49283713,-0.09127122,-4.644469,-0.19311422,-4.7273073,0.23183039,0.20163539,1.023426,0.18975694,0.20899491
510a90cd169e2eb042ab,2.083523,-0.69557965,5.1004887,0.09853846,-3.0486774,-0.20097736,-1.6312461,-0.016898382,1.7823337,0.38216105,-1.314806,14.561035,-0.071403995,-18.717934,-0.40821177,-0.119662754
522837ace4fd8dd743f2,1.6707145,-0.6921437,2.104784,0.17348294,-3.71155,-0.047412906,-1.3713878,-0.057388626,3.3449888,0.54817295,-0.44570577,17.866428,-0.13405703,-23.221865,-0.56546086,-0.18688439
52a24e35d5356ab34a2e,0.8348093,-0.22094977,1.4529785,-0.0133373905,-1.4827788,-0.014560772,-0.8787426,0.007462354,-3.3585505,-0.10594668,-3.9219434,0.8958053,0.23016432,-4.6926446,0.028371807,0.18877795
52d965ebf3ec0518bc0f,-1.1297408,0.41464534,4.404998,0.2380122,1.9055197,0.2512188,0.110646985,0.07291466,-0.8334411,-0.13761094,-0.46150053,-0.51924354,0.14639038,0.23346236,0.10969685,0.12749888
52f1bca9ac9c792e4457,-1.07815,0.14778806,4.1748624,0.12070686,1.9636889,0.1575007,0.037891526,-0.008998056,-0.15216517,-0.072278716,-0.97528094,1.9709879,0.11510674,-2.3160603,0.032570284,0.08941102
52f4899e918b57df28da,-1.3624092,0.13791646,3.937142,0.18069331,1.6515007,0.19090736,0.13421832,-0.014866241,-5.512825,-0.17708446,-7.195085,-0.6819896,0.29095286,0.65938485,0.14804123,0.30841684
533bc4c6716035e694ac,0.98447675,-0.39322582,2.6414967,0.02412902,-3.196424,-0.18872194,-0.93854535,0.1324865,0.49807256,-0.0042788982,-0.7053012,3.168572,0.094742574,-4.211563,-0.039298076,0.063826814
539911ee11c1b2aaeb88,-0.25011557,0.12991762,5.0882177,-0.04217242,2.6466937,0.113058314,-0.39600563,-0.003003256,0.7072296,-0.054403838,1.3675157,0.20481828,0.11183207,-1.3307401,0.033928655,0.09379794
53d51965c40a54cff1a0,-0.65286195,0.29299036,4.0261865,0.07737,1.9631305,0.14131136,-0.18445294,0.033174712,-8.682378,-0.3218608,-8.842178,-1.6438141,0.33806655,2.2353706,0.28564087,0.34950262
54342435561e775ce97f,-0.9291847,0.23936343,5.0135317,0.067888774,2.6053073,0.16997251,-0.04039172,-0.03841393,-2.7463458,-0.14581126,-2.5134356,0.20976017,0.21141319,-1.1724797,0.13195617,0.2045105
545eb6c8154273344669,-0.26583567,0.051501747,6.338597,0.0811972,3.4104483,0.23934539,-0.45303658,-0.076900296,-1.8960111,-0.10356459,-2.7283719,1.7757765,0.17145342,-2.9995413,0.053748246,0.1441069
5479f88afb95288d6392,-0.41317022,0.10046995,6.2554655,0.030812839,3.6218572,0.19452155,-0.29002637,-0.076643944,-1.3223387,-0.047476765,-1.3723221,-1.0127519,0.18154307,1.6458548,0.064812504,0.20394616
54826f4abf592713d585,-0.23974593,0.068589106,5.724813,-0.02878907,2.8342686,0.115506165,-0.5028396,-0.030406471,-3.7076542,-0.1968119,-3.4875715,-0.259158,0.20463675,0.39134946,0.17667983,0.19814022
54f91ccb08cbece520da,-0.7124759,0.12394744,5.7033,0.033856187,2.8000557,0.17731957,-0.2359399,-0.018041857,-5.1367264,-0.30480343,-4.729783,-1.3714623,0.27216497,0.6533852,0.24459174,0.2540941
552365f82674884bcaaa,-0.58586997,0.14478385,4.5983477,0.004521176,2.4000254,0.12412232,-0.22230212,-0.015151845,-5.442229,-0.066542596,-8.374102,0.9932901,0.2554749,-0.8411457,0.07442245,0.28463313
553l2g7kpifbvn82knxk,-0.65524554,0.2544349,-2.2180145,0.011440727,-3.7231212,-0.11633546,0.77200425,-0.061463825,-2.5351572,-0.19038753,-3.381278,0.9253757,0.14672452,1.2375884,0.15104552,0.14419168
55a47a152d359522e38d,1.1048069,-0.38962868,2.3785486,0.06802862,-2.0932746,-0.07054562,-1.0185272,-0.07975333,-0.44495836,-0.048895415,-0.75471777,1.1591265,0.15423654,-2.299167,0.031428877,0.1408232
57709f904b1cc9ec60b1,0.9517143,-0.055207573,0.30455178,-0.007907396,-3.3274732,-0.16445789,-0.58336526,0.01557163,-2.632649,-0.13960752,-3.009513,1.932339,0.16995068,-2.385723,0.11116719,0.15346098
57c33a6126c456c5ada8,1.2155974,-0.579171,3.2912214,0.09314453,-3.0690238,-0.03387086,-1.1647955,0.0727934,1.8754613,0.0745765,0.8851902,-0.3351159,0.15275836,-3.5825016,-0.11446093,0.1195875
57f84519c468df122d69,-0.6855138,0.16970947,6.3773403,0.031168196,3.4769092,0.17042537,-0.20928352,-0.08761245,-1.4313226,-0.11203029,-1.0611533,-1.6987536,0.20951079,0.97407204,0.09673952,0.21082811
580e98185da72b5f34cd,1.3026297,-0.34405446,4.1700373,0.051040184,-1.9814094,-0.08081579,-1.1535196,0.0603533,-0.70856094,0.11909804,-1.5034926,6.676978,0.080286115,-9.954929,-0.13541006,0.051730916
58n0dsxyyqnriomw67id,1.2431055,-0.08640164,0.5968476,0.07918945,-4.0687056,-0.16898115,-0.7083459,0.029088352,-1.2431071,-0.17281085,-1.4577273,-0.6926945,0.1645953,1.3759542,0.12543574,0.15418428
58widcj6smafuwyqxw2m,-2.9666572,0.4105227,-5.457882,-0.019217936,-2.4810598,-0.2178252,2.670948,-0.29204878,-0.72615224,-0.13180655,-1.3293839,1.2386165,0.1116155,0.7369205,0.11035609,0.111993685
5914db0d4427b322e8af,-1.2357266,0.08690276,-0.89190054,-0.058357343,-1.5351073,-0.19110674,0.76254255,-0.14753905,2.4074557,0.20153092,1.527489,4.768294,0.06232874,-8.501497,-0.21921395,0.032426614
5963ba5cd9d242a00e22,1.2277577,-0.6226255,2.8941648,0.053207215,-1.3092985,0.020768754,-1.2574824,-0.037778556,0.27505824,-0.024045203,-0.39208028,2.2954445,0.11413645,-2.8599248,0.007875919,0.09931411
59bybxqvhton27u0jtfm,-1.1599514,0.19766223,-2.9381802,0.03243074,-3.6348197,-0.06670548,1.1831667,-0.17376447,4.5324883,-0.028445547,4.3608637,-1.5876918,0.093467034,1.5354724,-0.023715973,0.08191194
5a44a7c59729d41d596a,-0.2635409,0.061071116,0.06664224,-0.029492345,-0.7137138,-0.069440514,-0.24184284,-0.00484285,0.97685766,-0.030295113,1.0804217,-0.403386,0.14013402,-1.007826,0.009322926,0.122513995
5a8cce5abee961fc77f3,-0.31909928,0.10455117,4.8014674,-0.043184396,2.904252,0.09334922,-0.31209084,-0.06618179,-2.1922076,-0.134423,-2.1904335,-0.030759195,0.15403946,0.9860572,0.12727825,0.15364452
5abcc9d4fb5e764b2f6f,1.329155,-0.47919032,4.0546193,0.0947813,-3.2572238,-0.10812012,-1.2273604,0.17810753,0.42949378,0.06240606,-0.24124578,3.365525,0.110131525,-5.8664117,-0.086939804,0.08474824
5ada57d72f07c3803d33,-0.48789224,0.05392199,2.4617295,-0.0235482,1.1912947,0.03404984,-0.23315413,-0.042768158,-2.7138834,-0.13025649,-2.751595,-1.0980799,0.24559876,-0.14511752,0.10260223,0.24349782
5b5ef66e547d63806a56,1.146688,-0.47487873,4.0006156,0.10978169,-2.358797,-0.054465313,-1.0346415,-0.050572675,0.36913878,0.12914373,-0.8083402,6.379075,0.07216109,-8.631393,-0.1326217,0.054138906
5bdad002590327215ae0,-0.5648568,0.14218736,5.2498455,-0.02520632,2.9858596,0.113639705,-0.25907832,-0.061039906,-7.362777,-0.18513897,-8.569735,0.87376434,0.24134204,2.1357539,0.19782403,0.2775812
5be7405ad4ae9d9a2853,1.0373728,-0.3889505,2.7315068,-0.0026017618,-1.6065334,-0.045338534,-1.0885341,0.037115432,-4.290774,-0.15395029,-4.1540074,0.40655705,0.25553164,-2.2800992,0.13185495,0.24692342
5c33bb784bb99763ed74,-0.34506127,0.29554272,4.160637,0.037041407,1.8013808,0.10806069,-0.32526538,0.059434496,-1.7343352,-0.090096354,-1.286003,-0.6108435,0.18750189,0.26566678,0.10122801,0.19430923
5c83f4ed6601ddf1a6fa,-0.5332787,0.1036777,2.3577507,0.07984939,0.7364864,0.077327274,-0.16680793,-0.018646412,-3.464374,-0.11800686,-5.193259,-0.5782716,0.27538297,-0.6993439,0.077935845,0.28183588
5cda8273b348fbda9f29,1.0984591,-0.47186428,3.226703,0.047287785,-2.172435,-0.006633372,-1.0933998,0.0009888276,-2.2981572,-0.059036136,-2.1203804,0.90263873,0.2192313,-3.096211,0.058312424,0.21669672
5d16326e4577a67d94c6,1.9425254,-0.67926747,3.1967099,0.06259681,-2.9695415,-0.1285395,-1.4573096,-0.00038257512,-2.048593,-0.12413628,-1.819607,-0.93911296,0.23391217,-0.91418445,0.09535226,0.22344927
5d2379fb72082166dee3,-0.7759221,0.15695924,6.0884566,0.10120485,2.6732502,0.20228164,-0.17876796,-0.025946693,-0.26843593,-0.070166074,-0.05715937,-0.7216795,0.17647888,-0.9636671,0.044649825,0.15916246
5d580a610c7f8114eb5c,-0.5696226,0.17285843,5.987284,0.025232643,3.3129508,0.1476615,-0.27467638,-0.060902234,-5.196061,-0.1506733,-6.530909,0.18914035,0.24197868,1.5764471,0.14723587,0.2719421
5d89810b20079366fcc2,0.14080733,0.04882334,1.2000979,-0.05114317,0.17026389,-0.023175856,-0.54354095,-0.04698299,-8.100572,-0.17035627,-11.092099,1.2928072,0.27975783,-1.1883814,0.15661882,0.29203326
5dmn9cwdf4l1snqfjw1p,0.06322858,0.08455279,-1.7105815,0.066449836,-4.2288647,-0.089608856,0.22338903,-0.08370383,4.9019594,0.02617505,4.5635653,-2.1200244,0.09584633,0.7467613,-0.0698038,0.078069106
5e12a0421c20717035cb,-0.37909865,0.25397614,6.5184913,0.20252194,1.8801875,0.2374891,-0.3208991,0.08916066,3.431526,0.44064277,1.6619037,12.086178,-0.059898257,-17.010439,-0.42552286,-0.09055439
5e29473eb1e80fde79a0,1.0888227,-0.3949246,4.3412056,-0.015231516,-0.07370203,-0.0058043078,-1.1350375,0.021586958,0.6076,0.090119876,-0.6624976,6.202514,0.045456037,-7.85021,-0.11381063,0.01606797
5e89fad73b2ada2a30bf,1.4618212,-0.67015,4.1328187,0.08608455,-3.000698,-0.017465781,-1.3912472,0.12880336,-1.3657856,-0.1519846,-1.2896277,1.1135637,0.12851842,-0.56392956,0.13348794,0.114355825
5ez4c53h3kdamnlvkpna,-1.9422684,0.28338474,-4.4632516,-0.00085029553,-2.8814344,-0.17429246,1.8747535,-0.24604048,1.3332251,-0.12067796,1.3044583,-1.912355,0.14281256,1.727804,0.05801464,0.12321538
5f55600069b483f999f5,0.7571487,-0.34956327,3.4054997,0.04083624,-0.7502132,-0.03701073,-0.9227262,0.002165331,1.3101859,0.22794417,-0.75798887,10.166,-0.015155673,-12.682439,-0.24452035,-0.049163803
5f7b406b2bbf9789735f,-0.5519893,0.010590752,5.380018,0.057171747,2.5715504,0.18553817,-0.29709366,-0.03426944,-1.1944257,-0.14202096,-0.5652917,-1.1475635,0.17726709,0.20126696,0.11615955,0.16014384
5f8d87412f69e3d9fb13,-0.40999007,0.30129942,4.2064023,0.10567185,1.6066097,0.14372796,-0.3183727,0.008738549,-6.0976167,-0.27299836,-8.249956,2.5350306,0.1645546,1.9212828,0.21831772,0.17064904
5faa3d19e595ab735fda,0.91244864,-0.34680876,2.1290994,0.036166508,-2.2040818,-0.10391649,-0.84643507,-0.05196026,-3.2015107,-0.17285827,-2.8812573,-0.73459625,0.22993997,-1.274695,0.1237468,0.20412521
5fbaf8a0f524358778bb,0.014355086,-0.024709873,5.0637665,-0.0070088576,2.0790684,0.055815242,-0.59660155,-0.0827675,-4.02314,-0.16328478,-4.003303,-1.2894255,0.2465185,1.005633,0.1450057,0.2506911
5gs9643ghg39gpkgi3e5,-1.7765411,0.27191636,-3.502257,-0.008635805,-3.3912566,-0.027022753,1.6613574,-0.18220568,4.479562,-0.020370178,4.1316757,-1.8457487,0.09740391,1.8988086,-0.035408136,0.08729217
5jxldd3plo4x6oq140l5,-2.1472714,0.4163266,-4.261024,-0.08999018,-3.2352505,-0.21323031,2.0002148,-0.23759918,0.636796,-0.13661091,-0.0050245523,0.87441367,0.10583161,0.8075846,0.09385442,0.10002468
5kqtdcvyt7rgqdoextw8,2.1916382,-0.43784818,2.6213524,0.16860907,-5.143942,-0.089808725,-1.5795679,0.08210799,1.3232557,-0.08328867,0.54080933,0.43357557,0.09890822,1.2653756,0.04857374,0.09907195
5l1b1ma70rilf7mojch5,-1.7523257,0.34265676,-3.3753262,0.02870383,-3.4113996,-0.107798785,1.7413995,-0.25067785,1.6820676,-0.097923726,1.430977,0.6538646,0.09310257,0.49350137,0.069364995,0.08773685
5m6lgwi0mkqs8ilg3qqs,-0.00066321954,-0.18928687,5.8810816,0.07515053,1.7258166,0.16965759,-0.65971166,-0.026064817,-4.20727,-0.12310217,-6.0885644,0.37304208,0.26459774,-2.0952466,0.09127162,0.2624421
5mrih4nj5agvu67vao4m,0.4656962,0.010864362,-0.46750388,0.040839426,-4.1688395,-0.18917897,-0.2203882,0.0068103117,-1.8307482,-0.16120408,-3.0715687,0.7121859,0.14065814,1.350187,0.11468331,0.13781764
5qfsd40k8fv54hc102p2,1.8363394,-0.3704457,1.6225866,0.1915596,-4.529172,0.009266917,-1.1552309,0.088543035,1.6706367,-0.06798555,0.6800654,0.20930484,0.09748677,1.6092299,0.028576313,0.09938691
5rxl72n8rmnxwrxcss0q,1.3437432,-0.012265936,0.5148939,0.0049079955,-5.009828,-0.086291,-0.9971605,0.10230281,0.99490947,-0.09468676,0.07607651,1.3513376,0.08848131,0.88927525,0.06639418,0.09209167
5slhcx7pnjhcmlbfffu6,-0.08780433,0.11117446,-1.5947441,0.076939054,-4.0055943,-0.064084,0.32473117,-0.048801254,2.788387,-0.068516865,2.8856041,-1.3435785,0.11132909,1.2211761,0.025486259,0.09778333
5zczdtyecu2w495j80xv,1.9077508,-0.22604701,1.9422951,0.10476167,-4.775934,0.030569768,-1.4755286,0.090448074,1.7837576,-0.08793807,1.1714903,0.98092836,0.08575556,0.6995423,0.05791104,0.08501114
6002b9ec0f4ad0b281cf,-0.36509264,0.108299084,5.5370417,0.043877553,3.8996754,0.23149753,-0.31975096,-0.1089924,-3.2171524,-0.14257939,-3.2084382,-0.98356044,0.23041539,0.5382824,0.1247744,0.23219922
60c3549c706fe13322ce,-0.63139975,0.20998561,6.4471097,0.08876512,2.8851805,0.19799793,-0.24923067,-0.0040927078,0.6712713,0.03513176,-1.1514777,-0.82678616,0.21951316,-2.8105843,-0.08542767,0.20576428
6106e5232ac32bc22d1d,1.2015823,-0.2745517,2.908784,0.030580163,-2.6512706,-0.1119636,-1.0015774,0.08320854,0.23767614,-0.076268315,-0.062343955,0.24157685,0.13354373,-1.2547038,0.032187756,0.105068445
61de1e21015e07aacbe8,2.4794176,-0.9161802,5.4554815,0.14617532,-4.6576843,-0.1433991,-1.859133,0.015405471,0.92610615,0.16481704,0.16268057,7.3511515,0.018064622,-10.058442,-0.17179161,-0.011152193
62156eada978f707f5d2,0.032831427,0.07888184,3.1407561,-0.046236854,1.1960468,0.03822616,-0.49318844,0.00089266495,-6.995195,-0.25921065,-7.434092,-0.7610273,0.28448677,1.5471073,0.2346277,0.29516792
6273f50d9a0b4e6d971c,-0.15247396,0.098795146,2.2610428,-0.055955157,0.81069845,0.017506976,-0.37228242,-0.015178464,-0.7783546,-0.009573698,-1.6789287,-1.5424712,0.208018,-0.27306318,0.0026732385,0.21107776
628bztd9ybuth5efk7nw,-0.17107864,0.020841723,-1.0825135,-0.03763753,-4.1836014,-0.08785601,0.25135428,-0.06400943,-2.2759643,-0.16522723,-2.886699,1.1606507,0.13258798,0.89459544,0.14284095,0.13170817
62a877b83219f7974fd0,-1.1225827,-0.0052698837,4.072863,0.10535409,1.60326,0.15281332,-0.029340878,-0.03611052,-9.099747,-0.15163273,-12.086104,2.3385212,0.25036016,0.061798938,0.1685343,0.28349638
62olkigg7ntlaf6fzytl,0.21147673,0.028580932,-1.3794395,0.06633659,-3.8902135,-0.107238196,0.055197828,0.00521118,-3.700002,-0.20022438,-4.495385,0.78711504,0.17732978,1.3418641,0.17131622,0.18288444
6314d7cbc465e29f357c,1.8761511,-0.61202353,3.2915218,0.0013535558,-3.1426475,-0.085580446,-1.5577937,0.12768288,-6.5562954,-0.28920987,-6.21605,-0.94162387,0.30598086,-0.45388994,0.2424898,0.2909054
63aded37545ab92d41d4,1.9143331,-0.58421636,4.7767367,0.07548728,-3.3895216,-0.082581244,-1.4841837,0.12139106,0.15537548,0.06690005,-1.3253074,6.773086,0.04257666,-7.7525373,-0.087652564,0.016474355
63c38a00d97e62c31e08,-1.1937764,0.3375385,5.9342847,0.3199674,3.4442527,0.29169083,0.09286364,-0.07801592,-2.61018,-0.11066464,-2.9237432,1.157465,0.20322514,-2.8464506,0.075840235,0.18414834
63eef37311aaac915a45,0.94171786,-0.4807143,3.6017141,0.09311309,-2.1404562,-0.068358175,-1.0299014,0.017989837,-0.25209618,0.0199051,-2.6654196,7.308791,0.04854184,-7.0245275,-0.053424723,0.0230076
63ff3dff3eb31d62ab3e,0.86398876,-0.35104552,4.5960436,0.0654319,-0.64015114,0.089454256,-1.0690355,0.052636538,1.1127524,0.1158266,0.48558652,5.137755,0.05372285,-7.480769,-0.12732394,0.028092382
6486c0664d217470d126,-0.40318856,0.26731092,5.2582216,0.043807935,2.504852,0.086734794,-0.28334132,-0.011602178,-7.5990353,-0.21618079,-8.988825,-0.8155744,0.31821203,3.151368,0.20073321,0.36227024
6496d6268092ef8e7e9d,1.6356188,-0.631879,2.433345,0.11932005,-3.7030704,-0.04245197,-1.359919,0.05771842,0.1304985,-0.051876087,-1.0067579,2.3617482,0.11014296,-2.8544703,0.0064221025,0.081584305
64d1d58d40bca568347c,0.007054925,-0.041881613,4.2509246,-0.06387557,1.7233287,0.044133957,-0.5440424,-0.052660756,-2.1490903,-0.061401367,-3.723404,-0.2042198,0.22680144,-1.1807824,0.03639639,0.22832468
64d65eddd629b80922f1,0.7274562,-0.23484892,3.643218,-0.033017818,-1.0785414,-0.07582966,-1.153976,0.17934687,-12.983533,-0.110094234,-18.941284,2.5595849,0.37495562,-2.7772324,0.12212776,0.41462573
6569uz69or21mbcejw25,-2.3039343,0.29803616,-4.3734293,-0.031959616,-2.9597435,-0.13454607,2.1154237,-0.26098385,3.1642995,-0.047400612,2.8448489,-1.4318194,0.106822155,1.721371,-0.0015268475,0.09759809
6604efc6fd93e070f40a,-1.0108633,0.36137414,3.8471386,0.10230049,1.9999,0.15886046,0.06437492,0.039531495,-2.3782578,-0.19796899,-2.022878,-3.6252744,0.31938604,2.3125684,0.14936784,0.33400646
663aff87732c52f0e342,1.1301254,-0.54990864,3.154093,0.05939266,-1.3819852,0.003743667,-1.2144641,-0.022849858,0.29815727,0.10632672,-3.9022322,10.011876,0.045617685,-9.502701,-0.13947299,0.026011016
66d7c0bdb21b7d5bd83d,2.3189554,-0.9517306,4.6776667,0.23001988,-4.755234,-0.040260125,-1.8413024,0.16756725,3.9737606,0.60740286,-0.37843615,19.40396,-0.1600551,-24.877573,-0.6235502,-0.21410832
66f99grd556eyxjqk7pz,-2.4167295,0.35024533,-4.5325336,0.007789376,-2.830782,-0.1420558,2.1556358,-0.28424805,0.9745019,-0.09510247,0.68022645,-0.44665724,0.117958374,1.2710272,0.059599478,0.111053094
67456512891f96cc0fc3,-0.1272084,0.26991585,5.186908,-0.01792668,2.232643,0.09692044,-0.4507892,0.10432043,-2.6250765,-0.1237986,-3.3171132,-1.0407023,0.21029763,0.5409848,0.10035941,0.20857385
67f8d47cfb7b7b3d2095,1.4707072,-0.57635194,2.5027285,0.034537446,-2.1503656,-0.036321573,-1.3273408,0.01544711,-0.030949116,0.030270096,-1.4629561,4.5624843,0.10047914,-5.8259583,-0.05893298,0.077209115
6837091518a3524730fb,1.3519254,-0.31085873,4.402571,0.072181374,-1.9839259,-0.114768066,-1.1191078,0.02218381,0.4364743,0.10131631,-0.6323348,6.7554717,0.035535756,-8.460195,-0.11555497,0.0085904
687ndz7mxhpv3gg91ie2,-2.8795428,0.41783017,-5.260115,-0.05222243,-2.485305,-0.24900281,2.6040978,-0.31368095,1.329431,-0.08065117,0.42184845,0.5771946,0.09624914,1.3206732,0.045732923,0.09808313
68c45e933c2dc939e7c9,-0.094233,0.07892551,5.5199246,0.007488405,2.5351381,0.09029102,-0.48138213,-0.05614559,-5.279814,-0.18265441,-5.597184,-0.11580086,0.2795434,-0.47454298,0.16322398,0.2861923
6923e581d76689cb57a1,1.4194313,-0.56118757,1.8365602,0.04134227,-2.049102,-0.024187714,-1.2055907,-0.042861946,0.02776897,-0.043194592,-0.116680406,1.0074997,0.1413975,-1.7938449,0.036025185,0.13243556
6964a3d507ac1ecf9e52,1.5227668,-0.46732938,3.1205792,0.12925066,-3.5791214,-0.025468258,-1.2196641,0.060003813,1.5029885,0.257703,-0.9963171,11.238753,-0.0290032,-13.801036,-0.27688166,-0.06498027
69a4b3d15a5bf0d0e43e,0.34786782,-0.22205018,2.3949888,0.029189788,-0.8091077,0.030829452,-0.65685743,0.009004327,0.05263865,-0.042935356,-0.2930184,2.142784,0.114485726,-2.1136982,0.04508543,0.10956691
69ae85efb03510241445,-0.10212276,0.17882913,4.7472672,0.048395973,2.0377793,0.13310423,-0.44997454,0.0112023875,-3.1384442,-0.15235901,-2.2232244,-1.6829017,0.24390872,0.7944486,0.15886825,0.25270516
6a62f52203bda35656be,1.1701171,-0.2673439,1.459927,0.03058233,-3.2338002,-0.16088332,-0.8272685,0.04541466,1.0747515,0.25887457,-0.9813348,10.443038,-6.3329935e-06,-13.772108,-0.27311116,-0.033547826
6ab4994b59925a6d1bba,1.350912,-0.44488978,3.719187,0.006270589,-0.7661111,-0.03532394,-1.2013465,-0.054009896,1.0801215,0.33405268,-2.2363622,14.368826,-0.05605193,-18.05708,-0.3702069,-0.105839625
6abeead45fd57abadaff,0.3708218,-0.14160126,0.82357156,-0.016169654,-0.8493528,0.0022366873,-0.70813406,-0.0396414,-2.3602216,-0.15554805,-2.7449121,1.3727151,0.16589858,-1.7301735,0.115869924,0.14384222
6ae7d356ba998218af82,-0.08174878,0.089703046,4.886271,-0.011667634,2.0706723,0.11516645,-0.5704266,0.02639783,-4.5624995,-0.12529421,-5.0591884,0.8155308,0.18870735,1.2708033,0.15048836,0.21513698
6b0cc09c9daf2966d1a7,1.1391484,-0.36202478,3.0717945,-0.009233704,-0.94374555,-0.069350556,-0.99836665,-0.025108919,0.37510258,0.09057319,-0.4091301,6.190017,0.04180558,-7.97339,-0.10252379,0.01577412
6b22922bfe081d68c7a6,0.60173774,-0.13741843,2.5380716,-0.054744482,0.2857621,0.022534726,-0.778499,0.022218456,-2.2554173,-0.0022041053,-3.4973989,6.327386,0.10130414,-8.294083,-0.04076423,0.06619847
6b9ee688551136da2eb9,-0.5137099,0.1242654,6.0731735,0.0453434,2.769274,0.19995779,-0.35217333,0.037688516,0.22914414,-0.08875523,0.59605885,-0.91134584,0.14691873,-0.19122985,0.059057433,0.12531433
6c14ce386a9cda72549c,-0.84237516,0.06279511,5.112889,0.0047463076,2.9547536,0.1395108,-0.12053444,-0.07144562,-1.4547774,-0.09324435,-0.97633123,-0.06737113,0.17319317,-0.1350549,0.10688957,0.17898256
6cbcdec2dffbcf09a91a,-0.6337018,0.08668994,2.4194129,0.07360114,0.7568779,0.070845485,-0.09575302,-0.014141915,-8.257659,-0.10868599,-11.456804,1.9757167,0.26178357,-1.190779,0.12810652,0.2893329
6cxj0lsinp9d7215gtpe,-2.3088918,0.4084866,-4.612667,-0.020831464,-2.9191968,-0.1952311,2.1344604,-0.25864148,0.44278714,-0.11444259,0.44428727,-0.37803665,0.12420384,0.9339163,0.08386004,0.11431702
6d22912e7e93a96a8690,-0.63015383,0.33224317,3.250471,0.10760894,1.3377694,0.1432726,-0.11574844,0.05831761,-7.9545283,-0.06267257,-11.91396,2.2768211,0.26564044,-2.5236104,0.0848173,0.29046777
6d35a9a33338a84dd077,2.201763,-0.59498113,2.8098543,0.050509203,-4.8902764,-0.24510765,-1.5627674,0.1617619,0.032809615,-0.055405255,-1.1132616,2.4907446,0.108988084,-2.8729515,0.011396453,0.0812631
6d90c2fd38f2ea52ffd8,-0.62677157,0.18256223,3.6770093,0.05428537,1.464669,0.10823151,-0.1424963,2.6032669e-05,-8.913769,-0.31320205,-8.762919,-1.4420435,0.3556023,0.67321944,0.2791643,0.357338
6dx4zt62b8m37krb5l3n,0.09881625,0.008485131,-1.2980651,0.021682078,-4.320425,-0.07033254,-0.030561808,-0.05193852,-1.4725798,-0.15786035,-1.5013484,0.78040785,0.12928851,0.4191237,0.14073665,0.12260508
6e7d56f652020f046204,0.07485437,-0.16332266,5.6096873,-0.022364901,2.7471771,0.10826372,-0.66571426,-0.117736734,-4.0735116,-0.2538962,-3.7836027,-0.346323,0.21377449,-0.12124643,0.20326276,0.1890126
6e8118d5ad3c7093b869,-0.48515368,0.19408675,5.7961636,-0.04755036,3.759915,0.12091488,-0.2403681,-0.052861843,-4.998696,-0.3021773,-4.5745935,0.11836265,0.20394929,-0.15900804,0.24404666,0.17417742
6efd2d79656d1b056f72,1.6085784,-0.5375817,4.8313246,0.14432307,-3.1177342,-0.092002004,-1.370446,0.054384634,-1.3102397,-0.09494521,-2.051304,2.9805062,0.1140344,-3.2561142,0.056465384,0.087683655
6efd353d32bd3d908b23,-0.24094881,0.11533374,4.3366632,0.047788914,1.7568889,0.08068565,-0.37194666,-0.07214185,-3.670438,-0.15047713,-3.4592948,-0.37725177,0.2087224,1.0226156,0.1594916,0.22213362
6fa0b38bfd05105503a1,0.87755823,-0.5572869,3.4937994,0.17543969,-2.1717288,-0.02574427,-0.9949094,-0.0298151,-0.21536978,-0.071812905,-1.1659392,2.2974856,0.1118819,-2.5040257,0.032254774,0.08653775
6fc66606e74242398444,0.8623193,-0.50853556,2.197048,0.08797006,-1.3672599,0.08552753,-1.0597897,-0.047769357,-0.42682272,-0.025368564,-2.7077363,6.0901256,0.07047642,-5.2298737,-0.0053622723,0.050600156
6fe309a58b787e7010eb,0.88391334,-0.42312622,4.274569,0.14061904,-0.69447786,0.006288945,-0.98776865,0.021741053,0.25483796,0.079830535,-1.1674215,6.8995814,0.038981974,-8.080403,-0.09914326,0.012411224
6fefd33cf297f69bcae3,-0.2593966,0.0839544,5.886637,0.043970313,2.554797,0.11661385,-0.4082815,-0.068752706,2.2494702,0.31996208,0.21123314,11.076954,-0.034384724,-14.539855,-0.32307422,-0.06645941
6g7c63m95z8acd3vx5ct,0.0216441,0.14714909,-1.3482534,-0.038785875,-4.0063925,-0.14152217,0.18874216,-0.008247094,3.3665922,-0.04537052,3.3729093,-2.266978,0.11812519,1.8405842,-0.0070933998,0.10356316
6iag08nt7se7f2hkgzx4,-2.4344373,0.4320313,-4.4039164,0.009383867,-2.9149764,-0.1912505,2.253683,-0.31297573,0.73297244,-0.09888128,0.38517055,-0.3026648,0.118465446,1.2643038,0.06455263,0.11250927
6ixkthdoadcwip3r1sy2,-0.85201335,0.123312,-2.0140576,-0.07412418,-3.4240184,-0.2365702,0.90878,-0.13329723,1.961643,-0.10765542,1.6606864,-1.5948406,0.13241139,1.1389197,0.041157424,0.10961382
6o68qswzkvrrtbiz6bzr,3.2666883,-0.44539422,2.5466418,0.17576452,-5.5312486,0.15154098,-2.752361,0.091191165,2.5867734,-0.015461337,2.0549316,-1.0639777,0.11270358,-0.43926558,-0.022157066,0.08942261
6qp85ufr2o1zg8k0cvtb,-1.3197645,0.20393078,-3.2201004,-0.09700968,-3.0650527,-0.27182207,1.313642,-0.18332438,1.0397993,-0.1089039,0.63436234,0.8071491,0.09849588,0.61881614,0.07979631,0.094644085
6tq9irjllweqmqe4u7sf,-0.71148455,0.20392889,-2.4735441,0.045241646,-3.8547163,-0.17105949,0.81501997,-0.15922284,2.4592974,-0.05578323,1.5937972,-0.84392536,0.11501434,2.000427,0.005955711,0.11584355
700915d303cc358e662a,-0.48423108,-0.013457903,4.1211214,0.026550984,1.5470595,0.1194794,-0.38058707,-0.036231134,-4.217169,-0.16456862,-4.041296,-0.27478412,0.21285836,1.0352745,0.17269851,0.22547224
701a989d65a59c18845b,1.0482394,-0.6940465,3.674955,0.0780762,-2.2279568,0.03200363,-1.1887752,-0.033279717,-1.725643,-0.106649175,-1.3391742,-0.579726,0.22463492,-0.8072969,0.100265115,0.22672717
7086b49d3d6c2cf79c1a,-0.9743152,0.20043635,4.880156,0.04152867,2.6476326,0.15376262,-0.023720443,-0.034542106,-3.2285154,-0.16144842,-2.8417711,-0.29709536,0.2062736,0.21620326,0.15853381,0.20780449
70exfe4k4e5vvm5sqspq,1.0777322,-0.20999406,-0.10626923,0.06525033,-4.2712674,-0.05653331,-0.87026215,-0.0022896347,-0.911679,-0.13418658,-1.5521606,1.2931327,0.112864986,0.7614956,0.11325232,0.11381659
70ym0xeqaqmx14dv6myx,-0.23857693,0.19548634,-1.4724834,-0.0027334844,-3.942351,-0.209921,0.32189852,-0.11397001,4.2052393,-0.03321471,4.4416986,-2.8120081,0.11719235,1.8406695,-0.023216777,0.09875468
71ca74e191e71b0219b5,0.69221324,-0.51332587,1.5232551,0.021936273,-1.5895901,0.008377978,-0.94545287,-0.02572655,-5.0432734,-0.2530662,-4.8651757,-0.18035033,0.22730109,0.41729543,0.22164707,0.21733305
71d0a8156e59c4dcedfd,-0.5317938,-0.20735547,2.2641406,0.025511209,0.24537762,0.025743257,-0.36672607,0.0009713625,-0.4784556,0.026068185,-2.6627512,2.4668963,0.08577013,-1.8736385,-0.0060482323,0.08966648
71f6622e7caa6ed92506,1.286003,-0.6301407,2.7684379,0.12305709,-2.6545358,0.0014133154,-1.1142012,-0.07677318,-4.160652,-0.14535254,-4.8080673,-0.7603807,0.24363315,0.10305598,0.13037442,0.24667744
7207088b2ef28ff6b669,1.1851205,-0.39347363,-0.11842815,-0.0015982098,-2.8933277,-0.045208216,-1.1291378,0.17113559,-4.218812,-0.15532327,-4.37587,-0.8352277,0.2525436,1.3214307,0.15359397,0.27391893
728a4a393899c37a5429,-0.10375683,0.16542734,4.4838204,0.013269092,1.5634359,0.098865815,-0.4838156,0.06742372,-7.2321177,-0.20158905,-7.832872,-1.3669586,0.3204433,2.6286023,0.20205306,0.35947955
72b4334deffff31dea8b,-0.24412717,0.008912252,6.53603,0.02635703,2.9836032,0.20392561,-0.5413576,0.030686503,0.1485897,-0.09443287,0.27815244,-0.6871062,0.14419492,-0.43631396,0.053235017,0.117007755
72d383f55803c5a81bd6,-0.53802633,0.06001441,5.6296425,0.010009222,3.056861,0.100795336,-0.3381047,-0.109729014,-6.588731,-0.32627502,-7.109893,0.9847089,0.20078965,1.0151113,0.27397382,0.18454331
72fbfd24cdff0454a0e2,0.76853496,-0.22291535,2.1588044,-0.005799459,-0.5111828,0.010753584,-0.9039857,-0.012104612,-2.0507963,-0.115040794,-2.3683083,1.588539,0.15406531,-3.3304663,0.053209066,0.115179054
7380885aaba482170588,-0.6810913,0.23430364,5.173376,0.069231555,2.3576298,0.112354435,-0.20262077,-0.028188614,-3.3265808,-0.14356902,-3.7360868,-1.3719579,0.2470692,0.7183037,0.119171634,0.25110245
73ae359d8e93d41ae4ff,-0.1291581,0.00082188303,5.4585857,-0.01797495,2.3151975,0.0993271,-0.5477569,-0.011873712,-9.811238,-0.35396397,-10.612443,-1.1255627,0.34513295,2.6718755,0.30459598,0.35964262
74137c4db75be61c10fa,0.5481975,-0.049582656,1.4264852,0.0016652455,-0.4245541,-0.09275,-0.4976706,-0.10453972,-3.8773625,-0.13747008,-5.7678895,4.349235,0.18684982,-4.734307,0.08463801,0.1637388
744e7141564ed216b812,-0.40927988,0.34275723,5.2889357,0.012391543,2.6516013,0.119888894,-0.3071043,0.08231294,-9.221252,-0.20519754,-11.2610445,0.58632845,0.3016173,1.1865523,0.20645426,0.33454838
749fec50db4020e9bfcc,1.0172918,-0.45719686,1.0719429,0.051691066,-2.0873196,0.018820066,-1.0686519,-0.0029632254,-3.537786,-0.13883069,-3.2611089,-0.7247074,0.26984805,-1.967354,0.101987876,0.25644588
74e22a3421e605061ef1,1.2099487,-0.494314,3.43138,-0.024155049,-0.8966912,-0.04978008,-1.1474981,-0.042466365,1.0598646,0.061631963,-0.017505169,3.5063026,0.0928558,-5.415947,-0.092948645,0.06528069
74g1r714u01v7nb4vn8w,-1.1203423,0.21117777,-2.914147,0.050519615,-3.2473311,-0.13452457,1.15676,-0.17298655,2.7669601,-0.061858904,2.8678982,-1.956328,0.12084939,1.5919119,0.014275776,0.106035136
75097aa30e9373a612c7,0.04544915,-0.10016116,5.110415,0.03695394,2.470173,0.11383626,-0.5906399,-0.13767274,-0.99643695,-0.11431767,-1.0207785,-0.83243746,0.18605588,-0.9151198,0.06269635,0.15683062
7509bbe0d23fe15928ba,-0.25955978,-0.009607832,2.3380482,-0.028750068,0.84723824,0.04316387,-0.38869482,-0.019627318,-1.3129363,-0.0050912797,-2.4041433,0.6162183,0.21506046,-4.817248,-0.042775154,0.18598484
7535fe5ae754da62a534,-0.94989467,0.45407388,6.3714194,0.270464,2.8626077,0.34697205,-0.008773289,0.062501945,-3.934225,-0.17427295,-3.766741,-0.070386164,0.21052454,0.41362008,0.17039275,0.21442442
758a52e21fd5c23cd7ed,1.2094053,-0.100114524,2.8584607,0.0131434845,-2.8656223,-0.18749826,-0.98622257,0.07192821,-3.0038693,-0.14899436,-3.0513082,0.70060444,0.1942448,-0.86574745,0.13666223,0.18993066
75a72c46b8271a57fba6,-0.45934638,0.19578156,5.08898,-0.039988577,3.1401389,0.13637975,-0.28265476,-0.016296988,-5.7719502,-0.28444275,-6.9893503,1.6621478,0.17629051,1.3678023,0.23389867,0.17098212
75c2677c8d156032e303,2.3358846,-0.7104959,4.123229,0.16043727,-2.9305046,-0.11963531,-1.7506007,0.0049971393,-0.42401943,0.25759798,-3.4170222,12.90166,-0.00013066828,-16.737705,-0.302032,-0.049137067
75dcc10ba89fd0c25d50,0.3806561,-0.20634511,5.311758,0.0131761655,0.90883136,0.0664976,-0.8529733,-0.027952353,-1.646805,-0.1195964,-0.84115595,-1.6943204,0.2421759,0.10112778,0.11550163,0.24784134
75e30b71e38030454877,-0.62711805,0.36822543,6.379313,0.05617257,3.5036426,0.20208606,-0.17484331,0.004980731,-2.0316007,-0.15750837,-2.7464714,2.5951474,0.12595923,-1.8817763,0.1222081,0.10513529
76366e9c264169b2bae1,0.9894552,-0.487148,2.5872457,0.06625567,-1.7902578,0.031001598,-1.0674711,0.010360445,-0.75920576,-0.119236946,-0.90891016,1.0343589,0.12766884,-1.0093594,0.0921606,0.10869654
766836b5f30556e81da4,-0.18930215,0.12515633,3.9769642,-0.02916969,1.9543003,0.09291815,-0.35582906,0.01888946,-1.723616,-0.16058159,-1.2064,-1.3287741,0.19382782,0.10277864,0.12277612,0.1718895
767e222eeb367b2b010f,0.96310973,-0.26120153,5.4119782,0.14294685,-1.5639994,0.022104269,-1.065325,0.11464542,1.4651476,0.22048931,-0.6564493,9.598831,-0.006641254,-12.167543,-0.2434071,-0.042499848
768c216e172762b85899,1.7365026,-0.5598457,4.0700884,0.06696755,-3.9104207,-0.15799543,-1.3716829,0.095683664,-1.5081462,-0.05909856,-2.0805728,3.325439,0.12816857,-4.145791,0.03819041,0.11015712
