student_id,0,1,2,3,4,5,6,7,8,9,10,11,12,13,14,15
0088dc183f73c83f763e,0.55248517,0.733772,2.7525756,-1.9733351,-1.0101321,-0.7637811,2.7465694,-0.9650933,0.5976956,0.6940717,-0.33258152,-1.4826281,1.1217467,-0.6604492,-1.1104846,0.51616126
00cbf05221bb479e66c3,0.58845747,0.8445076,3.2768562,-2.1958528,-1.1030931,-0.86940396,3.2502973,-1.1486789,0.7419088,0.78468794,-0.38444898,-1.5894767,1.3035536,-0.66061944,-1.2922684,0.611788
00df647ee4bf7173642f,0.3940022,0.38964793,1.6858622,-1.1632555,-0.81597424,-0.38798502,1.7970737,-0.72153234,0.54643965,0.5721147,-0.1721782,-0.9297365,0.39392394,-0.35234836,-0.8323089,0.20505047
0107f72b66cbd1a0926d,-0.70840293,-1.065961,-2.9773023,3.2151005,-2.7223206,1.0952662,-2.9508584,-0.33086765,-0.46544513,1.8039222,0.49926242,3.0319824,-1.6679109,1.0464722,-1.348559,-0.656939
011d454f199c123d44ad,-0.0536641,-0.42610654,-1.5557888,1.8235842,-1.8780135,0.31078267,-1.2630657,-0.86451775,0.3407394,1.5661902,0.093438454,1.7229811,-0.7144391,0.09055501,-1.3322455,-0.21805504
01558eef77a8d39b7103,-0.55927384,-0.9010059,-2.7336378,3.0501842,-2.630168,0.95758754,-2.6352901,-0.559274,-0.34930775,1.833837,0.39025524,2.9416296,-1.4407449,0.8362004,-1.3953079,-0.54259413
016226278e6a69e10aa4,0.49254128,0.76724523,2.976986,-1.9218161,-1.0525227,-0.7606334,2.9994838,-1.0370026,0.71641135,0.68890506,-0.30090833,-1.4001079,1.2992109,-0.6827259,-1.1592736,0.5179811
01a691413dc5897db83f,0.5857181,0.5177438,2.4526048,-1.6631048,-0.983443,-0.57745606,2.6359043,-1.0706973,0.7054964,0.80358803,-0.20791271,-1.2210149,0.71667093,-0.5941952,-1.1652415,0.31521067
01d8aa21ef476b66c573,-0.41189554,-0.70576113,-2.0604317,2.4881425,-2.7716343,0.7308391,-2.015165,-0.60368186,-0.2356336,1.8398292,0.32061964,2.4734745,-1.1286842,0.7269405,-1.5812552,-0.42094326
01qkq6w2v62cimidb3b7,-1.1204872,-1.6688002,-0.03075907,-2.2030447,5.0302835,1.561909,-0.62317693,4.2850466,-2.493554,-4.398224,0.89446783,-3.4884984,-2.6473117,2.1292343,4.659579,-0.82783884
02068067a434adb6556a,0.021440033,-0.021043265,-0.18474163,-0.20659865,-0.03420655,-0.0010137145,-0.33275524,0.09813472,0.039060872,-0.1320256,-0.034237016,-0.22058585,0.020156318,-0.04169322,0.10761532,0.035227396
0258f681a9e1756dfc76,0.66408324,0.8063194,3.453903,-2.291441,-1.2021017,-0.8269374,3.5269833,-1.3568932,0.8881618,0.86878586,-0.30891815,-1.6351503,1.4560076,-0.8507044,-1.4518727,0.5378046
03754dce5ec7731fb3e2,-0.99377376,-1.5335001,-4.269413,4.5615525,-3.0162556,1.5931431,-4.1299486,-0.34642673,-0.59804535,2.1642644,0.7344574,4.275732,-2.4005644,1.4203602,-1.3652682,-0.9890819
037a76bc8e6bf5fe1fc0,-0.08452279,-0.12512329,-0.58914787,0.47086215,-0.7675498,0.14863825,-0.6614259,-0.07619296,-0.03293541,0.39179206,0.03079779,0.4902552,-0.1896819,0.12172936,-0.34347433,-0.038730692
03aa0b20dd4af1888eef,0.48117796,0.76473826,2.9165106,-1.5426846,-0.8515909,-0.7223075,2.9905472,-1.0403124,0.8090827,0.67586493,-0.34000885,-1.1584055,1.3778763,-0.8248575,-1.0177242,0.47094807
03b463f52c0fff35433b,-0.64784926,-1.0195705,-2.9640622,3.1588452,-2.7440627,1.0530627,-2.9418862,-0.3723142,-0.5064486,1.7956592,0.47069517,3.008215,-1.6813583,1.0381196,-1.3556124,-0.6349163
03e0c9bff3a9557480d9,0.281747,0.5355913,2.1306195,-1.1385171,-1.0763842,-0.5118525,2.1827896,-0.79307646,0.5579092,0.65715885,-0.19101718,-0.74929315,0.95464486,-0.49790227,-1.0067865,0.33894554
04f2689b4ea16d8d7d9a,-0.76475656,-0.8606046,0.85178757,-3.581142,3.9441252,0.7263238,0.26943216,2.7423444,-1.6918231,-3.4349692,0.3969216,-4.1929703,-1.5720323,1.4909266,3.2629662,-0.5370399
0557b1363a5092b5811f,0.46843666,0.36172387,1.4363581,-0.55696964,-1.2965648,-0.43295935,1.6167517,-1.0490566,0.7732322,1.0632404,-0.16984181,-0.26499778,0.4431286,-0.4791968,-1.2185836,0.2601126
0559e9cf806dab4cc20d,0.272126,0.52499676,2.2344487,-1.6947848,-0.39140698,-0.49730605,2.1441014,-0.5274356,0.37243113,0.12599261,-0.2211785,-1.3489729,0.9514979,-0.43681276,-0.53311014,0.37215987
056ab41140f68c15db14,0.5215535,0.7771921,3.1243613,-2.0430791,-1.3036531,-0.7940342,3.0975308,-1.1958294,0.7490611,0.8449256,-0.30094424,-1.4420959,1.2924894,-0.6566421,-1.3892717,0.4995761
058c03d945c4ae0978a0,-0.4339631,-0.6500369,-1.9892977,2.343183,-2.5455425,0.6850876,-1.9440496,-0.53519696,-0.29929027,1.6991214,0.27258283,2.308338,-1.06609,0.71433437,-1.4513975,-0.37588468
05e1c3ce1728da7e37e0,-0.600965,-0.5552626,1.0995278,-3.1855087,3.179383,0.4929456,0.50149155,2.2836227,-1.4424055,-2.8682888,0.29447117,-3.615385,-1.0429628,1.1151927,2.6678398,-0.26861143
05e6d9723ab3cde0841d,0.35474524,0.257475,1.5599844,-1.2799484,-0.6098429,-0.33031234,1.682752,-0.581151,0.44590154,0.48295695,-0.06869311,-1.0422131,0.16588369,-0.26033056,-0.66551226,0.17122775
061db2c91f94c612f2d4,-0.69245255,-1.0322306,-2.9614859,3.2039032,-2.7856615,1.0760951,-2.9639885,-0.29225403,-0.54843646,1.7607639,0.49492544,3.0175126,-1.6185633,1.05656,-1.3609021,-0.6286066
06309f4c8785254f4c13,-0.28848675,-0.37941387,-1.3096758,1.5877044,-1.6738895,0.44135618,-1.2970062,-0.35913652,-0.1281884,1.0790229,0.15978618,1.5507286,-0.6110531,0.35971674,-0.9162755,-0.22487828
06aff3e28c5db152f506,-0.53293,-0.82918084,-2.449457,2.7166512,-2.700556,0.8638801,-2.4491017,-0.4831799,-0.39424026,1.8116945,0.35649055,2.6506805,-1.3522396,0.8806289,-1.4556341,-0.4864099
071685b292483b04e836,-0.4646792,-0.7672226,-2.368942,2.660081,-2.5165105,0.7970611,-2.2714949,-0.42454135,-0.32911164,1.6593935,0.36209783,2.574581,-1.3227794,0.75078005,-1.2741885,-0.49784613
074d7f43de7264306775,0.4708061,0.60641444,2.2311647,-0.95066446,-1.6910014,-0.64417505,2.3695862,-1.2350383,0.8300725,1.1843604,-0.209917,-0.43943623,0.9511263,-0.6210316,-1.5715637,0.39990145
077d5c82c9ee5019220f,-0.5635172,-0.8589465,-2.4660933,2.574466,-2.5242035,0.902292,-2.4873333,-0.36383313,-0.5174539,1.6083319,0.36377102,2.4768965,-1.36639,0.9197475,-1.3104784,-0.49624634
07e3362d20ff4337671b,-0.5740315,-0.83971494,-2.4745793,2.6862206,-2.3788474,0.8856904,-2.481137,-0.29186648,-0.45301566,1.5694766,0.35894427,2.5590363,-1.3563133,0.8857528,-1.1702104,-0.4990129
091554ffa26fc9b17c36,-0.6556715,-0.97492,-2.854049,3.1673484,-2.613035,1.0164702,-2.7663143,-0.45638174,-0.34210345,1.8202194,0.46136492,3.0232651,-1.5223197,0.8615052,-1.326243,-0.61679643
09400a9b50b6c96c5510,-0.45702928,-0.6964483,-2.261154,2.5930336,-2.551194,0.75310874,-2.198174,-0.4806691,-0.24424823,1.7500964,0.32562009,2.5626125,-1.2133493,0.68223065,-1.3746493,-0.46687287
098b2c66cbc1ed736e14,-0.7480432,-1.1321586,-3.2645576,3.596491,-2.9289486,1.180184,-3.2195358,-0.42973563,-0.48046374,2.0100992,0.5088365,3.4149084,-1.8176355,1.0970871,-1.4518205,-0.7150419
0999173c045ee29a0b44,-0.6629178,-0.97878355,-2.794305,2.9894383,-2.797699,1.0275389,-2.8560925,-0.28913987,-0.57590944,1.7558955,0.4442821,2.8343031,-1.5869151,1.0896269,-1.3816345,-0.6010207
09dfa3f18e48917f0242,0.7265599,0.6381135,2.568315,-1.3113354,-1.4206228,-0.7009008,2.8036122,-1.3625817,1.061896,1.1458217,-0.2404761,-0.8714482,0.8874122,-0.8235437,-1.5133768,0.395116
09e4bfadd7e012c37c7c,-0.5571904,-0.86661315,-2.6327603,2.7630193,-2.7178688,0.9130771,-2.683792,-0.44518894,-0.46486253,1.7771099,0.3506999,2.6575584,-1.4377708,0.91196936,-1.4322506,-0.5059409
0a7f1a73361654329281,-0.67480975,-1.024806,-2.7587357,3.0914135,-2.6898658,1.0638757,-2.7150123,-0.35866532,-0.478436,1.7315567,0.49649256,2.922552,-1.6055045,1.0370896,-1.3660161,-0.65335417
0a8736f6520cea837d94,0.5167354,0.6020051,2.1781445,-1.3960156,-0.9976381,-0.5783313,2.3104265,-0.9958172,0.61905366,0.76186234,-0.25054014,-1.0712018,0.8509389,-0.63129735,-1.1264641,0.37934756
0b02f701b1179f9f74f9,0.5347755,0.81322336,2.5776832,-1.2806265,-1.6140678,-0.7918,2.6419628,-1.1986773,0.83040905,1.1092198,-0.32239604,-0.72629344,1.2669942,-0.77465373,-1.5244318,0.54202574
0b16d35f1f39a063708a,0.99570876,1.0056629,3.5394497,-2.2612872,-1.4481049,-1.0745863,3.687255,-1.6242918,1.2212329,1.2320577,-0.41335344,-1.6600769,1.4105015,-1.1449273,-1.7375952,0.63444674
0b28c0a454678b75eefb,-0.44822326,-0.6532216,-1.9610157,2.0997865,-2.2950287,0.6923206,-2.0047414,-0.24496926,-0.4136004,1.33391,0.32310137,2.034162,-1.0874844,0.7415058,-1.1511767,-0.4087853
0b307ee95b41e222f204,-0.72686213,-1.0998524,-3.2812245,3.4713812,-2.8657367,1.1435391,-3.2336524,-0.45630205,-0.47799414,1.9772128,0.48848414,3.302928,-1.760882,1.0608945,-1.4580157,-0.688939
0b828e1ae026c57b34dd,-0.6134227,-0.87248856,-2.6220083,2.719552,-2.4538121,0.93495876,-2.6629994,-0.16015442,-0.553939,1.4597293,0.4249169,2.5586538,-1.436875,0.94183135,-1.1425273,-0.5481275
0b8bea274b24847526b7,0.29043564,0.5272627,2.043563,-1.1574486,-1.1912684,-0.5105031,2.0665107,-0.6730704,0.4690257,0.562241,-0.13176149,-0.717546,0.9438828,-0.4498505,-1.0269171,0.32672778
0bb8692f43a372e8d967,-0.67793447,-1.0328152,-2.9296901,3.1434906,-2.8105114,1.0608877,-2.9282758,-0.44028935,-0.49882755,1.8859713,0.46283078,3.013914,-1.6244861,1.0537063,-1.434934,-0.6192953
0c57caf5358d30408034,-0.06424719,-0.21476524,-1.0290409,0.7848007,-0.76100284,0.16053224,-0.97167814,-0.19161671,0.115968145,0.519247,0.05232434,0.6976634,-0.34301147,0.069084935,-0.40466666,-0.061956905
0c670262b3941d307600,-0.68422467,-1.0068762,-2.8209298,3.1547055,-2.8165998,1.0369291,-2.7751737,-0.58603793,-0.40995806,1.9960064,0.4625135,3.0414488,-1.547999,0.97498226,-1.56724,-0.5915682
0c81ca27b7d931b6ff6e,0.26635617,0.42735985,2.042931,-1.3487434,-0.8944327,-0.41815704,2.0979245,-0.6900239,0.4387474,0.53926563,-0.16031349,-1.007799,0.64702505,-0.30652454,-0.88133335,0.2601549
0d260d8fac2289c8ed9e,0.2599563,0.47503823,2.1061203,-1.5324591,-0.28526536,-0.46341282,2.1010125,-0.45720935,0.35191146,0.1445414,-0.20194791,-1.3186346,0.73887795,-0.45128727,-0.45177573,0.3019983
0d4a3518a188f6888380,-0.2459598,-0.36116037,-1.1973233,1.1544567,-1.3448535,0.3924203,-1.2607391,-0.12899542,-0.19414118,0.73539007,0.15640496,1.1238034,-0.5826861,0.38283488,-0.63051283,-0.20369816
0dapvs3h4h3h1ahmt2o8,0.9215614,1.4382677,3.5334883,-0.41409487,-1.6715562,-1.2651714,4.0843716,-2.319454,2.3634107,1.7400142,-0.7198797,-0.07254749,2.3724053,-2.1114044,-2.064011,0.9040284
0df40593e76a840fd64b,0.7815828,0.5850795,2.5860746,-1.4592913,-1.3500106,-0.6958057,2.8995728,-1.5028023,1.0940996,1.227401,-0.22480644,-1.0256189,0.7570379,-0.8046516,-1.5913897,0.3541204
0e062d9fa22dc8e3bca2,-0.7681846,-1.2883772,-3.5737853,3.942552,-2.668677,1.3268814,-3.4612079,-0.28484812,-0.48678026,1.9454048,0.598238,3.6943305,-2.1421905,1.2254298,-1.1900237,-0.8326261
0e804947f4cdc2721046,-0.57701904,-0.89483166,-2.6330833,2.7983017,-2.6125348,0.93298054,-2.6086051,-0.3618166,-0.43325782,1.7030332,0.4110338,2.6947467,-1.4158039,0.91541076,-1.3275439,-0.55696213
0eb6eec8b4bee8ab6a44,0.2622108,0.46213606,1.578249,-0.9518867,-0.9238156,-0.43307748,1.5348182,-0.47149748,0.3529488,0.38057008,-0.1724732,-0.64081544,0.75679207,-0.36187494,-0.77315724,0.30441844
0ef8b2c9e039eaace596,0.35446587,0.64800024,2.2394013,-1.0838484,-1.2834615,-0.60710365,2.2898223,-0.8783554,0.6376722,0.73429793,-0.2166161,-0.6503584,1.1391547,-0.6485338,-1.1777105,0.4095077
0f160cd19890b97092b9,-0.985007,-1.5012988,-4.015504,4.4102197,-3.3088262,1.5400913,-3.9444516,-0.42215413,-0.6302724,2.2925081,0.7134032,4.1215315,-2.2762272,1.453848,-1.6241907,-0.9318281
0f8bd9e33125347965a1,0.4777976,0.6272673,2.5591402,-1.661371,-0.9377662,-0.61627585,2.6030238,-0.9478425,0.70308,0.698559,-0.24579996,-1.1766895,0.99736536,-0.5732729,-1.0570618,0.45193094
0fc996fff93c00ca5ced,0.8190737,0.8224036,3.151843,-2.3440862,-0.97049594,-0.8544303,3.274417,-1.2673979,0.9257711,0.8232816,-0.34097815,-1.8584617,1.0038553,-0.80936766,-1.3025244,0.48319194
0gfiioqi5g8djhh1wzol,-1.1103394,-1.5517951,0.15036806,-2.4814773,4.9383035,1.4244457,-0.37991673,4.1434546,-2.601914,-4.3435273,0.8673368,-3.6702993,-2.5436223,2.1624198,4.49111,-0.83247405
0i1e50rz4mkhee97xvpo,-1.1941042,-1.6873974,0.08869275,-2.5797997,5.297025,1.5789459,-0.6031934,4.61735,-2.9358518,-4.7823997,0.91345286,-3.851158,-2.820338,2.4158864,4.8975854,-0.8798065
0lgtv09uoh3ova8sjbze,-1.3679202,-1.712308,-0.38117835,-2.821154,5.625079,1.5804485,-0.98798954,4.691958,-2.91666,-4.985202,0.8892375,-4.121924,-2.9098608,2.5146856,5.178165,-0.89120173
0m2kzubx9r60wyrsjj7j,-1.1160758,-1.4465904,0.033370126,-2.4272618,4.7207284,1.3266345,-0.43417242,3.9583576,-2.4319372,-4.172027,0.8103107,-3.5440288,-2.4351242,2.1196246,4.3026853,-0.7939096
0m8o7nuv982vnv3328qw,-1.2059534,-1.5188204,0.09222007,-2.631501,4.937343,1.3942846,-0.6031309,4.2971125,-2.778848,-4.4592776,0.8437575,-3.802196,-2.6285388,2.357634,4.599527,-0.8132593
0maggb1hf886m5u6p2vr,-1.0920079,-1.7209673,0.07719111,-2.535517,4.9687047,1.5226122,-0.49145144,4.267953,-2.8217692,-4.4411287,0.92074275,-3.7026508,-2.610647,2.4363394,4.49429,-0.8906852
0qamadarf6xhm9pm2jta,-1.4209855,-1.9218475,-0.40795597,-2.7497015,5.6552134,1.758982,-1.1448748,4.9923415,-3.2993453,-5.066159,1.0186155,-4.1182785,-3.1712177,2.8548212,5.239596,-1.0144764
0sgnvj4zfg3xjjb9fl6h,-1.075211,-1.3321501,0.42513824,-3.0078335,5.0204844,1.2156706,-0.16683716,4.2434473,-2.7863336,-4.494179,0.7777755,-4.1213408,-2.3663979,2.1350813,4.5227365,-0.7319694
0txd5enpfmbrth46w74b,-1.0575293,-1.5738448,0.08826927,-2.2430115,4.7733545,1.4515857,-0.4504587,4.0142193,-2.347442,-4.1506186,0.85110843,-3.4034324,-2.4279523,2.0987194,4.349366,-0.76799774
0z4mockl76xn8mhdaehw,-1.0622568,-1.5477635,-0.27576116,-1.8206793,4.3271675,1.4368106,-0.7473098,3.8960426,-2.386437,-3.8916206,0.87436646,-2.919664,-2.5376263,2.1304371,4.120491,-0.86270976
1096bd470d3ddff1ec1c,0.4016527,0.68050355,2.536531,-1.620188,-1.2410716,-0.6707533,2.4851391,-0.89885604,0.60257196,0.67654794,-0.24664964,-1.0782597,1.1086338,-0.5234742,-1.1886988,0.45111528
10de703c06bf9d873d68,-0.44242522,-0.71720356,-2.2740295,2.447219,-2.3867998,0.71150255,-2.1704009,-0.4018852,-0.30471456,1.5579165,0.3457456,2.3258576,-1.1583292,0.70001924,-1.2835182,-0.44658908
10qi28ikwz4c4v22b06i,-1.3314422,-1.9003147,-0.20752987,-2.1188939,5.3430963,1.7742862,-0.92145556,4.8565507,-3.0000389,-4.7747,1.0863479,-3.484508,-3.1043158,2.6117957,5.111316,-1.030821
10xnkvdetxarrkdhx4i9,-1.1008966,-1.546566,0.032196034,-2.1758776,4.745387,1.4511815,-0.5057831,3.9980588,-2.328468,-4.140507,0.81151426,-3.3688376,-2.4801316,2.0506737,4.359324,-0.7568679
117ee98c7f916c88ddbb,0.60392725,0.91407555,3.0647016,-2.0349472,-1.384045,-0.9210345,2.9559517,-1.1056987,0.72398967,0.9151279,-0.40447834,-1.3629444,1.3433752,-0.6736403,-1.4096011,0.6361093
119b36a5797d5ce69625,-0.7080105,-1.103722,-3.1046364,3.3744984,-2.9521167,1.1349564,-3.0862525,-0.5376704,-0.4999915,2.0170991,0.47674498,3.224788,-1.735813,1.1282637,-1.540069,-0.66995066
11dae4659d30031a10dd,-0.5111679,-0.8465306,-2.6249356,2.955716,-2.6755173,0.89061767,-2.603257,-0.5438736,-0.38884965,1.8833327,0.32870063,2.8774269,-1.4373187,0.89668036,-1.4404819,-0.5049223
1202c731c612353ceef0,0.75570905,0.7417684,3.126981,-2.2007744,-0.889628,-0.756986,3.3448737,-1.2871847,0.9944761,0.84558403,-0.2920869,-1.7327269,0.9362142,-0.8177187,-1.2715412,0.41918197
1224ceafb61456a033d0,0.42416236,0.56698155,2.1205957,-1.2764715,-1.1744629,-0.60818803,2.2086244,-0.9574064,0.6584118,0.8533382,-0.25419214,-0.8280282,0.8852283,-0.49343124,-1.1814253,0.39186946
12s3yomv0kltozc1qxc4,-0.7187187,-1.1125008,0.8211446,-1.8953674,3.835012,1.0202065,0.35061342,3.3304234,-1.8875369,-3.3708556,0.6362014,-2.853133,-1.8362925,1.5660963,3.5168152,-0.55847937
1329b6cf41debecda787,-0.7612323,-1.2487327,-3.6445417,4.147972,-3.1289604,1.2775218,-3.4572675,-0.43175054,-0.4167005,2.1708074,0.6140084,3.9181387,-2.076655,1.1593276,-1.508447,-0.842855
132c90d4a027a4477ad0,0.21676424,0.4626249,1.6330309,-0.9152027,-1.2516265,-0.42579323,1.6544832,-0.676139,0.37717256,0.705019,-0.13694009,-0.53,0.76306206,-0.41155457,-1.0278428,0.30264947
1367d35cf39783effa7a,-0.5357127,-0.66547555,0.17195018,-1.7879705,2.3172817,0.64223224,-0.22650355,1.8171308,-1.0564655,-2.1115777,0.30043164,-2.14761,-1.1116966,0.94509804,2.0984335,-0.4209993
139429592a9c23c08b71,-0.2679359,-0.38924548,-1.3230155,1.3794651,-1.6525972,0.40726325,-1.3289517,-0.33263972,-0.18544638,1.0495074,0.14270432,1.3885438,-0.591342,0.4087766,-0.90024745,-0.19740093
1397545fbe9882e5cd42,-0.6596715,-1.0461559,-3.0308607,3.3546348,-2.9066536,1.0885521,-2.9923546,-0.46894592,-0.46487996,2.0279562,0.44362858,3.2199569,-1.6945326,1.0674763,-1.4996723,-0.6298839
13de1d3a55477a0c0329,-0.45060506,-0.65462875,-1.962177,2.2864952,-2.4711258,0.6948951,-1.9977567,-0.48812035,-0.30324426,1.6012567,0.29202253,2.2229326,-0.9883975,0.6267278,-1.3939472,-0.35474357
13f8b8305f6c25c21921,0.47467488,0.53084856,2.3017867,-1.790861,-0.67470545,-0.5108302,2.3898711,-0.71915406,0.5779034,0.43318877,-0.19015992,-1.4613917,0.6351587,-0.47131324,-0.8094279,0.32658234
13nq2h723zixyhir01lf,-1.2383344,-1.8496786,-0.06368479,-2.4080424,5.3612647,1.7191374,-0.80509466,4.7129774,-2.9431448,-4.762259,0.99495065,-3.740061,-2.945884,2.562783,5.0037975,-0.9245533
148o63s7q5aitfxmmtrg,0.873797,1.4766952,3.6309874,-0.72874236,-1.4611709,-1.3169,4.14228,-2.106755,1.9402504,1.4467779,-0.6993992,-0.3626145,2.339594,-1.9034209,-1.8573065,0.8865703
151cd83784ab9007e8d8,0.5756954,0.8218791,2.7231994,-1.7420294,-1.117516,-0.79699165,2.7457397,-1.0917217,0.77572566,0.7782558,-0.39277968,-1.2542839,1.1891317,-0.7558295,-1.2101812,0.45185512
152a0c17daaaa4e65e14,-0.57763135,-0.86485004,-2.627808,2.8528874,-2.5880466,0.91706556,-2.6084342,-0.46813315,-0.37874055,1.7758043,0.35116473,2.7435088,-1.3746276,0.85598373,-1.3730444,-0.49004278
1552f58e2818ce7fa863,0.44681203,0.81790113,2.6236863,-1.9361469,-0.8932993,-0.76355475,2.4948065,-0.70956534,0.39464968,0.48327482,-0.39897323,-1.469702,1.2411886,-0.63543415,-0.90994614,0.5801225
15ab118362ecbbd03b52,-0.89156795,-1.3929085,-3.8063564,4.3089757,-2.7413158,1.4453694,-3.664802,-0.36876208,-0.444513,2.0519214,0.67146224,3.992215,-2.12161,1.2332084,-1.2743484,-0.90325695
1629f353a742f6a73251,-0.4892123,-0.7931432,-2.4785192,2.7731571,-2.4197588,0.83492917,-2.425214,-0.38939044,-0.38376418,1.6539775,0.333877,2.6585724,-1.3183316,0.7777627,-1.2252848,-0.5011172
166cb02ac436c9d3662f,0.75381786,0.43936443,2.1280487,-1.431697,-1.2215054,-0.5483126,2.430182,-1.405996,1.1214497,1.2455227,-0.106918395,-1.0957478,0.21760929,-0.75896007,-1.5061278,0.18255039
16c505069c1e5c2bece5,-0.2645444,-0.30614084,-1.4973892,1.3381981,-1.4191245,0.36457777,-1.550712,-0.05181303,-0.29714766,0.72975045,0.13610877,1.2687289,-0.5984803,0.35003188,-0.6348648,-0.18340206
16d68f70cf5e52d0b34a,0.612739,0.8652416,3.1303844,-1.9153982,-1.5881088,-0.8998262,3.146167,-1.3005545,0.85350263,1.1176791,-0.3226781,-1.229024,1.4235586,-0.7832006,-1.5899664,0.6302315
170a695a2717bcd9b74b,0.59096277,0.8057903,3.1810868,-2.2612247,-0.79188496,-0.8121869,3.2376728,-1.0031835,0.6824833,0.56429327,-0.32022882,-1.7584532,1.3089051,-0.7568248,-1.0540884,0.5349054
17656005bd4086137ab7,0.28974202,0.55613977,1.9434791,-1.0898157,-1.3239511,-0.54074013,1.9296607,-0.7795957,0.47377476,0.73557985,-0.17838778,-0.6667938,0.91586185,-0.46342218,-1.1545582,0.36855087
17dda5f588bed077c742,-0.54389536,-0.86844957,-2.4713757,2.7033303,-2.6617475,0.9028825,-2.4523509,-0.46364066,-0.41755447,1.759693,0.37969825,2.592684,-1.3653784,0.8835904,-1.4290962,-0.49952525
17e429460d5fda251953,0.5512757,0.678849,2.9378898,-1.8510466,-1.1352783,-0.67843425,3.042569,-1.1897105,0.8802808,0.9011461,-0.237611,-1.3383697,1.0168219,-0.6983552,-1.2967187,0.45130485
17f2d0e73044110cdea5,-0.6867325,-1.0010918,-2.786108,3.1322424,-2.6994343,1.0673693,-2.8344529,-0.29491314,-0.569453,1.7166708,0.44218442,2.9282393,-1.6042616,1.1027691,-1.3338361,-0.613976
18654732ca312afc173f,-0.5544038,-0.8015834,-2.2992713,2.3883698,-2.1328645,0.839991,-2.3290303,-0.23006761,-0.41576514,1.3262725,0.3787809,2.2511818,-1.2572281,0.8072038,-1.017867,-0.4911944
1883af270e36a7580332,-0.16023387,-0.30524758,-1.0584399,1.2530055,-2.0046067,0.29540634,-0.9972656,-0.47129282,-0.06223371,1.2311968,0.16114892,1.3159858,-0.5423798,0.29641533,-1.1944724,-0.16302209
18cdd44af62c6935e7a0,0.24650118,0.41391906,1.3828487,-0.93792564,-1.2068081,-0.3902379,1.2810904,-0.57230026,0.323061,0.60427535,-0.17114651,-0.5642593,0.6199298,-0.20963137,-0.9781671,0.29739076
1974349ec27d7d67bf08,0.5125978,0.75420123,2.947626,-2.002371,-1.2153641,-0.7842078,2.8720138,-1.0499377,0.6087704,0.7911234,-0.33499527,-1.4328794,1.2186768,-0.6284622,-1.2598468,0.5744854
19793e7e55b68c8dd776,0.26069093,0.5189853,2.0012121,-1.2874703,-0.8164367,-0.4886622,2.0067372,-0.6197134,0.4250774,0.47226986,-0.21284828,-0.9346274,0.87695515,-0.4472317,-0.78095984,0.34506878
19buea1jycypffshcw38,-1.0243987,-1.5585246,0.35273272,-2.3767812,4.9022765,1.4311333,-0.3167987,4.228509,-2.5414152,-4.347911,0.87341225,-3.5544424,-2.488165,2.175956,4.5226426,-0.7700889
19fb3075dd2798538c9d,-0.8637217,-1.3248024,-3.5197551,3.820091,-3.0982964,1.346732,-3.4673948,-0.43784368,-0.5991737,2.073187,0.63411033,3.585731,-1.9990228,1.272739,-1.5447813,-0.8154216
19rc4zj7sw4ms0996992,-1.1909038,-1.7281061,-0.42505902,-1.8357065,4.8753204,1.6536491,-1.001433,4.2533975,-2.5603871,-4.226685,0.93111664,-3.1374905,-2.7532425,2.2500527,4.5740204,-0.9010948
1afepx549ssnar1m9acp,-0.80735123,-1.4344918,0.58676034,-1.9175384,4.098948,1.2908349,0.07692875,3.5335674,-2.0130239,-3.6335921,0.7624967,-2.954511,-2.050991,1.7864536,3.76135,-0.67116976
1b0baf552d2cd47ee10b,-0.3323513,-0.48144662,-1.5558233,1.5008482,-1.699534,0.5106018,-1.6532854,-0.1624941,-0.29920337,0.95243466,0.21424149,1.447523,-0.79294604,0.5267402,-0.81920904,-0.27167207
1b25734414fcc7466153,0.4878167,0.7227378,3.0553923,-2.0856571,-0.8562784,-0.71172756,3.0892582,-0.96571624,0.66596866,0.49924502,-0.25580788,-1.6119548,1.3368849,-0.73388416,-1.0446672,0.47366047
1b36a3223f9dd94a211f,0.39322567,0.60499,2.257801,-0.9292669,-0.59626675,-0.5378289,2.3157847,-0.5704813,0.73753846,0.35683498,-0.2650926,-0.73912215,0.9412855,-0.71805984,-0.59847766,0.36340854
1bd9bb053a3ac1bba507,-0.5266685,-0.80009663,-2.4994495,2.7017355,-2.5025687,0.8532982,-2.3989308,-0.4189819,-0.3595673,1.6453234,0.41258493,2.6288059,-1.2323004,0.7253744,-1.3133452,-0.48891532
1c2aef3af32f6323a31d,-0.30705667,-0.42782122,-1.3779303,1.3973507,-1.8037014,0.45291668,-1.4504089,-0.18648066,-0.28424835,0.98779076,0.2120849,1.3748833,-0.7214419,0.50491345,-0.9168977,-0.24802248
1ca19e51244cdd3f09ff,-0.79994464,-1.244528,-3.488538,3.7787251,-2.9965541,1.2911824,-3.470354,-0.37688956,-0.546352,2.032663,0.581213,3.556366,-1.9802116,1.1935111,-1.4591821,-0.7773077
1cfe33c5b178a0c2367f,-0.51322204,-0.78347176,-2.434057,2.5318127,-2.3212059,0.8132693,-2.4220428,-0.33261746,-0.41122478,1.5106353,0.3335676,2.4040437,-1.3111683,0.8157336,-1.1765285,-0.4821214
1d50eac067378042684b,0.5296035,0.8105728,3.2028997,-2.6358721,-0.36384526,-0.80422896,3.1217842,-0.686612,0.41204584,0.14189295,-0.3475047,-2.1768475,1.2296538,-0.5966881,-0.68346757,0.5803444
1d7229e0f5f825007870,-0.6443369,-0.9828994,-2.6998518,2.9840338,-2.782971,1.0131174,-2.6367111,-0.32511234,-0.5027655,1.758438,0.4781615,2.8288498,-1.5661793,0.9743944,-1.4045143,-0.6173897
1e25b47eaef62694a236,-0.23636572,-0.5938496,-2.3936894,2.3085873,-1.6563784,0.5033392,-2.1140664,-0.44515118,0.010098799,1.3302094,0.19032362,2.0468528,-1.0470564,0.41548833,-0.96044767,-0.27873498
1eekhswi2ckx4uw0j1c9,-1.2984995,-1.7090786,-0.030258825,-2.7822125,5.4331326,1.576677,-0.7487339,4.6156893,-2.901383,-4.8081536,0.8995996,-4.084312,-2.8896039,2.513327,4.9873796,-0.92650175
1f4oscu6io8xlog2157e,-0.88739485,-1.3003776,0.44559237,-2.1732876,4.3141046,1.1621356,-0.071660854,3.7276669,-2.1666522,-3.7949553,0.75115126,-3.204322,-2.180265,1.8618712,3.9985237,-0.67518216
1f56b6bda24efafcf3a4,0.57030016,0.8190156,2.946816,-1.9933944,-1.2771667,-0.85782784,2.9127235,-1.0809717,0.69102633,0.8163198,-0.31982026,-1.3836894,1.2934893,-0.69894385,-1.3275802,0.58988476
1f67cb2e7affbb00b6c8,0.5042398,0.686337,2.6942165,-1.7601856,-1.1152666,-0.7078727,2.7297707,-0.9513349,0.66231114,0.69297576,-0.23991208,-1.2271326,1.0931739,-0.5967698,-1.1589218,0.46600464
1fa4f2361b8a03040292,-0.6318916,-0.97166497,-2.841447,3.162421,-2.6858368,1.0185258,-2.771533,-0.5761545,-0.3304003,1.9431059,0.42010933,3.0464888,-1.5052853,0.9032196,-1.4815574,-0.56335586
1fc5b87acdfc2a8b580c,-0.5293828,-0.7581482,-2.0565808,2.2895048,-2.537951,0.77845037,-2.0833356,-0.25845024,-0.42861295,1.462754,0.4118469,2.2064886,-1.1960812,0.8329908,-1.3012748,-0.47335267
1feef8b4129f5bf21e67,-0.7110366,-1.0855101,-2.964488,3.1959724,-2.746655,1.109732,-2.921325,-0.2955455,-0.49318606,1.704116,0.5666588,3.0055282,-1.6301651,1.0396367,-1.3406894,-0.6789715
1hrtipd0awjpggdje5e2,-1.3412061,-1.8626674,-0.3222982,-2.693349,5.5656233,1.6827772,-0.9744979,4.834044,-3.139263,-4.926679,0.9970996,-4.0174556,-3.0878475,2.7186024,5.156912,-1.0483997
1hues7esy9erdsses6m0,-1.4705653,-1.9631239,-0.699479,-2.6966932,5.6390953,1.7954813,-1.3648909,4.90304,-3.2206326,-5.0508113,1.0042825,-4.048884,-3.2396233,2.879216,5.2365317,-1.071145
1kvfwfp2hr5hjxjxzjqd,0.8160524,1.2529739,3.3078086,-0.39622927,-1.4379762,-1.1189884,3.7987013,-1.9346542,1.8731421,1.4411986,-0.6260482,-0.07131459,2.0298133,-1.7258998,-1.7638568,0.70716804
1mp9yiw6rkrr3846047g,-1.4612402,-1.9992397,-0.5266321,-2.4318714,5.769418,1.8719327,-1.2015363,5.019834,-3.1264234,-5.085898,1.0635537,-3.8943548,-3.2093024,2.665795,5.3909554,-1.0026343
1n42senfkcjopw1zh39l,-1.4107478,-1.9129001,-0.6319748,-2.6666915,5.6380143,1.7887936,-1.2568965,4.8266816,-3.0980704,-5.0348415,0.96371704,-4.0190425,-3.1707962,2.7476094,5.217104,-0.9879928
1nebcwra7a0fduy8c1fa,-1.2942528,-1.6244403,-0.3293757,-2.8140793,5.3320723,1.4934305,-0.90988195,4.424961,-2.819238,-4.6896486,0.78747493,-4.0879273,-2.789839,2.4657006,4.8308887,-0.8262277
1nyzl7s790ta4c8r1l9g,-0.98341644,-1.4124222,0.20350006,-1.9177663,4.336006,1.3282006,-0.31999257,3.808161,-2.2029982,-3.8798954,0.8012373,-3.032914,-2.3442392,1.9912375,4.0445113,-0.7203359
1otvyki9oso9bg6ob16u,-1.513887,-2.0702338,-0.6785887,-2.5958652,5.8720183,1.8858043,-1.4114662,5.2086387,-3.3854184,-5.250917,1.1062295,-4.0321236,-3.413568,2.9562812,5.539892,-1.1588528
1t6e0wa99fijxi3ssnzk,-0.98107624,-1.3808848,0.23459415,-1.8252773,4.27455,1.3070463,-0.32702106,3.7646976,-2.1374915,-3.8035772,0.8136085,-2.9118629,-2.320523,1.9153372,4.0806475,-0.77377695
1vb2vsoy23nr0monflhx,-1.5594081,-2.0366,-0.6431231,-2.6592567,5.9270186,1.8660125,-1.3198622,5.2037206,-3.4114895,-5.308653,1.087893,-4.090319,-3.3479812,2.8734198,5.558584,-1.1448509
2007f4965d2aa6064a25,-0.62714845,-0.9784334,-2.8569915,3.3399215,-2.8763885,1.0093206,-2.795681,-0.49325988,-0.3832093,1.9642298,0.45253047,3.1881042,-1.6119242,0.96887505,-1.4947691,-0.6109639
204a7d6db340a3c18ca7,-0.5508478,-0.8084537,-2.4329026,2.637027,-2.4739175,0.84569776,-2.3897455,-0.32757542,-0.39884487,1.5448068,0.41986606,2.538419,-1.2855464,0.8101904,-1.2365061,-0.51595795
204fdbe885269686a392,0.5453104,0.75124735,2.7779164,-1.6358532,-1.3177342,-0.75542957,2.815678,-1.1029497,0.80688256,0.87382984,-0.27540293,-1.0951729,1.2140131,-0.7324487,-1.3394533,0.5022316
20f97b68982d1b2f5c73,0.29816073,0.5735603,2.550344,-2.1445448,-0.26681596,-0.57263005,2.4273992,-0.43647164,0.25299013,0.03524015,-0.25406685,-1.8050296,0.9286243,-0.38842028,-0.4616721,0.4092863
211ed39c57c6e6cdefbf,-0.45975998,-0.7315227,-2.0694776,2.3743172,-2.5484369,0.7456016,-2.0292602,-0.6272147,-0.25795886,1.7417003,0.31571692,2.3400428,-1.1377789,0.68368936,-1.4698237,-0.42029184
2150588a5903d9a77b79,0.52729166,0.7258863,2.3959966,-1.0839472,-1.7643859,-0.753993,2.4134984,-1.2929643,0.81251353,1.2332098,-0.3319155,-0.53117573,1.1610346,-0.70231754,-1.618557,0.4834275
217c87d59a4372c4f3fc,0.59901816,0.4110756,1.7089853,-0.75161296,-1.442718,-0.5156083,1.9642016,-1.277255,0.9251456,1.2454238,-0.20044763,-0.4169662,0.42748192,-0.52137417,-1.4486617,0.25608945
219jkfkejubvu4dvuv13,-1.3951621,-1.7950069,-0.06970829,-2.9626431,5.758144,1.6379907,-0.71208054,4.8736753,-3.1345189,-5.128497,0.9825399,-4.300161,-2.9523125,2.5469716,5.2475333,-0.9412971
21e23771e52cb5291b19,0.77508307,0.8689613,3.6123233,-2.2591317,-1.4515638,-0.9181054,3.7486327,-1.6742575,1.07664,1.1911364,-0.38976437,-1.5783905,1.396448,-0.89011544,-1.7573329,0.5625044
21fc5674d24be8e9da89,-0.19507807,-0.22145653,-1.0390532,1.063213,-1.6018589,0.25886458,-1.0135497,-0.28220683,-0.16290176,0.88012266,0.12794247,1.1031269,-0.39931813,0.25022173,-0.88575125,-0.12185966
222d5ee50487a2b8601b,-0.7196105,-1.123653,-3.081842,3.355541,-2.8781917,1.152186,-3.0382423,-0.5490409,-0.4314952,2.0093033,0.49820706,3.2075279,-1.6992708,1.052531,-1.5111843,-0.67663926
22ae866c664a147f9971,-0.5824688,-0.8681549,-2.3073823,2.5216823,-2.4087486,0.900938,-2.366846,-0.2557867,-0.47297505,1.4687827,0.41734752,2.3760734,-1.3418516,0.9198541,-1.1773628,-0.53348786
22fey6dqzcrm0jbtfnmm,0.9515359,1.4168501,3.365595,-0.26652136,-1.9113551,-1.2843112,3.8694515,-2.3799553,2.3291054,1.9269888,-0.75702554,0.15082178,2.2463882,-2.0021353,-2.1914508,0.84565026
22wb5ostye8edvfar59p,-1.4949379,-1.9207602,-0.7118009,-2.821846,5.9309826,1.7525382,-1.4365838,5.157198,-3.322157,-5.3418336,1.0127985,-4.236605,-3.2786834,2.855931,5.5375257,-1.0183437
23dd64a1d2e4965198bf,-0.03944254,-0.2843754,-1.3759854,1.3234351,-1.1735634,0.19487083,-1.1878442,-0.4607479,0.19933586,0.9491973,0.04728098,1.1740462,-0.56168187,0.12765825,-0.7799646,-0.09759299
23f1f5d3d90e2890a423,0.6590759,0.82728934,2.9822128,-1.7074041,-1.428409,-0.8588356,3.0306602,-1.3948184,0.9469003,1.1940466,-0.40972087,-1.0767207,1.2174561,-0.77018845,-1.558952,0.5720852
24524df0ca55659c384e,0.3164188,0.5141525,1.9254421,-0.97046334,-0.9905067,-0.49694037,1.9377605,-0.6538121,0.52252084,0.50470924,-0.17216437,-0.6560899,0.91769207,-0.5062666,-0.8775411,0.32548788
24ca7714d40e2fe53821,0.57573736,0.5669733,2.036893,-0.91198593,-1.3773333,-0.60485494,2.2360318,-1.231279,0.93210787,1.1128366,-0.26319003,-0.53019315,0.7802749,-0.6679633,-1.3966612,0.35118204
25019b8f1c3ac537894b,-0.5950972,-0.92131037,-2.7443588,2.8880508,-2.5273051,0.9564171,-2.714965,-0.3378848,-0.39428756,1.7110465,0.4221421,2.7805068,-1.5079703,0.9421374,-1.2531586,-0.54775345
25c8e1ae2335e8c3e5b3,0.66358507,0.6197121,2.5396576,-1.1618581,-1.712636,-0.71494955,2.7658978,-1.6113434,1.0535071,1.3783132,-0.27055,-0.63338435,1.0444299,-0.780738,-1.788525,0.3937269
264320c6b92b92795ba0,0.3297468,0.58770895,2.283613,-1.3099926,-0.7881789,-0.55708593,2.3513448,-0.76259947,0.6141479,0.50820875,-0.21466574,-0.9647054,0.95922583,-0.5648467,-0.8492961,0.3231919
27cc9165eef05eb1733f,-0.49214894,-0.68694884,-2.2729664,2.2884,-2.1733952,0.74903804,-2.3639503,-0.2423209,-0.46182248,1.3737133,0.26945725,2.173384,-1.2066866,0.7551946,-1.0715939,-0.39465997
2826ec26211d83efd2c6,-0.84164494,-1.3054487,-3.7251616,4.0870686,-3.0225248,1.3444666,-3.624944,-0.4510942,-0.5465881,2.1537414,0.5993455,3.8531704,-2.0929387,1.1971741,-1.4828835,-0.82520324
2842c82981077b78b3cd,0.9108696,0.6831481,3.183115,-1.8692638,-1.3931476,-0.7818647,3.4851668,-1.795302,1.2341439,1.3202635,-0.30599308,-1.295405,1.1572634,-1.071681,-1.7668818,0.4308223
28719a42e0cbf4991b7f,-0.78072464,-1.1525621,-3.1474407,3.4303112,-2.7756774,1.1806725,-3.091165,-0.35491997,-0.5085727,1.8374797,0.5742834,3.2187657,-1.7517985,1.1189681,-1.3572016,-0.726726
28bc8af257c48eac3bf1,-0.49549112,-0.72602177,-2.1640465,2.3294563,-2.3973157,0.7664699,-2.190122,-0.34222853,-0.4164494,1.4842716,0.3340042,2.2392352,-1.1662623,0.76084703,-1.2436583,-0.43536878
28d90a892cc66338f962,0.46437308,0.6342642,2.262879,-1.6263422,-1.0104301,-0.6406786,2.277121,-0.80211955,0.5726148,0.6138671,-0.22801636,-1.1823968,0.87239283,-0.52989274,-0.9972536,0.4194272
28tmrs0kyrrh1odyvf21,-0.78427976,-1.2276008,0.62141544,-1.9959499,3.8379133,1.1083822,0.19271836,3.1622345,-1.790755,-3.3296542,0.6505618,-2.9675817,-1.7518387,1.6058565,3.4136555,-0.53966194
29172d2e39ca0d890848,-0.74340206,-1.123435,-3.16657,3.6107984,-2.8490303,1.1677066,-3.0989149,-0.5079118,-0.37316737,2.0503404,0.48526323,3.4348292,-1.7555158,1.0624958,-1.4354881,-0.6934659
2933a3227c7ce7fe21eb,0.35097927,0.50131047,1.8657808,-0.95415276,-1.2511268,-0.47686887,1.9669724,-0.79945344,0.63046354,0.7278255,-0.13061161,-0.5697096,0.8380537,-0.5625777,-1.0962855,0.29216558
2959d8017312337a2ba6,0.2728974,0.58651346,2.202257,-1.5565313,-0.38966218,-0.54120904,2.1987898,-0.54546547,0.41398084,0.20836088,-0.25881922,-1.2992723,0.9094337,-0.51549435,-0.5354707,0.36576542
29acddb87cfe062d73f5,0.55884266,0.72299606,2.7673755,-1.7426723,-1.2512865,-0.7586288,2.7856534,-1.1881695,0.70421696,0.8813516,-0.32457876,-1.190536,1.2041038,-0.64586073,-1.3664911,0.5087122
2a003b122e9500e465c4,0.45165285,0.64520854,2.6811864,-1.6575174,-0.9504719,-0.6155732,2.7107534,-0.9112464,0.69977707,0.6324829,-0.2639954,-1.2408953,1.0134931,-0.6706726,-1.0227511,0.46695638
2a515047aa9d085849a2,0.1418003,0.3105516,1.205139,-0.6500635,-1.1906273,-0.2898472,1.2007357,-0.4636383,0.1908629,0.57373923,-0.060223993,-0.41551876,0.46406865,-0.222857,-0.8618657,0.18476371
2a6394114c31a10dc92b,0.49746805,0.73904663,2.850614,-1.8184652,-1.0635544,-0.7404031,2.8204474,-1.0192188,0.6019937,0.7342788,-0.32412323,-1.2952045,1.1518227,-0.5826848,-1.1802936,0.52851576
2a6ap0t2rsvoogmydj3a,-1.4609156,-1.9090126,-0.46406323,-2.877026,5.722918,1.7586089,-1.1879517,4.888466,-3.1776726,-5.1260247,0.9727311,-4.225004,-3.1377842,2.7649353,5.2913966,-1.0166214
2af634997fba501740c2,-0.4741897,-0.7388058,-2.0775425,2.3424077,-2.2833016,0.7537893,-2.0273666,-0.40196013,-0.23164849,1.5034227,0.34480655,2.2607598,-1.1153288,0.7044346,-1.2017088,-0.45039934
2b3492096a4d12bb86cd,-1.1322773,-1.4625765,-0.21852641,-2.31032,4.617351,1.3620294,-0.857532,3.935966,-2.551862,-4.1108513,0.7508016,-3.3794715,-2.4835103,2.128408,4.238955,-0.7947419
2b54ed4af8281eb82f58,0.50688213,0.75451636,2.6645293,-1.5950842,-1.3094162,-0.75794804,2.660663,-1.0386988,0.7331893,0.8520637,-0.30236349,-1.0401502,1.214701,-0.6663427,-1.3194312,0.5053521
2b935bfe06ef02369807,-0.3540267,-0.53641945,-1.5242119,1.8110476,-2.2035763,0.56746256,-1.5394211,-0.3697228,-0.26781693,1.3133969,0.2711381,1.8183588,-0.84992653,0.56386024,-1.1884116,-0.31987357
2b9ef4e3749f713870b0,0.39901465,0.33784795,1.5787398,-1.0380322,-0.6597333,-0.3531689,1.6881629,-0.7681467,0.61480296,0.52612,-0.13351236,-0.82037175,0.55146456,-0.49250248,-0.7620824,0.19433664
2c27d4de6ae130e7e242,0.6528497,0.83847904,3.1792538,-1.6882945,-1.5879699,-0.8430036,3.296762,-1.4408557,0.9872409,1.1517525,-0.29536605,-1.0757691,1.4240761,-0.8835165,-1.6366118,0.5553472
2c3b89432513b2035664,-0.531942,-0.7975524,-2.455048,2.7156072,-2.42336,0.8534475,-2.455396,-0.3823196,-0.3659884,1.602259,0.3539869,2.5959163,-1.2707603,0.7820266,-1.230765,-0.48853105
2c6339f7c23a64d02081,-0.8311943,-1.1848269,-3.2861462,3.6144543,-2.9670842,1.2352866,-3.2548766,-0.52038825,-0.5301752,2.0116148,0.5688118,3.4004507,-1.7945738,1.1776967,-1.5225451,-0.73634464
2c7d02c44b47e3d24d52,-0.5499606,-0.82371974,-2.3214276,2.586149,-2.4930844,0.8815001,-2.362764,-0.39457414,-0.43663052,1.6235081,0.35380456,2.4881577,-1.3305751,0.908274,-1.2993004,-0.499794
2ccfa5f79c8b61e465d4,0.54405475,0.74638116,2.9271927,-2.1263275,-0.76660746,-0.76094735,2.9139957,-0.86801887,0.66084886,0.508369,-0.3164842,-1.6330558,1.1007853,-0.62479013,-0.94365454,0.49410093
2d526c27123e59103e29,0.7569183,0.999586,3.6424499,-2.6841629,-0.7025008,-0.97871274,3.595568,-1.123857,0.8232034,0.5541353,-0.5101136,-2.1420736,1.4448438,-0.89985085,-1.0782455,0.66895056
2d9a38c93e37bc475cb6,-0.16699252,-0.25386554,-0.89059365,0.72041595,-0.9423968,0.26804543,-0.992476,-0.07320473,-0.124296516,0.47652003,0.08728411,0.6877788,-0.39508906,0.2577695,-0.4167956,-0.11755264
2db6dd71f1d07300382c,-0.6330513,-0.9900705,-2.7038403,3.0660634,-2.767242,1.0357182,-2.7157419,-0.43081653,-0.54347354,1.815909,0.43171716,2.9099174,-1.5387352,1.0095946,-1.4368757,-0.565621
2ddkknvpbz2j9wlvybtj,0.55047476,0.9067602,2.8182464,-0.82526624,-0.87236136,-0.80458677,3.0442367,-1.0874496,1.1436176,0.7492742,-0.42010212,-0.6021191,1.4246086,-1.134774,-1.0349798,0.5427357
2e2c00240c341a4265e3,-0.54974556,-0.935277,-2.8956966,3.3170347,-2.85798,0.9674562,-2.7964015,-0.56223875,-0.32514408,2.0058541,0.40196013,3.1883833,-1.5786043,0.8979045,-1.4880524,-0.6070405
2e3e7cbe0e69add8d31a,0.23934703,0.49912375,1.7714076,-0.9050216,-1.1743268,-0.46707743,1.8247246,-0.69685954,0.47740772,0.63002646,-0.11918194,-0.5323477,0.92448586,-0.51869154,-1.0134655,0.33017302
2e40c1b07d32d3b80862,0.4518509,0.54817134,2.3996258,-1.2090461,-1.4660234,-0.58780205,2.4566092,-1.1958988,0.71091,1.0605977,-0.21265233,-0.7265951,0.96820366,-0.5841861,-1.4247329,0.3901878
2e54b1c7bff5847c82a8,0.15836625,0.3231397,0.8510696,-0.73821896,-0.810657,-0.31522065,0.7306762,-0.29807013,0.17628211,0.31776428,-0.12812825,-0.47658965,0.4322018,-0.15174401,-0.5934308,0.23863514
2ea821273e01ec758583,-0.57039684,-0.92944336,-2.8011384,2.9209082,-2.4384341,0.92202353,-2.6937656,-0.5998362,-0.3472482,1.7874384,0.33238503,2.6769533,-1.3950354,0.8458521,-1.4354854,-0.47501457
2ecb7fb5ff8899614c12,-0.44942307,-0.66993046,-1.921694,2.1978881,-2.372599,0.69845724,-1.9467288,-0.5044638,-0.31355563,1.6039982,0.25296527,2.1549745,-1.0912259,0.70425415,-1.3239073,-0.38447547
2egpenarap9h0a2k0bc5,-1.2019507,-1.845273,-0.47728705,-2.1318274,5.241266,1.7235305,-1.1288652,4.509255,-2.5505786,-4.578978,0.9509725,-3.4388945,-2.9634588,2.4020941,4.9180894,-0.9481408
2f3c37735e817244e646,-0.52218515,-0.84775734,-2.497266,2.7036366,-2.5907707,0.8636335,-2.4342365,-0.5192815,-0.41028985,1.7303495,0.35877195,2.609626,-1.2718825,0.81653756,-1.3987974,-0.48884818
2f3ef424b925a9881b81,0.39659724,0.5813608,2.2239492,-1.1589378,-1.0963099,-0.5649544,2.331383,-0.85593045,0.7122738,0.68143016,-0.15458116,-0.8128936,0.9608458,-0.68557215,-1.0161909,0.32348084
2fe9648ea28753c73c2c,0.8211764,0.8703708,3.0537179,-1.5846252,-1.8829253,-0.95119524,3.204443,-1.719153,1.2210441,1.5330585,-0.3872746,-0.97002465,1.2870283,-0.9578349,-1.9717021,0.5639073
2h9c9tdsnoz1hyzo5frt,-1.0712637,-1.5462207,0.11963503,-2.3717253,4.871984,1.4499865,-0.4994455,4.148652,-2.4519155,-4.2938037,0.82069296,-3.5696669,-2.579673,2.1333375,4.5088625,-0.81309694
2jvnsh0veb6qnn3uv6i8,1.030662,1.7288294,3.839083,-0.12316804,-1.9775617,-1.4999523,4.471831,-2.7391663,2.6640332,2.1480603,-0.85827345,0.2610643,2.640324,-2.422199,-2.451094,1.0101655
2krjeqjgjqfuumdo3ibt,-1.1682284,-1.7131938,-0.103127405,-2.3833756,4.8537917,1.5488117,-0.64422715,4.0552163,-2.485443,-4.240739,0.85939634,-3.5871143,-2.57099,2.2891774,4.393982,-0.8356267
2svwdpmdpjsdzafekntw,-1.2927452,-1.8389032,-0.317987,-2.3564982,5.2640233,1.7194017,-0.9872859,4.5831966,-2.8001013,-4.6562943,0.96642685,-3.6967084,-2.9659498,2.4965906,4.912819,-0.9586071
2ui63dibc4r8oo0p9agh,-1.207144,-1.5764358,-0.44520825,-2.361153,4.897615,1.4458853,-1.0445929,4.2503743,-2.6255355,-4.393754,0.8479755,-3.5647833,-2.7284305,2.3106143,4.5761614,-0.8358673
2uxkhe454qk8jvk0ufvp,0.85625875,1.3547766,3.1150763,0.0981674,-1.4911749,-1.174763,3.7148166,-2.0981565,2.315053,1.7186072,-0.66082376,0.34622303,2.0497878,-1.9594944,-1.7672931,0.7780716
2xk6toebmkxdw8f2bypd,-0.48522556,-0.7030083,-2.0623643,2.1732771,-1.967709,0.72424227,-2.0483506,-0.22521505,-0.2924068,1.2336323,0.35889193,2.0680714,-1.052631,0.6913337,-0.95831597,-0.43283352
2xsbkm76x36qvddrl2yo,-1.1319771,-1.6727903,0.076061785,-2.3239295,5.1456447,1.5660778,-0.5860621,4.4900312,-2.8021953,-4.544024,0.91489154,-3.5986247,-2.745953,2.3553689,4.803014,-0.8261506
2zfdinkl7qrn0o62tlp4,-1.1132873,-1.7216012,-0.005775021,-2.076924,5.0529466,1.5949305,-0.60034424,4.454975,-2.666272,-4.4452105,0.97879314,-3.325372,-2.7958589,2.3203163,4.737182,-0.9358707
301f57984e5d2969c938,-0.6413062,-0.98575056,-2.8144422,3.1125753,-2.8045397,1.0243336,-2.7969916,-0.4714321,-0.44917065,1.883597,0.44686788,2.997988,-1.5719252,1.0060763,-1.4626623,-0.6024515
306627b1ecbdf4e3aa34,0.19839664,0.28489986,1.3383136,-0.299004,-1.2217908,-0.25719714,1.4467757,-0.8134602,0.5612018,0.86440593,-0.10333526,-0.08140103,0.5023991,-0.4139758,-1.0385753,0.19486322
3094825929f936abb792,0.56608003,0.7874942,2.569842,-1.3805141,-1.6298221,-0.80652255,2.5961258,-1.1457783,0.749332,1.0658771,-0.2945813,-0.8021452,1.2569577,-0.705484,-1.4961165,0.53107065
311abc37a94ae8afe41a,-0.5495372,-0.83453095,-2.3915274,2.5351796,-2.3559024,0.85939914,-2.445006,-0.26930913,-0.41677815,1.4716963,0.3923515,2.4010422,-1.3017819,0.8464963,-1.1608322,-0.49529198
31741464205aa8cdb4f5,-0.78460103,-1.1972765,-3.3355222,3.700395,-2.9534225,1.2514427,-3.286978,-0.36286625,-0.59271914,1.9918973,0.5381574,3.4818676,-1.9232013,1.2118803,-1.4351277,-0.7441789
3267b84814316e2fa25e,-0.6808781,-0.9998412,-2.919588,3.3369765,-2.7610195,1.0473202,-2.8555264,-0.53904665,-0.37675178,1.9692996,0.45683923,3.1618087,-1.5680174,0.93133885,-1.4604073,-0.628266
329622100fe091a4c48c,0.39666715,0.5829621,2.3043754,-1.4092344,-0.99576676,-0.5599454,2.3493087,-0.78786045,0.547023,0.5575932,-0.22137742,-1.003384,0.93773186,-0.5030743,-0.9949405,0.36096478
32n93dfesjggabieb85t,0.9304991,1.6170135,3.8042815,-0.5006649,-1.6106426,-1.4076601,4.4231544,-2.3879125,2.3585045,1.7191728,-0.7502782,-0.1447536,2.459362,-2.1731806,-2.0828614,0.96973944
3313c40ea45a87f9d2e7,-0.60565406,-0.93562007,-2.7471623,2.9061785,-2.634264,0.97916996,-2.7610614,-0.39587104,-0.49677816,1.7323588,0.38883072,2.783438,-1.4916037,0.93653804,-1.3350344,-0.5434436
33184c1cba6a37cdbda2,0.48250547,0.5995715,2.7564142,-1.9945995,-0.62491447,-0.6068317,2.8441443,-0.8084462,0.61384946,0.4343842,-0.22009787,-1.5296569,0.8845745,-0.538427,-0.83704925,0.41902548
33b73273ab8e1a11fcda,-0.29396757,-0.43225923,-1.4337429,1.5817511,-1.8649998,0.4714545,-1.4459602,-0.29122368,-0.26262307,1.124896,0.2011702,1.560635,-0.7805049,0.48914555,-0.9597028,-0.28449205
33c123d08dc07edb50f9,-0.21004955,-0.3399094,-1.1264133,1.377874,-2.0837686,0.32933643,-1.0098572,-0.5066217,-0.06520407,1.2922925,0.19523354,1.4387653,-0.5336172,0.3118652,-1.252023,-0.20939407
33ddb1517601db520cd6,-0.57465696,-0.9078241,-2.479797,2.6901696,-2.1639452,0.9249522,-2.4064314,-0.1534794,-0.3711629,1.3559089,0.47746456,2.4953084,-1.4663565,0.84892833,-0.9631197,-0.60712624
34aaaa47df8c4aa4d926,0.54063964,0.80293,2.992429,-1.9217467,-1.1139971,-0.8061854,2.946835,-1.0317652,0.6402128,0.7229404,-0.37069938,-1.3895785,1.3303634,-0.6986616,-1.2112688,0.5737481
34qcy2qj5lij7g82hpvw,-1.4394861,-1.7698481,-0.5428672,-2.9694118,5.656845,1.6024765,-1.235003,4.755619,-3.0892043,-5.016686,0.8799693,-4.2340097,-3.0621467,2.7501476,5.194281,-0.99673414
3531c5f9d520759ba697,-0.351145,-0.49505204,-1.5054549,1.7381041,-2.21953,0.5233471,-1.5063664,-0.316133,-0.29181838,1.2636807,0.27396363,1.7344126,-0.8125375,0.5574325,-1.1958178,-0.31739166
3555053023c67d592439,-0.57881755,-0.9737821,-2.7868958,3.2472146,-2.8545902,1.0173905,-2.68887,-0.61191577,-0.3035877,2.02601,0.42785642,3.1306973,-1.5704497,0.91115034,-1.5343132,-0.5979902
3565d61f3efec69e611c,-0.4968233,-0.75926286,-2.3630238,2.6212132,-2.6163094,0.78313845,-2.2989998,-0.4187433,-0.37768894,1.6412569,0.39379478,2.5343306,-1.1863222,0.7349103,-1.382511,-0.47117418
359f25d9131a0699405b,0.31470925,0.58737314,2.4640656,-1.7922107,-0.5694929,-0.57971543,2.3958602,-0.6036773,0.38540837,0.28070715,-0.23475565,-1.4208847,1.049457,-0.48273978,-0.6846461,0.42221886
35e028ec34bfdb7a6d26,0.4416922,0.7828538,2.6406958,-1.645643,-1.3102039,-0.7327514,2.6164024,-0.9141636,0.63935775,0.7380304,-0.2961796,-1.072404,1.2684926,-0.65561414,-1.238382,0.50621426
35wcdp4s13xmtyq5f7os,-1.0583357,-1.538549,0.3207765,-2.2016156,4.680214,1.4326397,-0.310376,4.134988,-2.541954,-4.191434,0.8836765,-3.375915,-2.4786916,2.1505089,4.368654,-0.79892826
360820d6620d17d1b48b,-0.9115238,-1.4316036,-4.137104,4.5715146,-3.1823235,1.4859825,-4.002064,-0.6123725,-0.4077584,2.438742,0.6295178,4.3172774,-2.2503924,1.2790976,-1.6248553,-0.90674245
3672e2896ad7d8f2404e,-0.2548275,-0.5084327,-1.7593307,1.8165641,-1.6478195,0.47710416,-1.6587901,-0.40765807,-0.04876397,1.1606817,0.19548988,1.7053602,-0.7815836,0.3846277,-0.93605125,-0.2681178
367c27a001837dabb2e9,0.3988422,0.60003483,2.3891017,-1.5172969,-1.0312151,-0.6044717,2.3898742,-0.9187534,0.5643814,0.67717814,-0.25278097,-1.072077,1.0881054,-0.57970405,-1.073656,0.4527148
36ebf305b7206112f676,-0.39191854,-0.5537486,-1.7856996,2.2154257,-2.2147598,0.60091573,-1.7867644,-0.43174103,-0.18212861,1.4788291,0.24304295,2.171011,-0.9065918,0.5704599,-1.1944236,-0.35346583
374ff25490a1f0aba47f,0.5192092,0.76635075,2.6684372,-1.42092,-1.2511684,-0.7557455,2.7297375,-1.0018382,0.8066846,0.83084476,-0.30048496,-0.96489066,1.1959575,-0.793777,-1.2340446,0.49740452
37905cfdcd105683aaf4,-0.5259128,-0.8015478,-2.8307312,2.7924092,-2.1787076,0.8447822,-2.7914555,-0.39280018,-0.40939578,1.5768435,0.30311677,2.6374438,-1.3194137,0.7757433,-1.1106979,-0.46044022
37ae91c472189108a737,-0.44379807,-0.6811525,-1.9509552,2.1732407,-2.2562814,0.72492343,-1.955203,-0.4231596,-0.34896857,1.481919,0.27121758,2.1189487,-1.0604198,0.73489887,-1.2323867,-0.3829716
37f3b3d773c5c073bc9a,-0.8357343,-1.3138454,-3.7061152,4.0922623,-3.086995,1.3672423,-3.6318526,-0.4565454,-0.52881855,2.1615825,0.5949456,3.8465202,-2.1059744,1.2574162,-1.5126975,-0.8546788
38357be0ab369a9ae942,-0.56673205,-0.84192425,-2.3332946,2.5648274,-2.494019,0.8854696,-2.39336,-0.34642974,-0.46209866,1.5744839,0.36408147,2.4350164,-1.3509842,0.90611583,-1.2914902,-0.501956
388090578f22a3c33738,-0.70053697,-1.0844953,-3.0234249,3.326367,-3.0737052,1.113702,-3.0253086,-0.36483172,-0.5807098,1.9381992,0.5200413,3.1646183,-1.7580073,1.1532452,-1.5356612,-0.6822075
390d1fc3b78420815190,0.5239109,0.64716035,2.5624979,-1.6052386,-1.0396805,-0.6595537,2.65763,-1.130156,0.80627966,0.8201563,-0.28122002,-1.1829319,1.0246987,-0.71254617,-1.2046207,0.4004445
3919286d3d8c4f4d339c,0.42683014,0.5918867,2.3104014,-1.305133,-1.0646392,-0.5627725,2.32859,-0.8958623,0.5876329,0.6843317,-0.2532779,-0.9003668,1.0308177,-0.58710706,-1.0340695,0.38217962
3a9d955e2ef47191a742,0.61447954,0.8497947,3.0720634,-2.0836546,-1.1135018,-0.8737808,3.041525,-1.1047757,0.72864544,0.72339207,-0.37678728,-1.5502523,1.329887,-0.7662792,-1.2536398,0.59827137
3ab864e1e692786fefd2,0.4274699,0.7356174,2.7499173,-1.4420452,-1.2000794,-0.7129728,2.8468208,-1.1008106,0.7678372,0.77796304,-0.2440741,-0.97812647,1.3605294,-0.7820532,-1.2515631,0.46374565
3ac65fbc295f5fbd2ff7,0.03636083,-0.012156701,-0.3960738,0.18989418,-0.4959888,0.004369209,-0.43955466,-0.15131292,0.08302891,0.25367385,-0.06316085,0.17886555,-0.06352604,-0.0049448465,-0.26446903,0.038727432
3b3b2319b0995f149ecc,0.41522023,0.49351105,2.450613,-1.959249,-0.41435665,-0.4690799,2.5221896,-0.65283155,0.5524679,0.29863396,-0.1655725,-1.6267315,0.6038788,-0.4717527,-0.65396225,0.30063877
3b6f3bb370f3107e257d,-0.2980659,-0.39385554,-1.3791883,1.4698282,-1.8534251,0.4341534,-1.3555816,-0.20201917,-0.20644195,1.020738,0.24372877,1.4836429,-0.6603927,0.4231988,-0.95012146,-0.257662
3ba42ec5350aacb0750a,0.7542841,0.72910535,2.8144262,-1.7219965,-1.1334826,-0.7646949,3.0044136,-1.3526478,0.99431396,1.0102952,-0.346987,-1.3095964,0.94916373,-0.8116228,-1.3863311,0.45187822
3bf7b3c9aa7d93ecb603,0.7623664,0.9215848,3.120095,-1.7304347,-1.5269217,-0.92761695,3.2139082,-1.4700012,1.0522431,1.2139522,-0.43181705,-1.1050521,1.3386732,-0.8283382,-1.6506102,0.6428079
3c1b9222136b752563f6,-0.36406857,-0.53074163,-1.7451682,1.8953909,-2.0420754,0.5737163,-1.7130759,-0.31526217,-0.2768068,1.2775842,0.25812227,1.8889079,-0.882559,0.5480115,-1.056673,-0.3250283
3c37e3ad275dcdd39e2c,-0.44339556,-0.8180801,-2.7376964,2.8292487,-2.390164,0.8282814,-2.6320632,-0.58129513,-0.20165806,1.7958884,0.28835085,2.650514,-1.4093066,0.7386083,-1.3703902,-0.44811943
3c71b62d597098c4cd18,-0.7494146,-1.1101099,-3.0394208,3.3575413,-2.7933154,1.1653358,-3.0464585,-0.3510437,-0.59144914,1.831713,0.5102533,3.1630447,-1.7191234,1.1148046,-1.3668991,-0.6772601
3c89c7f1db26ae691db8,0.8692684,0.87252134,3.3072739,-2.0920644,-1.4069643,-0.9199435,3.4694476,-1.5517225,1.0924695,1.1542593,-0.36821064,-1.5054686,1.3297906,-0.9709552,-1.6466204,0.5530442
3cic5ziycjx4ik4ll0v1,-1.0474579,-1.4451061,0.20032023,-2.1474373,4.675642,1.3537072,-0.37426928,4.0056133,-2.355095,-4.0810623,0.8033033,-3.2856426,-2.4363256,2.0969014,4.345939,-0.81287926
3d63ba961a5f3a60616a,-0.54678,-0.85632163,-2.504366,2.6977568,-2.7212765,0.8897699,-2.5328038,-0.41686133,-0.45119703,1.7332289,0.39269963,2.610858,-1.3834133,0.89754856,-1.432162,-0.50521886
3dba043eb6065ad3a343,-0.38038382,-0.46061754,0.15403938,-1.3390822,1.3054758,0.43137234,-0.15487039,1.1083221,-0.6226139,-1.311161,0.18853228,-1.553989,-0.766406,0.6655942,1.241743,-0.26115373
3dglsy7ee3ytfq1lpwlv,-1.1364223,-1.4831308,0.11233308,-2.5659618,4.7385173,1.3406224,-0.4360298,3.9683597,-2.4788883,-4.225541,0.80211717,-3.6761622,-2.4156935,2.1180649,4.3010073,-0.7979104
3e4e608ace87fe97bdb5,-0.57741874,-0.879593,-2.7664645,2.8804123,-2.4247866,0.92548287,-2.757068,-0.35841045,-0.4102792,1.6408222,0.35734048,2.715633,-1.4367033,0.86384994,-1.220673,-0.5260134
3f34e3108d1108dab0fd,-0.63527566,-0.98022205,-2.7009077,2.8505304,-2.3956823,1.0098841,-2.7089243,-0.24217674,-0.45536393,1.5086833,0.47666907,2.6776268,-1.510556,0.9485975,-1.128176,-0.60132706
3f55d44d7572d52b2987,-0.7910114,-1.2149565,-3.162505,3.6041813,-2.8407562,1.240826,-3.0821743,-0.32971704,-0.5524073,1.927561,0.61111695,3.3834991,-1.8657078,1.1766915,-1.3487875,-0.76337165
3f81bf9625e47ca1963f,-0.6956851,-1.035554,-3.1506324,3.3575454,-2.8771546,1.0931221,-3.1875362,-0.43044338,-0.5462855,1.9746306,0.42387733,3.189553,-1.7076278,1.0936111,-1.4834208,-0.60436064
3fee5c27236cbb682727,-0.21329483,-0.35569808,-1.3155937,1.4265455,-1.4321303,0.38301522,-1.3014158,-0.3199005,-0.073866144,0.9266037,0.13871978,1.370039,-0.55575866,0.25835592,-0.772885,-0.20612219
3ff069e95a9047dbfa8b,-0.5543157,-0.8660628,-2.437854,2.648365,-2.5074532,0.8947439,-2.4535706,-0.44648293,-0.3761608,1.6869783,0.37204856,2.5728679,-1.3569076,0.87465566,-1.319972,-0.52150255
3iz4t53ooerb6sruxf3n,-0.96718967,-1.4832153,0.35625932,-2.1433864,4.5070963,1.3498456,-0.13194647,3.8129642,-2.2911284,-3.9425948,0.7924368,-3.2251403,-2.1878517,2.003493,4.1015534,-0.72400516
3lbe8ny12qw7qwcyihpn,-1.0352408,-1.4287535,0.32867542,-2.3353105,4.7264237,1.3350697,-0.24798243,4.0733657,-2.4411964,-4.200171,0.82053864,-3.5106084,-2.4260707,2.0495434,4.3786645,-0.74514675
3m4gx52iq3mwqdycm8mm,0.982813,1.446578,3.3480072,-0.3900443,-1.6244793,-1.2872968,3.9042943,-2.2565274,2.1666403,1.7159879,-0.7564146,-0.0005878942,2.2061067,-1.9082534,-2.0011582,0.84127665
3p34idi1traz2k8j0ulk,0.5739397,0.81916726,3.0114715,-0.91246676,-0.32212743,-0.7467094,3.2787108,-0.96331155,1.2771164,0.5062065,-0.40443397,-0.89572924,1.3786645,-1.1960156,-0.7539961,0.565444
3qvqfnzdg358mord1cku,0.6633842,1.1173031,3.2282622,-0.8755301,-0.72919273,-1.000828,3.6314795,-1.3827285,1.6074663,0.87821007,-0.51757354,-0.7117751,1.673643,-1.4561546,-1.1374675,0.68114823
3w0b2b1gz9i1nhmtab7s,-1.1852744,-1.7912955,-0.18881783,-2.1158085,5.116541,1.6568334,-0.83865505,4.4758186,-2.611349,-4.49117,0.97833914,-3.3677306,-2.7894506,2.334212,4.8019447,-0.9088272
3ywgcurp27qp1fydp27z,-1.4718224,-2.0042515,-0.61031353,-2.409526,5.793272,1.8892365,-1.3133464,5.064522,-3.1811619,-5.1020646,1.068782,-3.868813,-3.29189,2.8113983,5.464042,-1.0638103
40eb36011ced9a882ea9,-0.65943736,-1.0053437,-2.942189,3.1740074,-2.847023,1.0341675,-2.9111342,-0.438838,-0.5397215,1.8449947,0.46526212,3.000566,-1.5622326,0.97069204,-1.4604216,-0.5949261
40rkj6cwy12hdupgq4w2,0.9486505,1.6534185,3.6851935,-0.10465398,-2.0655563,-1.4529395,4.282332,-2.623151,2.4014082,2.0768323,-0.79837644,0.29508543,2.5593522,-2.2850678,-2.430266,0.9523862
41126caf1874c098d357,-0.35759827,-0.52199984,-1.8323793,1.9162341,-2.2385874,0.55940974,-1.8281206,-0.34053782,-0.3543147,1.3582641,0.23762138,1.9114059,-0.88238096,0.5689535,-1.1979113,-0.29150677
4130weedl0x9hc7qe5a4,-1.3551425,-1.711098,-0.322416,-2.9533703,5.611157,1.5579921,-0.97285324,4.6166887,-2.987981,-4.960501,0.8801065,-4.23849,-2.8546336,2.5070705,5.097054,-0.8783416
413cbf664ac3ba8307ea,-0.611447,-0.86199474,-2.6213963,2.721518,-2.3418233,0.92887133,-2.645541,-0.3711334,-0.41464424,1.606402,0.35561275,2.5657723,-1.3906437,0.8438087,-1.1964502,-0.5020892
4156dc6090d72c95c23b,-0.33605772,-0.45439705,-1.6121308,1.5944136,-1.7268515,0.5004202,-1.6851145,-0.2030704,-0.31183535,1.0080702,0.18890089,1.5326629,-0.804676,0.51156235,-0.8584951,-0.2594415
418f4730434eaced55a2,-0.3282211,-0.3748034,-1.134036,1.0811414,-1.184597,0.42304495,-1.2247076,-0.08576992,-0.31876937,0.6363877,0.16013561,0.9882716,-0.63707256,0.425218,-0.52403927,-0.21402572
41abb1b9df74d29b7732,-0.54240423,-0.8109126,-2.381266,2.591019,-2.5664551,0.8456872,-2.4218283,-0.3245529,-0.4582694,1.5842327,0.37938267,2.4749556,-1.3054073,0.86197406,-1.2999465,-0.4967712
41e9ff991a4a21f423a8,-0.76448303,-1.2177112,-3.531126,4.012207,-2.9833717,1.2538284,-3.4171948,-0.5543847,-0.37772074,2.2195575,0.51781416,3.8125556,-1.925143,1.1275086,-1.511713,-0.7815159
41f718ae2aed1d6c2573,0.38024127,0.60583556,1.9879068,-0.97792274,-1.2464142,-0.58629555,2.1073296,-0.839389,0.6267705,0.7543664,-0.19731827,-0.5681215,1.0578715,-0.6250809,-1.1268266,0.36537567
424de2c5e2c1f5652cdc,0.42321593,0.683394,2.4142034,-1.3427184,-0.96123093,-0.6346402,2.4543996,-0.89954484,0.677975,0.66550326,-0.2912749,-0.9833152,1.0882612,-0.71207696,-0.9981487,0.40024585
42dd5f9cd9e2c3ac9ed7,0.4698037,0.75063187,2.4723022,-1.492149,-1.3549633,-0.7391092,2.4440382,-0.938927,0.62113357,0.80537254,-0.2999672,-0.943943,1.2141286,-0.63125646,-1.2749465,0.5517047
42e83553ca9d77ab4aee,-0.5937476,-0.92280895,-2.8932724,2.9224036,-2.2197695,0.98200697,-2.8471456,-0.29395214,-0.41176945,1.5338306,0.36991492,2.7234867,-1.4577209,0.8838805,-1.0866646,-0.56081676
430420fb41fe0a889868,-0.698129,-1.0507416,-3.095915,3.337482,-2.799883,1.1005789,-3.102226,-0.41646284,-0.44954926,1.9037676,0.47843927,3.1617424,-1.6649625,1.0427227,-1.4213663,-0.62917435
432fd26823e230070734,0.58976996,0.51295954,2.4331381,-1.3580749,-1.2171446,-0.5928446,2.6387253,-1.2732784,0.90735924,1.0748079,-0.21637933,-0.93900466,0.7692811,-0.6794107,-1.3521719,0.31655905
4388d48ebff4cf866ecd,-0.38089246,-0.56304765,0.43315056,-1.7933489,2.515449,0.4998635,-0.0021873116,1.8155525,-0.8626527,-2.1761951,0.20088372,-2.311604,-0.91135955,0.74043113,2.196671,-0.19266625
43d34a076620e32fedfa,0.50946486,0.73408026,2.7372682,-1.8778725,-0.8732006,-0.7344131,2.7127266,-0.89232385,0.5366764,0.5799241,-0.32419577,-1.4312096,1.1860316,-0.660673,-1.0038617,0.5285205
43d98a750c726bb39d11,-0.60603285,-0.9592962,-2.755084,3.099659,-2.7317357,1.0001456,-2.7243721,-0.5297197,-0.44136035,1.9140605,0.37019402,2.9661567,-1.5377527,0.9710795,-1.4511623,-0.5737395
43vri1lqbgiiwbkaskqd,0.72027,1.1884577,3.30678,-0.47298107,-1.1725578,-1.0632473,3.7807364,-1.754314,1.8544124,1.2822887,-0.5840667,-0.2681561,1.976776,-1.6768192,-1.5472605,0.7788251
446d2ad0ca2908ffa4f9,-0.44918382,-0.6713039,-2.1872382,2.2804418,-2.3870058,0.71275586,-2.2194548,-0.29646376,-0.41278684,1.4663055,0.31093827,2.217371,-1.142409,0.7296228,-1.2043217,-0.39713383
4474f24ef69e01e2c001,-0.20226,-0.31859827,0.6826684,-1.5858742,2.1362884,0.34948346,0.2709198,1.6419287,-0.9499055,-1.9552759,0.15700881,-1.8876531,-0.44244394,0.51376766,1.8724836,-0.11549644
4478eae73fb84cedb102,0.54046273,0.75183177,3.04824,-1.918979,-0.79198205,-0.73250645,3.0713081,-0.95931405,0.7470531,0.49341524,-0.32811448,-1.4885231,1.3359001,-0.82143456,-0.9731214,0.49170253
44c7cf3881ae07f7fb3e,0.65716314,0.6929554,2.5329347,-1.2450411,-1.589714,-0.7229676,2.7109222,-1.297237,0.9797388,1.1494563,-0.23243122,-0.81529444,1.0230314,-0.7705485,-1.5621494,0.45140472
44c7cf3881ae07f7fb3eD,-0.118726715,-0.18503988,-0.013535126,-0.55252373,0.39402738,0.18375514,-0.18333225,0.5397939,-0.18389234,-0.58025044,0.0810624,-0.6502221,-0.34852457,0.16999295,0.54267246,-0.07110447
44x159fl0pw2uucriuga,1.1658164,1.8462816,3.908991,-0.11296171,-2.324541,-1.6288341,4.677495,-3.014312,2.8796139,2.3940663,-0.9211254,0.40796533,2.8714073,-2.609747,-2.7241669,1.0738727
451b0095938a3c54efc4,0.64964914,0.85149974,2.857619,-1.6352271,-1.442581,-0.84492695,2.9392445,-1.2599976,0.91475856,1.0079161,-0.32751235,-1.0677692,1.3065206,-0.8268916,-1.4864371,0.56266856
453d43b3f6bdf467e672,-0.760441,-1.1972508,-3.3812892,3.869409,-3.113896,1.2354892,-3.2955742,-0.55381215,-0.42895484,2.1930633,0.54438895,3.6845684,-1.8930181,1.1914536,-1.6083416,-0.7571186
454c91e8f96c1dc4e994,0.5993722,0.76508117,3.0564182,-2.176898,-0.7316248,-0.74800485,3.1358845,-0.97827023,0.7535406,0.5380271,-0.32478222,-1.757209,1.0904541,-0.7073325,-0.9980348,0.47280204
45b6cc87a7e957f83027,-0.4235317,-0.6239713,-1.8260877,1.8460519,-1.8171858,0.64780337,-1.8987774,-0.14854456,-0.35049647,1.0512512,0.28933632,1.7417715,-0.9822749,0.6609103,-0.8540447,-0.36661643
460fa4961434cf281423,-0.7029407,-1.0822518,-3.2933128,3.4671698,-2.5475304,1.1490948,-3.2347531,-0.474709,-0.41494498,1.9096259,0.41688153,3.2988186,-1.7257723,1.0021431,-1.299139,-0.6369943
46a60ed041c8ebf98061,-0.43077523,-0.5714163,-1.7445148,2.1598022,-2.2882068,0.6264186,-1.7331655,-0.36017194,-0.31454068,1.4535033,0.26391482,2.1120064,-0.995043,0.6813111,-1.2048783,-0.37377784
46a7a18ca160c829a15f,0.6775211,0.66408515,2.9540784,-1.9544939,-1.1471804,-0.708949,3.1150556,-1.3891319,0.95479393,0.9450847,-0.2965858,-1.3903503,1.0968089,-0.75747067,-1.4369723,0.4232295
46e2d5243b6eef040f97,-0.78348017,-1.2039435,-3.379134,3.6651928,-2.835862,1.2468767,-3.326326,-0.33477697,-0.5441657,1.910348,0.5599136,3.4427526,-1.9066726,1.1879702,-1.3517418,-0.7611528
4738a118c8b8fa271fd6,-0.5442529,-0.8506216,-2.4424584,2.7024467,-2.6844401,0.8816721,-2.4612088,-0.46826065,-0.44888496,1.778541,0.3315519,2.6152828,-1.3978062,0.9545465,-1.4164041,-0.50385696
47b08a7751ab609be9e5,-0.46164012,-0.6617345,-2.0819578,2.2326446,-2.3049316,0.7050274,-2.1056335,-0.30893782,-0.3944621,1.4269785,0.3040498,2.1630409,-1.1176102,0.72215694,-1.1701655,-0.4060708
47eeab842793b09300c3,0.20798662,0.46567607,1.7581519,-1.0750886,-0.694378,-0.42852703,1.810734,-0.62641793,0.37856796,0.3654946,-0.17571346,-0.7684385,0.9389396,-0.44726634,-0.74199766,0.3312565
47vclaej1xmb0rc8kgka,-1.4612159,-1.8003058,-0.4603157,-2.859973,5.613835,1.6464328,-1.1187403,4.851222,-3.2036297,-5.0169725,0.96930903,-4.1803875,-3.034819,2.763588,5.2133923,-0.99983823
4884f3bdc068ef01e042,0.69470483,0.58360004,2.2795715,-1.5776714,-0.8803911,-0.6078722,2.5207164,-1.0595913,0.90589267,0.8138338,-0.26583153,-1.296781,0.53253984,-0.6690064,-1.1059775,0.3313848
488934d01a504bc212b4,-0.6761575,-1.0455976,-2.8182101,3.0736187,-2.5198164,1.0864174,-2.792762,-0.29538724,-0.43640286,1.7000773,0.5079924,2.896077,-1.6867045,1.0266286,-1.1937174,-0.6628788
488fc49e8fccd665c3e2,0.71945685,0.77175254,3.3090773,-2.4008923,-0.7569725,-0.76917297,3.4093313,-1.2038043,0.85191894,0.65445,-0.33091173,-1.8981265,1.2106524,-0.84726554,-1.1445854,0.47010905
48a71a6a5a15e31084e3,-0.595432,-0.9291683,-2.8416755,3.1378522,-2.9225142,0.96513116,-2.8448987,-0.48897108,-0.49452004,1.9471271,0.39072528,3.0378568,-1.5358073,0.97711957,-1.5358896,-0.54592466
48a96425072cefa0dc69,0.37556332,0.5549224,2.0609303,-1.188698,-1.421393,-0.5833192,2.0704968,-0.9356513,0.53467023,0.89436907,-0.19850396,-0.71186477,0.88444984,-0.47044381,-1.278532,0.3773795
48ad93c227abfa9542aa,0.33569923,0.54825056,2.275721,-1.346847,-1.0938334,-0.53661186,2.3036938,-0.82175475,0.5558295,0.640495,-0.1935511,-0.9235573,0.9700607,-0.48891237,-1.0446106,0.36614302
498121d2486259ef1b3a,0.44751215,0.58340365,2.5984786,-1.5748978,-1.3790586,-0.6304276,2.6670377,-1.3293324,0.77277446,1.0360224,-0.25380838,-1.0424869,1.0412942,-0.54187405,-1.5033375,0.3898053
49a91a4dce6838ffcbcd,0.5226493,0.8257122,2.8539674,-1.9226882,-1.2888786,-0.7878004,2.7378745,-0.8380809,0.49896044,0.6474325,-0.34467113,-1.3511806,1.2631562,-0.5889738,-1.1963526,0.58505994
49b95110a8c59f6b6c58,0.65726644,0.6408755,2.4963586,-1.067117,-1.8796343,-0.7025821,2.7445953,-1.6263682,1.1477361,1.4883064,-0.23892722,-0.53867644,0.96658474,-0.8309314,-1.8672808,0.36859635
49ef48443e09f8be12f6,-0.61584693,-0.9438397,-2.866748,3.0129652,-2.7943838,0.98665345,-2.8859417,-0.2729287,-0.56744146,1.7501189,0.43728435,2.8663266,-1.5633585,1.0242451,-1.3737743,-0.5808323
4a0890c15c26984c191f,0.38411507,0.57783765,2.3263936,-1.075492,-1.1132501,-0.5623429,2.4552321,-1.1095803,0.74470574,0.82407653,-0.2161793,-0.704714,1.1844065,-0.7276058,-1.2164593,0.37142578
4a6e1cf1e4e9d8f54717,-0.25873476,-0.36959016,-1.2581561,1.1751403,-1.3746659,0.39502236,-1.3212652,-0.12565912,-0.1976927,0.7311716,0.17183346,1.1411111,-0.6055754,0.38466445,-0.6414178,-0.21648264
4a7f53c0a376edadf38a,0.7424001,0.6848366,2.8065116,-1.621328,-1.1894531,-0.72863364,3.0632107,-1.3856332,1.0941044,1.0757811,-0.27152023,-1.1770098,0.9620836,-0.83763283,-1.4476372,0.412156
4aa8ff74dc576b7adbcd,0.2781042,0.5121141,1.7293879,-1.1149026,-1.1150535,-0.49217147,1.7130741,-0.65035397,0.38439894,0.58584166,-0.17994916,-0.7200246,0.8506756,-0.42315373,-0.96251196,0.36169282
4acutl013itvh9va99p7,-1.3430487,-2.0017033,-0.7043536,-1.9770663,5.2359395,1.8642669,-1.3551325,4.7309113,-3.0153873,-4.672413,1.0793383,-3.3579304,-3.126836,2.6681225,4.9962664,-0.98802364
4atjmlccken75lck9ffp,-1.3175765,-1.7314372,-0.40335837,-2.5062916,5.3289237,1.628678,-1.1210635,4.5910025,-2.808477,-4.7720504,0.90068007,-3.8183224,-2.9717166,2.4706097,4.997618,-0.95891124
4bceaffe5e429ed3333b,-0.41684806,-0.57711107,-1.8336843,2.0583324,-2.311383,0.6069665,-1.8159544,-0.35461432,-0.33885375,1.37979,0.3024548,2.0172124,-0.93677044,0.6068911,-1.2140758,-0.36244512
4bq1kdgygbtif8w80s5y,-1.3942881,-1.8235744,-0.47516006,-2.769997,5.681508,1.678791,-1.1106367,4.7899504,-3.0604084,-5.0040536,0.93508065,-4.105893,-2.9802616,2.6058805,5.2409244,-0.9596518
4c26df96293b4a52bc03,-0.7734809,-1.2572913,-3.517683,3.7638602,-2.8826423,1.296722,-3.440434,-0.45050493,-0.48661333,2.0557072,0.55804193,3.5726104,-1.9532915,1.1626496,-1.4497062,-0.7678186
4c79be630ae9d3db6aaf,0.4632029,0.52075595,2.385874,-1.4620849,-1.0234677,-0.512785,2.5135734,-0.9855608,0.7304069,0.7797392,-0.18792179,-1.0946618,0.7022323,-0.57901394,-1.1092558,0.2972969
4c90f16c0fcd85d3de25,0.74224615,0.63822705,2.574704,-1.7909678,-0.93151563,-0.6747399,2.7692363,-1.2765617,0.9123466,0.8762372,-0.2842743,-1.4551971,0.7062729,-0.7854772,-1.2630485,0.34748292
4ca5c8ea55be09213d14,-0.47861418,-0.7400905,-2.3855915,2.4670746,-2.4506361,0.77192396,-2.4269562,-0.40818772,-0.42671895,1.611027,0.28375685,2.4026403,-1.2243986,0.78141135,-1.2911396,-0.40605506
4cb96f0d9108066442a8,-0.5016415,-0.76318127,-2.2901363,2.3737533,-2.5453582,0.80035925,-2.343686,-0.36030596,-0.4480048,1.5575501,0.3461918,2.314488,-1.2125155,0.80763817,-1.3191668,-0.4457187
4cc0dc56eecea1d928d1,0.4831843,0.74372953,2.7585037,-2.072827,-1.304485,-0.72315294,2.6382277,-0.81288064,0.47058454,0.65513295,-0.24280566,-1.5018718,1.1774828,-0.5276907,-1.209072,0.5217037
4dfdfa5e1a04c832b9b4,0.40578017,0.74783295,2.468398,-1.5088135,-1.3813206,-0.7332384,2.4490151,-1.0122385,0.6572561,0.8586477,-0.27406186,-0.9411008,1.2351786,-0.6781828,-1.3135093,0.5235036
4e4bb1f26e34ca0a13dc,-0.042274684,-0.15124668,-0.70461327,0.5247089,-0.7244832,0.11824931,-0.69368696,-0.18372062,0.11161188,0.4395542,0.032402743,0.49343833,-0.22459039,0.043439776,-0.38945854,-0.039759845
4e508744a9816cc4586a,-0.25583187,-0.35285807,-1.3367134,1.2200009,-1.4359914,0.39273497,-1.4284248,-0.107412666,-0.27034882,0.7750602,0.13674894,1.1722144,-0.6337669,0.42420918,-0.67612517,-0.1957958
4e693829528e3e7de62a,0.741415,1.0863669,3.2931867,-1.9895557,-1.6115398,-1.0442162,3.203574,-1.3422371,0.91037875,1.1737998,-0.5036762,-1.2501945,1.5410267,-0.8510381,-1.6347078,0.7435159
4e768251c78b687fa993,0.3268608,0.62420106,2.2962453,-0.9226926,-1.0185058,-0.5685654,2.3766248,-0.7801109,0.6910429,0.6460014,-0.2112767,-0.6296832,1.1244326,-0.6803975,-0.96998024,0.39730716
4edfd2e1b7c5c5d1d384,0.12242801,0.28266108,1.0885035,-0.41699123,-1.1798261,-0.26389703,1.1539292,-0.51904184,0.37057352,0.65473753,-0.044907205,-0.175504,0.49038494,-0.2988857,-0.885613,0.16837156
4erna0vkk9gu5umle1se,-1.2681544,-1.9035815,-0.48715684,-2.1891992,5.2388587,1.7715127,-1.1249455,4.4512568,-2.7009404,-4.540609,0.9488654,-3.507517,-2.911621,2.4915693,4.8541627,-0.899933
4ewf46mylf75olvvihqj,-1.3585132,-1.9134706,-0.48226914,-2.3333838,5.5335603,1.7930404,-1.2295382,4.846134,-2.9487298,-4.8811836,0.991987,-3.7473607,-3.141051,2.6342165,5.221971,-0.98636127
4fl8e5s0nf65bm2m34f0,-1.1730831,-1.6116599,-0.07045609,-2.037674,4.6995378,1.4832247,-0.64851344,4.234133,-2.6409113,-4.2383056,0.95224506,-3.2627156,-2.6277893,2.240547,4.461754,-0.8917871
4glo109mkgy7azntyttp,0.6344608,1.0492812,3.1637611,-0.63329405,-0.83639896,-0.9450515,3.5525458,-1.4357607,1.6082908,0.9711227,-0.5025433,-0.5126304,1.6670238,-1.4545195,-1.2194033,0.63103336
4i0t5tq7o78lvc1zglgr,-1.2686375,-1.659655,-0.039969157,-2.6255922,5.280818,1.533366,-0.6647965,4.542776,-2.9680037,-4.7097473,0.9201539,-3.9330363,-2.7475066,2.3835511,4.8422585,-0.8672481
4nun1ah7qw10q705a2aq,-1.1126108,-1.5925331,0.16885495,-2.23247,5.0737343,1.4862133,-0.43372533,4.3310304,-2.4628303,-4.4418855,0.91300046,-3.439198,-2.6476717,2.172097,4.722139,-0.85792303
4oqxw56hzk4fk8aqh3e0,-1.2433823,-1.6437308,-0.05572834,-2.4770222,5.1927743,1.5467352,-0.6404597,4.332051,-2.6406736,-4.5247173,0.83645076,-3.7368069,-2.6382682,2.2551088,4.747586,-0.8217021
4v5xbvn3yhmvs97477pc,-0.69469404,-1.030504,0.9659936,-1.9966898,3.9821935,0.98839587,0.4874639,3.253713,-1.7687674,-3.456448,0.5840677,-3.01685,-1.7435496,1.4256736,3.58989,-0.45542198
4vnvytgnlmv4jbfw9h3t,-1.1657923,-1.7141604,-0.17818788,-2.2583191,5.2198973,1.6070662,-0.7626379,4.409148,-2.633985,-4.5350685,0.92401206,-3.5659688,-2.7175617,2.242732,4.8112555,-0.8305772
4x441h9y6wzknmtdw7q4,-1.4356625,-1.9183825,-0.4563851,-2.7414234,5.7038703,1.7795843,-1.2000128,4.8774977,-3.1461582,-5.0802255,0.98938197,-4.1595883,-3.1635463,2.6752841,5.2779603,-1.0004932
4xh67ezjc331pg9q3kfv,-1.2843149,-1.8777122,-0.22927897,-2.557415,5.368394,1.713166,-0.8710458,4.747972,-3.088358,-4.8215075,1.0429275,-3.8417854,-3.0577507,2.6776435,5.025933,-1.043215
4y1vvkscejq34042oag4,-0.79762477,-1.1941334,0.6373808,-1.8550853,4.0703154,1.1411254,0.14660199,3.4314144,-1.9356397,-3.5479436,0.6700821,-2.9315412,-1.9691681,1.5718395,3.7288785,-0.58945453
4ycyhj8tyx2b17fcx29j,-1.13521,-1.5391356,0.14335635,-2.623726,5.1863766,1.4536738,-0.47933605,4.312895,-2.6085613,-4.5594163,0.8006675,-3.890398,-2.5308704,2.1203747,4.724537,-0.70209956
504278569f7c6dff25e3,-0.49885118,-0.76372236,-2.2232792,2.2832248,-2.1489556,0.80362046,-2.314095,-0.229193,-0.42727792,1.3283272,0.33116743,2.1695387,-1.2250367,0.803499,-1.0309893,-0.4455172
50673b01fd2b0c765572,0.57778883,0.80585706,2.8062978,-1.5363108,-1.723628,-0.81388026,2.8305237,-1.2004857,0.7751821,1.1225259,-0.29124877,-0.91161144,1.3013707,-0.7114609,-1.5960947,0.54709584
50fec4ca4283ad18c000,-0.61389303,-0.9404559,-2.8937159,3.3480442,-2.7432737,1.0140938,-2.809232,-0.59809494,-0.3462266,1.9926093,0.37539938,3.2078202,-1.534177,0.8985088,-1.4700817,-0.5750905
510a90cd169e2eb042ab,0.9496497,0.83239335,3.4298003,-2.4269128,-0.94285065,-0.9057462,3.6641195,-1.3817245,1.0934105,0.8897567,-0.32163405,-1.9029312,1.1093441,-0.968062,-1.3538862,0.49542177
522837ace4fd8dd743f2,0.9232995,0.8620071,3.6094036,-2.0905821,-2.0241544,-0.9477724,3.8677862,-2.2431753,1.4353313,1.758914,-0.4060166,-1.2442684,1.3648075,-1.050551,-2.396289,0.49149337
52a24e35d5356ab34a2e,0.32617083,0.5691604,2.2047791,-1.4958721,-0.98450613,-0.5453834,2.1853201,-0.668079,0.38258472,0.4858548,-0.20464572,-1.0669606,0.9275483,-0.42382193,-0.9279548,0.3758847
52d965ebf3ec0518bc0f,-0.008027907,-0.28582183,-1.3118289,1.3754927,-1.4029268,0.18075685,-1.0886825,-0.5982159,0.33523265,1.1315527,0.077295974,1.3016509,-0.46388978,0.03786654,-0.95206124,-0.10019983
52f1bca9ac9c792e4457,-0.30100244,-0.47474712,-1.667395,1.6385554,-1.6218128,0.5078254,-1.7058314,-0.27536267,-0.23002526,1.0493556,0.16260947,1.5783557,-0.776289,0.4810069,-0.850304,-0.24180402
52f4899e918b57df28da,-0.41498163,-0.6121967,-1.7338293,1.7097609,-1.6407398,0.6335529,-1.8263702,-0.09415722,-0.3445991,0.92686814,0.28053558,1.5893373,-0.943645,0.6406692,-0.73837066,-0.3586785
533bc4c6716035e694ac,0.7008929,0.520091,1.7703308,-0.37842974,-2.0275612,-0.6180308,2.0496526,-1.7055484,1.2527544,1.7270973,-0.23160963,0.045365922,0.6412509,-0.7779773,-1.9503767,0.30225125
539911ee11c1b2aaeb88,-0.6375745,-1.047492,-3.0308065,3.2810826,-2.71826,1.0744175,-2.931928,-0.5268949,-0.36611688,1.9110862,0.46074843,3.1254795,-1.6312705,0.94809484,-1.4397388,-0.64967996
53d51965c40a54cff1a0,-0.5541252,-0.8426668,-2.3862257,2.548666,-2.4956648,0.88172203,-2.4300265,-0.2967379,-0.45698574,1.5317602,0.39740252,2.4352517,-1.3846114,0.8992845,-1.2399101,-0.51973724
54342435561e775ce97f,-0.4909516,-0.7447241,-2.1707156,2.271925,-2.1777365,0.77642757,-2.185518,-0.2980169,-0.3366019,1.3407216,0.3623154,2.1743603,-1.1452719,0.71013176,-1.0880947,-0.4483176
545eb6c8154273344669,-0.640968,-0.9680131,-2.5877945,2.8987906,-2.7818615,0.9768703,-2.5979252,-0.48723173,-0.4699533,1.8694884,0.4488502,2.7952344,-1.487725,1.0455304,-1.5035243,-0.5641008
5479f88afb95288d6392,-0.79258895,-1.2201188,-3.583912,3.879222,-2.961019,1.2675376,-3.490127,-0.46000144,-0.46613374,2.0559757,0.5814088,3.6666615,-1.9236537,1.1087554,-1.4730914,-0.75729936
54826f4abf592713d585,-0.8236408,-1.2856542,-3.563139,3.8086805,-2.8350792,1.3194588,-3.4998188,-0.36178693,-0.558458,1.9586406,0.5993146,3.552045,-2.0039907,1.205653,-1.3584666,-0.8037935
54f91ccb08cbece520da,-0.6994922,-1.0832672,-3.1715963,3.2939475,-2.6691468,1.1441134,-3.206768,-0.3246145,-0.5298193,1.7826133,0.46407995,3.101361,-1.7717174,1.0566754,-1.2725273,-0.6650735
552365f82674884bcaaa,-0.5977106,-0.9234338,-2.5665617,2.9629195,-2.8500228,0.95688945,-2.5390077,-0.4756827,-0.43454072,1.8388174,0.44736037,2.8462677,-1.4185804,0.91053647,-1.4944801,-0.5681732
553l2g7kpifbvn82knxk,0.96387607,1.4990965,3.4718196,-0.25796357,-1.7179034,-1.3223472,4.0627003,-2.382043,2.4267247,1.8609279,-0.7359504,0.08665247,2.283659,-2.0435433,-2.0585124,0.87894857
55a47a152d359522e38d,0.58758676,0.65808845,2.713015,-1.8086624,-0.88580966,-0.66070044,2.842685,-0.99939555,0.8390399,0.6653266,-0.26488796,-1.4622359,0.95274216,-0.7432356,-1.0518786,0.40797773
57709f904b1cc9ec60b1,0.27780452,0.4472719,1.9521674,-0.9947774,-0.7649791,-0.42572534,2.0018466,-0.5608737,0.46627736,0.4419154,-0.17313893,-0.77140397,0.8154521,-0.41214225,-0.7380521,0.28224272
57c33a6126c456c5ada8,0.5656684,0.6319089,2.3027802,-1.180616,-1.351225,-0.6543087,2.4278183,-1.1948836,0.8737148,0.99490386,-0.2321895,-0.74708796,1.0189501,-0.75136596,-1.3671917,0.40845126
57f84519c468df122d69,-0.55945754,-0.90985787,-2.6946723,2.8777459,-2.6706536,0.91954964,-2.6015577,-0.44197804,-0.41022843,1.7420577,0.41027716,2.7650774,-1.440254,0.8527994,-1.3850292,-0.56338745
580e98185da72b5f34cd,0.50224096,0.42876348,2.1025226,-1.9781507,-0.049863327,-0.36875245,2.2049801,-0.43771064,0.50411564,0.08816398,-0.16901779,-1.8322477,0.31068248,-0.3888152,-0.31890377,0.21597406
58n0dsxyyqnriomw67id,0.6155161,0.99725246,3.1780326,-0.9392454,-0.4785383,-0.898063,3.5907958,-1.2125598,1.3869944,0.6605224,-0.47157457,-0.78179294,1.5541198,-1.3208004,-0.9392623,0.59625685
58widcj6smafuwyqxw2m,-0.9244949,-1.2767242,0.3923582,-1.8993746,4.23622,1.221256,-0.17710923,3.6329625,-2.0489976,-3.704687,0.70159733,-2.9734714,-2.152453,1.7925193,3.9550471,-0.6619463
5914db0d4427b322e8af,-0.13464187,-0.27934325,0.38732126,-1.3302441,1.8940085,0.30567244,0.004282602,1.3783062,-0.6950721,-1.7184258,0.0998335,-1.5886654,-0.36795148,0.37182072,1.6835196,-0.11544439
5963ba5cd9d242a00e22,0.49242038,0.6580259,2.4004955,-1.3568068,-1.3004593,-0.65922534,2.5010452,-1.0329895,0.7442441,0.88482237,-0.23306663,-0.85659206,1.0130907,-0.6609962,-1.250475,0.4194945
59bybxqvhton27u0jtfm,-1.4845499,-1.966411,-0.4408856,-2.7630045,5.90329,1.8208121,-1.1682673,4.9407372,-3.1415615,-5.161424,0.9651649,-4.201609,-3.0669613,2.7217505,5.4012566,-0.9524431
5a44a7c59729d41d596a,-0.11792318,-0.2403735,0.13565937,-0.78290075,0.673899,0.21118982,-0.08149313,0.7215288,-0.29203615,-0.7968822,0.09963568,-0.92998326,-0.4577773,0.28693357,0.74552643,-0.112869635
5a8cce5abee961fc77f3,-0.6461962,-1.0189601,-3.155795,3.3291774,-2.7770593,1.0767422,-3.1577804,-0.48018044,-0.5078999,1.9693553,0.37452826,3.2052321,-1.712205,1.0836449,-1.4251161,-0.5884858
5abcc9d4fb5e764b2f6f,0.3138367,0.5172872,1.8342319,-1.1454899,-0.98942214,-0.5093186,1.8213588,-0.74875885,0.50312996,0.6122702,-0.21226661,-0.7733657,0.8744763,-0.49432912,-0.9516093,0.3752196
5ada57d72f07c3803d33,-0.18764791,-0.27225494,-1.3281761,1.2551081,-1.2217335,0.29200527,-1.2951998,-0.24715137,-0.10497501,0.8729817,0.03946279,1.184464,-0.53434163,0.2747634,-0.6676177,-0.11146754
5b5ef66e547d63806a56,0.5571361,0.73453426,3.0621214,-1.8091502,-1.3402319,-0.77125245,3.1194649,-1.329019,0.903835,1.0571777,-0.30349606,-1.2441027,1.2302328,-0.7077024,-1.4721899,0.5110691
5bdad002590327215ae0,-0.6797443,-1.0968231,-3.3290367,3.4960897,-2.9159603,1.1428425,-3.303279,-0.4284575,-0.5897603,1.9463602,0.4433554,3.314752,-1.7817163,1.1333399,-1.4452815,-0.66958123
5be7405ad4ae9d9a2853,0.5454514,0.6424717,2.2642121,-1.3995714,-0.93636656,-0.61523724,2.3705916,-0.93675756,0.67494017,0.7450912,-0.3057484,-1.0185354,0.87096214,-0.6104172,-1.03427,0.42798555
5c33bb784bb99763ed74,-0.493959,-0.7083434,-2.3174663,2.4169521,-2.066036,0.76889485,-2.3246028,-0.3131408,-0.3362426,1.4320217,0.30244026,2.316706,-1.2097539,0.6848247,-1.0313655,-0.4173082
5c83f4ed6601ddf1a6fa,-0.49295974,-0.6726519,-2.399152,2.3853614,-1.9376339,0.746735,-2.4329498,-0.19049543,-0.4103214,1.2764281,0.25444964,2.230205,-1.1648413,0.7442747,-0.9129189,-0.39801338
5cda8273b348fbda9f29,0.364257,0.5936888,2.0736983,-1.1483014,-1.1963688,-0.5635476,2.0671997,-0.7735223,0.5744616,0.7095952,-0.24767822,-0.72856694,0.9295991,-0.49466148,-1.0887363,0.3832094
5d16326e4577a67d94c6,0.4426907,0.7177579,2.4709706,-1.4731706,-1.2505616,-0.7082656,2.41109,-1.0202237,0.5919243,0.8895465,-0.34854102,-0.9835951,1.1293612,-0.64298344,-1.2310257,0.51533777
5d2379fb72082166dee3,-0.35961008,-0.5745266,-1.7266132,2.0110736,-2.2969687,0.60531473,-1.729238,-0.41854683,-0.25419945,1.422835,0.26401353,1.9660563,-0.9647821,0.62497044,-1.2618403,-0.36957908
5d580a610c7f8114eb5c,-0.6918534,-1.0887702,-3.0522087,3.3963041,-2.7196708,1.1175656,-2.9684598,-0.44083947,-0.42388815,1.8914031,0.5086007,3.206104,-1.7223903,1.0147474,-1.3453559,-0.6881854
5d89810b20079366fcc2,0.2528653,0.45378304,1.5409935,-0.8112592,-1.5040873,-0.44274586,1.5685911,-0.6982545,0.43127277,0.7743158,-0.10045595,-0.39250526,0.7233922,-0.36288944,-1.201574,0.28620085
5dmn9cwdf4l1snqfjw1p,-1.3426723,-1.6478877,-0.3947316,-2.7875443,5.292192,1.5323826,-0.9831995,4.3799386,-2.8439558,-4.6940913,0.84362286,-4.067772,-2.774268,2.4198508,4.8013763,-0.84642047
5e12a0421c20717035cb,0.5212453,0.7578338,2.805728,-1.4896349,-1.5269996,-0.7747965,2.8555005,-1.1394789,0.8255891,0.9671995,-0.277531,-0.9543275,1.2268069,-0.6946404,-1.459047,0.5032342
5e29473eb1e80fde79a0,0.49711522,0.7141625,2.4181187,-1.2127796,-1.4581596,-0.71966755,2.4545918,-1.141737,0.7216853,1.0229423,-0.30023327,-0.6981933,1.2772453,-0.75913495,-1.3834176,0.50577223
5e89fad73b2ada2a30bf,0.4401322,0.75229377,2.7721093,-1.6417879,-1.6011279,-0.7536172,2.7516615,-1.0940732,0.65323704,0.9429862,-0.2521543,-1.0420309,1.2550967,-0.640965,-1.48548,0.5300873
5ez4c53h3kdamnlvkpna,-0.9361553,-1.4980463,0.092128485,-2.172553,4.5108075,1.3609575,-0.4014627,3.792408,-2.2666352,-3.9957166,0.77048355,-3.2711186,-2.2892914,1.998341,4.086793,-0.7010949
5f55600069b483f999f5,0.78964025,0.5908027,2.2535632,-1.2371551,-1.5431697,-0.6961286,2.5381463,-1.6129354,1.2090211,1.4067183,-0.21142125,-0.7634433,0.7281173,-0.8939792,-1.765551,0.33721226
5f7b406b2bbf9789735f,-0.5518327,-0.92051005,-2.650699,2.9993856,-2.780802,0.95717824,-2.604244,-0.56810814,-0.3736519,1.904238,0.39658812,2.9394314,-1.4989471,0.8935498,-1.4711578,-0.56773835
5f8d87412f69e3d9fb13,-0.33602127,-0.4787211,-1.5425562,1.60358,-2.0078015,0.50262463,-1.5595111,-0.2651186,-0.28620496,1.1427189,0.2533647,1.5925612,-0.774234,0.5196039,-1.0489337,-0.28371105
5faa3d19e595ab735fda,0.39229333,0.6267967,2.0958054,-1.1532068,-1.5630393,-0.6072093,2.0944867,-0.9771711,0.5888989,0.95048404,-0.24080628,-0.65261763,1.0067396,-0.5207977,-1.3741263,0.42789435
5fbaf8a0f524358778bb,-0.76211804,-1.1725816,-3.1253803,3.5525093,-2.920175,1.1831287,-3.0220823,-0.4926605,-0.38678408,2.0442562,0.56383735,3.35587,-1.744079,1.098041,-1.5131369,-0.72658765
5gs9643ghg39gpkgi3e5,-1.1486107,-1.5066253,-0.18346874,-2.5380864,4.740007,1.3716774,-0.67424273,4.031052,-2.584896,-4.296857,0.820244,-3.650669,-2.5055456,2.2884753,4.342406,-0.79454744
5jxldd3plo4x6oq140l5,-1.0898505,-1.7847908,-0.30619106,-2.0901291,4.9784803,1.6657268,-0.8599799,4.2766304,-2.4578755,-4.353892,0.9283348,-3.3464,-2.7926695,2.264092,4.641877,-0.9013603
5kqtdcvyt7rgqdoextw8,0.9635675,1.5766058,3.7933393,-0.5291215,-1.7097949,-1.4349182,4.4148955,-2.333395,2.248919,1.7621264,-0.7306825,-0.13018253,2.4285848,-2.1084073,-2.1490362,0.89381397
5l1b1ma70rilf7mojch5,-1.3984867,-1.7944281,-0.20722494,-2.9191418,5.723481,1.6694735,-0.91036177,4.642631,-2.971505,-4.9725432,0.88762474,-4.279832,-2.9344902,2.5564964,5.153857,-0.910673
5m6lgwi0mkqs8ilg3qqs,-0.45679674,-0.64309675,-1.8556339,2.1008906,-2.3986003,0.674256,-1.8548937,-0.5214238,-0.301359,1.5375713,0.29742146,2.0640798,-0.95892096,0.6448233,-1.3779861,-0.35253245
5mrih4nj5agvu67vao4m,0.832977,1.4037366,3.3659797,-0.39417505,-1.325642,-1.2240919,3.8796651,-2.082424,2.1953251,1.575222,-0.7567434,-0.16625299,2.0987697,-1.9139265,-1.7561511,0.8599443
5qfsd40k8fv54hc102p2,0.67680246,1.2534728,3.4699178,-0.74763745,-0.9379457,-1.097207,3.9312243,-1.5755538,1.7358366,1.0177047,-0.57583535,-0.5340338,1.8951086,-1.6416384,-1.3250719,0.734686
5rxl72n8rmnxwrxcss0q,0.7355112,1.1011963,3.3502042,-0.77650106,-0.8113561,-0.9938687,3.7150671,-1.5054564,1.8114699,0.9873437,-0.5358022,-0.59691286,1.7849348,-1.6434431,-1.2301712,0.6911766
5slhcx7pnjhcmlbfffu6,-1.3503003,-1.8490474,-0.18101755,-2.5148375,5.5636945,1.7336286,-0.85148525,4.7909985,-3.0403547,-4.951913,0.9957061,-3.887432,-3.0696862,2.566106,5.1892753,-1.033879
5zczdtyecu2w495j80xv,0.82054424,1.3726169,3.4122214,-0.48979422,-1.4735129,-1.208806,3.9501884,-2.1466198,2.2609005,1.5430301,-0.68005544,-0.15944242,2.2850306,-2.0191972,-1.8332053,0.8320133
6002b9ec0f4ad0b281cf,-0.55314046,-0.8994362,-2.7864914,3.1038048,-2.5441399,0.95570594,-2.7092881,-0.5547516,-0.4153999,1.8329531,0.34791273,2.9847221,-1.4548396,0.8756147,-1.3533063,-0.5231272
60c3549c706fe13322ce,-0.5426695,-0.8958888,-2.4708123,2.6966858,-2.7458642,0.9063095,-2.4533317,-0.49583575,-0.3867231,1.7916349,0.40862587,2.5918624,-1.3807318,0.8928945,-1.4934409,-0.5361164
6106e5232ac32bc22d1d,0.2938918,0.54356605,2.730195,-2.3384876,-0.32604054,-0.52686405,2.6477997,-0.47322023,0.23373985,0.059615962,-0.22046034,-1.9090618,0.82547843,-0.30317655,-0.544132,0.4114432
61de1e21015e07aacbe8,0.879569,0.975262,3.419116,-2.1314232,-1.7308931,-1.0314931,3.538161,-1.5779305,1.1141548,1.2961216,-0.3671325,-1.3924419,1.36907,-0.9250577,-1.8550643,0.6329263
62156eada978f707f5d2,-0.7565651,-1.2058922,-3.4422016,3.6820943,-2.8897057,1.2623655,-3.3807929,-0.41584373,-0.54707825,1.9812238,0.5328933,3.4888568,-1.8850158,1.1297787,-1.4106915,-0.75105506
6273f50d9a0b4e6d971c,-0.5986596,-0.87822884,-2.8127675,2.8539002,-2.5030282,0.93400717,-2.8594105,-0.26804182,-0.5427594,1.5879288,0.37302053,2.7043293,-1.4947323,0.93452233,-1.197902,-0.53497976
628bztd9ybuth5efk7nw,0.7446693,1.161508,3.1257749,-0.5343367,-1.2350065,-1.0374684,3.5491004,-1.702946,1.6781046,1.2114075,-0.5843508,-0.21429741,1.8706135,-1.4815531,-1.4920899,0.6946134
62a877b83219f7974fd0,-0.45804498,-0.6890748,-2.0080266,1.9891208,-1.9847063,0.71648055,-2.1210082,-0.16677792,-0.40728346,1.1678616,0.30568114,1.8795456,-1.1009986,0.7386016,-0.9373865,-0.3972021
62olkigg7ntlaf6fzytl,0.47859034,0.72649735,2.4349263,-0.48411205,-0.43300262,-0.6502587,2.7933288,-0.8971633,1.2034919,0.56143343,-0.3363403,-0.43666902,1.152918,-0.9872074,-0.6388599,0.43725076
6314d7cbc465e29f357c,0.1288113,0.36194003,1.2129512,-0.6148046,-1.1339747,-0.34431142,1.2784005,-0.64933693,0.2920611,0.6718087,-0.11498651,-0.32400066,0.64292943,-0.3214337,-0.95988,0.24018005
63aded37545ab92d41d4,0.5127211,0.5912931,2.540182,-1.2034152,-1.3772689,-0.6307952,2.6736228,-1.3665591,0.9630273,1.1243519,-0.23461239,-0.75338984,1.0547438,-0.78200465,-1.5059668,0.3889442
63c38a00d97e62c31e08,-0.64907503,-0.9601455,-2.6983879,2.8906744,-2.450911,0.98620254,-2.707975,-0.27205628,-0.4346814,1.6083082,0.45229375,2.7172892,-1.5137,0.97677946,-1.1868174,-0.59830225
63eef37311aaac915a45,0.6454002,0.43821043,1.6903455,-0.97455806,-1.3407383,-0.5263382,1.9110606,-1.3274951,0.94813704,1.1930453,-0.18117483,-0.5652088,0.5608059,-0.6860374,-1.4781746,0.29246426
63ff3dff3eb31d62ab3e,0.44353265,0.6213202,2.386088,-1.2187754,-1.4955672,-0.6322587,2.500194,-1.2030497,0.83650964,1.1034,-0.20491898,-0.7249021,0.99299383,-0.6835901,-1.4452324,0.40596294
6486c0664d217470d126,-0.6369352,-1.0877485,-3.025483,3.29469,-2.6889753,1.1153156,-2.9277434,-0.36862487,-0.34513146,1.8898494,0.5008359,3.1691887,-1.7815344,1.0202891,-1.3017546,-0.69484013
6496d6268092ef8e7e9d,0.41965052,0.5265168,2.1860657,-1.5351181,-0.70758075,-0.52449846,2.2094564,-0.8723008,0.5771391,0.54452085,-0.26669723,-1.1450974,0.8484161,-0.49817,-0.8590376,0.33655787
64d1d58d40bca568347c,-0.46523967,-0.7039553,-2.1815538,2.3182042,-2.3623798,0.7363474,-2.1883855,-0.37136254,-0.37931553,1.4871296,0.310079,2.237606,-1.1665763,0.7610345,-1.2366736,-0.4274938
64d65eddd629b80922f1,0.08570472,0.23045206,0.81708694,-0.65895015,-0.5787805,-0.21370329,0.8110369,-0.24382345,0.14987798,0.19360751,-0.06721239,-0.48075444,0.39392906,-0.19999401,-0.43118903,0.1564178
6569uz69or21mbcejw25,-1.1776816,-1.4558173,-0.01973999,-2.810046,4.934688,1.3241509,-0.6556192,4.1586556,-2.6423125,-4.382693,0.7905388,-3.9461782,-2.6440175,2.311998,4.514695,-0.8058772
6604efc6fd93e070f40a,-0.54269564,-0.8084586,-2.594036,2.4910977,-2.1896234,0.8686628,-2.6862366,-0.21153653,-0.49828124,1.3665618,0.3275088,2.345099,-1.3434595,0.8458185,-1.0253149,-0.45801172
663aff87732c52f0e342,0.7910423,0.6725932,2.792234,-1.2648468,-2.0352979,-0.76466995,3.086337,-1.9898466,1.4331697,1.7936999,-0.2564588,-0.6579845,0.99769115,-0.952678,-2.1795106,0.38535595
66d7c0bdb21b7d5bd83d,0.8497953,0.5786152,2.6633713,-1.8206413,-1.2207756,-0.7035389,2.943879,-1.458681,1.1373144,1.1962168,-0.18917663,-1.3520664,0.55202967,-0.83662784,-1.5269744,0.32146034
66f99grd556eyxjqk7pz,-1.2875065,-1.6418478,-0.30995432,-2.4620578,5.2482724,1.5336485,-0.8875589,4.52118,-2.8210006,-4.63914,0.90024734,-3.729865,-2.873049,2.437479,4.905958,-0.96155846
67456512891f96cc0fc3,-0.6860157,-1.002902,-2.8112402,3.106657,-2.7764702,1.0502651,-2.7907767,-0.4521078,-0.5381503,1.8629339,0.43724322,2.9708273,-1.5497774,1.0580521,-1.466476,-0.5749621
67f8d47cfb7b7b3d2095,0.36681384,0.57122767,2.3008153,-1.4703834,-0.88970697,-0.55247414,2.3075929,-0.9267263,0.60601157,0.66419953,-0.28339994,-1.0372268,0.9526267,-0.5043218,-1.0062033,0.37541586
6837091518a3524730fb,1.1163374,0.87708503,3.0351202,-1.365454,-1.7217288,-0.9460477,3.3681011,-1.9574322,1.5941687,1.6823894,-0.44953164,-0.89510536,1.0754883,-1.1900002,-1.9713039,0.49533686
687ndz7mxhpv3gg91ie2,-1.3150645,-1.8259243,-0.015246563,-2.5020714,5.369998,1.6940067,-0.7463497,4.7293015,-2.980014,-4.8024416,1.0096465,-3.8288991,-2.9463654,2.5255768,5.00364,-0.97125995
68c45e933c2dc939e7c9,-0.59720653,-0.9240144,-2.6659195,2.9475048,-2.5587065,0.96462816,-2.6371574,-0.4905417,-0.32708064,1.8536816,0.38790312,2.8504188,-1.5341246,0.92155206,-1.3433825,-0.5623992
6923e581d76689cb57a1,0.460018,0.62554836,2.1124918,-0.7671582,-1.7962286,-0.64838254,2.2677305,-1.2219521,0.7891126,1.2450558,-0.18467374,-0.28837192,1.1064751,-0.7180322,-1.6048712,0.38794735
6964a3d507ac1ecf9e52,0.61717445,0.69871575,2.8510022,-1.7123846,-1.2888767,-0.7143262,2.9215386,-1.3209498,0.9439815,0.8957553,-0.30848047,-1.2159805,1.2529231,-0.8311731,-1.4024997,0.3908144
69a4b3d15a5bf0d0e43e,0.37293234,0.56444174,2.0864747,-1.1377938,-1.374383,-0.5887435,2.0723927,-1.0060034,0.56143206,0.91756344,-0.2243081,-0.6890526,0.97891253,-0.56781703,-1.2816471,0.42867088
69ae85efb03510241445,-0.6824546,-1.0011538,-3.0922096,3.2893164,-2.6673381,1.058594,-3.087949,-0.42674583,-0.43581015,1.898844,0.40350625,3.114247,-1.6527407,1.0093341,-1.3533837,-0.60263175
6a62f52203bda35656be,0.81722236,0.89993685,3.8033016,-2.736793,-0.9572809,-0.92430145,3.9161336,-1.4739188,1.0193586,0.8304434,-0.3746348,-2.0929427,1.4171876,-0.9496045,-1.4274236,0.56066287
6ab4994b59925a6d1bba,0.79800063,0.7796736,3.1283536,-2.127348,-1.0135761,-0.8023332,3.3100004,-1.4319708,1.0807049,0.96638936,-0.31519794,-1.6603937,1.0660623,-0.9496524,-1.4267976,0.44321105
6abeead45fd57abadaff,0.24389927,0.3789702,1.1986758,-0.5235733,-1.6378344,-0.3912937,1.2056074,-0.8163539,0.37681958,0.97180784,-0.12401792,-0.14873369,0.5861545,-0.29480073,-1.2935344,0.28609338
6ae7d356ba998218af82,-0.681181,-1.0832815,-3.1017437,3.2571023,-2.608104,1.1371044,-3.0873175,-0.37354,-0.49549538,1.7700152,0.48094735,3.092288,-1.7067637,1.0280238,-1.2759848,-0.65901965
6b0cc09c9daf2966d1a7,0.46549624,0.67234594,2.6962688,-1.9549354,-0.6271491,-0.6795191,2.6940994,-0.85837835,0.5740516,0.4753842,-0.34059215,-1.5795684,1.088265,-0.6132102,-0.873676,0.46083465
6b22922bfe081d68c7a6,0.7082655,0.7676921,2.738433,-1.6035167,-1.3655128,-0.8052255,2.8392265,-1.3350677,0.92350787,1.1168231,-0.3745713,-1.1216736,1.1066637,-0.7657882,-1.4754336,0.54872686
6b9ee688551136da2eb9,-0.43757814,-0.72046894,-2.3375187,2.4835355,-2.3737805,0.75945526,-2.3066645,-0.39029312,-0.36028606,1.5959525,0.28944492,2.4402008,-1.2588843,0.7636679,-1.2278888,-0.43454704
6c14ce386a9cda72549c,-0.7015246,-1.0675893,-2.9989996,3.241967,-2.7175038,1.112337,-3.0178266,-0.32402095,-0.52550393,1.7697897,0.49417034,3.0547507,-1.6844826,1.0768082,-1.3066391,-0.6631528
6cbcdec2dffbcf09a91a,-0.4335629,-0.6184846,-2.0048842,2.24347,-2.1439233,0.6822853,-1.9871244,-0.22494614,-0.39559165,1.2842791,0.31097713,2.1539435,-1.0457261,0.68576986,-1.0483524,-0.3957087
6cxj0lsinp9d7215gtpe,-1.2068998,-1.888034,-0.22705096,-2.0420964,5.1741214,1.7560384,-0.8481331,4.541962,-2.7934828,-4.53098,1.0321773,-3.3741255,-2.9006379,2.4530923,4.8681526,-0.9506715
6d22912e7e93a96a8690,-0.5115732,-0.7625424,-2.2893875,2.4805088,-2.5744834,0.79294187,-2.296135,-0.28384045,-0.47674346,1.5331397,0.38414,2.384816,-1.2424426,0.8291165,-1.3105687,-0.47380218
6d35a9a33338a84dd077,0.6419118,0.7905771,3.0830436,-1.866265,-1.4394952,-0.8101096,3.1785123,-1.3608392,0.8915969,1.0293524,-0.3065721,-1.275006,1.3338914,-0.82260036,-1.5474226,0.48979717
6d90c2fd38f2ea52ffd8,-0.44928893,-0.6982082,-2.2503872,2.267152,-2.3455274,0.7443098,-2.349172,-0.31378096,-0.46957394,1.4657131,0.2561156,2.1791983,-1.2077906,0.79448754,-1.196494,-0.3902086
6dx4zt62b8m37krb5l3n,0.50105983,0.84063977,2.9657753,-0.83088374,-0.27242276,-0.7360465,3.267572,-0.9541164,1.3227128,0.48103666,-0.40460986,-0.7879072,1.3882592,-1.1981909,-0.67274165,0.56359005
6e7d56f652020f046204,-0.63662064,-0.9889077,-2.6874764,2.9590137,-2.6325347,1.0195677,-2.6536038,-0.43842798,-0.4770202,1.799074,0.43032864,2.811693,-1.531644,1.0266812,-1.3696114,-0.5954623
6e8118d5ad3c7093b869,-0.68621105,-0.990961,-2.8661907,3.2804227,-2.6773856,1.0621924,-2.8246849,-0.47935614,-0.4346684,1.926302,0.40193048,3.1289666,-1.6121384,1.0375632,-1.3690878,-0.61922455
6efd2d79656d1b056f72,0.5113813,0.75503093,2.7300298,-1.8816602,-1.148958,-0.7765269,2.7320278,-1.0117018,0.62303126,0.73087114,-0.32434294,-1.3154756,1.1074717,-0.52327573,-1.2316397,0.49768856
6efd353d32bd3d908b23,-0.6645999,-0.9779541,-2.8761275,3.1446865,-2.8005714,1.0196812,-2.876701,-0.38675487,-0.48528895,1.8732347,0.43801603,2.9850914,-1.6117377,1.0292778,-1.4373084,-0.5990729
6fa0b38bfd05105503a1,0.4914543,0.6663158,2.4172843,-1.5139822,-1.1491345,-0.67698354,2.3919802,-0.9284036,0.6645137,0.6982852,-0.28065267,-1.0132853,1.089007,-0.5935734,-1.1521723,0.45476913
6fc66606e74242398444,0.73560554,0.67753243,2.5014477,-0.9156806,-2.0399182,-0.76965785,2.7290618,-1.7882837,1.2502141,1.7481902,-0.31915805,-0.36254588,0.9674213,-0.8118703,-2.0445778,0.45303762
6fe309a58b787e7010eb,0.31661454,0.5365883,2.1453261,-1.3112152,-0.6698678,-0.50385106,2.1359854,-0.6799352,0.52194303,0.4404323,-0.24331336,-1.0018002,0.9856973,-0.52697283,-0.71386987,0.33038378
6fefd33cf297f69bcae3,0.6286268,0.8200029,3.1647694,-2.188252,-0.90273625,-0.8192749,3.2026227,-1.1780224,0.87217075,0.6666761,-0.39582118,-1.6911368,1.3492604,-0.8447379,-1.1752878,0.48468107
6g7c63m95z8acd3vx5ct,-1.1360649,-1.6800867,0.04735448,-2.6719506,5.1536007,1.5396885,-0.61289066,4.4135065,-2.6777732,-4.5634766,0.8632074,-3.882545,-2.7072077,2.365682,4.7270803,-0.8319646
6iag08nt7se7f2hkgzx4,-0.98367834,-1.5524353,0.1474726,-1.9838965,4.6082144,1.4362969,-0.38053513,3.9883854,-2.332978,-4.068869,0.87280273,-3.149984,-2.4961464,2.0364654,4.2883534,-0.78782827
6ixkthdoadcwip3r1sy2,-1.1475979,-1.7635504,-0.22733748,-2.13448,4.8893743,1.6161896,-0.8399078,4.366867,-2.6497993,-4.3703113,0.9859115,-3.3507984,-2.9245718,2.4179134,4.620331,-0.94425464
6o68qswzkvrrtbiz6bzr,0.72153217,1.2212371,3.2397258,-0.7332494,-1.2055771,-1.1039867,3.8916495,-1.9283191,1.8835983,1.3056551,-0.63443637,-0.43538776,2.067207,-1.5890093,-1.7045257,0.7708393
6qp85ufr2o1zg8k0cvtb,-0.87744683,-1.4624968,0.5627249,-2.2688973,4.5514116,1.3463953,-0.10255255,3.9963531,-2.3154454,-4.0837083,0.8139217,-3.3638144,-2.4507275,2.011042,4.2665186,-0.7449663
6tq9irjllweqmqe4u7sf,-1.1025983,-1.5488242,0.002441374,-1.9571102,4.802454,1.4628929,-0.5273216,4.189961,-2.4800904,-4.227264,0.88420314,-3.1847465,-2.563708,2.1043003,4.504704,-0.8452669
700915d303cc358e662a,-0.4411451,-0.61282265,-1.7852504,1.9300853,-2.0451927,0.6336643,-1.8029137,-0.20164083,-0.3268809,1.1502639,0.33682644,1.8479748,-0.9572446,0.65370446,-1.0217857,-0.39243484
701a989d65a59c18845b,0.43847656,0.41054076,1.4453725,-0.48103347,-1.4983807,-0.46429372,1.602011,-1.1715258,0.8048876,1.2087109,-0.21240175,-0.101183765,0.58116645,-0.50789434,-1.383554,0.28016824
7086b49d3d6c2cf79c1a,-0.42444238,-0.67913425,-2.0298061,2.2488976,-2.2421486,0.70092046,-1.9838573,-0.30605638,-0.26967815,1.3697647,0.36939332,2.1888444,-1.0725707,0.6231761,-1.1230719,-0.42631888
70exfe4k4e5vvm5sqspq,0.75309724,1.1889381,3.349932,-0.6430614,-1.0408293,-1.0653174,3.8767745,-1.8126256,1.8284389,1.1698257,-0.5971196,-0.43466908,1.9473429,-1.6466506,-1.47538,0.7479591
70ym0xeqaqmx14dv6myx,-1.2032893,-1.7781792,0.06676978,-2.6320105,5.4753327,1.6286592,-0.6118933,4.7412763,-2.856815,-4.8856683,0.98720676,-3.9114645,-2.8868911,2.4577506,5.0722,-0.93095064
71ca74e191e71b0219b5,0.15789703,0.373142,1.4164993,-0.75446635,-1.0824736,-0.3517058,1.3911318,-0.50372314,0.21596615,0.50104964,-0.11041362,-0.47467723,0.6180293,-0.25775954,-0.86244696,0.24966952
71d0a8156e59c4dcedfd,0.086923026,0.17295502,0.37386614,-0.37162104,-0.51129514,-0.1369036,0.2701286,-0.18350637,0.13457039,0.18511777,-0.10571569,-0.2365332,0.28756234,-0.13768882,-0.32503995,0.15308996
71f6622e7caa6ed92506,0.33853135,0.5751382,1.9952025,-0.8078611,-1.2496533,-0.5230382,2.071891,-0.87289673,0.61328715,0.7651117,-0.20309685,-0.46173438,1.0412197,-0.60030645,-1.1106641,0.36471424
7207088b2ef28ff6b669,0.32874745,0.6112815,2.1190765,-1.2455367,-1.5696276,-0.6024161,2.1001973,-0.8451431,0.53550607,0.84848475,-0.17037623,-0.72310543,1.0310239,-0.47743633,-1.3224568,0.4032496
728a4a393899c37a5429,-0.7031558,-1.055937,-2.9639606,3.1764672,-2.6417274,1.103553,-2.9816358,-0.331306,-0.5182888,1.7580496,0.4666681,3.0020897,-1.7145575,1.0640196,-1.2758087,-0.6470839
72b4334deffff31dea8b,-0.537947,-0.8030733,-2.6503978,2.8036592,-2.5815423,0.8583813,-2.6644883,-0.42481875,-0.44691417,1.7317244,0.3433975,2.6997344,-1.3331445,0.81301856,-1.3615638,-0.4583097
72d383f55803c5a81bd6,-0.70985824,-1.0391511,-3.013905,3.5500968,-2.8834794,1.0994473,-2.9576888,-0.47289443,-0.3344886,2.0105321,0.46808928,3.359227,-1.6649044,1.0083951,-1.4603244,-0.6687818
72fbfd24cdff0454a0e2,0.5036636,0.5668485,2.012128,-0.98883474,-1.2612712,-0.5696622,2.1480503,-1.1049442,0.7407014,0.9837087,-0.27281275,-0.5954563,0.85598046,-0.6297685,-1.2667456,0.3763995
7380885aaba482170588,-0.5003695,-0.7861866,-2.5422401,2.6176114,-2.3528519,0.82840115,-2.5103822,-0.3218311,-0.38518715,1.5061424,0.35152057,2.4950833,-1.3167815,0.8055864,-1.1675085,-0.5034607
73ae359d8e93d41ae4ff,-0.60865825,-1.0127769,-3.0196624,3.2193546,-2.5792716,1.0505825,-2.9019094,-0.40658015,-0.3649494,1.772187,0.48719594,3.0891864,-1.6789739,0.9150936,-1.2498549,-0.6708074
74137c4db75be61c10fa,0.47994342,0.6346744,2.9614658,-2.015744,-0.87457573,-0.68687266,3.0230992,-1.2066184,0.68954784,0.69584626,-0.26237628,-1.5460333,1.2990307,-0.7202565,-1.2047558,0.44108996
744e7141564ed216b812,-0.6579831,-1.0436087,-3.1387045,3.4176602,-2.6346505,1.0978928,-3.0065632,-0.43409842,-0.353635,1.8675907,0.49007815,3.270259,-1.6709167,0.93538857,-1.2885246,-0.67461014
749fec50db4020e9bfcc,0.31486213,0.5308607,1.9347086,-1.3593713,-1.0848819,-0.53061,1.9152972,-0.6856155,0.34237984,0.59872216,-0.22092178,-0.9350274,0.8747342,-0.42198828,-0.9791957,0.39955994
74e22a3421e605061ef1,0.2916553,0.5029395,1.9682235,-1.0252975,-1.1342037,-0.4803782,2.0063114,-0.8959293,0.5710686,0.8054654,-0.18482426,-0.65490997,0.8425702,-0.53816885,-1.1023953,0.30730844
74g1r714u01v7nb4vn8w,-1.2349306,-1.6676865,-0.07675973,-2.5256598,5.2093306,1.5514266,-0.71755445,4.373144,-2.700495,-4.5642285,0.878189,-3.809397,-2.7642982,2.3079975,4.763199,-0.8650966
75097aa30e9373a612c7,-0.633584,-1.011549,-2.8964634,3.353852,-2.7444243,1.0419962,-2.775239,-0.5960256,-0.2978068,1.9946678,0.4951492,3.1888509,-1.5862089,0.943843,-1.5001984,-0.6521514
7509bbe0d23fe15928ba,0.11564478,0.33046842,0.92886275,-0.90733355,-0.2939259,-0.28492856,0.84434307,-0.110624716,-0.051691085,0.005700233,-0.16090678,-0.7859141,0.5024781,-0.21756181,-0.23641823,0.2420966
7535fe5ae754da62a534,-0.7926095,-1.1912813,-3.198639,3.6460469,-3.2027256,1.2322428,-3.209135,-0.42510208,-0.58076775,2.1091888,0.56823355,3.4585364,-1.8863237,1.2339568,-1.6256472,-0.7438924
758a52e21fd5c23cd7ed,0.3146693,0.5417191,2.0692217,-1.2365847,-0.92106026,-0.5174754,2.107924,-0.70320356,0.50124794,0.5570584,-0.21467416,-0.83919543,0.88046616,-0.4540561,-0.88147026,0.34895524
75a72c46b8271a57fba6,-0.67531615,-1.1004238,-3.1137168,3.4365628,-3.0217628,1.1184585,-3.0746388,-0.52136344,-0.46592233,2.056327,0.49357164,3.2943747,-1.76174,1.0911869,-1.5729996,-0.6669828
75c2677c8d156032e303,1.1882335,0.8702261,3.6522276,-2.34151,-1.8217231,-0.9562203,4.028816,-2.288663,1.5841597,1.682455,-0.35667568,-1.5419929,1.2471825,-1.2108684,-2.3032932,0.43013027
75dcc10ba89fd0c25d50,-0.7739068,-1.0704565,-2.9569523,3.2244575,-2.624396,1.1188116,-2.9308975,-0.35301125,-0.53851426,1.7417442,0.5031001,2.9821548,-1.5960948,1.0637114,-1.3331639,-0.64391243
75e30b71e38030454877,-0.3084591,-0.74832314,-2.6149783,2.7689428,-2.3328614,0.6567397,-2.3432834,-0.8017521,0.032187182,1.8700919,0.2412405,2.6024375,-1.1804467,0.53948206,-1.4725069,-0.39929435
76366e9c264169b2bae1,0.56834465,0.7708643,2.8329222,-1.909149,-1.1040521,-0.7829915,2.8311014,-0.9245895,0.65568066,0.7031831,-0.3015102,-1.4037448,1.151052,-0.6825746,-1.1776669,0.5369636
766836b5f30556e81da4,-0.39410895,-0.61753386,-1.8981857,2.0981328,-2.3453557,0.6469816,-1.8878782,-0.47406715,-0.27541214,1.5336717,0.27154723,2.0854845,-1.0130129,0.62570584,-1.3029199,-0.3525972
767e222eeb367b2b010f,0.51610184,0.5702154,2.3916762,-1.5178851,-1.2748802,-0.58588797,2.4822273,-1.1277715,0.7409257,0.91147166,-0.22198547,-1.0275335,0.8886409,-0.5990247,-1.3341511,0.3909646
768c216e172762b85899,0.43520007,0.39006478,1.5989356,-0.9096443,-0.8056743,-0.406591,1.7468249,-0.7875212,0.6450141,0.6097808,-0.21762042,-0.6851449,0.46780023,-0.43303534,-0.8510135,0.2433047
7694d71417c2f5202940,0.33818957,0.50713634,1.6904755,-1.2009765,-0.9523387,-0.5301299,1.6375213,-0.72728425,0.42950353,0.6362478,-0.22414467,-0.8158109,0.76559764,-0.39822537,-0.92951936,0.37848642
76a2f2705490042bb8cb,-0.5539099,-0.83712614,-2.536066,2.8616123,-2.5235238,0.8861188,-2.483582,-0.37196425,-0.40356556,1.6717625,0.3774636,2.7316375,-1.387952,0.8429098,-1.262343,-0.52592
76fe2c19fa84d58b584b,0.5553269,0.748359,2.718953,-1.7842935,-1.3447175,-0.79911137,2.7131736,-1.1295748,0.67793196,0.901811,-0.29819623,-1.2154315,1.2033882,-0.64153653,-1.3871619,0.5295634
7742559d8e833fbcd326,-0.047622904,-0.24667661,-1.0967448,1.105861,-1.4548717,0.16544643,-0.9353383,-0.49638924,0.22132795,1.0293344,0.09832557,1.0895035,-0.4223991,0.08499691,-0.93419874,-0.093878664
781f69b185122bfaddca,0.12529351,0.21583208,0.68349534,-0.54126674,-0.8969566,-0.20904681,0.5731971,-0.2921095,0.16885355,0.34675884,-0.073930606,-0.31948975,0.3258417,-0.10590421,-0.62070364,0.16663466
78e6c80ea8dc73ec747d,-0.6124444,-0.9253761,-2.521885,2.7322164,-2.6156883,0.94052005,-2.523248,-0.30807725,-0.5233535,1.6363151,0.45990786,2.5945761,-1.4561995,0.96528506,-1.3097961,-0.5768003
78uyv6k6u49krocgtkzu,-1.2858639,-1.7167293,-0.045303524,-2.9005392,5.5834274,1.5628885,-0.71674746,4.729381,-3.0487752,-4.976266,0.9541545,-4.195012,-2.8672392,2.4858067,5.1015024,-0.8813917
792e3326f0d9f68389d9,0.6571331,0.76715404,2.714264,-1.2741603,-1.860317,-0.8180963,2.928642,-1.5148727,1.0632336,1.361225,-0.25222656,-0.68400985,1.274896,-0.8729099,-1.8327547,0.48347405
798ff22d126a0f8034ff,-0.791781,-1.1927558,-3.239897,3.5864844,-3.1223576,1.2176691,-3.2579613,-0.34860802,-0.6302415,2.0102096,0.56938237,3.3607671,-1.8689245,1.2439432,-1.5492152,-0.7374242
79cvflltnemb9zpg6pgl,-1.2567635,-1.7403831,-0.13614577,-2.768833,5.295156,1.5553446,-0.744688,4.4616003,-2.8404303,-4.6642823,0.926107,-3.99047,-2.6904173,2.4719877,4.805712,-0.8780067
79ea7a2f63285f2fe26b,-0.68596965,-1.0764292,-3.12032,3.476096,-2.891524,1.1161299,-3.0393417,-0.53466886,-0.40324542,2.010765,0.4654816,3.302674,-1.6235381,0.9719342,-1.5142384,-0.64196444
79fdbcf16db75f75383a,-0.6954997,-1.0205644,-2.9414463,3.3932333,-2.6572044,1.0975716,-2.8691936,-0.45034236,-0.34968033,1.9239161,0.4464322,3.2236533,-1.641907,0.99614865,-1.382068,-0.6365091
7a600fb7e3750998e7ae,-0.5203807,-0.76974106,-2.1008618,2.243833,-2.046311,0.79305965,-2.1758757,-0.19552343,-0.38004884,1.2384732,0.36816052,2.0950356,-1.1694996,0.78237164,-0.9705758,-0.46451575
7ab9a2516b2dba99c36c,0.2236627,0.40048796,1.2360007,-0.7044732,-0.96582973,-0.39266777,1.255136,-0.54192674,0.38310152,0.488086,-0.121555604,-0.42132434,0.74914485,-0.4008144,-0.7994331,0.2558793
7ae6jy1vw15ppmnq6sba,-1.41477,-1.953554,-0.5321998,-2.7131262,5.6401978,1.7723455,-1.1681746,4.8342357,-3.067733,-5.0087824,1.0168853,-4.0287123,-3.1332996,2.778064,5.216316,-1.0320193
7b1d65c8c7637c14d9f2,0.19927247,0.39727294,1.8321822,-1.1418682,-0.8032071,-0.37200293,1.8323398,-0.6111072,0.40804365,0.41056123,-0.14687479,-0.8258604,0.70913863,-0.32958546,-0.7835023,0.27542555
