student_id,0,1,2,3,4,5,6,7,8,9,10,11,12,13,14,15,16,17,18,19,20,21,22,23,24,25,26,27,28,29,30,31
0088dc183f73c83f763e,-0.07127811,2.6356378,0.13731876,0.046672214,0.17872179,0.25519383,-0.16095462,0.33127135,-0.0027729694,0.24452183,-0.15643224,-0.24261336,-0.10588237,-0.26887465,0.66446304,-5.3212867,0.08749339,0.25185305,-0.33762318,-0.24452609,0.52613443,0.13985494,0.15580606,8.70836,1.2884407,-0.6622703,-0.21437839,1.4454442,-1.2817149,0.4825879,-0.09643892,5.5360894
00cbf05221bb479e66c3,-0.140322,1.1639959,0.017840395,0.073327795,0.046049554,0.052379522,-0.093471065,0.11862306,-0.1811421,0.13107674,-0.08104137,-0.033680808,-0.08358433,-0.01634652,0.58476174,-2.504621,-0.48057336,0.49713838,0.6373472,0.68406975,-0.23762748,-0.5309235,0.8756954,11.022554,-2.5265005,2.371614,-0.026167955,-4.130201,3.969564,-0.20350122,0.3999356,7.0499816
00df647ee4bf7173642f,-0.12646157,0.15338589,-0.061783932,0.067464605,-0.085660554,-0.005316769,-0.09391475,-0.013200523,0.016108911,0.010124289,0.0057623517,-0.008962768,-0.13590765,0.016271517,0.018183056,-1.221771,-0.25118205,1.538542,0.3095943,0.93945247,0.82290393,-0.6977766,1.1063722,14.601348,-3.779496,5.689614,-1.3061085,-9.796999,9.394329,-0.23166513,0.20314486,10.3494005
0107f72b66cbd1a0926d,-0.0058545093,0.008412858,0.019078352,-0.03278894,-0.02200761,0.023301857,-0.02175521,-0.015435834,0.07854667,-0.0052455533,0.03993331,0.006140488,-0.0054646055,0.014241796,-0.22358193,-1.0623698,1.4390494,1.3047942,-4.390284,-5.6667404,4.816742,1.5631272,-0.948812,4.1891885,7.3264213,-5.861671,-0.18288854,5.9796977,-4.964491,6.0502496,-1.2973781,1.9198955
011d454f199c123d44ad,-0.049179953,0.30708256,-0.03460462,0.035382982,-0.042053066,-0.011408897,-0.065095015,-0.026210837,-0.005668349,-0.003575178,0.02858008,0.01461979,-0.057270225,0.027776962,0.22449073,-1.307636,-0.037610836,0.6487207,-0.7383464,-0.80924696,0.71776587,0.02545235,0.1541746,10.737534,0.97307587,-0.6999894,-0.26917472,1.0251292,-1.0037264,0.77472204,0.048274584,6.372828
01558eef77a8d39b7103,0.04869166,0.35890374,0.069851965,0.020053273,0.0094001815,-0.017327035,0.0033538898,0.020667277,0.13894354,0.044733465,-0.02330189,0.038800918,0.030416451,0.009805165,0.0024946062,-1.4409244,0.72286797,1.0724914,-0.85668695,-1.4146539,1.0138323,0.9356969,-0.4729096,10.665554,2.7729561,-1.278925,-0.47180974,2.021149,-0.6401377,1.6438539,-0.43305787,7.49681
016226278e6a69e10aa4,0.123463385,0.35220608,-0.0018917146,-0.019125067,0.076302886,0.11723451,-0.021593278,0.035765696,0.29424563,0.07105329,-0.0029554463,-0.10780932,-0.010836776,-0.13721037,-0.4060235,-1.788216,0.028188705,1.3581449,-0.3112707,-0.4151801,0.5097348,0.0034016669,0.28695822,12.726302,-0.6237011,1.0585748,-0.50921565,-1.5726051,1.4331375,0.45814797,0.05759009,7.4174905
01a691413dc5897db83f,-0.45882553,2.6807323,0.20147537,0.16424608,0.022764256,-0.09556687,-0.13090427,0.2876175,-0.8123436,0.18205984,-0.25934026,0.043102425,-0.08800495,0.05218055,2.0381444,-4.250629,-0.4607583,6.610087,-1.1626391,-0.7012396,2.896702,-1.3848492,1.0325228,16.049206,-18.119394,21.76535,-4.574583,-44.417557,39.14124,1.3147546,0.65348905,9.482454
01d8aa21ef476b66c573,-0.09067359,0.522557,0.01914903,0.057812735,-0.03016232,-0.012897947,-0.023263508,0.03244503,-0.10195806,0.006924791,-0.031290185,-0.010733157,-0.04350506,-0.005605601,0.36334887,-1.5572805,0.12092313,0.055147752,-1.032456,-1.1572472,1.1020832,0.15432668,-0.061818168,6.1058183,2.1261165,-1.9856112,-0.017345726,1.9321342,-1.3060957,1.2015039,-0.098964594,4.171821
01qkq6w2v62cimidb3b7,0.01850025,1.521094,-0.028635612,0.023125034,0.14782794,0.15360056,0.031487983,0.099322,0.07977416,0.027094739,-0.054449543,-0.31324193,-0.056610066,-0.13737248,-0.013956081,-4.017092,-0.31975353,17.914553,-12.67162,-13.83845,12.80664,0.11019849,2.91996,-13.122043,-38.17499,46.503956,-12.222195,-106.685074,91.01761,12.815704,0.655165,-13.13571
02068067a434adb6556a,-0.08772751,0.27385253,-0.014391245,-0.003215265,-0.04395393,-0.028248582,-0.0010571692,0.011618641,-0.12502797,-0.0061315205,0.009210924,0.004732011,-0.036013566,0.0032292525,0.23332596,-1.2229164,2.4347994,96.93141,-49.66676,-51.133053,49.76655,15.095823,23.532225,-72.64042,-206.01219,243.91638,-61.039074,-534.0166,444.67514,52.249805,1.3155638,-78.72111
0258f681a9e1756dfc76,-0.40227413,3.6282299,0.27023762,0.19161262,0.09896237,0.0057955333,-0.17670102,0.42652613,-0.807908,0.24700883,-0.30263215,-0.06640352,-0.12493905,-0.11596216,2.3389637,-5.8851433,-0.53045565,4.516388,0.5031783,0.9021276,0.6449983,-1.2828273,1.1422945,12.885619,-15.110924,17.174631,-2.7739556,-33.21998,28.848331,-0.3025332,0.5990268,7.4087367
03754dce5ec7731fb3e2,0.26653448,0.36897105,0.07247769,-0.11381282,0.13548969,0.22192024,-0.054768216,0.06306986,0.5557007,0.14889003,0.06463217,-0.2049384,-0.0074300687,-0.20346254,-1.0790808,-2.4673593,1.0104296,-1.087656,-3.6998625,-3.7040782,5.318008,1.1943645,-1.0508975,5.2514744,11.846237,-10.284423,0.61971694,8.14032,-7.416697,4.959649,-1.2172698,5.4598985
037a76bc8e6bf5fe1fc0,0.0269438,0.5460008,0.050143857,-0.033925325,0.0034507504,-0.0044828104,0.020007249,0.061837636,-0.026869385,0.022695836,-0.0015383087,0.007662176,0.012764769,-0.042739764,0.14712873,-1.7967925,1.7063596,-0.012432069,-4.836012,-6.0155563,5.587311,2.3856738,-1.6822776,3.4851031,13.047177,-11.115757,0.49422964,11.725109,-10.095079,7.133433,-1.6918873,3.05957
03aa0b20dd4af1888eef,-0.05752501,1.7397375,0.1935328,0.025712535,0.11504373,0.06307849,-0.031931665,0.21190119,-0.27149612,0.124306336,-0.076032616,0.03448662,0.027921623,-0.09959418,0.9184986,-3.392554,-0.0046520233,-0.5133896,0.06694511,0.4210491,-0.025899915,-0.067745805,0.007282138,12.436553,1.248125,-0.2168432,-0.16255477,0.2053333,0.30874717,-0.27490282,0.07284752,8.90628
03b463f52c0fff35433b,0.09179622,0.5237628,0.02135394,-0.05830266,0.036724675,0.2451743,-0.11296799,0.11299409,0.12909825,0.11797771,0.014844912,-0.021399155,-0.08269497,-0.023200415,0.03752425,-1.3857677,0.14382102,-8.919555,5.489274,4.3261104,-6.336244,0.4741525,-1.2899591,22.712982,10.059708,-1.5835806,1.5950545,13.781858,-13.776979,-4.288063,0.6598253,22.452919
03e0c9bff3a9557480d9,-0.0030954152,0.50213057,0.0482362,-0.0071017486,-0.012098682,-0.039212197,0.012477368,0.038925122,-0.008343413,0.018524429,-0.027747523,0.036679126,0.006291172,-0.017011955,0.23163861,-1.505468,1.14461,2.6559598,-3.5129254,-4.2511444,3.293289,1.5583937,0.20886615,10.480226,0.7035716,2.6749334,-1.9904963,-6.7588634,4.8612294,3.8180363,-0.6892214,6.588577
04f2689b4ea16d8d7d9a,-0.022638237,1.7072214,0.018701479,0.06564917,0.0876838,-0.03095784,0.0030378904,0.16432428,-0.18345542,0.05442083,-0.13877523,-0.07454792,-0.049924716,-0.113736674,0.6804821,-3.788842,-0.025544822,10.163024,-3.098061,-3.6618223,5.328667,-0.87731636,1.1817839,-2.7445676,-21.961329,25.766638,-5.7005677,-53.958416,48.816284,3.7468696,0.35820118,-4.5431466
0557b1363a5092b5811f,-0.17527044,1.265978,0.0785321,0.08109832,0.018582825,0.018720627,-0.091115676,0.15021051,-0.25931817,0.12689294,-0.08970916,-0.031987675,-0.10228952,-0.010150605,0.7510663,-2.6303144,0.059576284,4.7892528,0.71627533,0.70837045,0.31068045,-0.48703188,1.0942003,11.418593,-10.47287,11.765291,-1.8738036,-20.804293,18.791538,-0.3926129,0.10823312,5.6407228
0559e9cf806dab4cc20d,-0.008942597,0.24582855,-0.037227325,-0.0051879585,-0.0027754407,0.12307185,-0.08828707,0.0928358,-0.028779294,0.094155736,0.0022626189,0.010440903,-0.107439175,0.022788659,0.18263261,-0.82784003,-0.1576028,0.8147128,0.025022695,0.19726992,0.0026440918,-0.20840691,0.42475328,10.218554,-0.7817134,0.6842177,-0.30880877,-0.8146554,1.1326357,-0.12504514,0.15010256,6.632757
056ab41140f68c15db14,-0.02869533,0.5654314,0.07094677,0.018168349,0.001335572,-0.013990303,-0.032458544,0.079485334,-0.04830895,0.025807016,-0.015089577,0.028784147,-0.003525577,-0.028670069,0.28513035,-1.6515093,-0.3845492,-1.203155,-1.9880611,-2.0429842,2.459465,-0.85449594,0.7610101,2.679703,0.6023277,1.7067703,-1.1708449,-2.7446604,0.15586948,1.9937214,0.33212483,2.9825964
058c03d945c4ae0978a0,0.19538839,0.8247569,0.025302391,-0.083599664,0.066509485,0.1396918,-0.053442523,0.04964148,0.2862231,0.06394431,0.029460853,-0.12890804,-0.019763296,-0.13280657,-0.3724327,-2.714646,1.6154635,0.7875049,-4.3618293,-5.435316,4.9814434,2.124812,-1.6295096,8.461334,11.124924,-9.107427,0.21577413,8.294296,-6.9727015,6.211825,-1.4991995,6.207672
05e1c3ce1728da7e37e0,-0.1756091,0.16723408,-0.052772947,0.109790266,-0.1183567,-0.0005107861,-0.11635307,-0.039620254,-0.08570784,0.005824592,0.020446204,-0.029672664,-0.16243666,0.13924041,0.20852293,-1.1634609,1.004778,33.131046,-15.922945,-16.821714,16.004417,3.076119,5.809706,-19.053272,-68.91025,80.97318,-20.475342,-175.08492,147.53175,15.97108,0.19121698,-23.311497
05e6d9723ab3cde0841d,-0.4674898,2.5913925,0.23304799,0.13289045,0.049748104,-0.019517332,-0.16411297,0.34265864,-0.6774823,0.23925059,-0.22403271,-0.0237769,-0.12653595,-0.01894692,1.8329897,-4.2489233,-0.3001318,6.41746,-0.3366672,-0.51780826,2.4243622,-0.803253,1.482265,10.972821,-15.91315,18.590544,-3.0867047,-38.351933,35.566853,1.4679549,0.4831521,5.408409
061db2c91f94c612f2d4,-0.009317037,1.2134049,-0.04875945,-0.09238445,0.07070608,0.14825499,-0.021400774,0.06091654,0.006109468,0.04538202,-0.016398873,-0.19383726,-0.019967422,-0.15131086,0.046782456,-3.1852088,2.1869047,1.2814986,-5.80407,-7.2998195,6.915099,2.7663774,-2.1035233,8.714594,14.039547,-11.461338,0.115608476,10.276093,-8.88057,8.337596,-1.9995235,5.995283
06309f4c8785254f4c13,0.03323116,0.17483445,0.038061272,-0.0036410913,-0.017019514,-0.020897362,0.011768376,0.026369523,0.0402516,0.011186232,0.008865839,0.017985683,0.0015128283,0.0026082639,-0.039833833,-1.2353414,0.4662324,-0.53501004,-1.1696459,-1.2000314,1.4550002,0.43561086,-0.41483983,6.065452,3.5450742,-1.9999441,0.12550949,1.3317986,-0.64723015,1.6029571,-0.5012017,4.1104665
06aff3e28c5db152f506,-0.07522354,0.8243452,0.06264891,0.07620634,0.03577744,0.039003674,-0.07108418,0.093756996,-0.00083156273,0.12045978,-0.073635265,-0.03841399,-0.055803925,-0.0028398596,0.23099189,-2.1616333,1.737395,-5.949615,-5.1927876,-5.8595047,6.731948,1.2876722,-1.4482493,5.876356,16.731718,-12.225924,1.4356177,15.274535,-15.482473,7.8070474,-1.8973467,5.82046
071685b292483b04e836,0.20741643,0.9751428,-0.010418647,-0.21191244,0.13954481,0.1975044,-0.007082334,0.07897645,0.3136437,0.086071655,0.016085498,-0.12019764,0.07544877,-0.20846389,-0.5519679,-3.1412275,1.2023654,0.678772,-3.9876933,-4.912033,4.355944,1.4320073,-0.9271661,3.2245758,7.8759017,-6.743093,0.14738558,6.560518,-5.5402536,5.4051514,-1.1949183,2.003323
074d7f43de7264306775,0.03977229,1.8064486,0.15276875,0.022583142,0.083166264,0.06644696,-0.105213925,0.24256377,-0.027219145,0.15509641,-0.107996464,-0.031493496,-0.0635227,-0.13799655,0.63778657,-3.7223356,0.100501634,3.834022,-0.883402,-1.804545,1.2953421,-0.09665395,0.4016819,7.6942153,-5.396483,5.3763585,-0.43567857,-12.794708,12.574917,1.7332842,-0.04508883,1.9106177
077d5c82c9ee5019220f,0.12618116,0.32088792,0.09392793,-0.0049811066,0.015455015,-0.033582173,0.046208847,0.03574564,0.11714257,0.02523269,-0.040393334,0.033598814,0.03468474,-0.028341234,-0.052785277,-1.4563289,0.3695995,-0.33538285,-1.2970431,-1.6044906,1.2609526,0.34550574,-0.27088928,9.730068,3.966718,-2.046826,-0.0892458,2.7714617,-2.1861036,1.5426521,-0.27155146,7.192308
07e3362d20ff4337671b,0.050489947,0.4164753,0.043364238,0.008687017,0.025561938,0.01800154,0.016265959,0.048963673,0.10680276,0.04304001,-0.014968945,-0.030601464,-0.0018786328,-0.044214807,-0.049494274,-1.6129237,0.9363029,-0.18432687,-3.3546453,-3.908007,3.7142189,1.0727444,-0.8614294,4.9650803,7.469763,-6.2652125,0.24509037,5.8069234,-4.987173,4.3477173,-0.9415944,3.5258408
091554ffa26fc9b17c36,0.08071235,0.53267175,0.15311757,0.009241569,0.063804165,0.03901176,0.023229038,0.08526448,0.0634908,0.048348915,-0.03778366,-0.0011730588,0.080136344,-0.07274904,-0.0009960718,-1.8116672,1.4875433,2.155187,-3.9468594,-5.337776,4.189753,1.7403362,-0.841615,3.2717474,6.590331,-5.0591493,-0.2564955,5.6095886,-4.443443,5.683745,-1.357584,1.557078
09400a9b50b6c96c5510,0.28624412,-1.7644359,0.006241831,0.2211429,-0.16477643,-0.031870577,-0.1858364,-0.16324742,0.8222315,-0.15842767,0.2996585,-0.020066837,-0.10353166,0.11420177,-1.8987293,0.23020172,-0.12279366,-1.2913023,1.0576063,1.4162638,-0.96090007,-0.19972678,0.31252477,16.876474,2.215266,0.46552056,-0.14501575,1.3793206,-0.32447544,-1.040786,0.1902047,13.980151
098b2c66cbc1ed736e14,-0.24834403,2.5004144,0.12777182,0.1972319,0.12783495,0.12699063,-0.120426975,0.33033684,-0.3438087,0.21627834,-0.24583758,-0.22112128,-0.14693518,-0.14189987,1.1715198,-4.7881694,1.0207132,0.23579887,-2.9691548,-3.569146,3.2424462,1.3169993,-1.0181803,6.9069204,7.641072,-6.2362514,0.22976969,5.731896,-4.7132187,4.04658,-0.97946674,5.2166896
0999173c045ee29a0b44,-0.031071203,0.8471061,0.032966275,0.04670761,0.05434842,0.06252835,-0.04372298,0.1146216,-0.009521596,0.11111419,-0.06515653,-0.06884691,-0.069511235,-0.06514285,0.1766324,-2.3028564,0.2822933,-0.32242262,-0.1385448,0.027749566,0.36824328,0.3979487,-0.14481878,7.694688,2.4913418,-0.96976715,-0.08709741,1.7663553,-1.2816677,0.36240304,-0.28315026,5.3595734
09dfa3f18e48917f0242,-0.044768605,0.3862626,-0.0137278335,0.02583932,-0.013912775,0.014699112,-0.03369544,-0.0046858178,0.05118405,0.02017342,-0.005101265,-0.005338321,-0.040852714,0.01772687,0.14128086,-1.4346281,-0.22580437,1.9345243,0.7964122,0.122727394,0.58760923,0.21996908,0.70870113,11.468227,-6.306686,7.785707,-0.020331554,-19.164925,19.173851,1.1309096,0.39171806,5.792208
09e4bfadd7e012c37c7c,0.10856256,0.12533927,0.027675394,-0.043102607,0.013751092,-0.0064173094,0.013192867,0.02068473,0.15966204,0.0035928695,0.034125205,0.024182582,0.02579234,-0.052873235,-0.2091021,-1.2275136,-0.20995715,-1.2714595,1.380304,1.3762021,-1.4253345,-0.3260821,0.43654105,10.668781,1.0824127,0.88487613,0.044470027,1.8161582,-1.221274,-1.2930242,0.29789782,9.375122
0a7f1a73361654329281,-0.06185934,0.8338072,0.030665636,0.043294758,0.029547665,0.0022161677,-0.015490957,0.07955634,-0.0953063,0.07512446,-0.07595141,0.0030715284,-0.018956106,-0.02060353,0.38543594,-2.0486228,-1.0801016,-5.3201365,4.6827493,4.807539,-5.2215724,-0.35618496,-0.16841696,17.977293,1.1502038,-0.5712624,1.471176,4.2704825,-3.4412036,-3.9313946,1.3155484,15.689107
0a8736f6520cea837d94,-0.054798335,0.56072855,-0.0046640113,0.023378585,0.009109452,0.011898543,-0.048481412,0.03765747,-0.04984175,0.035283253,-0.00036577,0.0056888885,-0.036624823,-0.017527003,0.33031836,-1.5954243,-0.089431435,2.2042348,-0.6226616,-1.9043299,1.7476578,0.1287775,0.665802,4.260338,-5.438554,6.5860286,0.024504809,-17.222013,16.86795,2.4627652,0.26792318,0.32972038
0b02f701b1179f9f74f9,0.03519214,2.6002653,0.15764737,0.03210149,0.14877634,0.19330691,-0.1469576,0.3352016,0.04369447,0.25848222,-0.18879078,-0.15951031,-0.10660252,-0.23864917,0.6351577,-5.2502084,-0.16892244,-0.62447834,-0.016026605,0.25907212,0.075706355,-0.078786016,0.023659676,13.970297,1.6224136,-1.0645523,-0.12564468,1.2968044,-0.3784351,-0.016999066,0.23959954,10.0396
0b16d35f1f39a063708a,-0.5155208,2.5099597,0.1305661,0.20267381,0.09479877,0.071413085,-0.19551334,0.26753306,-0.5826436,0.30455643,-0.2564819,-0.0936842,-0.15684974,0.030749854,1.6384437,-4.1848397,-0.16501325,0.9742694,-1.0374418,-0.9924329,1.8125036,-0.7642753,1.0265161,11.750014,-0.4407541,1.8028257,-0.872179,-2.0979922,1.5761832,1.0600059,0.09444775,7.772274
0b28c0a454678b75eefb,-0.0027147122,0.55322075,0.041637916,0.0048934575,0.02839765,0.011942973,0.01065565,0.068928175,-0.004585893,0.064473845,-0.043270357,-0.0041605085,0.0030312587,-0.020782582,0.08971002,-1.7646332,1.3117777,-1.9381624,-2.3095026,-2.599368,3.11107,1.8321378,-1.4488964,9.385372,10.920656,-7.101075,0.24867585,8.803167,-7.032775,3.8894835,-1.2227937,7.576722
0b307ee95b41e222f204,0.16479999,-0.20220254,0.0808324,-0.04365101,0.025671998,0.018759958,0.02822108,0.003137455,0.27779832,0.00013392622,0.062020473,-0.012467136,0.042366672,-0.052758355,-0.5637364,-0.8868054,-0.11870767,-0.058663186,0.6322839,0.57999325,-0.76592326,-0.005838692,0.29624927,10.604008,1.0287343,0.25395057,-0.22445826,1.320259,0.14875889,-0.5291255,0.22494334,8.973587
0b828e1ae026c57b34dd,0.009251147,1.2945659,0.08933839,-0.00030691092,0.074527204,0.1169736,-0.008399882,0.16368271,0.04211816,0.051038425,-0.04552266,-0.16212042,-0.025648301,-0.15995741,0.17889139,-3.221659,-0.42034778,-6.0550013,3.03041,2.5345736,-3.4060361,0.790516,0.21278839,24.735502,7.636993,-2.0443993,0.23649997,9.129969,-7.009536,-1.912636,1.0664481,24.101786
0b8bea274b24847526b7,0.054375093,0.22770831,0.04603915,-0.018233912,0.0056221425,-0.011087226,0.02060314,0.03980346,0.06593666,0.012939971,0.008224391,0.02941743,0.028292608,-0.033985235,-0.04946761,-1.2856747,0.072616234,-0.0018868744,0.13754575,0.5317859,0.19437593,0.13676555,-0.21329212,7.217596,1.6155208,-0.58397394,0.18782027,-1.713722,2.5040922,-0.07846403,-0.21563743,5.270837
0bb8692f43a372e8d967,0.17324817,0.17631246,0.07030045,-0.03674633,0.044105105,0.0024608672,0.03195588,0.028444508,0.21993326,0.007196763,0.04731446,0.0132270185,0.07878364,-0.06812374,-0.29670066,-1.4208682,0.3973905,-2.8616447,-1.2497386,-1.2600329,1.8438681,0.11222981,-0.1648288,5.8463607,5.8132615,-4.0632653,0.66265297,6.0791483,-6.3871136,2.0708516,-0.517975,4.915176
0c57caf5358d30408034,-0.093644165,0.3247665,-0.01043069,0.00091405335,-0.042270344,-0.029454824,-0.0017047854,0.017128373,-0.14336534,-0.0037491878,0.0039377,0.005054676,-0.03629769,0.0032409802,0.2759923,-1.28114,0.25586954,-0.34532347,-0.25112867,-0.16889524,0.60336506,0.30781654,-0.38219258,15.999632,2.7819898,-1.0664057,-0.40260664,1.1491266,-0.49147695,0.34675753,-0.0036531654,11.064899
0c670262b3941d307600,-0.037768777,1.7905115,0.16383298,0.15592232,0.015023671,-0.040251996,-0.14880635,0.20464604,-0.16993378,0.12702335,-0.10532915,0.047095496,-0.10148098,-0.045731455,1.0949885,-3.4553432,0.15560813,-0.74344,-1.4220028,-1.6147784,1.5322223,0.29520658,-0.3167524,9.351376,3.9009984,-3.305142,0.011120649,3.7538838,-2.6832879,1.789154,-0.06685003,6.586169
0c81ca27b7d931b6ff6e,-0.09317392,1.573411,0.10223172,0.05286988,0.024058377,0.03425059,-0.041508358,0.17418636,-0.23119077,0.06748882,-0.08964825,-0.04821088,-0.05370204,-0.07264103,0.7926141,-3.2596679,-0.35555077,1.0795497,0.7274192,0.63159853,-0.18918283,-0.13001832,0.67392355,11.828014,-3.138265,3.2524917,-0.07777726,-6.9012694,6.8263927,0.05237484,0.34996283,6.9355254
0d260d8fac2289c8ed9e,-0.28928453,1.9824111,0.08586726,0.114783034,0.060741186,0.036148757,-0.1326916,0.18310411,-0.3880283,0.21144108,-0.18651022,-0.0663048,-0.12433864,0.012358244,1.0858748,-3.6370907,-0.098389044,-0.86540145,1.1638274,1.6709323,-1.0045923,0.031257488,-0.0150205195,14.794676,1.0810891,0.12329969,-0.24028824,0.5274935,0.90569115,-1.2583281,0.2667089,11.584934
0d4a3518a188f6888380,-0.078886084,0.7311412,0.026389161,0.024926702,0.02815383,0.027361827,-0.011640221,0.07943584,-0.07254783,0.097807966,-0.070802994,-0.030537108,-0.031676967,-0.0020276003,0.22214958,-2.0223565,1.3746567,-1.7183533,-2.7138224,-3.1359396,3.5054138,1.9830694,-1.5510603,8.458568,11.743398,-8.299272,0.3694535,9.846616,-8.070831,4.434113,-1.3065944,7.0819845
0dapvs3h4h3h1ahmt2o8,0.00372844,0.48951468,0.009469775,0.036400378,0.05987998,0.12004423,-0.07515837,0.039799497,0.18945639,0.09766738,0.0015541139,-0.09989159,-0.059313424,-0.055405837,-0.13086204,-1.8026216,-0.09022281,2.3595555,-0.73229384,-0.99758273,1.5888896,-0.04174412,-0.28769493,2.9693334,-8.422959,11.977849,-1.1385058,-32.541748,32.55794,2.3514867,-0.017029772,1.807199
0df40593e76a840fd64b,-0.08349924,0.40090537,-0.04664393,0.03784338,-0.02411012,0.012031686,-0.06454719,-0.014621556,-0.008547574,0.0028992256,0.0070250193,-0.028271845,-0.08638498,0.0006694578,0.29364684,-1.3418764,0.02075368,3.6052983,0.26505455,-1.0304656,1.1786125,0.29768375,0.80456364,6.365614,-8.949671,10.335934,-0.18622373,-24.383781,23.692942,1.9025866,0.2414964,0.90345067
0e062d9fa22dc8e3bca2,0.7535534,-1.0500042,0.10248041,-0.3990934,0.24602553,0.024925346,0.2796213,-0.12899108,0.7785487,-0.084278956,0.22243346,-0.054391615,0.40842715,-0.22672318,-2.1496415,-0.83414394,1.643341,1.2335721,-5.3101115,-6.629104,6.0752406,2.023625,-1.3841534,2.0614357,10.741152,-9.653919,0.2540606,8.701418,-7.5522914,7.366027,-1.6283327,1.157997
0e804947f4cdc2721046,-0.08420398,0.2891828,0.040809717,-0.023484891,-0.019680353,0.021488026,-0.007540749,0.015825288,-0.09234509,0.027825912,0.013551398,0.049755856,-0.0019488217,0.028445438,0.1306506,-1.2626806,0.16813542,-0.9377577,-0.044627436,0.16391565,-0.26231018,0.2782499,-0.36157516,13.266125,2.9681013,-1.1902748,0.024642173,1.7113417,-0.78838724,-0.06677528,-0.058675893,10.199081
0eb6eec8b4bee8ab6a44,-0.06891066,1.0011582,0.024810458,0.019676363,0.039767116,0.079041116,-0.050040204,0.11210627,-0.039976228,0.08736399,-0.055021103,-0.08620681,-0.052029222,-0.07439045,0.2636337,-2.5275476,0.12189382,0.6505499,-0.46954823,-0.5853672,0.51501846,0.046495814,0.018505365,10.973343,0.5402328,0.11112844,-0.3732642,-0.19417404,0.2980857,0.4475187,0.016054155,6.7826858
0ef8b2c9e039eaace596,-0.2032893,1.6180334,0.123379335,0.103336655,0.054577224,0.044214994,-0.14134057,0.20931911,-0.20843439,0.2053057,-0.1298513,-0.04208954,-0.11737072,-0.0123708965,0.8231582,-3.1788476,1.1406326,0.48841226,-5.6630025,-6.0965877,7.386766,0.45553938,-0.1939215,17.15806,6.888555,-0.89182925,-2.2976317,-2.6197355,1.4848391,6.841089,-1.0118445,12.930541
0f160cd19890b97092b9,-0.01410048,2.1901212,0.2240299,-0.011828141,0.058113676,0.03852502,-0.05499088,0.25274828,-0.23720707,0.12344907,-0.15627575,0.052305456,0.004877006,-0.116518654,1.0284448,-4.1032853,0.8101854,-0.83687514,-2.1214297,-2.3052518,2.327496,1.0525321,-1.0485744,11.635953,7.521713,-5.4021153,0.22043376,5.0668187,-4.1208444,2.7671087,-0.7209561,8.868603
0f8bd9e33125347965a1,-0.27202103,3.3764338,0.25823942,0.28445092,0.051112626,0.09050931,-0.12546149,0.36359173,-0.6147113,0.11541778,-0.27244285,-0.17148346,-0.16770314,-0.076271795,1.9075407,-5.9453197,0.14548968,1.162285,-0.69582844,-0.9257413,0.90013635,0.1605695,-0.04017192,12.50458,0.8814409,-0.43550968,-0.4609591,-0.00039839745,0.106476545,0.82851017,0.013522597,7.5841513
0fc996fff93c00ca5ced,0.04122548,0.9475565,0.058517966,0.03861201,0.10508141,0.12772512,-0.10718584,0.14618726,0.17503408,0.139026,-0.02845615,-0.094135396,-0.050714456,-0.12587109,0.00078091025,-2.6220908,0.05547946,6.1360483,-2.3590622,-3.7911382,4.9162774,1.601195,0.84201515,7.245607,-7.0377746,7.9895487,-0.6611251,-33.84278,32.27857,5.2015285,0.21038292,2.6695473
0gfiioqi5g8djhh1wzol,0.23241313,0.7700868,-0.062204797,-0.0015090542,0.116555035,-0.00097213284,0.058365446,-0.00332734,0.12574294,-0.0084093725,0.004427541,0.031294808,0.12634039,0.010477479,0.023115974,-2.256216,-0.03136844,7.1896725,-2.5768852,-3.2341313,3.313571,0.101943396,0.26209357,-3.0647771,-18.568146,22.13238,-2.949864,-56.402214,54.144096,4.121061,-0.018072257,-4.764938
0i1e50rz4mkhee97xvpo,-0.014585875,0.15945235,0.003658676,0.105331406,-0.026698288,0.029242484,-0.1548444,-0.07414542,0.2821524,0.043154687,0.05880156,-0.056813806,-0.113918684,0.123313546,-0.094049335,-1.1394495,-0.43058965,14.028264,-9.018147,-9.7573595,9.402787,-0.3440633,1.8435824,-9.085299,-31.905392,37.96863,-9.0746355,-89.13612,78.24052,9.416763,0.55519116,-9.50066
0lgtv09uoh3ova8sjbze,-0.19387722,0.39348638,-0.035826523,0.13635495,-0.014239244,0.12856579,-0.16518785,-0.07119181,0.05933422,0.058486097,0.035010107,-0.13538185,-0.14369711,0.0867919,0.2708455,-1.3685199,-0.28999412,13.352481,-8.926238,-9.889861,10.793363,0.50571835,2.0338964,-9.76416,-30.503397,38.161354,-8.3836975,-93.885864,84.1067,11.209195,0.46464735,-10.231877
0m2kzubx9r60wyrsjj7j,-0.13296576,0.34243807,-0.012684449,0.25536692,-0.117994115,-0.06331448,-0.24001972,-0.053273387,0.07052498,0.028021734,-0.0876806,0.09824674,-0.21649864,0.04214185,0.055515002,-1.7136158,-0.33956146,10.131806,-6.3364267,-6.9436407,6.991912,-0.24859226,1.40555,-5.9419413,-23.368505,28.239195,-6.3126245,-67.3647,60.17773,7.1565957,0.38790193,-6.3892665
0m8o7nuv982vnv3328qw,0.34288487,-0.35582379,0.009572308,-0.100607395,0.039065458,-0.030425522,0.019350339,-0.1035292,0.4577248,-0.032337416,0.1316521,0.113428466,0.078874566,-0.0340015,-0.81498176,-0.8994659,-0.10282518,4.5349584,-3.6091,-4.227029,4.436882,-0.034853674,0.36484638,0.5547832,-11.84845,17.339907,-3.6096396,-42.50128,38.60884,5.132958,0.17018843,0.5081769
0maggb1hf886m5u6p2vr,-0.050444096,0.7231429,-0.07398681,0.112400904,-0.014168042,0.042529855,-0.16811273,-0.08289676,0.23960288,0.047688924,-0.04037542,-0.043809626,-0.13890031,-0.0036870635,0.28110138,-1.9834824,-0.025112925,4.5799623,-1.463879,-1.9235839,2.200787,0.1086924,0.10959339,-0.24268818,-11.498142,14.133024,-1.6668586,-36.79438,35.995605,2.8930483,-0.019928008,-1.7633579
0qamadarf6xhm9pm2jta,0.013865848,0.6842721,0.10966353,0.13621119,-0.010638024,0.073019676,-0.17652987,0.0736992,0.23027365,0.09152887,-0.017482482,-0.092333294,-0.11473338,-0.0051985546,0.038759887,-2.271824,-0.3971094,12.39395,-7.1939187,-7.743708,7.673646,0.25342652,1.8491161,-8.856005,-29.582586,34.401752,-7.407531,-82.74073,73.66309,8.216381,0.5063287,-9.34577
0sgnvj4zfg3xjjb9fl6h,-0.26463637,2.179664,0.07907514,0.19933031,0.13652946,0.09306233,-0.08839424,0.2621383,-0.33179098,0.17485316,-0.23229715,-0.16315143,-0.10607664,-0.13594534,1.0906764,-4.238538,-0.006600403,13.322187,-8.295471,-8.491054,8.490494,0.63208514,1.8421954,-10.83812,-28.125591,33.341187,-8.178084,-78.55222,67.44239,8.995697,0.04758335,-11.198046
0txd5enpfmbrth46w74b,0.26857427,0.6222034,-0.04523216,-0.1680206,0.13520053,0.13712382,-0.063482836,-0.046198636,0.532736,0.033150304,0.05978095,-0.15787546,0.026163798,-0.18316722,-0.71421415,-2.5408242,-0.26093847,16.613066,-10.3810625,-11.316846,11.62262,1.0655898,2.7792711,-14.820485,-37.21466,44.737045,-10.008713,-107.99496,94.98952,12.554753,0.49243513,-14.885008
0z4mockl76xn8mhdaehw,-0.14067301,0.9357612,0.14420345,0.06715453,-0.011866077,-0.09138322,-0.026312292,0.0066207773,-0.119723834,0.021861307,-0.071058586,0.045490213,0.007684284,0.010815623,0.6009709,-2.1983614,-0.48237413,16.168184,-9.29094,-10.313573,10.514675,0.9660741,2.45103,-12.649892,-38.55603,45.26709,-9.533601,-110.52806,99.05029,11.54213,0.7908414,-13.092834
1096bd470d3ddff1ec1c,0.18384819,1.1142535,0.06073087,-0.13532223,0.123889685,0.13839662,-0.06877424,0.14152879,0.30375072,0.14133091,-0.029328244,-0.1046193,0.0017171124,-0.18932737,-0.28431812,-3.2011976,0.35465813,-1.0172368,0.22603372,0.66635966,-0.6279533,0.5837314,-0.52969944,22.858553,3.0235288,0.2781291,-0.34377947,-1.0389689,0.5775052,-0.70907974,-0.05339814,16.246225
10de703c06bf9d873d68,-0.057723936,0.2375286,0.022634467,0.05382639,-0.02192538,0.016071286,-0.0332059,0.029064737,0.015803806,0.014416365,0.008577659,-0.021198655,-0.0503373,0.034149334,0.041567814,-1.2608057,0.11341631,-0.37041575,0.07640353,0.31065995,-0.10291025,0.04928841,0.020892978,9.098633,1.2834225,-0.053861976,-0.046803236,0.9150297,-1.4421487,-0.24829385,-0.116726965,5.791717
10qi28ikwz4c4v22b06i,0.027060997,0.9927389,0.0010681559,-0.015569056,0.089446165,0.11497504,-0.054293785,0.036311287,0.12727553,0.15172704,-0.04542613,-0.07557574,-0.02337101,-0.03088653,0.03954494,-2.6707768,-0.6475658,9.563676,-6.7103906,-7.6063857,7.3071747,-0.4896549,1.701454,-4.556976,-26.665934,32.653645,-7.096526,-77.192276,68.75216,7.312654,0.9165648,-4.5741653
10xnkvdetxarrkdhx4i9,0.017509311,0.3846178,0.066183545,0.04426672,-0.0097430665,0.003502119,-0.104336396,-0.037232704,0.101529926,0.023154203,0.086163305,0.07180502,-0.02417987,0.062027678,0.061692696,-1.5534235,-0.35121202,4.2556076,-2.262435,-2.934776,3.4771476,0.005592376,0.50383884,0.21871948,-14.170489,18.947691,-2.6723862,-48.6223,46.4352,4.284103,0.40745732,-0.3901035
117ee98c7f916c88ddbb,-0.19047755,2.87161,0.21452264,0.12812153,0.124531575,0.094522975,-0.20518087,0.39125305,-0.26703358,0.310801,-0.2575523,-0.06890554,-0.15260258,-0.13538432,1.3031143,-5.167873,-0.62249184,-1.4674662,0.8245525,1.2363001,-0.7522079,-0.9360912,0.60161936,11.634693,-0.9723136,1.3083878,-0.010919197,-0.93913907,-0.11185133,-0.9388116,0.5109548,8.734218
119b36a5797d5ce69625,0.0894908,1.1065993,0.054475795,0.015097218,0.10915892,0.17901327,-0.14234717,0.15813966,0.3242973,0.22360837,-0.042751245,-0.124005504,-0.11739467,-0.1243014,-0.19313376,-3.0164478,-0.20513628,-1.7094115,0.95689976,1.4064924,-0.80430424,-0.44825777,0.4186358,11.607866,0.6434858,-0.27054483,0.52998227,1.5749724,-2.0806615,-0.6611779,0.051221125,8.766998
11dae4659d30031a10dd,0.09228436,-0.13565354,-0.006463334,-0.0066271434,-0.008974085,0.012250178,0.007928096,-0.04356424,0.22200707,0.02701456,0.033607,-0.007966447,-0.0059814258,0.023070268,-0.3235322,-0.88748604,0.17195679,-0.7753437,-0.19242556,0.23859118,0.46796507,0.2584823,-0.4383282,10.883214,3.7284062,-2.5202904,0.1468475,1.567757,-1.2309856,0.0068978667,-0.14324927,8.463994
1202c731c612353ceef0,-0.08802204,0.79220504,0.09302096,0.09827749,-0.024801359,0.055421412,-0.13965558,0.10135033,0.06563854,0.070618674,-0.005221203,-0.0435882,-0.13200867,0.02504011,0.32695955,-2.13407,-0.20626192,1.2195477,-0.21920155,-0.19892238,1.0150912,0.013908476,0.56839496,14.495364,-1.6842421,2.7641487,-0.3538275,-7.8150797,8.364855,0.97337335,0.2118381,9.036316
1224ceafb61456a033d0,-0.1527889,2.48658,0.24520299,0.13375907,0.11311649,0.057830557,-0.20241612,0.35620278,-0.27649742,0.27253285,-0.19119878,-0.016538205,-0.12503113,-0.09092301,1.2953491,-4.4726224,0.058198087,0.28043252,-0.20097919,0.011286378,0.31209663,0.109762445,0.16482328,9.034764,1.1483576,-0.25795537,-0.27642304,0.9591388,-0.86919415,0.1271653,-0.0728436,5.766419
12s3yomv0kltozc1qxc4,0.024655567,0.36173457,0.07675214,0.08752737,0.0084373,0.013259798,-0.0949906,-0.018315842,0.23708388,0.06793678,-0.00906826,-0.019683175,-0.040842857,0.039735183,-0.12378022,-1.7599708,-0.12632993,6.03324,-4.820811,-5.1569195,5.4923863,-0.9169852,0.47340333,1.9302291,-12.237759,16.410368,-4.3176274,-39.14229,35.2807,5.1379175,0.004475591,0.9070587
1329b6cf41debecda787,0.28663817,0.6840689,-0.104228415,-0.28331622,0.1925983,0.16310182,0.079455055,-0.022178898,0.24205483,0.07438499,0.075965226,-0.19815053,0.10377115,-0.16076215,-0.78595084,-3.0378869,1.7741816,-0.16120394,-5.067551,-5.9357233,6.359855,2.5002594,-2.1980517,9.294049,15.489838,-13.310781,0.6028465,11.337662,-9.898256,7.1972804,-1.7234819,7.682588
132c90d4a027a4477ad0,-0.059255406,0.41918474,0.014326589,0.019042531,-0.0101947095,0.0025063537,-0.0028918467,0.041823167,-0.022912763,0.023115853,-0.019150168,0.0005336158,-0.019418051,0.0036139786,0.13966638,-1.4662001,-0.3137349,0.42557392,0.28089425,0.1184806,-0.5785676,-0.37251756,0.44590726,6.534376,-1.489244,0.50329906,0.11824886,0.16271734,-0.5858698,-0.2721111,0.28267288,3.6391225
1367d35cf39783effa7a,-0.15922119,0.76655114,0.031859603,0.029077994,-0.037379023,-0.066422984,-0.003981916,0.044910617,-0.26383477,0.0037067402,-0.053478234,0.028512975,-0.021624088,0.010005613,0.6557808,-1.7755938,1.716213,55.805187,-26.975063,-28.124472,24.919548,5.9500804,12.743056,-38.936756,-119.26669,137.09424,-34.95764,-287.67203,237.04085,23.903074,0.61488986,-43.953053
139429592a9c23c08b71,-0.023913786,0.4941528,0.031230818,0.0067354003,-0.011214371,-0.0395101,0.0009879961,0.030006412,-0.05209715,0.0011822744,-0.02063717,0.033703886,0.006293322,-0.017137961,0.310112,-1.4927877,0.25793937,-0.8999774,-1.6344875,-1.5642128,1.6898267,0.2686072,-0.43014058,10.081036,4.563273,-3.5017593,0.1870139,3.0253906,-2.7041352,1.724144,-0.2757894,7.0637507
1397545fbe9882e5cd42,-0.028915683,0.059117608,0.021044632,0.025733666,-0.052675385,-0.025410647,-0.01701539,-0.03150465,0.045833968,0.0005107434,0.02017895,0.034354683,-0.01622843,0.03616743,-0.046271034,-1.1275377,0.13298616,-0.73929054,-0.1158767,0.08860864,0.16897178,0.09594345,-0.15362644,8.802706,1.9599956,-0.8049577,-0.09425044,1.0798689,-0.36081702,-0.016786516,-0.023845617,6.641714
13de1d3a55477a0c0329,-0.04038866,0.2739907,-0.0056513823,0.026424885,-0.048195243,-0.0373473,-0.031018129,-0.014759918,-0.029725801,-0.0011001098,0.011589034,0.023928365,-0.038529642,0.04305483,0.18358535,-1.2697927,0.6216057,1.0128537,-1.7555083,-2.3602064,2.2127838,0.5459382,-0.360527,10.6016655,2.7877965,-1.8226931,-0.38520232,1.6959966,-1.9284405,2.4227796,-0.42492682,5.7892857
13f8b8305f6c25c21921,-0.3033022,2.6653707,0.32887977,0.19293217,0.12938192,0.02794079,-0.1731,0.4180415,-0.46932256,0.28601477,-0.25333124,-0.038126267,-0.09614975,-0.05119735,1.5684338,-4.619539,-0.7244101,4.9125695,-2.79105,-3.3534596,4.9129972,-1.3601967,1.2919707,9.057114,-13.244123,16.397562,-3.560287,-36.935608,33.41789,3.9719462,0.8550283,5.0795116
13nq2h723zixyhir01lf,0.05198618,1.3108727,-0.08440177,-0.16759881,0.2117229,0.11396765,0.08472397,0.06510464,-0.069079086,0.07383487,-0.032949436,-0.0844538,0.104648136,-0.18397748,0.087670684,-3.438874,-0.18889025,5.7801957,-2.632974,-3.161849,2.7668953,-1.0660762,0.03747362,0.26309568,-13.2246685,16.439352,-3.2758946,-37.295734,34.806763,2.6198545,0.12850419,-0.73462385
148o63s7q5aitfxmmtrg,-0.13123937,0.943671,0.06481334,0.07181118,0.10640743,0.108638786,-0.06013775,0.055969153,0.0035110428,0.1052941,-0.03577341,-0.09253062,-0.01283967,0.02099444,0.15517569,-2.6666584,0.68377995,-3.370914,-2.1731708,-2.587666,3.687248,0.056429874,-0.7761052,6.9989767,7.519929,-3.7288203,1.010376,0.03461349,1.9033152,4.158213,-0.92492235,6.504004
151cd83784ab9007e8d8,-0.06507566,2.410691,-0.028381377,0.005269856,0.17506361,0.15704516,0.08177582,0.19439659,-0.2824893,0.06621766,-0.19354543,-0.31418782,0.024553934,-0.20914333,0.6449602,-5.182567,-0.48189867,2.7951043,-6.8975058,-7.240142,9.002248,-2.3140523,1.5436308,15.675354,-1.7401774,7.31006,-4.4644933,-15.202453,10.270782,6.6654196,0.3354706,10.675996
152a0c17daaaa4e65e14,0.025719224,0.3507914,0.019416058,0.012432554,0.021802416,0.19189906,-0.098345436,0.096052326,0.0060994104,0.114940345,-0.018357825,-0.026462689,-0.10318303,0.03710536,0.24616787,-0.88977337,0.5422042,-1.5612472,-0.47985467,-0.5049531,-0.1724527,1.1427252,-0.66208845,26.366215,6.028628,-1.0237159,-0.524169,1.5817813,-0.9673997,0.42904955,-0.08264661,20.137873
1552f58e2818ce7fa863,0.115753,0.34662503,0.078728005,-0.0017069457,0.009429122,-0.061434597,0.01726251,0.01814649,0.12596467,0.015854267,-0.017509334,0.07082542,0.05079606,0.007616914,-0.020596301,-1.4713392,-0.40650073,-0.113695234,0.31066185,0.9730499,-0.12365865,-0.4718656,0.5018747,19.979485,0.076767445,0.2867975,-0.2479119,-0.7412387,1.1533704,-0.44971532,0.32697675,13.906008
15ab118362ecbbd03b52,0.10990001,-0.35094354,0.119011514,-0.058442757,0.028554609,0.09731772,0.01307857,0.002132403,0.28963894,0.038471457,0.11190521,0.011423294,0.080068894,-0.04304047,-0.81101674,-0.86276585,1.064633,-0.49998757,-4.0246024,-4.628074,4.578347,1.4909743,-1.2981911,5.179838,10.6433525,-9.595305,0.6093274,8.56065,-7.384919,5.37829,-1.137668,4.409058
1629f353a742f6a73251,0.06630723,0.37965545,0.10140972,0.009596574,0.01925934,-0.029716227,0.0018653291,0.022128683,0.09194062,0.046509933,-0.010671097,0.081700906,0.058178585,0.038935937,0.020609267,-1.4816989,0.93257535,0.060162794,-2.5446205,-3.022518,2.8542376,1.1956992,-0.95820415,7.940568,7.110854,-5.5871663,0.15760827,5.1616535,-4.1640244,3.4775662,-0.8588342,5.98654
166cb02ac436c9d3662f,-0.23013723,0.8806373,-0.0048661726,0.089417696,-0.032643307,-0.009903585,-0.088714555,0.037872024,-0.27346253,0.04709073,-0.047082175,-0.020049343,-0.09893348,0.061031245,0.75877243,-1.9178495,0.05830921,8.600921,-2.449426,-4.1423697,5.1874466,0.38364312,0.9087308,7.9332137,-14.911192,17.080639,-2.2711449,-45.380726,43.35747,5.2489243,0.29245764,0.92684054
16c505069c1e5c2bece5,-0.048729356,0.33896726,0.009843821,-0.0016191758,-0.03043705,-0.03712802,0.011243256,0.023260012,-0.08495412,-0.0029328642,-0.009443799,0.018204745,-0.012054208,-0.003585243,0.20834453,-1.310173,2.2767057,3.473763,-3.7712703,-5.7908726,4.0706253,2.589989,-1.4693415,15.744557,7.725718,-3.2763677,-1.0430679,4.5807023,-3.1856122,6.039596,-1.6986965,9.964342
16d68f70cf5e52d0b34a,0.026896738,1.6944067,0.13980491,0.026669856,0.11000117,0.079048164,0.016981844,0.15911761,-0.11651046,0.030400505,-0.118041866,-0.12707832,0.03213036,-0.103582025,0.38562402,-3.8522148,-0.22391896,-0.054050464,0.4183127,0.8433641,-0.36053514,-0.27512223,0.31815574,14.043871,-0.12830257,0.43257672,-0.18425779,-0.5361363,0.96096355,-0.56847763,0.22448254,9.81488
170a695a2717bcd9b74b,0.13995507,0.482604,0.075817816,-0.0002964532,0.019837344,-0.02824345,0.011225323,0.068056986,0.06862318,-0.02269643,0.012901892,0.0408323,0.029106047,-0.07701207,0.12939315,-1.6487857,0.02354208,1.0831473,-0.16400059,-0.32681233,0.8086521,0.2590469,0.31479302,10.09081,-1.1974913,2.5402298,-0.26397845,-6.605478,6.7162933,0.8784865,0.034028478,5.701966
17656005bd4086137ab7,0.1354966,0.5461099,0.11718582,0.009916256,0.03736503,-0.010401706,0.008876234,0.08778712,0.11020741,0.055265278,-0.01933646,0.0040128715,0.015194948,-0.054334827,0.03164468,-1.7690482,0.14658684,-1.0087534,-0.6300554,-0.48374307,0.17022873,0.4775951,-0.04308425,19.37668,3.4164348,-0.2767806,-0.43194976,-0.2007212,-0.11639309,0.2320072,0.10281148,14.290264
17dda5f588bed077c742,-0.046774182,2.8559833,0.22728242,0.05712648,0.16606502,0.16535266,-0.04025298,0.367006,-0.2475316,0.15076247,-0.19651401,-0.15754806,-0.04111291,-0.21442011,0.97765666,-5.6002846,0.7688678,-3.7405126,-2.1688068,-1.8372245,3.9750776,0.09550215,0.12419584,9.408331,8.7440815,-5.196188,0.44245622,7.239614,-7.060037,3.6429746,-1.0059141,8.749529
17e429460d5fda251953,-0.041677374,1.212934,0.14348723,0.07092836,0.05013785,-0.041048393,-0.007309257,0.1523454,-0.1630924,0.11145581,-0.1272913,0.04318618,0.033809908,-0.0050606187,0.61449885,-2.6649442,-0.010626107,2.822709,0.5419074,0.30753088,0.5087214,0.011945993,0.6980153,16.922728,-5.2010484,6.282267,-0.80669326,-13.041524,13.244861,0.3898669,0.23176402,9.860138
17f2d0e73044110cdea5,0.090894915,-0.08508249,0.009837739,-0.041409597,-0.008658191,-0.009643044,0.0035288762,7.593632e-05,0.13624942,-0.007094125,0.06284465,0.01414651,-0.002344285,-0.03305453,-0.2806603,-0.9186653,-0.051500615,-0.44783723,-0.6057489,-0.52417666,0.4666265,-0.03158188,0.00609836,7.786016,1.7347282,-1.4138985,0.036893908,1.6026,-1.0027027,0.5143586,0.054525368,5.5205765
18654732ca312afc173f,-0.019959437,0.49123567,0.032461777,0.0055752993,0.000607882,0.024652496,-0.040809628,0.05395766,0.06324555,0.056651007,-0.015626574,-0.015664427,-0.04697803,-0.019550048,0.05332285,-1.7141956,0.28518835,-0.7825393,-0.61762613,-0.2978974,0.8456925,0.49522722,-0.5116294,6.7696075,4.773292,-3.8576427,0.37128407,3.0982244,-2.3815107,0.68556315,-0.34098303,6.1080627
1883af270e36a7580332,-0.04454406,0.37234333,0.05097166,-0.007153839,-0.013596873,0.005185255,0.0053303046,0.048583265,-0.08278219,0.018915374,-0.0048147165,0.024315076,0.0023214773,-0.0033947553,0.17744306,-1.397238,0.102056876,-0.49681124,0.19025677,0.3636065,-0.2612796,0.020910889,0.039482255,7.1329556,1.0433668,-0.032857418,0.052247297,1.073681,-1.6062773,-0.32770348,-0.10718813,4.544861
18cdd44af62c6935e7a0,0.04829964,2.1264222,0.02196286,-0.14097147,0.1608438,0.14445467,0.07325377,0.1573563,-0.19909565,0.0118281115,-0.09147497,-0.2068793,0.06731521,-0.251328,0.45811537,-4.698066,0.27135852,-0.6613105,0.1813007,0.51613265,0.08194341,0.20137148,-0.26571986,11.206379,2.1673512,-0.41987512,-0.22159955,0.39698884,0.18092108,-0.33879238,-0.10831843,8.400995
1974349ec27d7d67bf08,0.05108505,0.8284248,0.10033333,0.057166897,0.046344183,0.025406253,-0.024533782,0.13260753,0.075470164,0.105517566,-0.07122226,-0.04405306,-0.03851902,-0.0782788,0.1696657,-2.2401066,-1.2208878,-4.453872,3.707421,2.99773,-2.7319024,0.15404089,0.4336206,13.86188,-3.1833525,5.2372766,1.339045,-13.741421,14.020412,-0.8054798,1.6017134,11.839965
19793e7e55b68c8dd776,-0.0038348655,0.5919031,0.05338015,0.02838177,0.0061697946,-0.034478445,0.0045578075,0.041913513,-0.0499088,0.006306968,-0.03913145,0.010974706,0.0039403522,-0.046650957,0.31161168,-1.6532611,0.59374744,0.4652309,-1.7214625,-2.1144369,1.9506823,0.5373306,-0.45649192,2.9897854,2.8807337,-1.9516551,0.15931176,0.04203689,1.0364908,2.4327161,-0.6424904,1.7940638
19buea1jycypffshcw38,-0.14946023,1.0633827,-0.012001696,0.17607684,0.087650776,0.14784461,-0.1333468,0.15149747,0.04431949,0.21835068,-0.11732219,-0.1410226,-0.1091586,-0.09853121,0.008520728,-2.9864643,-0.896124,9.368084,-7.7692013,-8.343034,9.195221,-0.5639783,1.6662291,-4.920677,-26.817663,34.374264,-7.9991345,-82.896576,72.88317,9.265335,1.0651436,-4.086874
19fb3075dd2798538c9d,-0.044562608,0.18422092,0.061247025,-0.086852945,0.0069142473,0.0017695238,0.046677493,0.031685364,-0.03139213,0.021918694,0.00762715,0.09588255,0.088484496,0.022811055,-0.07922675,-1.2272056,1.1985022,0.3695525,-1.5101336,-2.2025213,1.5135901,1.5880247,-0.9480369,8.023113,6.024168,-3.4501119,-0.07368457,5.3297677,-4.1157923,2.7150006,-0.9974517,6.0670176
19rc4zj7sw4ms0996992,-0.061775718,0.45033735,-0.008513832,0.0505697,0.019992903,0.078195214,-0.08326529,-0.025018537,0.1299094,0.093251035,0.01432465,-0.030097589,-0.049815785,0.030877862,0.0024133828,-1.6944534,0.05573225,5.308113,-2.010704,-2.2095783,1.7708517,0.3114372,0.53345215,2.2572553,-13.677443,16.580448,-2.5543454,-40.27376,37.55298,2.3416111,-0.004012105,-0.16384561
1afepx549ssnar1m9acp,-0.06878252,0.583367,-0.028713444,0.10593834,0.043075085,0.07749469,-0.085890174,-0.004404378,-0.02369582,0.051524304,-0.001717944,-0.026677536,-0.038037207,0.037743997,0.21922112,-1.7230943,-0.43758008,12.021578,-7.298487,-8.610246,8.34343,0.1300633,1.5356318,-7.9982905,-28.787071,33.678345,-6.8550353,-83.70094,76.58765,8.943354,0.6480141,-9.112748
1b0baf552d2cd47ee10b,0.08671753,0.89827853,0.10886811,-0.017216789,0.04050383,0.044305105,-0.069276,0.15579528,0.101798885,0.102463044,-0.015570944,-0.01729326,-0.055088453,-0.112470284,0.12762327,-2.459552,1.5312308,0.2625747,-5.1517777,-6.386259,5.948356,1.7026858,-1.5043544,3.1340818,10.282212,-8.727419,0.42705116,6.6260705,-5.3243103,7.1647506,-1.5295187,1.6105906
1b25734414fcc7466153,-0.17007436,0.8912229,0.16508934,0.12754123,0.015499622,0.0071818344,-0.08489414,0.1033629,-0.11382695,0.09273577,-0.083264776,-0.031377036,-0.046014186,0.0780368,0.44245347,-2.217667,-0.044593155,1.0202804,0.15929586,0.40625668,0.30921447,-0.043341037,0.4182905,13.912173,-1.4158307,2.4849093,-0.4169382,-5.3933415,5.6054916,0.06178558,0.07583399,8.899103
1b36a3223f9dd94a211f,-0.46144733,4.5683503,0.3143749,0.32234368,0.3460466,0.22954449,0.1119224,0.67958444,-0.90947884,0.17920981,-0.4847366,-0.4716229,-0.083749264,-0.29438978,2.0787194,-8.238732,-0.22487658,-1.0165495,0.1406548,0.3382526,0.12222633,-0.4410271,0.54306036,11.212524,1.9986838,0.0060282946,-0.22247788,1.4644638,-0.57117075,-0.2328062,0.23241122,9.459263
1bd9bb053a3ac1bba507,0.16891336,0.29826656,0.12698306,-0.008230841,0.05432283,-0.018781956,0.058559593,0.0792392,0.19113179,0.052674692,-0.04047379,0.011145157,0.0671114,-0.034099538,-0.24503624,-1.4818875,1.3876839,-1.8559049,-4.853264,-5.8444743,5.5767064,1.620459,-1.4091278,-1.196171,12.095061,-10.735077,0.8770467,11.568669,-10.731922,6.782466,-1.4524189,-0.4665035
1c2aef3af32f6323a31d,0.22701594,-0.2876052,0.074453294,-0.1202656,0.02768108,-0.033350613,0.09577023,0.011780729,0.33349454,0.0045612277,0.028742526,0.03921601,0.10734736,-0.038903344,-0.7179257,-0.8559137,0.9756189,-0.41499582,-3.2009938,-4.166313,3.6196775,0.92340076,-0.6430998,1.4701098,6.2296596,-5.244257,0.34809172,6.7911696,-7.653991,4.521729,-0.9825027,-0.7354978
1ca19e51244cdd3f09ff,0.041878764,0.44837663,0.0044881054,-0.02565628,0.028847378,0.012825423,-0.025128558,0.019196494,0.04043011,0.045306362,-0.016772954,-0.02077822,0.0019204664,-0.04526734,-0.066358365,-1.7569056,1.6133437,3.0916364,-2.768752,-4.253106,2.744071,1.9314871,-0.9719276,9.14464,4.6382775,-2.5111313,-0.6283252,3.1585767,-1.8503859,4.4306107,-1.2572232,5.502764
1cfe33c5b178a0c2367f,0.05424854,-0.20895383,0.08580141,-0.007862642,0.014666764,-0.022354659,0.0102270385,0.00060092594,0.21917294,0.010212594,0.06443503,0.045989823,0.058976907,0.03106637,-0.5041283,-0.9116123,0.23181552,0.025491178,-0.94540215,-1.1752967,1.0142436,0.16558869,0.08496153,7.8950357,2.5465307,-1.2026048,-0.16507913,2.0252457,-1.2029597,1.2359027,-0.18814372,6.09564
1d50eac067378042684b,-0.06789149,0.27760306,-0.02546585,0.018333323,-0.03010894,-0.0026973549,-0.025815427,0.00813511,-0.047061067,0.012169334,0.008363848,-0.01474907,-0.05254517,-0.010339077,0.1505713,-1.2716709,0.06437449,0.19020942,0.054436155,-0.022407144,-0.09987427,-0.06767944,0.041795313,10.985598,0.07494426,0.55087465,-0.18370683,-0.19972986,-0.15389585,-0.093278445,0.06234718,6.7816877
1d7229e0f5f825007870,0.25239748,0.37429368,0.03013035,-0.17609902,0.104629725,0.20565423,-0.10378995,0.053221866,0.4792118,0.12585118,0.0802619,-0.14101179,-0.030775838,-0.17953734,-0.8823244,-2.3555627,0.5101325,0.66377556,-1.1885676,-1.6133941,1.1372305,0.62338364,-0.19160083,7.757548,2.88775,-1.7531145,-0.15420683,2.432499,-1.2606295,1.8123487,-0.42647266,5.8769097
1e25b47eaef62694a236,-0.12700692,0.69282687,0.057850838,0.03559577,-0.014529062,-0.019926256,-0.0026307052,0.0665292,-0.22798936,0.016672546,-0.0483626,0.0051397705,-0.012139707,0.0063139466,0.55545956,-1.6898894,0.3558083,-1.413778,-0.9168174,-0.6094476,1.280769,0.51543146,-0.38486344,4.8497934,5.2486787,-3.8658955,0.27971363,4.562699,-3.855103,1.163748,-0.4339909,4.3736444
1eekhswi2ckx4uw0j1c9,0.38212126,-0.39199623,0.014723484,-0.09037533,0.030471813,0.010355295,0.013118793,-0.13006845,0.63921845,-0.005570046,0.14832976,-0.0010077344,0.047922205,-0.028283106,-0.94666284,-0.96041584,-0.16501401,4.4399667,-1.4600569,-1.6483382,1.723409,-0.377398,-0.13139465,1.9116743,-10.849991,12.795671,-1.9452479,-32.54592,31.81063,2.2473423,0.01300876,0.4247207
1f4oscu6io8xlog2157e,-0.0015375236,0.012902822,0.044691607,0.049054515,0.009445414,0.068870015,-0.052571926,-0.017830573,0.322634,0.07690141,0.015365007,-0.0493615,-0.022810249,0.052133307,-0.45335716,-1.1716162,-0.21836822,10.295424,-6.9621673,-7.753631,6.720445,0.011613578,2.0276349,-4.2508316,-24.176243,28.96267,-6.76679,-67.10555,58.82276,6.7225714,0.46227556,-5.424513
1f56b6bda24efafcf3a4,0.040855452,0.4159217,0.05568097,0.009569489,0.006279072,-0.0132250115,0.0015913784,0.038832124,0.050437734,0.05466336,-0.026438847,0.0038450137,-0.009817408,0.001794935,0.0143842185,-1.6322703,-0.38349444,-0.8702177,1.5773044,2.1195264,-1.8486114,-0.49859968,0.44476983,9.1102295,-1.3902184,1.273461,0.29824102,-0.5751152,0.5018775,-1.8915625,0.30598152,6.9919763
1f67cb2e7affbb00b6c8,0.124691956,1.2302649,0.17689103,0.032165438,0.0749041,0.042692985,-0.091649495,0.20638701,0.16297518,0.1555614,-0.05846296,-0.0050337194,-0.04577121,-0.11057424,0.21530768,-3.0091987,-1.0074617,-1.9294585,3.0861123,3.2314346,-2.3662794,-0.60612303,0.66842633,12.59013,-5.5911236,5.759859,0.8778914,-13.29984,13.418762,-1.726681,1.0394118,9.541402
1fa4f2361b8a03040292,-0.0321107,0.129951,0.02423977,0.05383919,-0.053860303,-0.009250119,-0.067013666,-0.04375354,0.08702128,0.009241884,0.036984656,0.024971092,-0.05617556,0.091572225,0.0061654653,-1.1489029,-0.04732086,-0.46505746,0.092296116,0.08781172,0.024327848,0.0109246075,0.0050490797,10.926754,1.2165949,-0.87853116,-0.07034111,1.6444972,-1.0239214,0.11687802,0.16496962,7.63652
1fc5b87acdfc2a8b580c,-0.026426414,0.23648953,0.009394534,-0.012574326,-0.026649568,-0.033469565,0.015500422,0.016398543,-0.045236457,-0.0051582293,0.0018490235,0.01447462,-0.0073701018,-0.004701728,0.102025665,-1.1935364,-0.03230278,-1.289118,0.0854342,0.7392004,0.03729377,0.13176464,-0.18786,6.5005965,3.5157483,-2.6948895,0.35634235,2.4876263,-1.838631,-0.37942168,-0.08766199,6.002832
1feef8b4129f5bf21e67,0.44201678,-0.69471526,0.07931489,-0.16324641,0.07778435,0.07492991,0.07007412,-0.033459764,0.6993134,-0.009996501,0.17077954,-0.09484665,0.09470202,-0.1577672,-1.4588642,-0.70687103,0.9157079,0.95466495,-2.9279747,-4.058793,3.547382,0.76217,0.0025480688,7.311122,5.794388,-2.9546041,-0.47803846,4.8284845,-3.7052,4.320994,-0.8103294,5.73729
1hrtipd0awjpggdje5e2,0.09137239,-0.2702401,-0.008627271,0.056840762,-0.05389567,0.120915875,-0.112403646,-0.112572044,0.49691916,0.020216247,0.07676128,-0.12950626,-0.120959364,0.022257844,-0.77264875,-0.96027917,-0.08289386,14.209028,-7.101838,-7.868514,7.840591,0.9373723,1.9878467,-8.532007,-34.27386,40.611813,-7.886201,-97.91835,88.52599,8.608199,0.32189417,-10.26582
1hues7esy9erdsses6m0,-0.14527343,2.2765334,0.2148751,0.21429934,0.074500024,0.054185122,-0.17800407,0.2480448,-0.09559016,0.17604998,-0.15372863,-0.17383695,-0.14334553,-0.09966036,1.1641924,-4.2920375,-0.98061705,15.299563,-11.230741,-12.259106,13.174297,-0.27695003,2.6902544,-9.6085825,-37.987488,47.06972,-11.291595,-111.66161,96.51757,13.452838,1.2541256,-9.719608
1kvfwfp2hr5hjxjxzjqd,-0.027215064,0.9993594,0.07055042,0.08073017,0.06299156,0.008055694,-0.08614189,0.036307395,0.0069937273,0.091084935,-0.059276056,-0.029306825,-0.04634465,0.015437271,0.42262125,-2.4070182,0.085993975,1.7321409,0.65872765,0.28697684,-0.07071661,0.030749701,-0.43702453,2.6422925,-6.100405,7.922731,0.3680864,-23.041016,25.189276,0.66858196,-0.21056318,0.76187795
1mp9yiw6rkrr3846047g,-0.047127087,0.49041376,-0.023288658,0.033187866,0.06176328,0.1629414,-0.09491936,0.045419935,0.102527946,0.09126331,0.008015547,-0.0778661,-0.046215996,-0.06569625,-0.10943543,-1.8529289,-0.060538337,11.901644,-5.6192036,-6.3450236,6.1392145,0.9831994,1.8939288,-7.6393905,-28.962225,33.977108,-6.126486,-82.462746,74.97062,7.1594863,0.23836045,-9.153936
1n42senfkcjopw1zh39l,-0.1109048,1.4009457,0.077092744,0.08165878,0.027617685,-0.046769794,-0.08125893,0.09276762,-0.2573056,0.040363774,-0.090660535,-0.01955251,-0.040946405,-0.017527448,0.8118467,-2.9167998,-0.42524534,20.328468,-14.732237,-15.600341,15.740328,0.6854009,3.578046,-17.9689,-42.76619,52.35564,-14.018498,-122.01759,103.281715,15.929036,0.74676126,-16.987581
1nebcwra7a0fduy8c1fa,0.117820114,0.78881794,0.14159255,0.070182145,0.028227,0.018348373,-0.11624976,0.07481569,0.11500566,0.054276463,0.02859896,0.0061741094,-0.03265375,0.013477504,0.13344286,-2.2838738,-0.20859747,13.212339,-6.8002944,-7.580694,7.6927485,0.30560923,1.4473171,-10.238558,-30.144049,35.161682,-6.933244,-85.441315,76.99472,8.551332,0.2354091,-11.339322
1nyzl7s790ta4c8r1l9g,-0.08988575,0.9751414,0.17797065,0.109529324,0.027346157,0.04659003,-0.08827677,0.092488736,-0.054915972,0.08483653,-0.025930744,-0.046651214,-0.012237119,0.031271316,0.48130843,-2.4337273,-0.53120905,12.080584,-10.724361,-11.291184,12.125061,-0.3729096,2.3276672,-8.252975,-29.87919,38.317135,-9.758448,-92.06094,79.474396,11.75816,0.6684149,-7.3671823
1otvyki9oso9bg6ob16u,-0.024315838,1.4510587,-0.0071093496,-0.012884706,0.12804599,0.17936878,-0.03531105,0.08748176,0.020636603,0.10422268,-0.068999015,-0.19443311,-0.02278263,-0.13469446,0.14840399,-3.6738899,-0.21731953,9.9657135,-5.2113647,-5.890588,5.635178,-0.08655931,0.970305,-5.1354375,-24.594872,28.72514,-5.4191422,-69.87489,63.784508,6.0205607,0.31148815,-6.5580764
1t6e0wa99fijxi3ssnzk,-0.13846524,-2.1226978,-0.5075308,0.6065658,-0.4964559,-0.2660694,-0.341453,-0.27244702,0.25020114,-0.15641426,0.19389686,0.16941454,-0.48423,0.13607265,-1.9508467,0.10943669,-0.203023,7.809968,-6.1583796,-7.1447396,5.6368046,-0.20816138,1.5541579,3.7011998,-18.63089,23.867258,-5.9169106,-54.701412,48.288094,5.428992,0.58316875,1.2645718
1vb2vsoy23nr0monflhx,0.013032388,0.6113248,-0.029130619,0.040376186,-0.0031648583,0.1071294,-0.14418915,-0.07556691,0.22943276,0.01381591,0.07882459,-0.16308384,-0.13493867,0.059179127,-0.13058586,-2.1904626,-0.35970357,8.772023,-6.134019,-6.5193467,6.8278804,-0.33458197,1.1626681,-3.055489,-19.65507,24.527872,-5.9250393,-59.233654,52.819748,6.939124,0.32671252,-3.6671178
2007f4965d2aa6064a25,-0.56384385,-5.86929,-1.2621105,1.5894514,-2.0187092,-1.2676831,-0.9803403,-0.9521859,-0.9407014,-0.9111049,0.9203039,1.0144634,-1.5272204,0.6609764,-2.773428,3.139298,0.34246162,-0.39123666,0.46485037,0.9844514,-0.17233711,0.30167952,-0.13750651,15.748464,1.8504713,0.16423172,-0.31034958,-0.11010207,1.0998156,-0.37243506,-0.22404544,11.965878
204a7d6db340a3c18ca7,0.09610081,0.18975294,0.031788353,-0.038666483,0.013510951,0.013741335,0.01363601,0.035162248,0.1456921,0.020476574,0.024797225,0.01486108,0.013882819,-0.059135374,-0.2116453,-1.3206568,1.6870058,-1.2835222,-3.7341385,-4.519723,4.665062,2.3611863,-1.834309,8.109783,13.259551,-9.67,0.38621804,10.763569,-8.739843,5.9509807,-1.6083832,6.5225825
204fdbe885269686a392,-0.08658436,2.2998703,0.26541728,0.12969333,0.13032936,0.114578165,-0.19538403,0.38395604,-0.08051135,0.2818333,-0.17580692,-0.09069728,-0.11214757,-0.15850858,0.88400114,-4.5147305,-0.038089577,-0.22811922,-0.14908552,0.07928828,0.090070024,-0.028164148,0.11485268,7.109412,1.1411647,-0.6368173,-0.036805995,0.97871965,-0.61730397,-0.037282526,0.0154637415,5.037768
20f97b68982d1b2f5c73,-0.06880847,0.41919982,0.0033329974,0.005711954,-0.029041784,-0.023536786,-0.011927108,0.024064625,-0.07184346,0.009241316,-0.0023371065,0.017996721,-0.029629866,0.0062383697,0.26293704,-1.415353,0.0087981075,2.829586,-1.0340724,-1.5336379,1.971335,0.368548,0.47420508,16.674767,-3.264747,4.310056,-0.52255243,-13.98691,13.620025,2.1284423,0.15498401,9.260732
211ed39c57c6e6cdefbf,-0.020886172,0.30524784,0.07986316,0.050494846,0.008739178,0.020660698,-0.0022284132,0.04517323,-0.030437823,0.026418597,-0.009386802,-0.016920872,0.014747588,-0.004294174,0.1041377,-1.3957094,-0.113124155,0.2979337,-0.3045553,-0.43565565,0.20488235,-0.035334885,0.18324831,8.286702,0.5741097,-0.6328132,-0.08048022,1.4814819,-1.5352305,0.38309494,0.12398623,4.8815074
2150588a5903d9a77b79,0.18435264,1.5537271,0.05291502,-0.142557,0.1478668,0.117860615,0.08091134,0.10175876,0.08707875,0.018860469,-0.010469009,-0.20614517,0.061217718,-0.23301372,0.009636619,-3.9483314,-0.50154495,0.0713367,-0.9832117,-0.5863479,1.5079998,-0.9100324,0.4286824,21.20579,-0.13658705,4.2490335,-2.208514,-7.0084224,6.473222,0.6222308,0.6310613,17.305897
217c87d59a4372c4f3fc,-0.25195616,1.4509718,0.060886223,0.09134969,-0.012168829,-0.055153202,-0.053183135,0.12056421,-0.47758853,0.059533417,-0.11862837,0.007848898,-0.07185644,0.0147087155,1.1789701,-2.6272812,-0.02317682,0.1111499,-0.11391989,-0.16959095,0.46263283,0.25169864,0.0982629,10.632687,1.0661261,-0.055732608,-0.15872067,-0.4741134,0.6849747,0.56048423,0.07414886,6.571009
219jkfkejubvu4dvuv13,-0.22508058,2.5323982,0.2144718,0.2794443,0.1982839,0.081870854,-0.14738522,0.29030043,-0.39242017,0.21724682,-0.32301816,-0.24307029,-0.09416632,-0.086415984,1.2734723,-4.770383,-0.3867384,10.970032,-7.8892527,-8.38741,8.899979,-0.584754,1.5221976,-5.2406178,-25.097813,30.826359,-7.4116836,-74.160645,65.7631,8.650711,0.37336165,-5.7401814
21e23771e52cb5291b19,-0.07245098,0.75935644,0.03819625,0.1095953,-0.01877986,-0.048882008,-0.038228948,0.024724029,-0.064348504,0.01360669,-0.108098835,-0.021223446,-0.045506272,0.013292695,0.45056447,-1.9516898,0.17584372,2.1062434,-1.0431557,-1.3915044,2.0114172,-0.31191206,0.651407,13.839892,-3.164624,5.6233296,-0.91550076,-11.759231,10.334367,1.5844004,-0.06385696,7.5388026
21fc5674d24be8e9da89,0.137115,0.20471223,0.02590268,-0.022380557,0.022993123,0.10088886,-0.05389814,0.13455994,0.15995474,0.12665726,-0.06238826,0.040464826,-0.06191977,-0.00216805,-0.053429995,-0.81231767,2.1964417,-6.53858,-4.611727,-8.22481,4.7244043,3.4603343,-2.6111538,33.706074,25.420708,-12.456893,-0.08752644,22.748777,-20.710564,8.283418,-0.9066734,28.718243
222d5ee50487a2b8601b,0.08658603,0.28375086,0.033265527,0.012473104,0.027268598,0.120591626,-0.06269441,0.10751258,0.13810778,0.11492518,-0.039439246,0.007454861,-0.058398634,-0.005232054,-0.013479786,-1.0611477,0.12002232,-0.44273537,-0.30083275,-0.25612828,0.11452841,-0.045153916,0.0032010972,5.867907,1.0451297,-0.37947655,0.13875979,0.8296641,-1.2573012,0.15897554,-0.12913464,3.694715
22ae866c664a147f9971,0.43905884,-0.41820142,0.024790218,-0.22334255,0.08329843,0.07647878,0.0696725,-0.07671932,0.642068,-0.032519676,0.18463854,-0.12098395,0.11103169,-0.16007961,-1.3467745,-1.168108,1.1849958,0.41645017,-3.4047542,-4.1084924,3.8469017,1.6755091,-1.1282521,5.4349003,9.112594,-7.6513057,0.26110235,7.5608163,-6.195536,4.8459244,-1.1887099,4.379327
22fey6dqzcrm0jbtfnmm,-0.0962834,0.29894352,-0.013118128,0.054216526,-0.027936403,0.07676101,-0.12295608,-0.049275752,0.18390407,0.06006565,0.06966736,0.027550858,-0.06738098,0.06601925,-0.34824595,-1.789959,0.22440436,2.480827,0.17841393,-0.20395811,-0.5244247,0.0800784,-0.24279054,5.367415,-5.8945246,7.300491,-0.34884468,-17.846926,18.647331,0.12994383,-0.20082577,2.934078
22wb5ostye8edvfar59p,-0.081694566,1.3921511,-0.026040016,0.074901104,0.13094585,0.15047574,-0.19529252,0.09234156,0.15333591,0.21204366,-0.056228552,-0.094422,-0.08964789,-0.045892306,0.13716225,-3.4165938,-0.3172864,13.382189,-8.695421,-9.509719,9.985989,0.061655533,1.589474,-8.790099,-29.980223,37.236885,-8.508779,-90.08054,80.25761,10.322338,0.41095167,-9.263112
23dd64a1d2e4965198bf,-0.08633439,0.37737596,-0.002952319,0.0051325154,-0.0407324,-0.035413034,-0.0030773794,0.020768467,-0.14219363,-0.0059344363,-0.00031474148,0.012577682,-0.030806271,0.0010167436,0.31558552,-1.3380226,-0.01771203,-0.30196854,-0.011925863,0.23006585,-0.042592153,-0.00719434,-0.00651145,6.1023464,1.5533358,-1.2813554,0.27725092,1.2213821,-1.6497896,-0.18271536,-0.075785644,4.2611475
23f1f5d3d90e2890a423,-0.18511814,2.6520405,0.08738929,0.09744344,0.1103683,0.091317736,0.05137107,0.25627676,-0.47172466,0.050091367,-0.22430141,-0.19821525,-0.010021152,-0.16317558,1.2504276,-5.1006646,-0.44727665,-0.370007,1.407217,1.7777418,-1.5785296,-0.26187515,0.39880243,9.788071,-0.851865,0.43129268,0.02967348,0.43914974,0.8686468,-1.4968147,0.46759862,7.980987
24524df0ca55659c384e,-0.16440439,3.1877892,0.2299417,0.1503795,0.16244419,0.23781827,-0.12882012,0.41666913,-0.30476475,0.19074006,-0.2170557,-0.2708225,-0.11568056,-0.25603038,1.3168459,-5.950756,-0.05707658,-0.58098316,0.9535219,1.449379,-0.90675616,-0.109653816,0.26406094,8.931025,0.2414422,0.6948805,0.018523637,0.47763062,-0.8431703,-1.1458297,-0.00015239045,6.220208
24ca7714d40e2fe53821,-0.1248979,1.0390301,0.05604434,0.07065262,-0.0006493117,-0.027638976,-0.03072599,0.09548168,-0.23578423,0.05120909,-0.0832044,0.0029204888,-0.04795601,-0.0060766763,0.6678931,-2.242601,-0.039725263,-0.7089099,0.14450425,0.3099714,-0.17422223,-0.09471046,-0.18211746,7.1470346,0.8969421,-0.14378634,0.17894532,-1.2218577,2.4149714,-0.18043374,0.053037923,5.4741898
25019b8f1c3ac537894b,-0.0872763,0.9891977,0.03450995,0.03893417,0.072036184,0.10406178,-0.10317825,0.119935215,-0.007742653,0.16728649,-0.06073392,-0.06581638,-0.07963919,-0.035432685,0.20752785,-2.532625,-0.47551736,-2.4998548,2.0203514,1.9334452,-2.5852969,-0.0156208575,-0.2104895,6.320474,1.0886286,-1.1244731,0.7734916,3.2303994,-1.9238677,-1.806431,0.6444075,6.299125
25c8e1ae2335e8c3e5b3,-0.04469518,0.3623326,-0.02777487,0.030711256,-0.045275204,-0.022488426,-0.044672836,-0.024464212,-0.004944672,0.0030901637,0.009383233,0.002396686,-0.0586995,0.012829708,0.21585415,-1.3634884,-0.28346586,0.5085002,-0.66600925,-0.64561856,1.1172034,-0.86327666,0.7636901,16.717276,-0.84946316,2.6569178,-0.91682506,-3.2190244,1.6360278,0.62854016,0.26468894,11.071583
264320c6b92b92795ba0,-0.30025214,2.2923102,0.15333802,0.17272668,0.103335544,0.17998286,-0.18400562,0.22731942,-0.36735275,0.22281483,-0.16420221,-0.15424193,-0.07313967,-0.06350351,1.2538204,-4.1133738,0.09573831,-0.2993455,-0.4727059,-0.37257478,0.48806772,0.04200624,-0.16482586,14.458526,1.8768276,-0.6638892,-0.22709912,0.6420174,-0.4828721,0.37912557,0.030331688,9.579381
27cc9165eef05eb1733f,-0.027421711,0.44894817,0.03527131,0.001567189,-0.025176773,-0.05828663,0.018325213,0.027847014,-0.08313299,-0.0076985415,-0.023280153,0.03525091,0.007104332,-0.0075992397,0.2756748,-1.443708,0.6554117,-0.80355674,-1.2239801,-1.2904834,1.3819065,0.8739847,-0.76981044,16.40151,5.6759577,-3.313596,-0.107414044,3.8189464,-2.390713,1.8727379,-0.47014424,12.212954
2826ec26211d83efd2c6,0.030135393,0.46977842,0.028375575,-0.013020922,0.074422374,0.3714938,-0.19031231,0.119548485,0.14208543,0.18235874,0.06807373,-0.057229757,-0.11603338,0.033597883,-0.06889675,-1.3573104,0.35464087,-0.34830275,-0.5896101,-0.51547337,0.81418306,0.40302172,-0.38672557,16.459463,3.182655,-1.3406472,-0.32551757,1.5044551,-0.7171298,0.8298919,-0.16213249,11.505876
2842c82981077b78b3cd,-0.19456573,2.4457612,0.16246974,0.1473204,0.0049974257,-0.050159305,-0.12588263,0.21439604,-0.51506406,0.08182372,-0.19914138,0.007048481,-0.10467226,-0.009493125,1.6346407,-4.257021,-0.6026029,1.8607672,1.4432617,1.7137973,-0.39982134,-0.85715187,0.82263553,13.97473,-10.334915,11.9289665,-1.3555017,-23.95355,21.712189,-0.7545139,0.7150858,9.137074
28719a42e0cbf4991b7f,0.0017138063,0.35454518,0.031281922,0.003848133,0.004588886,0.015281274,-0.003020414,0.03607024,-0.019366318,0.011408311,0.0047411784,-0.007466258,-0.009377969,-0.048301984,0.113191165,-1.4124045,0.069178194,-0.7105102,-0.03814149,0.41957185,0.16010189,0.14565876,-0.01845625,9.714278,2.3780937,-0.9432502,-0.13822795,1.6942751,-1.1736603,-0.14807345,-0.07789313,7.1111135
28bc8af257c48eac3bf1,-0.004948963,0.58892375,0.059982724,0.011826391,0.017334774,-0.025113944,0.021595696,0.061566405,-0.03705016,0.04677076,-0.055311747,0.02015298,0.021140933,-0.002289914,0.20425862,-1.7300334,0.5760899,-0.47936216,-2.7026558,-2.9274762,2.9362516,0.56866616,-0.51704437,7.3453074,5.673157,-4.677031,0.18789504,4.1611714,-3.7049184,3.2589407,-0.62696105,4.9214635
28d90a892cc66338f962,-0.2376149,2.353863,0.16870598,0.17881908,0.12553538,0.17391385,-0.22890937,0.3392942,-0.1486683,0.3177025,-0.18357734,-0.15807496,-0.18523121,-0.11687569,0.9777705,-4.499414,-0.055971872,-1.5387951,-0.32782504,0.11938524,0.3237175,0.15116262,0.21834996,18.581453,2.9779058,-0.469108,-0.4051501,0.26874873,0.0149229765,0.06589536,0.22195771,14.088715
28tmrs0kyrrh1odyvf21,-0.08651747,-0.026870701,-0.009305892,0.06842917,-0.062930875,0.078661755,-0.15136735,-0.09376602,0.1668412,0.038555216,0.0704273,-0.023004457,-0.105560586,0.11285145,-0.21221465,-1.1163158,-0.071417615,6.7541957,-2.1736875,-2.9132414,3.0566938,0.009439856,0.13120079,-1.9172492,-18.139494,21.714182,-2.696502,-55.628654,54.120293,3.76059,0.061936136,-3.734706
29172d2e39ca0d890848,0.07709479,0.98375773,-0.03060157,-0.08988844,0.114629015,0.124843046,-0.06097292,0.07028783,0.13740334,0.13997972,-0.031499565,-0.09385084,-0.014457126,-0.09069772,-0.20794201,-2.9127288,1.4453697,1.356825,-4.032371,-5.1882534,4.3292847,1.9777029,-1.3481027,5.684401,9.376202,-8.101161,0.25304845,7.5087137,-6.1172266,5.8008265,-1.3851258,4.254539
2933a3227c7ce7fe21eb,0.5042983,-0.16220672,-0.025325792,-0.27276668,0.10639884,0.100449845,0.049218234,-0.12794085,0.6871657,-0.06485758,0.19787501,-0.15363343,0.1266292,-0.16767594,-1.308468,-1.5662105,0.2879438,1.9551455,1.0067481,0.79308903,-0.42083374,-0.049066085,-0.7216844,3.2005074,-5.415346,7.5109706,0.22092406,-20.450706,22.590788,0.0961175,-0.44863793,0.99572176
2959d8017312337a2ba6,-0.079926915,2.2638252,0.08136357,0.044907797,0.17710245,0.1508223,-0.015370479,0.2724295,-0.24316958,0.11703598,-0.1973792,-0.23749001,-0.042374272,-0.20117377,0.6832687,-4.785268,-0.6489841,-0.44139904,-1.0904714,-1.1083871,2.0580013,-1.5764986,1.2249076,9.908278,-2.2975163,4.710755,-1.1956278,-7.449905,4.788801,1.2263399,0.5088441,7.459666
29acddb87cfe062d73f5,-0.11348831,0.7872835,0.015899183,0.11526322,-0.01424615,0.05009846,-0.13295482,0.06337179,0.004741284,0.09127172,-0.05263698,-0.06668162,-0.13550034,0.02341264,0.3200323,-2.0359068,-0.096111916,-0.13223584,0.23547219,0.64386934,-0.40880743,-0.25447226,0.14519762,16.450632,0.19989252,0.7399175,-0.10788582,-1.0412452,0.64350724,-0.54540324,0.09394371,10.96143
2a003b122e9500e465c4,-0.08998288,3.7160084,0.25342965,0.09441661,0.1852599,0.17916793,-0.09026844,0.44356918,-0.41489273,0.16955131,-0.29055727,-0.217175,-0.078687504,-0.29096165,1.4838992,-6.851304,-0.19019125,0.0149407685,0.27695194,0.19688196,-0.28856102,-0.24806947,0.41894287,16.609318,1.3467851,0.7449741,-0.4458984,0.73952955,0.02742982,-0.28511572,0.30921748,12.493572
2a515047aa9d085849a2,-0.060827333,3.1331434,0.26191494,0.12601677,0.24519981,0.21393022,0.0033914677,0.50295806,-0.23316796,0.17168498,-0.26519755,-0.32753682,-0.063392274,-0.34847832,0.9567069,-6.243597,-0.20238228,-0.93773395,0.14033629,0.5539624,0.18254374,-0.48775604,0.5493088,12.544506,1.5725062,0.2795803,-0.22641262,0.55134076,0.031066775,-0.32540098,0.16626318,10.015606
2a6394114c31a10dc92b,0.1536864,0.07817713,0.005664593,-0.04072539,0.029344093,0.08391049,-0.04493906,0.07985643,0.15166387,0.05572199,0.021093009,0.0056388937,-0.047320813,-0.033683687,-0.20181516,-0.92177385,0.3405738,0.13345711,1.6638162,2.1571162,-1.5176123,-0.20034426,0.2107625,10.737961,-2.153286,4.0733867,-0.31295827,-3.9805577,2.6946144,-2.1133091,-0.20534448,7.046836
2a6ap0t2rsvoogmydj3a,-0.15011421,2.0641785,0.07936418,0.14431283,0.12681249,0.11457469,-0.10412377,0.18550773,-0.2171683,0.12632813,-0.13191548,-0.16059971,-0.073169984,-0.15033895,0.9258983,-3.9932415,-0.15359233,14.54476,-7.796462,-8.4492235,8.925618,0.6202758,1.5179366,-9.863011,-32.52918,38.917225,-8.031832,-94.90063,85.073845,9.860642,0.18255141,-11.396346
2af634997fba501740c2,-0.017967567,-0.38078466,-0.031878684,0.02626081,-0.08871397,-0.040417846,-0.062461734,-0.07786895,0.24393277,-0.042438336,0.04029606,0.053927086,-0.068654925,0.02876256,-0.5946045,-0.7585036,-0.002736073,-0.44836244,-0.53663987,-0.15070081,0.57082933,0.07743036,-0.14707318,9.219411,2.9023898,-2.2972183,0.18961337,1.6113964,-1.5042692,0.30106753,-0.093914144,6.7529845
2b3492096a4d12bb86cd,-0.035149895,0.5568941,0.0036036915,0.072122104,-0.066889465,-0.06451751,-0.059263058,-0.027228938,0.041023813,0.027670436,-0.06608533,0.0015167771,-0.079700924,-0.0047158566,0.3812212,-1.6592607,1.1343987,39.60113,-23.461113,-22.857765,20.802132,4.601347,10.215056,-21.87104,-81.3768,95.44557,-28.17181,-195.53412,152.39357,19.072655,0.66790175,-25.678202
2b54ed4af8281eb82f58,-0.09193928,0.30558705,0.015827129,0.050341506,-0.07282936,-0.047847133,-0.048106015,-0.0030311993,-0.084481396,-0.024896085,-0.004439674,0.015944693,-0.06523499,0.038289428,0.23067126,-1.3457718,-0.064222805,0.45976293,0.92988575,1.1907445,-0.95805943,0.034828283,0.18617137,13.67995,-0.42403135,1.0694662,-0.35536948,-0.7344474,1.7684649,-0.9629867,0.19126351,10.045732
2b935bfe06ef02369807,0.082499065,1.6071485,0.1602516,-0.021236965,0.07199651,0.039587487,-0.030728363,0.18840092,-0.082989976,0.09523948,-0.07356186,0.01025052,0.0110228555,-0.11155252,0.57782793,-3.3884685,0.7263029,-0.73911476,-2.5771713,-2.8236506,2.9339483,0.7172518,-0.72181237,8.722768,6.2946224,-4.610998,0.06735267,4.312127,-3.764961,3.153037,-0.66662216,5.966093
2b9ef4e3749f713870b0,-0.04205517,0.1578266,-0.052005958,0.040294547,-0.038141824,0.027618647,-0.08314926,-0.018779183,0.031402234,0.017412372,0.04982387,-0.040421158,-0.10304291,0.0236725,0.06408127,-1.0654563,-0.11226108,2.5114088,-0.25079522,-1.1842765,0.96817225,0.16503614,0.6241151,5.7500367,-4.8247557,5.056992,-0.14946628,-12.176284,11.796236,1.5946498,0.22782834,1.324063
2c27d4de6ae130e7e242,0.08562102,1.356793,0.11473278,0.023572197,0.06228892,0.0517547,-0.100266814,0.18209946,0.054855894,0.10170059,-0.0761546,-0.036770947,-0.059418913,-0.12987909,0.38220137,-3.1417584,-1.5422057,-6.1985607,5.9960465,5.642189,-3.8906791,-0.19688947,0.34107387,15.478976,-7.04149,9.337738,2.66573,-26.642523,28.41422,-2.1544697,1.8583083,13.343138
2c3b89432513b2035664,0.063244164,1.4056925,0.16558066,0.044221923,0.09995071,0.0635419,-0.09999776,0.21446441,0.06362393,0.17572339,-0.07895495,-0.024117654,-0.055019706,-0.104709856,0.38840684,-3.152815,1.3460864,0.80734634,-3.935542,-4.8603983,4.496368,1.584949,-1.1234037,5.008345,8.465609,-6.988382,0.09127986,6.3464828,-5.4121075,5.4071655,-1.2756085,3.3185
2c6339f7c23a64d02081,0.2359771,0.24512868,0.01602937,-0.0052511003,0.06423094,0.2263012,-0.1242494,0.22470233,0.22462834,0.2508132,-0.14003286,-0.0010531048,-0.15278251,0.025698692,-0.038351186,-0.50128365,0.2989701,-3.4441803,-1.5088408,-3.6672084,0.7864936,1.4242324,0.85412425,34.275936,9.187969,1.3608989,-1.7572192,3.743011,-5.9457483,2.0948715,0.89673495,27.151129
2c7d02c44b47e3d24d52,0.059106916,0.23804706,0.079295225,-0.006541238,0.004155721,-0.0442092,0.042456686,0.036549956,0.04499515,0.010337325,-0.012615149,0.030930221,0.04339755,-0.0091239745,-0.028266404,-1.2943281,1.0027696,-0.06816756,-3.8775413,-4.5719075,4.265585,1.2166921,-0.94210505,3.4183202,8.347438,-7.4453073,0.3669972,6.868814,-5.926832,5.08223,-1.0525444,2.49115
2ccfa5f79c8b61e465d4,0.054665014,0.85012454,0.12473913,0.09402432,0.0055047,-0.007539177,-0.101482406,0.09165303,0.16053572,0.08530044,-0.053679727,0.0035239374,-0.09117061,-0.004787451,0.1874258,-2.3191319,0.10800044,0.4229984,0.76881766,1.3070451,-0.5115617,-0.08366957,0.32141548,11.533924,-0.6575992,1.9331832,-0.44020885,-1.9049292,1.8903888,-1.0434401,-0.07354105,7.9290156
2d526c27123e59103e29,-0.20882158,3.2873197,0.28900307,0.27310112,0.20939511,0.1304801,0.12527235,0.47307432,-0.53757185,-0.0011696328,-0.33660403,-0.2880923,-0.022204325,-0.25848255,1.464456,-6.226684,0.43619952,2.499154,0.6963243,0.77551645,0.037116826,0.017056972,0.42103925,11.209535,-4.509453,6.5860305,-1.1186302,-10.722352,9.978897,-0.6216736,-0.18519667,6.4835367
2d9a38c93e37bc475cb6,-0.19444379,-0.039199032,-0.12472162,0.10918139,-0.18478453,-0.05854739,-0.11900035,-0.05422608,-0.0072920946,-0.027164415,-0.01138319,0.018676663,-0.23622954,0.012397015,-0.030485502,-1.0339762,-0.22372006,-1.1961861,0.418799,0.8531119,-0.6560135,-0.04609322,-0.07465987,13.625072,1.9919018,-1.2199016,0.10328075,1.6975763,-0.5007722,-0.60641557,0.26165885,10.611508
2db6dd71f1d07300382c,0.022005282,2.0750554,0.11461174,0.06022964,0.14648935,0.22922854,-0.15293138,0.2873725,0.17589207,0.23945811,-0.118120044,-0.24737203,-0.13225706,-0.23945574,0.2818474,-4.5291977,1.0232413,-0.31452286,-2.9529614,-3.41859,3.3648214,1.1161569,-0.9818275,8.699193,7.389955,-5.3821025,0.06482124,4.962347,-4.1913,3.8590617,-0.92720807,6.0746255
2ddkknvpbz2j9wlvybtj,0.13890529,0.69928485,0.07685672,0.059789464,0.08619522,0.08854744,-0.08468395,0.05992088,0.25258264,0.07058086,0.030175624,-0.05428217,-0.0030032871,-0.061107453,-0.3580268,-2.631482,0.28905505,2.7251015,-4.276255,-4.7049685,5.045471,-0.24594447,-4.220009e-05,3.4607022,-4.0055923,7.6849966,-2.501672,-21.632685,19.554258,5.1967297,-0.3964831,2.7551649
2e2c00240c341a4265e3,0.36820066,0.43918225,-0.04533918,-0.19021328,0.16070123,0.16282286,0.0076846643,-0.038836315,0.6017618,0.1129857,0.08821515,-0.23176369,0.031270057,-0.16338734,-1.1391032,-2.6112943,1.2961445,0.06804837,-2.896687,-3.5903754,3.5780334,1.7167184,-1.4443316,13.093578,9.361923,-6.834396,-0.063284054,6.5571804,-5.1688614,4.2799616,-1.0388534,9.584962
2e3e7cbe0e69add8d31a,0.021722496,0.54168,0.10689804,0.020029943,0.04001239,-0.00034491194,0.023725634,0.07804499,-0.045407522,0.018423954,-0.044305623,0.0032430727,0.04413253,-0.045792125,0.19776644,-1.6302146,0.5151832,1.7493861,0.025635013,-0.5463295,-0.00809291,0.28246027,-0.6580198,5.659943,-2.3043175,3.7528043,0.21952626,-11.085767,12.887421,0.77185994,-0.5027877,3.0599248
2e40c1b07d32d3b80862,-0.41450736,2.0083425,0.13620389,0.14141002,0.008418796,-0.036368035,-0.13765281,0.20421137,-0.58742315,0.17918447,-0.17413361,-0.004361447,-0.117543206,0.0827287,1.5097926,-3.3993766,-0.19866318,0.67867255,0.23866637,0.32452312,0.0014179647,-0.1526966,0.3608512,15.178884,-0.86989605,1.1291922,-0.29994825,-2.085181,2.2088509,-0.005247891,0.2542415,9.662023
2e54b1c7bff5847c82a8,-0.039626446,0.38301554,-0.016315773,0.012590721,-0.035545405,0.0129128415,-0.037564445,0.04412689,-0.009202735,0.01304523,-0.005480197,-0.006102678,-0.07116927,-0.046107262,0.08428938,-1.5144838,-0.32272768,-0.6270437,-2.5066404,-2.5536778,3.523671,-1.5350497,0.63959885,17.546417,0.75624686,6.619254,-3.0332067,-9.694585,6.7172394,2.0444608,0.47530583,15.358366
2ea821273e01ec758583,-0.22241902,1.5583072,0.037902027,0.11004809,0.045165807,-0.007272507,-0.08032187,0.13448897,-0.41110238,0.08170945,-0.11946101,-0.021222416,-0.06886721,-0.028417896,1.1791339,-2.8057218,-0.10747432,0.031328656,-0.019860439,-0.007347882,0.14147998,0.14034584,0.16607946,8.680365,1.4071198,-1.1217823,-0.15635347,2.6752508,-2.3051836,0.22278975,0.11745254,5.548402
2ecb7fb5ff8899614c12,-0.0389672,0.22796929,-0.045645446,0.016987514,-0.046445202,-0.0067502777,-0.04133376,-0.029232558,0.025235128,-0.0053369333,0.026803283,0.014410599,-0.05126842,0.021307135,0.11903071,-1.2377293,0.09273628,0.52852976,-0.41108856,-0.26887703,0.47172922,0.08972217,0.060995776,9.391901,1.3211516,-0.68802476,-0.069144286,0.6504841,-1.4097788,0.30948162,-0.16156729,5.564127
2egpenarap9h0a2k0bc5,0.19047712,-0.6248696,-0.045884114,-0.030045858,-0.054888587,0.12183503,-0.21447518,-0.20352796,0.8782511,-0.043230124,0.20207655,-0.11749017,-0.07488749,0.021166941,-1.7074621,-1.3120348,-0.23470433,8.060832,-4.1851482,-5.1951447,4.0347543,-0.45286557,0.84351933,-1.9118986,-20.511574,23.79017,-4.434077,-56.519043,52.382454,4.200579,0.41432995,-3.5144582
2f3c37735e817244e646,0.058358166,1.092594,0.06596132,0.006809857,0.095387265,0.11774175,-0.06425972,0.13429487,0.11850051,0.14611939,-0.06353821,-0.109801956,-0.03731898,-0.11571333,0.019683335,-2.8785007,0.47063795,-0.71475196,-1.8782566,-2.1449242,2.0892377,0.448145,-0.45551008,5.919976,4.4012156,-3.2962158,0.20734552,3.1911283,-2.749898,2.441638,-0.48623177,3.715347
2f3ef424b925a9881b81,-0.2473145,2.2042897,0.25568962,0.1283841,0.17044544,0.2806832,-0.16007766,0.37570667,-0.26000386,0.28089452,-0.17769389,-0.1657945,-0.03556837,-0.14827004,0.78633815,-4.355043,0.090165764,0.23768233,0.28202295,0.4312286,-0.34545985,-0.01184389,0.2373627,5.417557,-0.05437839,0.7981147,-0.10810849,0.041135192,-0.43955886,-0.46169668,-0.10898688,3.3188634
2fe9648ea28753c73c2c,0.0880523,0.6871177,0.06570406,0.02001826,0.023969797,-0.00076183275,-0.03900132,0.06550984,0.11486175,0.07848914,-0.0060306694,0.0035240408,-0.02519385,-0.05523852,0.12433175,-1.9897232,-0.7348537,1.642546,-0.2804039,0.7713964,0.28901044,-1.258124,0.7191198,15.485069,-7.7998867,9.386108,-2.6468172,-16.349203,11.931045,-0.5640087,0.67332655,11.243027
2h9c9tdsnoz1hyzo5frt,-0.16005038,0.17136663,-0.10177054,0.14578943,-0.061696727,-0.011309162,-0.13196051,-0.031288728,-0.032175228,0.006623664,0.06570075,-0.039817806,-0.18768318,0.05600834,-0.15161167,-1.5435181,-0.34850928,5.168609,-2.7327988,-2.715585,2.9880247,-0.8851994,0.34397376,2.2608554,-12.537732,16.585936,-3.9575267,-36.13682,31.870483,2.794319,0.30198097,1.6860139
2jvnsh0veb6qnn3uv6i8,-0.13946557,1.336467,0.0938132,0.10802276,0.025607318,0.011900395,-0.10985729,0.09229662,-0.05043341,0.11326279,-0.0793518,-0.030281192,-0.059570085,0.017395461,0.58605444,-2.8182724,0.15209173,2.0692332,0.7979606,0.46343106,-1.0538336,0.007399589,-0.12943147,4.680945,-6.780151,8.016485,0.12881987,-20.208374,21.465364,-0.42557904,-0.16501124,2.1000721
2krjeqjgjqfuumdo3ibt,-0.043804903,-0.058199234,-0.12803125,0.104087844,-0.029094653,0.08037303,-0.15496081,-0.11547564,0.12031133,0.033675976,0.08054173,-0.081268355,-0.14885707,0.09183511,-0.21250118,-0.9948554,-0.51727396,10.67546,-8.9010515,-10.339626,10.786316,0.19392799,2.4481237,-11.650116,-29.491314,37.864567,-7.909257,-92.34509,81.200455,11.292053,0.8506138,-10.639985
2svwdpmdpjsdzafekntw,-0.16265015,1.6133354,0.094529316,0.1388614,0.072408766,0.1343112,-0.1733413,0.13920267,-0.04351502,0.17185326,-0.08976697,-0.12237226,-0.12714697,-0.032802526,0.6185518,-3.3984306,-0.11211775,15.830242,-8.619476,-9.457916,8.968765,1.3571916,2.9824078,-12.046246,-37.19812,43.48711,-8.935582,-103.55581,91.63758,10.020108,0.41477674,-13.203982
2ui63dibc4r8oo0p9agh,-0.08569452,0.50060564,0.025726954,0.111676216,-0.016851991,0.031352967,-0.16614424,-0.04379803,0.1311562,0.027250784,0.025418347,-0.0431424,-0.100455806,0.069347374,0.24784525,-1.5283858,-0.21987532,11.354275,-6.099989,-6.6597686,6.768252,0.8204231,1.3978007,-6.361544,-26.73022,31.824425,-6.38144,-78.92484,71.694664,7.8277245,0.31390142,-7.6643677
2uxkhe454qk8jvk0ufvp,0.15660301,1.0738852,-0.1353002,-0.38483515,0.3750508,0.15465184,0.16902378,-0.0831997,-0.13027024,0.041772824,0.01564685,-0.07709414,0.3140809,-0.08870448,-0.5282882,-3.434261,0.30203706,1.9547803,0.38319698,-0.1268618,-0.48795632,0.1522825,-0.40442753,4.369141,-4.825625,6.143799,0.2710147,-16.944456,18.710533,0.33105037,-0.3423487,1.9942957
2xk6toebmkxdw8f2bypd,-0.12739278,0.8901941,0.044702474,0.0787333,0.037821878,0.02904838,-0.039327383,0.11050591,-0.17845814,0.10166554,-0.08451659,-0.059445083,-0.061544787,-0.008566201,0.4274883,-2.2016761,0.88345635,-3.3781943,-1.0910689,-0.88809013,1.7998008,1.2781615,-1.2185823,8.609453,9.808211,-6.141862,0.48587644,8.321138,-6.892457,2.1060383,-0.8378792,7.5927114
2xsbkm76x36qvddrl2yo,0.10596217,0.3226507,-0.0087005785,0.012456813,0.028488318,0.03135906,-0.06746431,-0.047822177,0.24193576,0.056222253,0.0061432733,0.005221086,-0.0069405586,0.023022458,-0.20701773,-1.5707904,-0.37498957,6.7577887,-4.523112,-4.879631,4.393458,-0.89691234,1.0850683,2.3146806,-16.880798,20.582005,-4.929078,-46.650143,41.71556,3.8075721,0.46813783,0.889232
2zfdinkl7qrn0o62tlp4,-0.38074493,3.4664397,0.17209323,0.2303235,0.22162937,0.097352974,0.037834678,0.3790017,-0.75308794,0.14106262,-0.35393605,-0.2561111,-0.07318937,-0.14098035,1.977853,-5.8974423,0.13073184,8.100205,-2.614772,-2.8416712,1.7858465,0.513257,1.3084646,-0.5425479,-19.154266,21.95465,-4.041816,-48.656563,43.558033,2.335064,0.028180009,-2.8053906
301f57984e5d2969c938,-0.06482352,0.42969626,0.03231508,0.0323016,-0.042234108,-0.051589794,-0.017731607,0.0017877317,-0.066642344,0.0016863722,-0.019817162,0.02841393,-0.014135654,0.020722589,0.2834422,-1.4945459,0.024396447,-0.20009919,0.3436247,0.53408206,-0.5684064,0.22185095,-0.0895766,12.998873,1.4706076,-0.60085964,-0.077356346,1.1039885,0.14940682,-0.28043926,0.06277048,9.962147
306627b1ecbdf4e3aa34,0.008984103,1.0897944,0.21675754,0.11558394,0.027726673,0.05189632,-0.050265417,0.17996126,0.024677461,0.035814513,-0.031388246,-0.102745906,-0.024597744,-0.091574974,0.34300208,-2.847763,-0.1693957,-0.015734822,0.84006894,1.0066205,-1.2510735,0.026137352,0.10269043,8.8090925,0.024986625,0.31146732,-0.05492903,0.43609235,0.6956759,-1.0487461,0.24795346,7.007787
3094825929f936abb792,-0.25988224,3.2354758,0.24836148,0.1814162,0.17631067,0.30800208,-0.24705069,0.44945887,-0.29195696,0.3450663,-0.23354487,-0.25448805,-0.1641025,-0.20725182,1.2925423,-5.9200697,0.07279082,-1.1393453,0.7015698,1.2138686,-0.56144613,-0.095549956,0.18498586,7.3551736,1.2385731,0.29842377,0.09601912,1.0000854,-1.4097805,-0.90186304,-0.13601996,5.5176334
311abc37a94ae8afe41a,0.45246214,-0.73827815,-0.0129739875,-0.20357135,0.021399474,0.027322397,0.07793642,-0.09544372,0.6643594,-0.06704686,0.18618692,-0.014510574,0.07162124,-0.13523008,-1.2851942,-0.47326532,0.66106516,0.41848764,-0.24473336,-0.52422726,0.31897306,0.7553369,-0.3809204,16.885773,3.4283118,-0.27743384,-0.51984185,1.485987,-0.25511312,0.7715314,-0.3806158,12.760693
31741464205aa8cdb4f5,-0.0988089,1.1701593,0.07927735,0.04638757,0.05070163,0.07946123,-0.14562209,0.09451951,0.015260412,0.15759458,-0.086397685,-0.07523292,-0.11557758,-0.00073131715,0.22967207,-2.9395707,0.6682635,0.38484865,-1.6282536,-2.0401318,1.5966835,0.8810043,-0.52987474,6.9836435,4.3300347,-3.1176236,-0.014140158,3.5029864,-2.4309387,2.2854986,-0.58914405,5.1737514
3267b84814316e2fa25e,-0.10521148,0.99520063,0.060547754,0.09847353,0.08046806,0.088778496,-0.101713434,0.10968268,-0.054024808,0.16252016,-0.057750694,-0.06484321,-0.06410325,0.014017852,0.32465795,-2.3547387,0.08270947,-0.7288257,-0.7186662,-1.1095201,0.52849644,0.45727983,-0.3072969,5.5378284,3.4060473,-3.4376705,0.25485563,4.8450756,-3.1025922,1.3160052,0.013762712,4.8106303
329622100fe091a4c48c,-0.00895232,0.22230828,-0.010227127,-0.008643419,-0.007965627,0.029056843,-0.025345765,0.028398244,0.064200826,0.027860772,0.028440433,-0.011144109,-0.05032575,-0.020153498,-0.044836875,-1.287297,-0.19534424,0.876604,0.42666754,0.8035086,0.7704995,-0.33032224,1.0232233,14.83554,-1.8944767,3.867139,-0.5488036,-7.30458,7.3365793,0.1538451,0.118101925,9.897614
32n93dfesjggabieb85t,0.08240665,0.602685,-0.10119159,-0.1927238,0.22254989,0.11171566,0.03525032,-0.026514843,0.088835225,0.07938549,0.020317912,-0.12604061,0.12542613,-0.08309485,-0.488807,-2.5636792,-0.3643499,1.7882041,0.011438504,-0.16834949,-0.0028901994,-0.4681257,-0.01777035,3.227916,-8.710643,10.8580065,-1.1925334,-25.829039,25.012476,0.48467472,0.3690561,2.5440817
3313c40ea45a87f9d2e7,0.13525738,0.69094145,0.057507407,-0.0074691423,0.066773616,0.06155964,-0.045672636,0.084534526,0.2114485,0.11143166,-0.02265118,-0.06448445,-0.048317146,-0.09681053,-0.17364688,-2.2536962,1.513071,0.5288026,-4.274874,-5.114845,5.204712,1.3589684,-0.6558218,11.088455,8.608276,-5.402336,-0.30563623,5.7921696,-4.8302946,6.066313,-1.4708827,7.759613
33184c1cba6a37cdbda2,-0.11431601,2.144399,0.23522295,0.09886961,0.036585793,-0.035743196,-0.14133449,0.2831574,-0.3378508,0.15858033,-0.16330203,0.008205862,-0.08654708,-0.08222598,1.2825968,-3.8918736,-0.106011026,3.515697,-7.8649945,-7.8888717,8.965627,-1.3829805,0.40433922,21.831757,-8.061025,16.185913,-6.379679,-36.56484,26.618832,6.8396254,0.46363446,13.818664
33b73273ab8e1a11fcda,0.08125705,-0.19729862,0.023424642,-0.063893795,0.0054414696,-0.0020125061,0.04231562,-0.013532994,0.16483025,-0.003857581,0.03808158,0.025057994,0.055090494,-0.016053116,-0.43927607,-0.8205665,0.5918607,-0.35915816,-1.7036359,-1.9676702,1.8404691,0.5715743,-0.554733,5.0423427,4.088679,-2.779916,0.21335265,1.9107424,-1.0154783,2.2767255,-0.59961027,3.5857136
33c123d08dc07edb50f9,-0.3713128,2.014877,0.18123524,0.14748469,0.07088156,0.09519031,-0.11430718,0.25855622,-0.49681982,0.23040208,-0.19954652,-0.080803394,-0.08836808,0.015072927,1.2661625,-3.5817435,1.2749271,1.4064772,-3.1645079,-4.0815177,3.2886703,1.3539109,-0.75974536,6.825593,5.4632497,-3.7179182,-0.21507439,3.7714076,-2.9282377,4.4030833,-1.1518741,4.154211
33ddb1517601db520cd6,0.46179083,-0.35583615,-0.039667584,-0.2797935,0.14492895,0.17605281,0.044663906,-0.0804134,0.7819502,-0.003967601,0.19906588,-0.19835633,0.12747626,-0.21023224,-1.7171364,-1.613155,0.55148,-0.552071,-1.3020003,-1.19821,1.6589129,0.7872314,-0.4578256,5.6031957,5.410019,-3.903732,0.09830455,4.414454,-3.4391017,1.761378,-0.5935652,4.742997
34aaaa47df8c4aa4d926,-0.059686147,1.8304136,0.1839897,0.09599519,0.08770196,0.056277465,-0.08505639,0.23335804,-0.12076096,0.1547604,-0.12781744,-0.06797667,-0.060667984,-0.09264554,0.8036817,-3.5791461,-0.25565574,1.2376881,0.4556218,0.31398198,-0.33655396,-0.33823398,0.6361932,10.248824,-3.4724004,3.2915738,-0.023731658,-6.0399013,5.1343822,-0.11314319,0.22774103,5.43721
34qcy2qj5lij7g82hpvw,-0.054704446,0.1735665,-0.066059306,0.10754216,-0.0070507824,0.07802257,-0.15803804,-0.07359708,0.22851866,0.07375952,0.054735146,-0.10930154,-0.13944054,0.0661003,-0.13783568,-1.3946708,-0.70119774,14.087904,-10.6423645,-11.311144,12.436345,-0.30362406,2.380474,-9.168472,-31.98193,40.710438,-10.445663,-95.26684,80.91801,12.549822,0.8158416,-9.140431
3531c5f9d520759ba697,-0.022654608,0.33371934,0.019381104,-0.010698336,-0.009291682,0.0026984317,0.0027473096,0.034788977,-0.014151032,0.013260918,0.002854999,-0.016348232,-0.012247362,-0.025539897,0.080804974,-1.380587,0.016065061,-1.4362254,-2.1723785,-2.750492,3.2198179,-0.66205245,0.72883105,15.433694,6.0387115,-1.4414617,-0.66315013,4.2210717,-4.239792,2.5695953,0.061456434,11.790847
3555053023c67d592439,0.10366022,0.36657378,0.0050807106,-0.07198719,0.07455551,0.08908215,0.017197553,0.0078322785,0.15377502,0.06595119,0.011787539,-0.044697743,0.04622762,-0.066325344,-0.3288996,-1.7799776,0.3849014,-1.1003158,-1.943096,-1.9563825,2.0709996,0.42220685,-0.5261736,7.9370522,5.3932347,-4.2801595,0.26051235,3.9960356,-3.389877,2.2176473,-0.40622768,5.858894
3565d61f3efec69e611c,0.0834939,1.612347,0.1334331,0.03082612,0.12407359,0.16080998,-0.16283903,0.24880306,0.23320433,0.25744978,-0.09436673,-0.09454362,-0.11655192,-0.14768803,0.14380693,-3.6941152,0.886667,-0.7434959,-3.6108806,-4.124184,4.0826473,1.0599511,-0.87583053,2.3441625,8.418376,-7.5126333,0.46792096,7.225204,-6.378805,4.6960993,-0.96917164,1.9291838
359f25d9131a0699405b,-0.32023865,4.719304,0.2822964,0.16471927,0.19660538,0.15996206,-0.0089133335,0.4833882,-0.9812038,0.11092739,-0.3823518,-0.21799278,-0.030847965,-0.24402383,2.4388592,-8.0795,0.05663975,0.47764173,-0.7849599,-1.1175181,0.8088706,0.088189974,0.02045077,8.501587,1.0231934,-1.0059313,-0.20652561,1.3769604,-0.9793327,1.028307,0.05775095,5.134066
35e028ec34bfdb7a6d26,-0.10341701,3.5864606,0.20378636,0.065510534,0.32754835,0.22524536,0.14626741,0.48448977,-0.47028264,0.1114022,-0.2927239,-0.34585574,0.078399435,-0.32791075,1.1040401,-7.1579056,0.095258,0.2509483,-0.08334616,-0.08774022,0.28630167,-0.029754933,0.26472965,13.312652,1.2770711,0.4719769,-0.4418673,0.29281384,0.36108112,0.19229367,0.010774522,9.781468
35wcdp4s13xmtyq5f7os,-0.019383509,1.0458179,0.017318128,0.042204317,0.12802336,0.14745001,-0.06877453,0.0992921,0.13454902,0.1751841,-0.07599161,-0.12485218,-0.033926953,-0.066026986,-0.048896942,-2.8736722,-0.51212406,4.2973228,-2.0753632,-2.4024098,2.4151468,-0.4336056,0.57465816,0.4910632,-15.14133,18.18392,-2.8979836,-44.7406,42.131348,2.7709773,0.559434,0.059860826
360820d6620d17d1b48b,0.0024599433,-0.15521117,-0.0136889145,-0.03573913,0.020679459,0.1257411,-0.07039442,-0.048024803,0.13861246,0.057745047,0.086598314,0.0013377315,-0.016643437,0.054483645,-0.34528655,-0.7465257,0.26905772,-1.6422752,0.2124286,1.0084063,0.34099904,0.2561468,-0.5313552,13.600926,4.838379,-2.4925122,0.1484127,1.5240465,-1.1446291,-0.50230503,-0.23308167,11.194645
3672e2896ad7d8f2404e,0.043361038,0.70812005,0.08571913,0.0015089113,0.0006551556,0.03652419,-0.059122138,0.0971491,0.059746742,0.035908185,0.019265553,-0.027329538,-0.060060818,-0.02993516,0.13935074,-2.1271007,0.52688885,-0.84886444,-1.955559,-1.9296265,2.3008387,0.60500175,-0.4625155,5.9765787,5.6261125,-4.237144,0.13956238,4.3952203,-3.7210307,2.375865,-0.57861805,4.4846506
367c27a001837dabb2e9,-0.040574476,0.40619802,0.0023075102,0.04249835,-0.020604033,-0.003802005,-0.06750698,0.011112663,0.019304529,0.008412912,0.010954942,0.006529277,-0.058560997,0.024142634,0.2005996,-1.4071941,0.053221107,0.42055422,-0.12452633,-0.38113227,0.13153212,-0.10202525,-0.20985563,7.5975337,-0.45785433,1.0044856,0.22490151,-3.5854566,3.8933723,0.4655152,-0.097144164,4.020043
36ebf305b7206112f676,0.12761724,0.17540896,0.018402746,-0.040074892,0.0033678636,-0.066782095,0.04038072,0.011505409,0.06301352,-0.036999628,0.047716018,0.054893788,0.026256442,-0.045955714,-0.09447874,-1.3091336,0.6817925,-1.294641,-2.3623545,-2.1613047,3.426254,1.203933,-1.302859,5.3864384,10.785236,-10.079668,0.89214015,7.6916366,-6.750617,3.1481779,-0.8361015,5.9524913
374ff25490a1f0aba47f,0.15622585,1.9353758,0.06969308,-0.10914592,0.1922737,0.15845223,0.033475433,0.18613859,0.026661966,0.059048936,-0.07097045,-0.17803715,0.075360134,-0.25858414,0.18973656,-4.45872,0.33075142,0.03219986,0.08834491,0.026454477,0.036957644,0.117196575,0.07668018,11.7335205,1.7547586,1.0448744,-0.48208806,0.04165542,0.47376356,-0.12302581,-0.14358237,9.036403
37905cfdcd105683aaf4,-0.110582605,2.665508,0.035588887,0.11845633,0.18763956,0.10742583,0.14620784,0.32590708,-0.46921983,0.04244698,-0.25644806,-0.2739349,-0.055133063,-0.25289908,1.1625863,-5.333539,1.0554601,-3.8519948,-2.2902415,-4.010238,2.2263057,1.4318662,-1.7379302,28.091007,14.296387,-7.011644,0.16313289,12.7462435,-11.995975,3.96872,-0.4093252,21.371246
37ae91c472189108a737,0.059655532,0.98822093,0.07161805,0.031295914,0.08893968,0.109266415,-0.08064816,0.13808024,0.18542548,0.17081966,-0.056471605,-0.06865045,-0.06312474,-0.08755734,0.019002391,-2.6071389,0.47601792,-1.0014594,-1.3593006,-1.2407036,1.799666,0.62010854,-0.37837893,3.990548,5.355378,-4.0503993,0.20957308,4.8171716,-4.2585444,1.8002841,-0.55479026,3.3142178
37f3b3d773c5c073bc9a,0.028641876,0.35195208,0.0031348548,-0.05281261,0.02524026,0.076016925,-0.040337384,0.011836456,0.16230913,0.07156769,-0.009284382,-0.042458255,-0.023285208,-0.0559198,-0.25835148,-1.683996,0.8921756,0.7369201,-2.641206,-3.6165614,2.576955,1.2648263,-0.7808059,7.4916697,5.723868,-4.675346,-0.040228177,5.524323,-3.900447,3.9078598,-0.7270574,5.2269115
38357be0ab369a9ae942,0.28003263,-0.31309095,0.012609311,-0.12092463,0.0197604,0.016899372,0.034109224,-0.06036864,0.41922635,-0.031658713,0.11743719,-0.052211683,0.049195144,-0.084281385,-0.8181876,-0.93627274,0.26221243,-1.3958393,-1.1760659,-0.99788296,1.5923386,-0.18753031,0.14330855,10.165862,3.3312078,-1.7186178,0.24223503,2.2157478,-2.917919,1.4933391,-0.3975411,7.1102138
388090578f22a3c33738,0.058739644,0.10616843,0.04803934,0.011606577,-0.029509071,-0.046040583,0.0029580086,0.0012366975,0.06882025,-0.018696086,0.0100986855,0.013929199,-0.00983895,-0.006438276,-0.094794795,-1.1514823,1.4109645,0.89160144,-3.5876396,-4.619192,4.060186,1.747585,-1.2560469,9.099823,8.439447,-6.404588,-0.10609188,6.3166027,-5.04203,5.159241,-1.2060858,6.179475
390d1fc3b78420815190,-0.20849289,1.0736405,0.048591692,0.10261482,0.04081015,0.05474877,-0.10197991,0.10896799,-0.18795227,0.14396697,-0.10546958,-0.06691541,-0.0832645,0.040201962,0.50086,-2.4376416,-0.83056945,-3.659358,2.1271122,1.7064188,-1.4202671,-0.38491955,0.33181244,10.058522,0.08406997,1.2363487,1.0921751,-3.945504,5.078799,-0.627882,0.9933089,8.969086
3919286d3d8c4f4d339c,-0.12550518,2.581818,0.04962947,0.0895865,0.17732023,0.17632931,-0.08104851,0.270155,-0.26770997,0.21965007,-0.21284787,-0.23788828,-0.09905809,-0.16828145,0.86860365,-5.200959,0.11841415,0.23244902,-0.445837,-0.10407404,0.6631803,0.084130995,-0.16208816,14.266796,2.1536434,-1.2118956,-0.1075969,-0.08205259,-0.13228902,0.26530567,-0.11536624,9.68593
3a9d955e2ef47191a742,-0.04874286,1.6626365,0.14858659,0.09975299,0.11961031,0.1600323,-0.22243926,0.2596685,0.12900603,0.29271284,-0.09178829,-0.10952394,-0.15787339,-0.10989365,0.33272398,-3.6921196,0.113148466,-0.1563638,0.47786245,0.69519424,-0.59031653,0.25372732,-0.19701965,8.907314,1.5690628,-0.64768696,-0.007937675,0.69151235,0.1760695,-0.61885834,-0.018743448,7.2231655
3ab864e1e692786fefd2,0.049916167,1.8431536,0.13303794,0.00082655455,0.13503048,0.16877596,-0.017836941,0.20525272,0.02211368,0.06685232,-0.08041278,-0.20480569,0.010071318,-0.2292053,0.3331991,-4.106417,-0.009451851,0.5391102,-0.6995461,-0.67307496,0.6417284,-0.015700888,0.15351367,9.958557,0.8675736,-0.46443906,-0.2433167,0.51931,-0.47186464,0.6104976,0.007040023,6.072616
3ac65fbc295f5fbd2ff7,-0.088366985,0.33179426,-0.015368141,0.0024012867,-0.040463,-0.02605946,-0.0057262285,0.014320921,-0.123140186,-0.0027372455,0.0039061948,0.00556513,-0.037004918,0.0009521268,0.27188888,-1.2924957,0.24212316,-0.98330116,0.72824115,1.2175503,-0.28810126,0.36392823,-0.28734928,11.566419,2.655201,-0.09849048,-0.04744135,0.61687,-0.41364685,-0.57344794,-0.2606201,7.8852534
3b3b2319b0995f149ecc,-0.33479136,4.215197,0.38641176,0.2537764,0.17670505,0.18006955,-0.2915242,0.6258976,-0.5104149,0.40784177,-0.35449323,-0.19013818,-0.2167968,-0.24670309,2.1135464,-7.1557455,-0.2773374,-0.43533096,0.8437335,1.4630141,-0.65926933,-0.25767714,0.3099159,17.183992,0.33010727,0.4168969,-0.25527862,-0.31571758,1.2671645,-0.97597873,0.30890557,12.695485
3b6f3bb370f3107e257d,0.08470191,1.0901096,0.175699,0.028671017,0.06221766,0.021532407,-0.05156531,0.20015721,0.005229146,0.11147927,-0.04756844,-0.006305497,-0.027584521,-0.103958406,0.3624699,-2.6358993,1.3246493,-3.0141752,-2.1207378,-2.4183416,2.9215176,1.8699188,-1.7149199,8.962159,12.044069,-7.9856257,0.59160626,9.83456,-8.025326,3.8322706,-1.231092,7.6791854
3ba42ec5350aacb0750a,-0.045994315,0.4137864,0.017733535,0.012017333,-0.034303255,-0.05982754,-0.020468509,-0.013338387,-0.06682686,-0.022990456,0.005105523,0.026304582,-0.017014742,0.002282152,0.30774426,-1.4136021,0.1565769,-0.46433198,1.3192183,2.2082405,-0.94363034,-0.12186955,0.15226898,15.56174,-0.1316657,2.226752,-0.4394531,-2.5601797,2.9253309,-1.7446861,-0.050998818,11.647341
3bf7b3c9aa7d93ecb603,-0.05591601,1.9534823,0.06859177,0.01170639,0.14815076,0.22696269,-0.081179895,0.23309164,0.06898639,0.17321481,-0.10131521,-0.3363621,-0.06938018,-0.23318957,0.22384462,-4.4449844,-0.19351815,-1.1177388,0.78524125,1.2921221,-0.7287798,-0.19897674,0.09102309,13.743521,0.9600069,-0.19405031,0.014165344,0.6650019,-0.052452207,-0.9330768,0.24096932,10.2665825
3c1b9222136b752563f6,0.03508886,0.39979753,0.036645696,-0.008870602,0.015089818,-0.018451244,0.025350371,0.03664257,0.04709668,0.023610279,-0.028120367,0.031999324,0.03151877,-0.019282166,0.049117137,-1.4680301,0.7531881,-3.124668,-0.51928616,-0.9342359,0.2984538,0.8463954,-1.031257,2.2910042,6.3934884,-4.52855,1.0210439,7.2406826,-7.0083385,1.3852004,-0.63969594,2.9914403
3c37e3ad275dcdd39e2c,-0.023796326,0.12296747,-0.044433862,0.002986721,-0.048985694,-0.010793162,-0.04209932,-0.034387063,0.050470114,-0.009637637,0.04125839,-0.0011590306,-0.059895694,0.013587811,0.020961206,-1.1071337,-0.07502855,-0.43625683,-0.091447204,0.14204423,0.16103609,-0.039776742,-0.008403778,13.768965,1.5142599,-0.74942714,-0.1895175,0.8813793,-0.16460705,0.031588078,0.16632365,9.689529
3c71b62d597098c4cd18,0.112231344,0.36556172,0.03555876,-0.02012214,0.033736844,0.041377116,-0.04234851,0.06611645,0.1675462,0.06640652,0.021542888,-0.011278041,-0.035794303,-0.07269942,-0.1629891,-1.6321105,0.57984143,-0.27309194,-1.0645643,-1.269406,0.9896698,0.63410676,-0.45785803,6.3024163,3.563779,-2.069855,0.080158345,2.5239758,-1.793465,1.4712104,-0.51558584,4.738472
3c89c7f1db26ae691db8,0.43526083,-0.2994777,0.06113913,-0.17260556,0.07144741,0.047076803,0.021504562,-0.076577276,0.6847561,-0.028432539,0.17558233,-0.07128889,0.07896255,-0.110209905,-1.2190963,-1.2826986,0.055242248,2.81421,0.42420864,0.22156143,0.4206981,-0.050010677,0.7320596,13.098149,-5.433029,6.5087185,-0.6674078,-13.137893,12.811269,0.2823,0.087489374,7.0830297
3cic5ziycjx4ik4ll0v1,-0.0053444454,-0.56834924,-0.09945065,0.1611635,-0.1329722,-0.072628066,-0.14547502,-0.17712331,0.25911286,-0.0482836,0.12861018,0.07006109,-0.13331348,0.13459131,-0.73539495,-0.8366506,0.12975147,5.9337916,-0.85914606,-1.1064956,0.41575631,0.079018965,0.19214058,3.1820104,-14.16513,16.866638,-2.4318464,-38.212296,36.086426,1.0686704,-0.08818175,0.47863865
3d63ba961a5f3a60616a,0.029446622,0.34448698,0.045930263,-0.0038369186,-0.008272379,-0.044368953,0.024626637,0.032583512,0.009462636,0.0077745616,-0.019833995,0.036649927,0.023500284,-0.009239253,0.09615431,-1.3409833,0.30315873,-2.067668,-1.6169417,-1.2639697,1.8826984,0.49435145,-0.8160656,9.774016,7.3741446,-6.0214977,0.5879966,5.186584,-4.460701,1.7553003,-0.37957674,8.156871
3dba043eb6065ad3a343,-0.07016841,0.22090024,-0.016864248,-0.009265873,-0.040170427,-0.023774587,0.00044410204,0.00630989,-0.09236064,-0.008662923,0.015920857,0.0033297602,-0.032160826,-0.0010756962,0.16109242,-1.1658716,2.081139,66.57711,-30.20595,-32.13338,29.789267,9.576427,16.009491,-49.76466,-143.67903,167.08226,-39.79543,-360.08902,303.00192,30.93585,0.7021368,-55.21566
3dglsy7ee3ytfq1lpwlv,-0.0053248354,0.5320604,0.09450052,0.102955304,-0.009800782,0.011496833,-0.14478627,-0.039367303,0.17150296,-0.004486142,0.0032734629,-0.021564165,-0.09254223,0.098754145,0.009320446,-1.968292,-0.28405425,6.296554,-4.0873413,-4.0812807,4.370515,-0.557298,0.6015003,0.15501589,-14.095965,17.246744,-4.212044,-41.284176,37.059944,4.3364344,0.15618134,-0.70105535
3e4e608ace87fe97bdb5,0.105375886,-0.06984505,0.049029887,-0.035238057,-0.024165204,-0.06495271,0.023631709,-0.013043347,0.077298954,-0.013409518,0.036258258,0.052488334,0.038611304,0.0033332815,-0.19135182,-1.0293391,0.20962813,-1.260155,-1.3412075,-1.5545844,1.9951934,-0.05189758,0.19153292,13.655559,5.302178,-1.9913524,-0.3620186,3.8343425,-2.893361,1.7862434,-0.11846831,10.957337
3f34e3108d1108dab0fd,0.30221844,0.62669754,0.06981072,-0.13082731,0.11414673,0.17783515,0.03122282,0.08893225,0.4522862,0.013470965,0.093408845,-0.29948807,0.031286884,-0.26756096,-0.7890053,-2.769188,1.4619921,1.9696271,-3.5138013,-4.684153,3.7591548,2.0332603,-1.1632416,4.826562,8.104309,-6.7660685,0.05520957,6.7334895,-5.2430267,5.2900696,-1.3839241,3.5860167
3f55d44d7572d52b2987,-0.048654746,0.13760954,-0.0109485565,-0.09309074,0.06844166,0.10987047,0.011080747,-0.02574955,0.1168144,0.08406839,0.004970577,-0.10085658,0.03883715,-0.03177344,-0.5804659,-1.6497633,1.0324854,0.36840826,-3.25929,-3.8578541,3.7503712,1.4262424,-0.9040546,2.9032826,8.192836,-7.1921334,0.28802028,6.9782157,-5.7881036,4.539004,-1.0915693,2.537956
3f81bf9625e47ca1963f,-0.044968564,0.8721803,0.012396302,0.04799509,0.0107432,0.013672168,-0.08100397,0.061990663,-0.030762836,0.08669654,-0.039309133,-0.015724307,-0.08369466,-0.031677682,0.3632533,-2.174426,0.35266826,-0.7549934,-1.3325343,-1.2862383,1.5747588,0.38580185,-0.43951222,8.025065,4.400302,-3.3174825,0.118053906,2.9743726,-2.3787534,1.528995,-0.32370675,5.9835596
3fee5c27236cbb682727,0.16340423,0.34523752,0.007394285,-0.09955285,0.008879902,0.007466428,0.05161031,-0.010906583,0.13600896,-0.018191995,0.055444118,-0.020444537,0.04838557,-0.056700274,-0.21218157,-1.7554617,0.45344633,-0.16119392,-1.1169873,-1.0620391,1.6722276,0.57628065,-0.69051754,15.431579,4.9649363,-3.3026538,-0.15578169,2.26357,-2.041982,1.3582822,-0.29926503,10.643727
3ff069e95a9047dbfa8b,-0.04304497,0.26634434,0.06888731,-0.028101444,0.005831678,-0.008934509,0.0053303507,0.014203985,-0.14348942,0.020021088,0.00022271412,0.02951558,0.044543266,0.04525308,0.11749693,-1.312799,0.04292204,-1.9255292,-0.54699105,-0.4135613,0.38575035,-0.12359118,-0.2723921,10.870668,3.433269,-1.7808344,0.28445277,2.5380278,-2.8173342,0.33626512,-0.0006174259,7.7418222
3iz4t53ooerb6sruxf3n,-0.033681776,1.6439985,0.024125617,-0.006292189,0.2458494,0.18400972,0.06696783,0.2114528,-0.046638045,0.17061007,-0.17320783,-0.16124581,0.06279453,-0.16025715,0.15032089,-3.888162,0.18341069,5.0393214,-0.67882466,-1.29318,0.88226336,0.3094281,0.30621907,1.3046473,-14.676317,17.376713,-1.5218031,-43.580692,43.242977,1.4938598,-0.120867744,-1.3976712
3lbe8ny12qw7qwcyihpn,0.20140807,0.38862807,0.050334282,-0.06973199,0.11678139,-0.0029857352,0.0479231,0.012052747,0.08561077,0.028039591,0.04106415,0.081548676,0.13010019,-0.015910428,-0.17851405,-1.8528469,-0.16390795,7.030592,-4.542865,-5.1167674,4.375839,-0.39935958,0.92654294,0.9758537,-16.574038,20.116734,-4.528625,-47.212513,42.64112,4.343613,0.2668112,-0.6753625
3m4gx52iq3mwqdycm8mm,-0.37495536,0.50546604,-0.2476249,0.2730007,-0.05302754,0.079351075,-0.22459777,-0.03082587,-0.36751628,0.0774933,-0.00041616065,-0.011668411,-0.19770248,0.13456242,-0.14983252,-2.4322228,0.1883734,0.7511842,0.52357197,0.56262887,-1.0432714,0.38793245,-0.017947972,10.785127,-2.6027565,4.4130325,-0.21221682,-10.403594,10.934205,-0.63942826,-0.040612802,7.491633
3p34idi1traz2k8j0ulk,-0.08994921,2.3766446,0.092678584,0.03524277,0.21492293,0.17216267,-0.09274793,0.23790729,-0.25023854,0.18534422,-0.15839443,-0.13178353,0.00015109236,-0.18001056,0.83621097,-4.6879206,0.24489243,1.7562987,-1.5113772,-2.0147893,2.56044,-0.081850775,-0.7820274,2.8668897,-4.0676546,5.768303,0.012805569,-22.359705,24.17014,3.1180165,-0.45163125,1.2981831
